{"learner":{"attributes":{"best_iteration":"99","best_ntree_limit":"100","scikit_learn":"{\"use_label_encoder\": true, \"n_estimators\": 100, \"objective\": \"binary:logistic\", \"max_depth\": null, \"learning_rate\": null, \"verbosity\": null, \"booster\": null, \"tree_method\": null, \"gamma\": null, \"min_child_weight\": null, \"max_delta_step\": null, \"subsample\": null, \"colsample_bytree\": null, \"colsample_bylevel\": null, \"colsample_bynode\": null, \"reg_alpha\": null, \"reg_lambda\": null, \"scale_pos_weight\": null, \"base_score\": null, \"missing\": NaN, \"num_parallel_tree\": null, \"random_state\": null, \"n_jobs\": null, \"monotone_constraints\": null, \"interaction_constraints\": null, \"importance_type\": null, \"gpu_id\": null, \"validate_parameters\": null, \"predictor\": null, \"enable_categorical\": false, \"classes_\": [0, 1], \"n_classes_\": 2, \"_le\": {\"classes_\": [0, 1]}, \"_estimator_type\": \"classifier\"}"},"feature_names":[],"feature_types":[],"gradient_booster":{"model":{"gbtree_model_param":{"num_trees":"100","size_leaf_vector":"0"},"tree_info":[0,0,0,0,0,0,0,0,0,0,0,0,0,0,0,0,0,0,0,0,0,0,0,0,0,0,0,0,0,0,0,0,0,0,0,0,0,0,0,0,0,0,0,0,0,0,0,0,0,0,0,0,0,0,0,0,0,0,0,0,0,0,0,0,0,0,0,0,0,0,0,0,0,0,0,0,0,0,0,0,0,0,0,0,0,0,0,0,0,0,0,0,0,0,0,0,0,0,0,0],"trees":[{"base_weights":[1.4358131E0,1.5329342E0,4.9751244E-2,1.5980791E0,1.9402985E-1,-3.4749034E-1,7.482993E-1,1.6525081E0,2.511628E-1,5.7297295E-1,-6.2068963E-1,-5.6277055E-1,1.25E0,8.9855075E-1,-1.0769231E0,1.6791902E0,-4E-1,-4.6511628E-2,1.3191489E0,7.804878E-1,-8.8E-1,-9.189189E-1,8.235294E-1,-7.222222E-1,1.3684211E0,1.68E0,-1.8181819E-1,1.137931E0,-3.0769232E-1,1.6982318E0,-3.529412E-1,-9.787234E-1,6.666667E-1,-2.7027026E-1,1.1428572E0,1.6097561E0,-4E-1,9.281046E-1,-9.3333334E-1,-1.4E0,6.666667E-1,-1.2E0,7.692308E-1,1.3846154E0,-5E-1,-9.2783505E-1,9.230769E-1,1.2897196E0,-4.6153846E-1,7.692308E-1,-1.0588236E0,1.7578758E0,1.28E0,-9E-1,1.2E0,-1.3170732E0,8E-1,1.1304348E0,-1E0,-4.96E-1,8.148148E-1,1.5E0,-5E-1,1.7837838E0,-0E0,1.1212121E0,-2.4E-1,-1.2727273E0,-0E0,-1.6078432E0,2.2222222E-1,-0E0,1.1111112E0,-1.1529412E0,5.714286E-1,1.4E0,-4E-1,1.4583334E0,-1.3333334E-1,5E-1,-1.1111112E0,1.1111112E0,-0E0,-1.3846154E0,-0E0],"categories":[],"categories_nodes":[],"categories_segments":[],"categories_sizes":[],"default_left":[true,true,true,true,true,true,true,true,true,true,true,true,true,true,false,true,true,true,true,true,true,true,true,true,false,false,false,true,true,true,true,true,true,true,true,true,false,true,true,false,false,true,true,false,false,true,true,true,true,true,true,false,false,false,false,false,false,false,false,false,false,false,false,false,false,false,false,false,false,false,false,false,false,false,false,false,false,false,false,false,false,false,false,false,false],"id":0,"left_children":[1,3,5,7,9,11,13,15,17,19,21,23,25,27,-1,29,31,33,35,37,39,41,43,45,-1,-1,-1,47,49,51,53,55,57,59,61,63,-1,65,67,-1,-1,69,71,-1,-1,73,75,77,79,81,83,-1,-1,-1,-1,-1,-1,-1,-1,-1,-1,-1,-1,-1,-1,-1,-1,-1,-1,-1,-1,-1,-1,-1,-1,-1,-1,-1,-1,-1,-1,-1,-1,-1,-1],"loss_changes":[2.0440503E2,1.2350293E2,2.8148008E1,9.881201E1,2.1040707E1,2.297151E1,1.104607E1,7.190723E1,1.7149134E1,1.4631825E1,1.0124664E1,1.8771358E1,5.2309093E0,1.0312035E1,0E0,5.0293457E1,1.1455319E1,1.1752537E1,6.514168E0,1.123877E1,5.96E0,9.701454E0,3.8484163E0,1.9124372E1,0E0,0E0,0E0,7.63591E0,6.0723977E0,2.9492432E1,1.1911765E1,8.125168E0,6.347826E0,9.466779E0,4.8571424E0,2.8714561E0,0E0,8.897137E0,1.1878788E0,0E0,0E0,9.783007E0,8.547008E-1,0E0,0E0,1.7027252E1,4.661538E0,6.6130066E0,2.58547E0,8.547008E-1,1.4660635E0,0E0,0E0,0E0,0E0,0E0,0E0,0E0,0E0,0E0,0E0,0E0,0E0,0E0,0E0,0E0,0E0,0E0,0E0,0E0,0E0,0E0,0E0,0E0,0E0,0E0,0E0,0E0,0E0,0E0,0E0,0E0,0E0,0E0,0E0],"parents":[2147483647,0,0,1,1,2,2,3,3,4,4,5,5,6,6,7,7,8,8,9,9,10,10,11,11,12,12,13,13,15,15,16,16,17,17,18,18,19,19,20,20,21,21,22,22,23,23,27,27,28,28,29,29,30,30,31,31,32,32,33,33,34,34,35,35,37,37,38,38,41,41,42,42,45,45,46,46,47,47,48,48,49,49,50,50],"right_children":[2,4,6,8,10,12,14,16,18,20,22,24,26,28,-1,30,32,34,36,38,40,42,44,46,-1,-1,-1,48,50,52,54,56,58,60,62,64,-1,66,68,-1,-1,70,72,-1,-1,74,76,78,80,82,84,-1,-1,-1,-1,-1,-1,-1,-1,-1,-1,-1,-1,-1,-1,-1,-1,-1,-1,-1,-1,-1,-1,-1,-1,-1,-1,-1,-1,-1,-1,-1,-1,-1,-1],"split_conditions":[1.4568856E-1,1.4610325E-1,4.4333555E-2,1.7727923E-1,2.7964616E-1,5.5663735E-2,4.0845267E-2,2.3254544E-1,5.5457134E-2,8.3890095E-2,2.835944E-2,7.708294E-2,2.9436639E-2,5.046603E-2,-3.2307696E-1,2.7176628E-1,4.6786714E-2,1.5539158E-2,3.2032084E-1,7.145614E-2,5.6206204E-2,5.266071E-2,2.316005E-2,5.6136366E-2,4.1052634E-1,5.04E-1,-5.454546E-2,3.2337415E-1,1.8958929E-1,3.0335639E-2,4.1893803E-2,6.032241E-2,1.3015617E-1,5.1643632E-2,5.285658E-2,5.5993743E-2,-1.20000005E-1,5.794915E-2,2.3293141E-2,-4.2000002E-1,2.0000002E-1,1.7989958E-2,2.735618E-2,4.1538465E-1,-1.5E-1,1.16393894E-1,2.1263529E-2,5.2737154E-2,5.6337938E-2,2.4916962E-2,4.8617713E-2,5.2736276E-1,3.84E-1,-2.7E-1,3.6E-1,-3.95122E-1,2.4000001E-1,3.3913043E-1,-3E-1,-1.488E-1,2.4444444E-1,4.5000002E-1,-1.5E-1,5.3513515E-1,-0E0,3.3636364E-1,-7.2000004E-2,-3.818182E-1,-0E0,-4.8235297E-1,6.666667E-2,-0E0,3.3333337E-1,-3.458824E-1,1.7142859E-1,4.2000002E-1,-1.20000005E-1,4.3750003E-1,-4.0000003E-2,1.5E-1,-3.3333337E-1,3.3333337E-1,-0E0,-4.1538465E-1,-0E0],"split_indices":[294,291,173,293,291,275,398,290,173,30,287,284,419,225,0,178,553,44,293,308,177,266,464,277,0,0,0,291,294,294,143,364,235,275,267,270,0,349,72,0,0,372,106,0,0,293,340,245,76,28,12,0,0,0,0,0,0,0,0,0,0,0,0,0,0,0,0,0,0,0,0,0,0,0,0,0,0,0,0,0,0,0,0,0,0],"split_type":[0,0,0,0,0,0,0,0,0,0,0,0,0,0,0,0,0,0,0,0,0,0,0,0,0,0,0,0,0,0,0,0,0,0,0,0,0,0,0,0,0,0,0,0,0,0,0,0,0,0,0,0,0,0,0,0,0,0,0,0,0,0,0,0,0,0,0,0,0,0,0,0,0,0,0,0,0,0,0,0,0,0,0,0,0],"sum_hessian":[1.518E3,1.4185E3,9.95E1,1.3525E3,6.6E1,6.375E1,3.575E1,1.29975E3,5.275E1,4.525E1,2.075E1,5.675E1,7E0,3.35E1,2.25E0,1.28325E3,1.65E1,4.2E1,1.075E1,4E1,5.25E0,1.75E1,3.25E0,5.3E1,3.75E0,5.25E0,1.75E0,2.8E1,5.5E0,1.2715E3,1.175E1,1.075E1,5.75E0,3.6E1,6E0,9.25E0,1.5E0,3.725E1,2.75E0,4E0,1.25E0,1.525E1,2.25E0,2.25E0,1E0,4.75E1,5.5E0,2.575E1,2.25E0,2.25E0,3.25E0,1.11E3,1.615E2,9E0,2.75E0,9.25E0,1.5E0,4.75E0,1E0,3.025E1,5.75E0,5E0,1E0,8.25E0,1E0,3.2E1,5.25E0,1.75E0,1E0,1.175E1,3.5E0,1E0,1.25E0,4.15E1,6E0,4E0,1.5E0,2.3E1,2.75E0,1E0,1.25E0,1.25E0,1E0,2.25E0,1E0],"tree_param":{"num_deleted":"0","num_feature":"618","num_nodes":"85","size_leaf_vector":"0"}},{"base_weights":[1.0772817E0,1.1557708E0,9.357335E-2,1.2189536E0,2.7748385E-1,-2.140741E-1,6.607358E-1,1.2686583E0,3.0820534E-1,6.833713E-2,1.2523042E0,-4.0617105E-1,9.027182E-1,9.872193E-1,1.7757034E-2,1.3098725E0,3.378026E-1,4.0869232E-2,1.0833884E0,-2.8111154E-1,6.846786E-1,1.4490514E0,-2.588888E-1,-5.906008E-1,7.211859E-1,1.2312741E0,-3.6491597E-1,1.1555641E0,-5.287573E-1,3.131887E-1,-1.3163521E0,1.3247077E0,-5.088E-1,7.254952E-2,1.3000966E0,-1.7028555E-1,1.0580431E0,1.3242884E0,-6.543112E-1,-5.599141E-1,8.028092E-1,1.1013997E0,-1.6312355E-1,1.5684886E0,9.5158845E-2,-7.534403E-1,7.1780586E-1,1.1018649E0,-9.3609643E-1,1.487099E0,-1.9675782E-2,1.3110774E0,-1.1333899E-1,5.4390764E-1,-9.589295E-1,1.3370001E0,-2.888159E-1,-1.0078694E0,8.4898907E-1,4.1036582E-1,-7.932305E-1,1.4503703E0,2.7075507E-2,4.661425E-2,-1.3808556E0,1.3550507E0,-4.2715585E-1,1.4873558E0,-2.795078E-1,-9.1290987E-1,2.4696961E-1,1.122256E0,-5.3624517E-1,1.3194444E0,-3.691199E-1,-9.432922E-1,6.906064E-1,-9.192087E-1,3.8679895E-1,1.0354637E0,-3.3867118E-1,1.4207078E0,-1.7225066E-1,1.4116429E0,-1.4691804E-1,-1.0747414E0,9.088681E-1,8.327753E-1,-7.881367E-1],"categories":[],"categories_nodes":[],"categories_segments":[],"categories_sizes":[],"default_left":[true,true,true,true,true,true,true,true,true,true,true,true,true,true,true,true,true,true,true,true,true,true,false,true,true,true,false,true,false,true,false,true,true,true,true,true,true,true,false,true,true,true,true,false,false,true,true,true,false,false,false,true,true,true,false,false,false,false,false,false,false,false,false,false,false,false,false,false,false,false,false,false,false,false,false,false,false,false,false,false,false,false,false,false,false,false,false,false,false],"id":1,"left_children":[1,3,5,7,9,11,13,15,17,19,21,23,25,27,29,31,33,35,37,39,41,43,-1,45,47,49,-1,51,-1,53,-1,55,57,59,61,63,65,67,-1,69,71,73,75,-1,-1,77,79,81,-1,-1,-1,83,85,87,-1,-1,-1,-1,-1,-1,-1,-1,-1,-1,-1,-1,-1,-1,-1,-1,-1,-1,-1,-1,-1,-1,-1,-1,-1,-1,-1,-1,-1,-1,-1,-1,-1,-1,-1],"loss_changes":[1.1049255E2,7.327429E1,1.8800491E1,5.5615356E1,1.8328712E1,1.5402263E1,7.9283676E0,4.4553833E1,1.34980545E1,1.6436838E1,5.1017056E0,1.3002731E1,4.862549E0,7.0131645E0,5.8377886E0,3.0967041E1,1.2942631E1,1.0839703E1,7.8649006E0,1.520932E1,9.923866E0,2.149765E0,0E0,1.1733845E1,6.6808815E0,2.7954836E0,0E0,4.6660557E0,0E0,4.066391E0,0E0,2.2480835E1,7.5012693E0,1.23455105E1,2.0607185E0,1.1081789E1,4.403372E0,4.342125E0,0E0,1.1458397E1,5.051935E0,6.4575176E0,7.285458E0,0E0,0E0,9.278563E0,2.473911E0,3.3895693E0,0E0,0E0,0E0,3.2092247E0,4.337605E0,4.835705E0,0E0,0E0,0E0,0E0,0E0,0E0,0E0,0E0,0E0,0E0,0E0,0E0,0E0,0E0,0E0,0E0,0E0,0E0,0E0,0E0,0E0,0E0,0E0,0E0,0E0,0E0,0E0,0E0,0E0,0E0,0E0,0E0,0E0,0E0,0E0],"parents":[2147483647,0,0,1,1,2,2,3,3,4,4,5,5,6,6,7,7,8,8,9,9,10,10,11,11,12,12,13,13,14,14,15,15,16,16,17,17,18,18,19,19,20,20,21,21,23,23,24,24,25,25,27,27,29,29,31,31,32,32,33,33,34,34,35,35,36,36,37,37,39,39,40,40,41,41,42,42,45,45,46,46,47,47,51,51,52,52,53,53],"right_children":[2,4,6,8,10,12,14,16,18,20,22,24,26,28,30,32,34,36,38,40,42,44,-1,46,48,50,-1,52,-1,54,-1,56,58,60,62,64,66,68,-1,70,72,74,76,-1,-1,78,80,82,-1,-1,-1,84,86,88,-1,-1,-1,-1,-1,-1,-1,-1,-1,-1,-1,-1,-1,-1,-1,-1,-1,-1,-1,-1,-1,-1,-1,-1,-1,-1,-1,-1,-1,-1,-1,-1,-1,-1,-1],"split_conditions":[1.3592193E-1,1.1612965E-1,4.931131E-2,1.4342707E-1,5.635605E-2,3.5539236E-2,2.4679607E-1,1.2073494E-1,5.235105E-2,4.0824108E-2,7.295571E-2,5.0509118E-2,4.4903457E-2,6.0865175E-2,6.75172E-2,2.7176628E-1,4.961881E-2,4.8699595E-2,6.894211E-2,4.6835743E-2,1.9543657E-2,5.6415625E-2,-7.766665E-2,5.6136366E-2,5.4134615E-2,3.816585E-1,-1.0947479E-1,5.6095965E-2,-1.5862718E-1,2.9789466E-2,-3.9490566E-1,2.4773702E-1,4.6145275E-2,2.579342E-1,6.531997E-2,5.4614555E-2,6.075938E-2,6.1466776E-2,-1.9629337E-1,5.6335703E-2,7.0206165E-2,5.7960227E-2,5.3918846E-2,4.705466E-1,2.8547654E-2,1.16393894E-1,2.2067782E-2,7.331868E-2,-2.8082895E-1,4.4612974E-1,-5.902735E-3,4.0767908E-1,3.890368E-2,5.307442E-2,-2.8767887E-1,4.0110007E-1,-8.664477E-2,-3.0236083E-1,2.5469673E-1,1.2310975E-1,-2.3796915E-1,4.351111E-1,8.122653E-3,1.3984275E-2,-4.142567E-1,4.065152E-1,-1.2814677E-1,4.4620678E-1,-8.3852336E-2,-2.7387297E-1,7.409088E-2,3.3667684E-1,-1.6087356E-1,3.9583334E-1,-1.10735975E-1,-2.8298768E-1,2.0718193E-1,-2.7576262E-1,1.16039686E-1,3.106391E-1,-1.01601355E-1,4.2621237E-1,-5.16752E-2,4.2349288E-1,-4.4075415E-2,-3.2242242E-1,2.7266043E-1,2.498326E-1,-2.3644103E-1],"split_indices":[294,291,173,293,275,275,294,290,167,372,53,284,490,461,531,178,277,275,416,277,358,520,0,277,81,294,0,557,0,393,0,175,143,290,307,486,264,77,0,172,500,223,358,0,0,293,43,463,0,0,0,291,167,115,0,0,0,0,0,0,0,0,0,0,0,0,0,0,0,0,0,0,0,0,0,0,0,0,0,0,0,0,0,0,0,0,0,0,0],"split_type":[0,0,0,0,0,0,0,0,0,0,0,0,0,0,0,0,0,0,0,0,0,0,0,0,0,0,0,0,0,0,0,0,0,0,0,0,0,0,0,0,0,0,0,0,0,0,0,0,0,0,0,0,0,0,0,0,0,0,0,0,0,0,0,0,0,0,0,0,0,0,0,0,0,0,0,0,0,0,0,0,0,0,0,0,0,0,0,0,0],"sum_hessian":[1.4314628E3,1.3255256E3,1.0593715E2,1.2362067E3,8.931905E1,6.908548E1,3.6851673E1,1.1718588E3,6.434788E1,7.4422E1,1.4897061E1,5.948918E1,9.596295E0,2.4086136E1,1.2765535E1,1.1217838E3,5.0074944E1,4.8629745E1,1.5718136E1,4.7841232E1,2.6580761E1,1.3217369E1,1.679692E0,5.153452E1,7.9546614E0,7.643796E0,1.9524989E0,2.1892752E1,2.193384E0,1.1077683E1,1.6878514E0,1.1129767E3,8.807107E0,4.0097572E1,9.977367E0,4.0959557E1,7.6701903E0,1.4013351E1,1.7047843E0,3.843782E1,9.403416E0,1.7620577E1,8.960184E0,1.2000234E1,1.2171352E0,4.620782E1,5.3267016E0,6.741314E0,1.2133472E0,6.1892834E0,1.4545126E0,1.9472963E1,2.41979E0,9.861569E0,1.2161138E0,1.1047318E3,8.244885E0,6.6284604E0,2.178646E0,2.9221668E1,1.0875905E1,8.799336E0,1.1780307E0,3.555127E1,5.4082847E0,6.4649677E0,1.2052227E0,1.2785933E1,1.2274188E0,2.6648308E1,1.1789512E1,7.722926E0,1.6804892E0,1.5434696E1,2.18588E0,4.6269794E0,4.3332043E0,4.0512012E1,5.6958046E0,4.110624E0,1.216078E0,5.299963E0,1.441351E0,1.8246218E1,1.2267444E0,1.2204983E0,1.1992917E0,8.412127E0,1.4494429E0],"tree_param":{"num_deleted":"0","num_feature":"618","num_nodes":"89","size_leaf_vector":"0"}},{"base_weights":[8.6924064E-1,9.994601E-1,3.9268085E-1,1.0327593E0,-2.2766688E-1,2.166873E-1,1.0447285E0,1.080554E0,1.1589155E-1,-4.8805526E-1,9.5256454E-1,-4.5333654E-2,7.1336E-1,1.1870179E0,-5.6150172E-2,1.1038146E0,-1.5228508E-1,2.5697073E-1,-1.0139056E0,-6.709747E-1,1.1682377E0,1.354563E0,-2.4978852E-1,-2.3268831E-1,8.781314E-1,8.191643E-1,-3.351941E-1,1.2495235E0,-2.7351958E-1,-5.1848966E-1,9.542011E-1,1.1147751E0,-1.3546628E0,-5.141897E-1,1.3640712E0,4.098516E-1,-1.0309038E0,-1.3465152E0,9.719492E-3,-9.657989E-1,6.1827904E-1,-4.0037644E-1,5.6194675E-1,1.0421538E0,-7.032848E-1,1.0106226E0,1.7116901E-1,3.990688E-1,-1.3406813E0,1.3150638E0,-1.9124903E-1,-1.0501785E0,9.2332834E-1,1.1207383E0,-1.3227843E0,-2.0957804E0,3.315947E-1,-8.014023E-1,8.568194E-1,5.9604603E-1,-8.0374026E-1,-1.3385003E0,1.9907856E-2,-1.1167657E0,6.321082E-1,1.1885065E0,-5.8696795E-1,-2.590877E-1,-1.5555753E0,-7.171329E-1,7.837652E-1,1.1748934E0,-3.2761845E-1,1.0827162E0,-6.571377E-1,-1.9437031E-1,1.1680199E0,8.8950056E-1,-7.0731467E-1,-1.5982409E0,-4.3129492E-1,1.349253E0,-8.090644E-2,-1.2935082E0,-1.3723633E-1],"categories":[],"categories_nodes":[],"categories_segments":[],"categories_sizes":[],"default_left":[true,true,true,true,true,true,true,true,true,true,true,true,true,true,true,true,true,true,true,true,false,false,false,true,true,true,true,true,false,true,false,true,true,true,false,true,true,false,false,true,true,true,true,true,false,true,true,true,true,true,false,true,false,false,false,false,false,false,false,false,false,false,false,false,false,false,false,false,false,false,false,false,false,false,false,false,false,false,false,false,false,false,false,false,false],"id":2,"left_children":[1,3,5,7,9,11,13,15,17,19,21,23,25,27,29,31,33,35,37,39,-1,-1,-1,41,43,45,47,49,-1,51,-1,53,55,57,-1,59,61,-1,-1,63,65,67,69,71,-1,73,75,77,79,81,-1,83,-1,-1,-1,-1,-1,-1,-1,-1,-1,-1,-1,-1,-1,-1,-1,-1,-1,-1,-1,-1,-1,-1,-1,-1,-1,-1,-1,-1,-1,-1,-1,-1,-1],"loss_changes":[7.881122E1,4.1168823E1,3.1394756E1,4.2621094E1,8.849953E0,2.8434612E1,9.199638E0,2.6751587E1,8.142429E0,7.7564125E0,2.8857684E0,2.5086273E1,8.643208E0,5.059387E0,4.05806E0,2.6030151E1,1.060422E1,9.235069E0,1.9508986E0,8.716314E0,0E0,0E0,0E0,1.6261446E1,7.078993E0,8.363781E0,6.163412E0,4.947914E0,0E0,5.47826E0,0E0,1.4658813E1,6.306489E0,6.7092094E0,0E0,9.6813545E0,1.6537209E0,0E0,0E0,4.9938526E0,3.8488908E0,1.5912224E1,6.6300783E0,4.4885483E0,0E0,7.0733223E0,6.3843102E0,3.4380236E0,1.1802292E-1,2.3856583E0,0E0,8.809347E-1,0E0,0E0,0E0,0E0,0E0,0E0,0E0,0E0,0E0,0E0,0E0,0E0,0E0,0E0,0E0,0E0,0E0,0E0,0E0,0E0,0E0,0E0,0E0,0E0,0E0,0E0,0E0,0E0,0E0,0E0,0E0,0E0,0E0],"parents":[2147483647,0,0,1,1,2,2,3,3,4,4,5,5,6,6,7,7,8,8,9,9,10,10,11,11,12,12,13,13,14,14,15,15,16,16,17,17,18,18,19,19,23,23,24,24,25,25,26,26,27,27,29,29,31,31,32,32,33,33,35,35,36,36,39,39,40,40,41,41,42,42,43,43,45,45,46,46,47,47,48,48,49,49,51,51],"right_children":[2,4,6,8,10,12,14,16,18,20,22,24,26,28,30,32,34,36,38,40,-1,-1,-1,42,44,46,48,50,-1,52,-1,54,56,58,-1,60,62,-1,-1,64,66,68,70,72,-1,74,76,78,80,82,-1,84,-1,-1,-1,-1,-1,-1,-1,-1,-1,-1,-1,-1,-1,-1,-1,-1,-1,-1,-1,-1,-1,-1,-1,-1,-1,-1,-1,-1,-1,-1,-1,-1,-1],"split_conditions":[2.0783637E-2,1.8744406E-1,4.123559E-2,1.4318708E-1,5.739747E-2,4.911533E-2,2.6336756E-1,1.8830279E-1,6.304513E-2,6.66953E-2,2.6479587E-2,4.8706584E-2,6.761191E-2,8.119988E-2,1.654798E-2,2.6507372E-1,1.0052542E-1,6.580239E-2,3.924197E-2,2.0863835E-2,3.5047132E-1,4.063689E-1,-7.493656E-2,5.0134733E-2,1.902202E-1,1.7466605E-1,4.2700775E-2,7.902585E-2,-8.2055874E-2,4.5398436E-2,2.8626034E-1,3.6620077E-1,4.6511836E-2,6.1808966E-2,4.0922138E-1,5.7866435E-2,3.335586E-2,-4.0395457E-1,2.9158476E-3,1.0664489E-1,4.914701E-2,7.545084E-2,5.3531542E-2,7.4059956E-2,-2.1098545E-1,1.1568058E-1,2.491674E-2,2.6016183E-2,5.3561326E-2,1.20083526E-1,-5.7374712E-2,1.1701504E-2,2.7699852E-1,3.362215E-1,-3.968353E-1,-6.287341E-1,9.9478416E-2,-2.4042068E-1,2.5704584E-1,1.7881382E-1,-2.4112208E-1,-4.0155008E-1,5.972357E-3,-3.3502972E-1,1.8963248E-1,3.5655195E-1,-1.7609039E-1,-7.772632E-2,-4.666726E-1,-2.1513988E-1,2.3512957E-1,3.52468E-1,-9.828554E-2,3.248149E-1,-1.9714132E-1,-5.8311097E-2,3.50406E-1,2.6685017E-1,-2.1219441E-1,-4.7947228E-1,-1.2938848E-1,4.0477595E-1,-2.4271933E-2,-3.8805246E-1,-4.11709E-2],"split_indices":[294,291,275,293,413,173,294,290,486,442,197,277,210,101,287,176,363,407,577,275,0,0,0,284,291,294,292,490,0,482,0,177,202,278,0,2,485,0,0,608,300,219,294,295,0,373,285,177,203,308,0,589,0,0,0,0,0,0,0,0,0,0,0,0,0,0,0,0,0,0,0,0,0,0,0,0,0,0,0,0,0,0,0,0,0],"split_type":[0,0,0,0,0,0,0,0,0,0,0,0,0,0,0,0,0,0,0,0,0,0,0,0,0,0,0,0,0,0,0,0,0,0,0,0,0,0,0,0,0,0,0,0,0,0,0,0,0,0,0,0,0,0,0,0,0,0,0,0,0,0,0,0,0,0,0,0,0,0,0,0,0,0,0,0,0,0,0,0,0,0,0,0,0],"sum_hessian":[1.275299E3,1.0007483E3,2.7455063E2,9.7446375E2,2.6284554E1,2.1724623E2,5.73044E1,9.2601373E2,4.845005E1,2.2014158E1,4.2703953E0,1.428134E2,7.4432846E1,5.067622E1,6.6281824E0,9.0896844E2,1.704529E1,4.3758434E1,4.6916184E0,2.0360462E1,1.653696E0,3.1054995E0,1.1648957E0,1.19347855E2,2.3465534E1,6.780932E1,6.623525E0,4.8735016E1,1.941203E0,4.881306E0,1.7468765E0,9.0547815E2,3.4902565E0,1.4294553E1,2.7507374E0,3.9724575E1,4.0338593E0,3.3029447E0,1.3886737E0,1.6775219E1,3.585242E0,9.896078E1,2.038708E1,2.1569386E1,1.8961499E0,5.191173E1,1.5897588E1,4.1766276E0,2.4468975E0,4.669799E1,2.0370255E0,3.7646663E0,1.11664E0,9.038073E2,1.6708517E0,2.2559137E0,1.2343427E0,1.2162167E1,2.132386E0,3.488173E1,4.8428454E0,2.908653E0,1.1252064E0,1.5602259E1,1.1729612E0,2.443202E0,1.1420399E0,8.926708E1,9.693695E0,2.6830032E0,1.7704075E1,1.979354E1,1.7758462E0,5.009695E1,1.8147827E0,1.2221172E1,3.6764162E0,3.0296772E0,1.1469504E0,1.3165315E0,1.130366E0,4.5614296E1,1.0836935E0,2.6432855E0,1.1213807E0],"tree_param":{"num_deleted":"0","num_feature":"618","num_nodes":"85","size_leaf_vector":"0"}},{"base_weights":[7.1557367E-1,8.3837616E-1,3.031118E-1,9.059352E-1,2.5344193E-1,1.6307172E-1,8.702885E-1,9.624226E-1,2.2841536E-1,1.0053441E-1,1.0072087E0,-1.7286288E-2,6.3642424E-1,1.0317483E0,1.4977826E-1,9.969937E-1,1.4453517E-1,9.7654834E-2,1.1664387E0,-1.2004122E-1,8.686657E-1,1.1630353E0,-4.9336946E-1,1.1711782E-1,-7.905536E-1,8.630565E-1,6.818915E-3,1.0893617E0,-4.371516E-1,4.7833207E-1,-1.135134E0,1.0133367E0,-2.1056001E-1,4.2646667E-1,-7.928984E-1,2.5021604E-1,-7.0198756E-1,9.4810314E-2,-8.02328E-1,1.1344888E0,-5.2133715E-1,1.2612801E0,-4.6980992E-2,-4.859656E-3,9.5014673E-1,-1.0251092E0,8.50987E-1,9.7859323E-1,-4.3947023E-1,-4.5507586E-1,1.04868E0,1.1465985E0,-4.2801306E-1,8.0567414E-1,-4.6896318E-1,1.0218037E0,-5.498188E-1,-6.925791E-1,9.3375015E-1,6.549693E-1,-6.564519E-1,-1.2201376E0,5.8366215E-1,4.1370437E-1,-5.793478E-1,-1.0059358E0,2.9532957E-1,3.4224725E-1,-6.444144E-1,-1.1132582E0,7.4627876E-1,1.2854769E0,-4.7911763E-2,3.3354363E-1,-1.108344E0,-1.0097744E-1,1.0083615E0,1.148926E0,-6.287639E-1,-1.3117019E0,7.218979E-1,1.0561303E0,-5.250417E-1,2.821567E-1,-1.0935565E0,-8.0576074E-1,1.0645927E0,1.2043524E0,-2.5725916E-1,1.1422838E0,-1.380657E-1],"categories":[],"categories_nodes":[],"categories_segments":[],"categories_sizes":[],"default_left":[true,true,true,true,true,true,true,true,true,true,true,true,true,true,true,true,true,true,false,true,true,true,false,true,true,true,true,true,false,true,false,true,true,true,true,true,true,true,true,true,true,false,false,true,true,true,false,true,true,true,false,true,false,true,false,false,false,false,false,false,false,false,false,false,false,false,false,false,false,false,false,false,false,false,false,false,false,false,false,false,false,false,false,false,false,false,false,false,false,false,false],"id":3,"left_children":[1,3,5,7,9,11,13,15,17,19,21,23,25,27,29,31,33,35,-1,37,39,41,-1,43,45,47,49,51,-1,53,-1,55,57,59,61,63,65,67,69,71,73,-1,-1,75,77,79,-1,81,83,85,-1,87,-1,89,-1,-1,-1,-1,-1,-1,-1,-1,-1,-1,-1,-1,-1,-1,-1,-1,-1,-1,-1,-1,-1,-1,-1,-1,-1,-1,-1,-1,-1,-1,-1,-1,-1,-1,-1,-1,-1],"loss_changes":[5.649005E1,3.3862366E1,2.0397041E1,2.9363464E1,1.0353962E1,1.782097E1,5.775425E0,2.0021606E1,7.343429E0,1.3069998E1,4.1250944E0,1.5893221E1,8.210533E0,3.985962E0,4.9762974E0,1.3713989E1,8.291411E0,6.8184333E0,0E0,8.920055E0,6.9444647E0,1.7302685E0,0E0,1.3253635E1,9.589931E0,6.800829E0,8.29683E0,3.9815483E0,0E0,3.1892774E0,0E0,9.497498E0,6.1419916E0,6.3155923E0,5.0098605E0,6.5413923E0,3.0213223E0,8.776628E0,7.838746E0,2.6945934E0,2.0986571E0,0E0,0E0,1.1275297E1,5.950921E0,1.1092714E1,0E0,5.124077E0,2.262292E0,7.229163E0,0E0,3.4722366E0,0E0,2.4151125E0,0E0,0E0,0E0,0E0,0E0,0E0,0E0,0E0,0E0,0E0,0E0,0E0,0E0,0E0,0E0,0E0,0E0,0E0,0E0,0E0,0E0,0E0,0E0,0E0,0E0,0E0,0E0,0E0,0E0,0E0,0E0,0E0,0E0,0E0,0E0,0E0,0E0],"parents":[2147483647,0,0,1,1,2,2,3,3,4,4,5,5,6,6,7,7,8,8,9,9,10,10,11,11,12,12,13,13,14,14,15,15,16,16,17,17,19,19,20,20,21,21,23,23,24,24,25,25,26,26,27,27,29,29,31,31,32,32,33,33,34,34,35,35,36,36,37,37,38,38,39,39,40,40,43,43,44,44,45,45,47,47,48,48,49,49,51,51,53,53],"right_children":[2,4,6,8,10,12,14,16,18,20,22,24,26,28,30,32,34,36,-1,38,40,42,-1,44,46,48,50,52,-1,54,-1,56,58,60,62,64,66,68,70,72,74,-1,-1,76,78,80,-1,82,84,86,-1,88,-1,90,-1,-1,-1,-1,-1,-1,-1,-1,-1,-1,-1,-1,-1,-1,-1,-1,-1,-1,-1,-1,-1,-1,-1,-1,-1,-1,-1,-1,-1,-1,-1,-1,-1,-1,-1,-1,-1],"split_conditions":[2.0783637E-2,7.385899E-2,4.123559E-2,7.473384E-2,7.77344E-2,4.9900897E-2,5.3262062E-2,1.2073494E-1,6.902662E-2,4.1188724E-2,6.794824E-2,6.286052E-2,9.068458E-2,8.159217E-2,2.0781195E-1,1.7820162E-1,2.1406505E-2,2.7964616E-1,3.4993163E-1,2.1447698E-2,5.804704E-2,5.811906E-2,-1.4801085E-1,5.2921843E-2,5.625219E-2,6.906939E-2,3.204058E-2,7.564624E-2,-1.3114549E-1,2.0915514E-1,-3.405402E-1,2.2310558E-1,1.9022197E-2,5.675672E-2,5.2134328E-2,6.838444E-2,4.6265937E-2,4.1328866E-2,4.9883127E-2,5.11698E-2,2.4908789E-2,3.7838402E-1,-1.4094298E-2,7.7696435E-2,8.720546E-2,5.6115992E-2,2.552961E-1,7.404688E-2,2.1647247E-2,4.763139E-2,3.1460398E-1,1.12695865E-1,-1.2840392E-1,9.420995E-2,-1.4068896E-1,3.0654114E-1,-1.6494565E-1,-2.0777373E-1,2.8012505E-1,1.964908E-1,-1.9693558E-1,-3.660413E-1,1.7509866E-1,1.2411132E-1,-1.7380434E-1,-3.0178076E-1,8.859888E-2,1.0267418E-1,-1.9332434E-1,-3.339775E-1,2.2388364E-1,3.856431E-1,-1.437353E-2,1.0006309E-1,-3.325032E-1,-3.0293234E-2,3.0250844E-1,3.446778E-1,-1.8862918E-1,-3.9351058E-1,2.1656938E-1,3.168391E-1,-1.5751252E-1,8.4647015E-2,-3.2806697E-1,-2.4172823E-1,3.1937784E-1,3.613057E-1,-7.717775E-2,3.4268516E-1,-4.141971E-2],"split_indices":[294,293,275,291,173,372,490,290,174,277,114,67,481,258,291,178,400,291,0,306,258,231,0,168,608,114,464,223,0,294,0,177,143,259,275,70,282,432,97,89,238,0,0,469,6,172,0,350,292,560,0,184,0,167,0,0,0,0,0,0,0,0,0,0,0,0,0,0,0,0,0,0,0,0,0,0,0,0,0,0,0,0,0,0,0,0,0,0,0,0,0],"split_type":[0,0,0,0,0,0,0,0,0,0,0,0,0,0,0,0,0,0,0,0,0,0,0,0,0,0,0,0,0,0,0,0,0,0,0,0,0,0,0,0,0,0,0,0,0,0,0,0,0,0,0,0,0,0,0,0,0,0,0,0,0,0,0,0,0,0,0,0,0,0,0,0,0,0,0,0,0,0,0,0,0,0,0,0,0,0,0,0,0,0,0],"sum_hessian":[1.11929E3,8.6170245E2,2.5758765E2,7.7198987E2,8.971255E1,2.076138E2,4.9973846E1,7.121913E2,5.9798584E1,7.552507E1,1.418748E1,1.5103104E2,5.658276E1,4.0472385E1,9.501461E0,6.830986E2,2.909272E1,5.345154E1,6.347042E0,5.933129E1,1.6193777E1,1.3056571E1,1.1309092E0,1.293899E2,2.1641138E1,4.1333572E1,1.5249191E1,3.9193512E1,1.2788727E0,8.066562E0,1.4348991E0,6.7413574E2,8.962838E0,2.2785185E1,6.3075347E0,4.5464592E1,7.9869533E0,4.577715E1,1.3554145E1,1.3748372E1,2.4454052E0,1.2036894E1,1.0196769E0,1.1373086E2,1.5659041E1,1.9264065E1,2.3770738E0,3.819435E1,3.1392195E0,1.0955451E1,4.2937403E0,3.800431E1,1.1892039E0,6.1060796E0,1.9604822E0,6.7084827E2,3.287452E0,6.5841513E0,2.378687E0,1.914141E1,3.643776E0,4.9002814E0,1.407253E0,3.8398426E1,7.0661645E0,6.1147456E0,1.8722074E0,3.469941E1,1.1077738E1,1.1521894E1,2.0322502E0,1.2114251E1,1.6341205E0,1.1713345E0,1.2740709E0,1.04699066E2,9.031789E0,1.4149943E1,1.5090976E0,1.676326E1,2.500804E0,3.660441E1,1.5899422E0,1.7629037E0,1.3763158E0,9.283038E0,1.6724128E0,3.6639107E1,1.3652005E0,4.3456936E0,1.760386E0],"tree_param":{"num_deleted":"0","num_feature":"618","num_nodes":"91","size_leaf_vector":"0"}},{"base_weights":[5.929704E-1,4.879447E-1,1.0017542E0,6.1422616E-1,1.302898E-1,1.0196629E0,-7.328655E-1,7.0182246E-1,1.2524158E-1,-8.3455585E-2,4.690922E-1,1.0400615E0,-4.44106E-1,7.6661325E-1,-1.342715E-1,-3.4654856E-2,8.188257E-1,-1.5734062E-1,1.0815378E0,5.0957406E-1,-1.2476368E0,1.0595509E0,-3.454325E-1,1.8776244E-1,-9.0759206E-1,8.2710385E-1,1.06635734E-1,-2.6323384E-1,1.0484909E0,-1.6330309E-1,9.826604E-1,1.0308574E0,-6.347297E-1,-2.817296E-1,5.4272836E-1,1.2659123E0,2.8419401E-2,6.509862E-1,4.6067286E-2,1.0755236E0,-2.7635247E-1,3.1590974E-1,-9.5043737E-1,8.4110016E-1,-8.5857093E-1,2.60596E-1,-1.8711878E0,-4.9489212E-1,5.1877755E-1,-3.6819178E-1,6.5758526E-1,1.1795479E0,-1.7523948E-2,1.1467049E0,-2.7621916E-1,-3.7139407E-1,8.2139456E-1,8.0703425E-1,-8.695216E-1,7.7565825E-1,-2.274353E-1,2.659916E-1,-8.465627E-1,1.0896723E0,-4.2087516E-1,1.989783E-1,-6.0069406E-1],"categories":[],"categories_nodes":[],"categories_segments":[],"categories_sizes":[],"default_left":[true,true,true,true,true,true,false,true,true,true,true,true,true,true,true,true,true,true,true,true,false,true,true,false,false,true,true,true,false,true,true,true,false,true,true,false,false,true,true,true,true,false,false,false,false,false,false,false,false,false,false,false,false,false,false,false,false,false,false,false,false,false,false,false,false,false,false],"id":4,"left_children":[1,3,5,7,9,11,-1,13,15,17,19,21,23,25,27,29,31,33,35,37,-1,39,41,-1,-1,43,45,47,-1,49,51,53,-1,55,57,-1,-1,59,61,63,65,-1,-1,-1,-1,-1,-1,-1,-1,-1,-1,-1,-1,-1,-1,-1,-1,-1,-1,-1,-1,-1,-1,-1,-1,-1,-1],"loss_changes":[4.1750153E1,3.536046E1,6.9649506E0,2.4740616E1,1.49593315E1,6.389679E0,0E0,2.6721298E1,9.929743E0,1.1117202E1,6.185112E0,5.661087E0,1.1747376E0,1.812381E1,5.796151E0,9.781627E0,5.821903E0,1.0643314E1,1.4614096E0,5.129841E0,0E0,4.4287415E0,1.690379E0,0E0,0E0,1.057785E1,1.2500197E1,6.3131633E0,0E0,1.1362606E1,1.6739044E0,2.590126E0,0E0,1.0487992E1,7.613531E0,0E0,0E0,6.7738495E0,4.049099E0,4.5138702E0,5.9487087E-1,0E0,0E0,0E0,0E0,0E0,0E0,0E0,0E0,0E0,0E0,0E0,0E0,0E0,0E0,0E0,0E0,0E0,0E0,0E0,0E0,0E0,0E0,0E0,0E0,0E0,0E0],"parents":[2147483647,0,0,1,1,2,2,3,3,4,4,5,5,7,7,8,8,9,9,10,10,11,11,12,12,13,13,14,14,15,15,16,16,17,17,18,18,19,19,21,21,22,22,25,25,26,26,27,27,29,29,30,30,31,31,33,33,34,34,37,37,38,38,39,39,40,40],"right_children":[2,4,6,8,10,12,-1,14,16,18,20,22,24,26,28,30,32,34,36,38,-1,40,42,-1,-1,44,46,48,-1,50,52,54,-1,56,58,-1,-1,60,62,64,66,-1,-1,-1,-1,-1,-1,-1,-1,-1,-1,-1,-1,-1,-1,-1,-1,-1,-1,-1,-1,-1,-1,-1,-1,-1,-1],"split_conditions":[5.0721582E-2,1.9501682E-2,1.6315992E-1,3.396537E-2,4.1101E-2,3.1840175E-1,-2.1985966E-1,1.4318708E-1,4.691986E-2,1.0934992E-1,1.5197195E-1,2.508665E-1,2.24248E-2,6.527973E-2,6.410842E-2,5.666949E-2,2.3625419E-2,3.949448E-2,2.8421374E-2,1.7743254E-1,-3.7429106E-1,1.2762128E-1,2.2429302E-2,5.6328733E-2,-2.7227762E-1,3.034372E-1,9.818789E-2,1.4871851E-2,3.1454727E-1,4.5723744E-2,2.5903083E-2,7.6653495E-2,-1.9041891E-1,1.0291663E-1,1.04659736E-1,3.797737E-1,8.52582E-3,1.2900202E-2,4.818427E-2,2.5234658E-1,2.6295751E-2,9.477293E-2,-2.8513122E-1,2.5233006E-1,-2.5757128E-1,7.817881E-2,-5.6135637E-1,-1.4846765E-1,1.5563327E-1,-1.1045754E-1,1.972756E-1,3.5386437E-1,-5.2571846E-3,3.440115E-1,-8.286575E-2,-1.11418225E-1,2.4641837E-1,2.4211028E-1,-2.608565E-1,2.3269749E-1,-6.823059E-2,7.9797484E-2,-2.539688E-1,3.269017E-1,-1.2626256E-1,5.9693493E-2,-1.8020822E-1],"split_indices":[277,294,614,291,173,291,0,293,275,285,542,294,500,290,91,267,137,228,203,294,0,561,421,0,0,500,402,241,0,397,41,603,0,284,588,0,0,123,447,230,230,0,0,0,0,0,0,0,0,0,0,0,0,0,0,0,0,0,0,0,0,0,0,0,0,0,0],"split_type":[0,0,0,0,0,0,0,0,0,0,0,0,0,0,0,0,0,0,0,0,0,0,0,0,0,0,0,0,0,0,0,0,0,0,0,0,0,0,0,0,0,0,0,0,0,0,0,0,0,0,0,0,0,0,0,0,0,0,0,0,0,0,0,0,0,0,0],"sum_hessian":[9.8283856E2,7.836858E2,1.9915276E2,5.786556E2,2.0503023E2,1.9752562E2,1.6271306E0,4.9037494E2,8.828062E1,1.2617928E2,7.8850945E1,1.9509627E2,2.4293463E0,4.5518475E2,3.519018E1,7.251362E1,1.5766998E1,1.19467476E2,6.711803E0,7.772138E1,1.1295608E0,1.9262196E2,2.4743152E0,1.2796695E0,1.1496769E0,4.167354E2,3.844935E1,3.243146E1,2.758718E0,6.5118324E1,7.3952947E0,1.4013619E1,1.7533792E0,1.0195039E2,1.7517082E1,5.5398536E0,1.1719493E0,5.92425E1,1.8478886E1,1.905387E2,2.0832667E0,1.4104095E0,1.0639057E0,4.1380063E2,2.9347894E0,3.6478024E1,1.9713277E0,2.5303009E1,7.128454E0,5.2552914E1,1.2565412E1,6.029124E0,1.366171E0,1.2985405E1,1.0282137E0,9.490003E1,7.0503674E0,1.5116535E1,2.400548E0,5.198184E1,7.2606616E0,1.5389313E1,3.0895734E0,1.8902325E2,1.5154378E0,1.0017269E0,1.0815399E0],"tree_param":{"num_deleted":"0","num_feature":"618","num_nodes":"67","size_leaf_vector":"0"}},{"base_weights":[4.8639935E-1,3.8927066E-1,8.7114877E-1,3.01194E-1,8.757942E-1,9.547719E-1,3.4573326E-1,2.0450976E-1,7.869728E-1,9.5867306E-1,2.3232915E-2,9.811363E-1,-6.187402E-1,5.23794E-1,-8.550204E-1,1.13289766E-1,7.905416E-1,8.6291945E-1,-3.1839877E-1,1.021489E0,2.573607E-2,5.25792E-1,-1.3253924E0,9.994034E-1,-5.479486E-1,3.9724022E-2,-9.575261E-1,6.6747284E-1,-7.85062E-1,3.1385984E-2,-1.4023509E0,2.1432433E-1,-2.9743108E-1,8.6328506E-1,-1.126703E0,9.1189355E-1,-6.0654527E-1,2.494627E-1,-1.1899066E0,1.0570059E0,-4.5355283E-2,4.457652E-1,-1.1319553E0,1.0313305E0,-9.906838E-1,-4.2750093E-1,-1.6102906E0,1.0270277E0,4.869432E-3,8.086626E-1,-9.398061E-1,3.0448514E-1,-3.21528E-1,-4.6498722E-1,8.1728905E-1,9.3394196E-1,-2.1977408E-1,9.5184857E-1,-5.908936E-1,1.2637408E-2,-1.05915E0,6.753186E-1,-6.9039094E-1,1.0754225E0,-2.6209825E-1,4.9107438E-1,-6.732523E-1,9.3911606E-1,-5.972948E-1,1.044433E0,-1.0869096E-1,4.2209238E-1,-8.169535E-1,9.287278E-1,-5.8972085E-1],"categories":[],"categories_nodes":[],"categories_segments":[],"categories_sizes":[],"default_left":[true,true,true,true,true,true,true,true,true,true,true,true,true,true,true,true,true,true,true,true,true,true,true,true,false,false,false,true,false,false,false,true,true,true,false,true,true,true,false,true,true,true,false,false,false,false,false,true,true,true,false,false,false,false,false,false,false,false,false,false,false,false,false,false,false,false,false,false,false,false,false,false,false,false,false],"id":5,"left_children":[1,3,5,7,9,11,13,15,17,19,21,23,25,27,29,31,33,35,37,39,41,43,45,47,-1,-1,-1,49,-1,-1,-1,51,53,55,-1,57,59,61,-1,63,65,67,-1,-1,-1,-1,-1,69,71,73,-1,-1,-1,-1,-1,-1,-1,-1,-1,-1,-1,-1,-1,-1,-1,-1,-1,-1,-1,-1,-1,-1,-1,-1,-1],"loss_changes":[3.2276794E1,2.9675041E1,7.3637695E0,2.7695126E1,7.507881E0,6.8505554E0,5.9236984E0,2.642545E1,8.510033E0,5.6642685E0,7.790896E0,4.692932E0,7.280998E-1,4.8349442E0,1.8329456E0,1.792236E1,1.0266674E1,7.1783524E0,3.7795095E0,3.4941864E0,3.9820945E0,7.416425E0,1.11139774E-1,4.0338287E0,0E0,0E0,0E0,5.570197E0,0E0,0E0,0E0,1.6812984E1,1.6327806E1,5.1617966E0,0E0,5.9358444E0,1.0137995E0,2.5024874E0,0E0,2.4212112E0,1.6405922E0,3.630505E0,0E0,0E0,0E0,0E0,0E0,2.940918E0,2.0516202E0,3.9094305E0,0E0,0E0,0E0,0E0,0E0,0E0,0E0,0E0,0E0,0E0,0E0,0E0,0E0,0E0,0E0,0E0,0E0,0E0,0E0,0E0,0E0,0E0,0E0,0E0,0E0],"parents":[2147483647,0,0,1,1,2,2,3,3,4,4,5,5,6,6,7,7,8,8,9,9,10,10,11,11,12,12,13,13,14,14,15,15,16,16,17,17,18,18,19,19,20,20,21,21,22,22,23,23,27,27,31,31,32,32,33,33,35,35,36,36,37,37,39,39,40,40,41,41,47,47,48,48,49,49],"right_children":[2,4,6,8,10,12,14,16,18,20,22,24,26,28,30,32,34,36,38,40,42,44,46,48,-1,-1,-1,50,-1,-1,-1,52,54,56,-1,58,60,62,-1,64,66,68,-1,-1,-1,-1,-1,70,72,74,-1,-1,-1,-1,-1,-1,-1,-1,-1,-1,-1,-1,-1,-1,-1,-1,-1,-1,-1,-1,-1,-1,-1,-1,-1],"split_conditions":[4.8045542E-2,5.4703064E-2,7.257044E-2,5.413984E-2,7.2204955E-2,2.654499E-1,5.846798E-2,5.181562E-2,1.3158861E-1,8.752478E-2,5.5050246E-2,2.0404747E-1,1.9695241E-2,5.991727E-2,6.26344E-2,5.4333363E-2,1.5143576E-1,1.490865E-1,1.753103E-2,8.363505E-2,7.404919E-2,7.6789245E-2,2.7866192E-2,1.187953E-1,-1.6438459E-1,1.1917207E-2,-2.8725785E-1,9.863612E-2,-2.3551862E-1,9.415796E-3,-4.207053E-1,1.0039601E-1,1.716061E-1,8.135607E-2,-3.380109E-1,1.1706507E-1,2.1390768E-2,5.6385614E-2,-3.5697198E-1,1.5948337E-1,2.8450118E-2,5.003921E-2,-3.395866E-1,3.0939916E-1,-2.9720515E-1,-1.2825029E-1,-4.830872E-1,1.3419664E-1,5.804462E-2,6.464217E-2,-2.8194183E-1,9.134555E-2,-9.64584E-2,-1.3949618E-1,2.4518673E-1,2.801826E-1,-6.593223E-2,2.855546E-1,-1.7726809E-1,3.7912226E-3,-3.17745E-1,2.0259559E-1,-2.0711729E-1,3.2262677E-1,-7.862948E-2,1.4732233E-1,-2.0197569E-1,2.8173482E-1,-1.7918845E-1,3.133299E-1,-3.260729E-2,1.2662771E-1,-2.4508606E-1,2.7861837E-1,-1.7691626E-1],"split_indices":[277,275,291,284,367,294,505,285,178,447,393,496,324,66,290,290,481,148,28,152,374,576,279,458,0,0,0,42,0,0,0,294,173,286,0,448,81,157,0,14,144,297,0,0,0,0,0,408,253,127,0,0,0,0,0,0,0,0,0,0,0,0,0,0,0,0,0,0,0,0,0,0,0,0,0],"split_type":[0,0,0,0,0,0,0,0,0,0,0,0,0,0,0,0,0,0,0,0,0,0,0,0,0,0,0,0,0,0,0,0,0,0,0,0,0,0,0,0,0,0,0,0,0,0,0,0,0,0,0,0,0,0,0,0,0,0,0,0,0,0,0,0,0,0,0,0,0,0,0,0,0,0,0],"sum_hessian":[8.717786E2,6.9766675E2,1.7411188E2,5.920969E2,1.05569824E2,1.4950073E2,2.4611143E1,4.9499866E2,9.709826E1,9.610303E1,9.466794E0,1.4740736E2,2.0933661E0,2.192382E1,2.6873224E0,4.2935916E2,6.563948E1,9.106107E1,6.0371847E0,8.995155E1,6.151481E0,7.3412414E0,2.1255527E0,1.4600948E2,1.3978888E0,1.011045E0,1.082321E0,2.0196766E1,1.7270535E0,1.385748E0,1.3015743E0,3.4497565E2,8.438351E1,6.3769676E1,1.8698024E0,8.849129E1,2.5697854E0,4.087553E0,1.9496313E0,8.706233E1,2.889214E0,4.9650383E0,1.1864429E0,5.745736E0,1.5955054E0,1.1142855E0,1.0112672E0,1.4203172E2,3.9777582E0,1.902262E1,1.1741478E0,2.9566052E2,4.9315132E1,7.386374E1,1.0519762E1,5.9993484E1,3.7761903E0,8.6556595E1,1.9346937E0,1.4956924E0,1.0740929E0,3.0066693E0,1.080884E0,8.604574E1,1.0165963E0,1.6756048E0,1.2136091E0,3.4383879E0,1.5266502E0,1.3996704E2,2.064669E0,2.9609423E0,1.0168158E0,1.7827782E1,1.1948371E0],"tree_param":{"num_deleted":"0","num_feature":"618","num_nodes":"75","size_leaf_vector":"0"}},{"base_weights":[3.90319E-1,3.0924037E-1,7.898409E-1,2.2572337E-1,7.5052476E-1,8.813251E-1,2.5201008E-1,1.4360718E-1,6.4082175E-1,7.9595995E-1,-4.633446E-1,9.02703E-1,-6.986799E-1,4.3519723E-1,-1.0122423E0,7.83335E-2,7.034328E-1,6.9820493E-1,-6.6812134E-1,8.473305E-1,-1.7126168E-1,-9.534891E-1,5.0580394E-1,9.9077797E-1,4.6438456E-1,7.007054E-1,-4.639068E-1,-2.435877E-2,4.6965736E-1,7.993614E-1,-7.5410783E-1,7.90626E-1,-1.5592837E-1,2.924983E-1,-1.4226782E0,8.845449E-1,-3.6327663E-1,4.6927506E-1,-1.3792248E0,1.0106294E0,-3.613112E-1,-1.0586817E0,6.241591E-1,8.9543194E-1,-2.2103347E-1,8.751974E-2,-1.2828736E0,-1.07818104E-1,5.2053714E-1,5.312617E-1,-6.8270034E-1,8.9207804E-1,-7.6563954E-1,1.7839034E-1,-1.2519492E0,8.3965564E-1,-3.6340454E-1,2.6857102E-1,-1.3238013E0,9.11402E-1,-7.449695E-1,-9.86762E-1,6.055467E-1,8.7042725E-1,-4.470201E-1,1.0310692E0,-2.682934E-1,8.249267E-1,-5.77531E-1,1.0669245E0,-1.9165647E-1,3.310206E-1,-7.51349E-1,7.428918E-1,-8.461421E-1],"categories":[],"categories_nodes":[],"categories_segments":[],"categories_sizes":[],"default_left":[true,true,true,true,true,true,true,true,true,true,true,true,false,true,false,true,true,true,true,true,true,false,false,true,true,true,true,true,true,true,true,true,true,false,false,true,true,true,false,true,false,false,true,true,true,true,false,false,false,false,false,false,false,false,false,false,false,false,false,false,false,false,false,false,false,false,false,false,false,false,false,false,false,false,false],"id":6,"left_children":[1,3,5,7,9,11,13,15,17,19,21,23,-1,25,-1,27,29,31,33,35,37,-1,-1,39,41,43,45,47,49,51,53,55,57,-1,-1,59,61,63,-1,65,-1,-1,67,69,71,73,-1,-1,-1,-1,-1,-1,-1,-1,-1,-1,-1,-1,-1,-1,-1,-1,-1,-1,-1,-1,-1,-1,-1,-1,-1,-1,-1,-1,-1],"loss_changes":[2.5258423E1,2.4011787E1,6.281349E0,1.8762346E1,6.103836E0,4.432686E0,5.2148504E0,1.6866474E1,7.306343E0,5.143669E0,2.5646858E0,3.8441238E0,0E0,4.7903833E0,0E0,1.6722519E1,7.3462334E0,7.048485E0,3.5586736E0,4.632637E0,5.2165756E0,0E0,0E0,2.8333664E0,5.6584573E0,2.8613653E0,2.3098073E0,1.5079435E1,6.50276E0,7.3194733E0,1.8448154E0,4.793564E0,5.0161557E0,0E0,0E0,4.7548294E0,2.749666E0,2.081874E0,0E0,2.652565E0,0E0,0E0,5.1125855E0,2.525323E0,1.2412307E0,2.9808333E0,0E0,0E0,0E0,0E0,0E0,0E0,0E0,0E0,0E0,0E0,0E0,0E0,0E0,0E0,0E0,0E0,0E0,0E0,0E0,0E0,0E0,0E0,0E0,0E0,0E0,0E0,0E0,0E0,0E0],"parents":[2147483647,0,0,1,1,2,2,3,3,4,4,5,5,6,6,7,7,8,8,9,9,10,10,11,11,13,13,15,15,16,16,17,17,18,18,19,19,20,20,23,23,24,24,25,25,26,26,27,27,28,28,29,29,30,30,31,31,32,32,35,35,36,36,37,37,39,39,42,42,43,43,44,44,45,45],"right_children":[2,4,6,8,10,12,14,16,18,20,22,24,-1,26,-1,28,30,32,34,36,38,-1,-1,40,42,44,46,48,50,52,54,56,58,-1,-1,60,62,64,-1,66,-1,-1,68,70,72,74,-1,-1,-1,-1,-1,-1,-1,-1,-1,-1,-1,-1,-1,-1,-1,-1,-1,-1,-1,-1,-1,-1,-1,-1,-1,-1,-1,-1,-1],"split_conditions":[5.156815E-2,4.8310146E-2,7.257044E-2,4.961769E-2,2.7524045E-1,1.9275105E-1,7.543345E-2,6.015746E-2,1.20783195E-1,1.10023E-1,5.4225165E-2,1.6153006E-2,-2.0960398E-1,4.928682E-2,-3.036727E-1,5.440122E-2,1.07501574E-1,7.191898E-2,7.9512894E-2,1.1220279E-1,6.768235E-2,-2.8604674E-1,1.5174119E-1,1.8686238E-1,4.8101682E-2,5.3735882E-2,2.2471432E-2,5.2889876E-2,1.856392E-1,7.990329E-2,4.1265436E-2,1.9034661E-1,2.2693736E-2,8.774949E-2,-4.268035E-1,3.6927858E-1,2.139039E-2,3.1677194E-2,-4.1376746E-1,9.799738E-2,-1.0839336E-1,-3.1760454E-1,6.119581E-2,5.3898852E-2,1.5383897E-2,4.7376536E-2,-3.848621E-1,-3.2345433E-2,1.5616114E-1,1.5937851E-1,-2.0481011E-1,2.6762342E-1,-2.2969188E-1,5.3517103E-2,-3.7558478E-1,2.518967E-1,-1.09021366E-1,8.057131E-2,-3.971404E-1,2.734206E-1,-2.2349085E-1,-2.960286E-1,1.8166402E-1,2.611282E-1,-1.3410604E-1,3.0932075E-1,-8.0488026E-2,2.4747801E-1,-1.732593E-1,3.2007736E-1,-5.7496943E-2,9.930618E-2,-2.254047E-1,2.2286755E-1,-2.5384265E-1],"split_indices":[277,275,291,284,291,502,344,285,574,367,16,60,0,269,0,173,463,349,284,282,119,0,0,104,60,88,570,167,175,181,157,178,321,0,0,178,408,156,0,112,0,0,434,542,376,294,0,0,0,0,0,0,0,0,0,0,0,0,0,0,0,0,0,0,0,0,0,0,0,0,0,0,0,0,0],"split_type":[0,0,0,0,0,0,0,0,0,0,0,0,0,0,0,0,0,0,0,0,0,0,0,0,0,0,0,0,0,0,0,0,0,0,0,0,0,0,0,0,0,0,0,0,0,0,0,0,0,0,0,0,0,0,0,0,0,0,0,0,0,0,0,0,0,0,0,0,0,0,0,0,0,0,0],"sum_hessian":[7.8629736E2,6.551216E2,1.3117578E2,5.5213635E2,1.02985214E2,1.1156078E2,1.9614996E1,4.620734E2,9.006299E1,9.960141E1,3.3838046E0,1.1049444E2,1.0663472E0,1.7705305E1,1.9096895E0,4.1484396E2,4.7229424E1,8.67275E1,3.3354857E0,9.469592E1,4.905487E0,2.2579896E0,1.1258149E0,9.095723E1,1.9537203E1,1.3839208E1,3.8660984E0,3.2935223E2,8.5491745E1,4.4736633E1,2.4927902E0,7.832656E1,8.400936E0,1.7367731E0,1.5987127E0,9.213306E1,2.56286E0,3.6052668E0,1.3002201E0,8.989001E1,1.0672269E0,1.3207668E0,1.8216436E1,1.1449027E1,2.3901803E0,2.8441858E0,1.0219125E0,2.8630264E2,4.30496E1,8.166497E1,3.82678E0,4.264043E1,2.0961995E0,1.0909754E0,1.4018149E0,7.539575E1,2.9308136E0,6.7261457E0,1.6747909E0,9.107272E1,1.0603342E0,1.5480793E0,1.0147808E0,2.5423079E0,1.0629592E0,8.866674E1,1.2232685E0,1.5877324E1,2.3391125E0,9.90502E0,1.5440071E0,1.355216E0,1.0349643E0,1.7912003E0,1.0529857E0],"tree_param":{"num_deleted":"0","num_feature":"618","num_nodes":"75","size_leaf_vector":"0"}},{"base_weights":[3.069183E-1,4.181939E-1,2.2256505E-2,5.1359355E-1,-4.2042825E-2,7.305552E-2,-8.0207354E-1,5.4232126E-1,-8.928588E-1,-1.43721E-1,8.8790923E-1,1.4404325E-1,-5.9132576E-1,-1.0928969E0,4.2082E-1,6.077418E-1,-3.4247812E-2,-1.2888865E0,7.442835E-1,-2.4350671E-1,8.899895E-1,1.0616844E0,-1.9078685E-1,7.222517E-2,8.132834E-1,-7.948254E-1,7.251284E-1,-1.2913408E0,3.242745E-1,6.905607E-1,-5.8832143E-2,6.350438E-1,-5.7572526E-1,8.648146E-2,-1.0626245E0,-1.7591628E0,6.485377E-1,-6.7924224E-2,-1.0021616E0,1.0659908E0,-9.9931054E-2,1.1623258E-1,-9.6951824E-1,1.0476105E0,-5.082407E-1,-1.0103874E0,2.5280592E-1,1.0164446E0,8.1688285E-2,-1.4811105E0,-1.4671382E-1,6.482964E-1,-1.345369E0,-1.1119694E0,4.2766538E-1,2.7106118E-1,-7.466125E-1,-1.4181062E0,1.1949033E-1,-2.2104874E0,9.012746E-2,-2.4370246E-1,5.422374E-1,-1.2606446E0,3.7570232E-1,2.0356387E-1,-4.358647E-1,-1.2178458E0,1.4455755E-1,1.236769E0,-5.2661985E-1,-1.0112699E0,1.9733576E-1,-1.1730359E0,4.1851062E-1,-5.4835266E-1,8.7546444E-1,-1.6264567E0,-3.262456E-1],"categories":[],"categories_nodes":[],"categories_segments":[],"categories_sizes":[],"default_left":[true,true,true,true,true,true,true,true,true,true,true,true,true,true,true,true,true,true,false,true,true,false,false,true,true,true,true,true,false,false,false,true,true,true,true,true,false,true,true,false,false,true,true,true,true,true,true,false,false,true,false,false,false,false,false,false,false,false,false,false,false,false,false,false,false,false,false,false,false,false,false,false,false,false,false,false,false,false,false],"id":7,"left_children":[1,3,5,7,9,11,13,15,17,19,21,23,25,27,29,31,33,35,-1,37,39,-1,-1,41,43,45,47,49,-1,-1,-1,51,53,55,57,59,-1,61,63,-1,-1,65,67,69,71,73,75,-1,-1,77,-1,-1,-1,-1,-1,-1,-1,-1,-1,-1,-1,-1,-1,-1,-1,-1,-1,-1,-1,-1,-1,-1,-1,-1,-1,-1,-1,-1,-1],"loss_changes":[2.296109E1,2.2910393E1,8.637149E0,1.7933922E1,8.678306E0,9.229363E0,4.718807E0,1.6008415E1,6.8092065E0,8.713964E0,1.8993907E0,8.399137E0,5.6429105E0,3.2176466E0,4.3171114E-1,1.2666977E1,5.5719476E0,8.093956E0,0E0,1.0043781E1,1.407455E0,0E0,0E0,7.4485435E0,5.7833624E0,4.0623026E0,4.8961234E-1,1.7225771E0,0E0,0E0,0E0,1.065155E1,5.376979E0,6.4187875E0,2.149795E0,5.5492954E0,0E0,6.8587294E0,5.528945E0,0E0,0E0,7.5343084E0,1.9999828E0,5.0374126E0,1.3449645E0,3.7866468E0,2.3140972E0,0E0,0E0,7.367916E-1,0E0,0E0,0E0,0E0,0E0,0E0,0E0,0E0,0E0,0E0,0E0,0E0,0E0,0E0,0E0,0E0,0E0,0E0,0E0,0E0,0E0,0E0,0E0,0E0,0E0,0E0,0E0,0E0,0E0],"parents":[2147483647,0,0,1,1,2,2,3,3,4,4,5,5,6,6,7,7,8,8,9,9,10,10,11,11,12,12,13,13,14,14,15,15,16,16,17,17,19,19,20,20,23,23,24,24,25,25,26,26,27,27,31,31,32,32,33,33,34,34,35,35,37,37,38,38,41,41,42,42,43,43,44,44,45,45,46,46,49,49],"right_children":[2,4,6,8,10,12,14,16,18,20,22,24,26,28,30,32,34,36,-1,38,40,-1,-1,42,44,46,48,50,-1,-1,-1,52,54,56,58,60,-1,62,64,-1,-1,66,68,70,72,74,76,-1,-1,78,-1,-1,-1,-1,-1,-1,-1,-1,-1,-1,-1,-1,-1,-1,-1,-1,-1,-1,-1,-1,-1,-1,-1,-1,-1,-1,-1,-1,-1],"split_conditions":[2.0783637E-2,5.8966298E-2,9.2413224E-2,1.728439E-1,7.433319E-2,3.267753E-1,2.2514476E-2,7.257044E-2,5.5165686E-2,6.809071E-2,3.1385005E-1,5.3901695E-2,9.439111E-2,5.6427427E-2,2.4200154E-2,1.7820162E-1,7.0322655E-2,5.0067365E-2,2.2328506E-1,5.511574E-2,6.579673E-2,3.1850532E-1,-5.7236057E-2,2.641492E-1,5.0905168E-2,1.4085288E-2,4.6496227E-2,5.1181756E-2,9.728236E-2,2.0716822E-1,-1.7649643E-2,1.8944904E-1,2.2928664E-2,5.493117E-2,4.9674936E-2,4.806006E-2,1.9456132E-1,5.2704718E-2,5.6726135E-2,3.1979725E-1,-2.9979317E-2,5.5625882E-2,1.0984066E-1,6.874214E-2,2.1819755E-2,1.9857947E-2,4.7263724E-1,3.0493337E-1,2.4506487E-2,2.093908E-2,-4.401415E-2,1.9448893E-1,-4.036107E-1,-3.335908E-1,1.2829962E-1,8.1318356E-2,-2.2398375E-1,-4.2543188E-1,3.58471E-2,-6.6314626E-1,2.7038239E-2,-7.311074E-2,1.6267122E-1,-3.7819338E-1,1.127107E-1,6.1069164E-2,-1.3075942E-1,-3.6535376E-1,4.3367267E-2,3.710307E-1,-1.5798596E-1,-3.03381E-1,5.920073E-2,-3.5191077E-1,1.2555319E-1,-1.6450581E-1,2.6263934E-1,-4.8793703E-1,-9.787369E-2],"split_indices":[294,293,67,175,168,294,608,291,10,411,293,355,176,172,163,178,336,143,0,599,4,0,0,290,50,228,290,69,0,0,0,63,198,349,290,120,0,173,575,0,0,297,173,499,378,532,294,0,0,78,0,0,0,0,0,0,0,0,0,0,0,0,0,0,0,0,0,0,0,0,0,0,0,0,0,0,0,0,0],"split_type":[0,0,0,0,0,0,0,0,0,0,0,0,0,0,0,0,0,0,0,0,0,0,0,0,0,0,0,0,0,0,0,0,0,0,0,0,0,0,0,0,0,0,0,0,0,0,0,0,0,0,0,0,0,0,0,0,0,0,0,0,0,0,0,0,0,0,0,0,0,0,0,0,0,0,0,0,0,0,0],"sum_hessian":[7.2416895E2,5.203088E2,2.038602E2,4.3087866E2,8.943011E1,1.928851E2,1.0975093E1,4.2285593E2,8.022713E0,8.1377945E1,8.052168E0,1.7497281E2,1.7912283E1,8.952378E0,2.0227146E0,3.7971722E2,4.313872E1,6.6313086E0,1.3914038E0,7.491109E1,6.466852E0,6.9485455E0,1.1036227E0,1.5901625E2,1.595657E1,1.5857277E1,2.0550056E0,7.9306536E0,1.0217248E0,1.0132082E0,1.0095066E0,3.7160782E2,8.109406E0,3.9426086E1,3.7126358E0,5.410108E0,1.2212007E0,6.171691E1,1.319418E1,5.425406E0,1.041446E0,1.5342345E2,5.5927963E0,1.37294E1,2.2271695E0,1.318074E1,2.676537E0,1.0155253E0,1.0394802E0,6.550644E0,1.3800098E0,3.6980576E2,1.8020434E0,5.214434E0,2.8949726E0,3.2827484E1,6.5986023E0,2.700819E0,1.0118166E0,4.1917763E0,1.2183319E0,4.8379974E1,1.3336936E1,1.1181617E1,2.0125628E0,1.3301439E2,2.0409056E1,4.497221E0,1.0955752E0,1.244802E1,1.2813797E0,1.0472771E0,1.1798924E0,1.1994494E1,1.1862457E0,1.2226812E0,1.4538558E0,5.455665E0,1.0949788E0],"tree_param":{"num_deleted":"0","num_feature":"618","num_nodes":"79","size_leaf_vector":"0"}},{"base_weights":[2.4145032E-1,1.7057797E-1,6.508646E-1,1.0292657E-1,5.869457E-1,7.1716756E-1,-7.936076E-2,3.0518616E-2,4.7059318E-1,7.2075576E-1,-1.8740904E-3,7.65072E-1,-6.26737E-1,3.7866142E-1,-9.076075E-1,5.2287843E-2,-1.7015383E0,5.5446815E-1,-6.226971E-1,8.3151287E-1,-1.5053953E-1,4.140388E-1,-9.6879005E-1,7.9352844E-1,-8.2746726E-1,4.999339E-2,-1.1776354E0,7.4015933E-1,-5.9885347E-1,-1.6557826E0,3.0148453E-1,-1.6441647E-2,5.065828E-1,-1.9212575E0,-4.4599935E-1,6.1871547E-1,-9.067368E-1,-9.2556286E-1,4.2506763E-1,8.7446725E-1,-7.543324E-1,3.5175058E-1,-1.2818745E0,7.880909E-1,-4.634243E-1,-1.6069269E0,2.3204733E-1,8.229446E-1,-6.3743687E-1,8.45322E-1,1.485463E-1,-7.101949E-2,6.3092417E-1,6.2575734E-1,-7.407703E-1,-2.2531376E0,-5.203732E-1,7.483275E-1,-1.1716453E-1,-1.6820495E0,4.6215567E-1,-1.2668078E0,2.075264E-1,9.252689E-1,-3.4987864E-1,8.95699E-1,-8.1893045E-1,9.605239E-1,-2.549171E-1,-8.078919E-1,2.8963217E-1,-2.0248716E0,-3.4962785E-1,8.4997225E-1,-4.2394924E-1],"categories":[],"categories_nodes":[],"categories_segments":[],"categories_sizes":[],"default_left":[true,true,true,true,true,true,true,true,true,true,true,true,true,true,true,true,true,true,true,true,true,true,true,true,false,false,false,true,false,false,false,true,true,true,false,true,true,true,false,true,false,true,false,true,true,true,false,true,false,false,false,false,false,false,false,false,false,false,false,false,false,false,false,false,false,false,false,false,false,false,false,false,false,false,false],"id":8,"left_children":[1,3,5,7,9,11,13,15,17,19,21,23,25,27,29,31,33,35,37,39,41,43,45,47,-1,-1,-1,49,-1,-1,-1,51,53,55,-1,57,59,61,-1,63,-1,65,-1,67,69,71,-1,73,-1,-1,-1,-1,-1,-1,-1,-1,-1,-1,-1,-1,-1,-1,-1,-1,-1,-1,-1,-1,-1,-1,-1,-1,-1,-1,-1],"loss_changes":[1.9242855E1,1.5993408E1,4.8050613E0,1.3069995E1,6.2609825E0,6.2739906E0,3.7820296E0,1.5611929E1,7.7543964E0,6.372566E0,6.7184114E0,4.6155243E0,1.4187323E0,2.7549345E0,3.6850877E0,1.2733424E1,5.6103516E-1,7.6553802E0,2.3697689E0,4.5826416E0,5.0810595E0,4.2002964E0,4.222852E0,4.1587296E0,0E0,0E0,0E0,1.9937968E-1,0E0,0E0,0E0,1.25862875E1,8.429334E0,7.2072315E-1,0E0,7.048567E0,4.585761E0,2.2527099E0,0E0,3.840126E0,0E0,4.826423E0,0E0,1.7848277E0,1.3032501E0,1.0823088E0,0E0,3.225998E0,0E0,0E0,0E0,0E0,0E0,0E0,0E0,0E0,0E0,0E0,0E0,0E0,0E0,0E0,0E0,0E0,0E0,0E0,0E0,0E0,0E0,0E0,0E0,0E0,0E0,0E0,0E0],"parents":[2147483647,0,0,1,1,2,2,3,3,4,4,5,5,6,6,7,7,8,8,9,9,10,10,11,11,12,12,13,13,14,14,15,15,16,16,17,17,18,18,19,19,20,20,21,21,22,22,23,23,27,27,31,31,32,32,33,33,35,35,36,36,37,37,39,39,41,41,43,43,44,44,45,45,47,47],"right_children":[2,4,6,8,10,12,14,16,18,20,22,24,26,28,30,32,34,36,38,40,42,44,46,48,-1,-1,-1,50,-1,-1,-1,52,54,56,-1,58,60,62,-1,64,-1,66,-1,68,70,72,-1,74,-1,-1,-1,-1,-1,-1,-1,-1,-1,-1,-1,-1,-1,-1,-1,-1,-1,-1,-1,-1,-1,-1,-1,-1,-1,-1,-1],"split_conditions":[5.156815E-2,4.8310146E-2,7.04582E-2,4.5070156E-2,4.3081284E-2,8.759916E-2,1.708902E-2,3.034372E-1,1.2120577E-1,7.2204955E-2,5.3429924E-2,1.4165878E-1,5.0420366E-2,6.642799E-2,6.4454764E-2,5.263552E-2,2.6495514E-2,1.6069236E-1,2.5391592E-2,1.6661832E-1,5.8168903E-2,5.4937594E-2,5.845718E-2,2.0404747E-1,-2.4824019E-1,1.4998017E-2,-3.5329065E-1,2.8585002E-2,-1.7965604E-1,-4.967348E-1,9.044536E-2,6.8476304E-2,7.8679904E-2,3.873216E-1,-1.337998E-1,1.0082115E-1,2.1722738E-2,2.1959737E-2,1.275203E-1,2.8069246E-1,-2.2629973E-1,7.6789245E-2,-3.8456237E-1,8.228454E-2,2.4745468E-2,2.4107967E-2,6.96142E-2,3.1840175E-1,-1.9123107E-1,2.535966E-1,4.456389E-2,-2.1305848E-2,1.8927726E-1,1.8772721E-1,-2.2223109E-1,-6.759413E-1,-1.5611197E-1,2.2449826E-1,-3.5149362E-2,-5.046149E-1,1.386467E-1,-3.8004234E-1,6.2257923E-2,2.7758068E-1,-1.0496359E-1,2.6870972E-1,-2.4567914E-1,2.881572E-1,-7.647513E-2,-2.4236758E-1,8.6889654E-2,-6.074615E-1,-1.0488836E-1,2.5499168E-1,-1.2718478E-1],"split_indices":[277,275,157,59,490,561,60,500,290,367,290,126,104,282,60,122,323,295,3,416,393,294,175,496,0,0,0,492,0,0,0,168,410,500,0,294,179,606,0,290,0,576,0,252,593,179,0,291,0,0,0,0,0,0,0,0,0,0,0,0,0,0,0,0,0,0,0,0,0,0,0,0,0,0,0],"split_type":[0,0,0,0,0,0,0,0,0,0,0,0,0,0,0,0,0,0,0,0,0,0,0,0,0,0,0,0,0,0,0,0,0,0,0,0,0,0,0,0,0,0,0,0,0,0,0,0,0,0,0,0,0,0,0,0,0,0,0,0,0,0,0,0,0,0,0,0,0,0,0,0,0,0,0],"sum_hessian":[6.660035E2,5.689339E2,9.706962E1,4.9048682E2,7.844706E1,8.900595E1,8.063674E0,4.1068906E2,7.979775E1,6.373837E1,1.4708693E1,8.635835E1,2.647593E0,5.5418406E0,2.5218337E0,4.065492E2,4.1398706E0,7.4569756E1,5.2279944E0,5.659039E1,7.147982E0,1.0684581E1,4.0241117E0,8.533525E1,1.0231001E0,1.596134E0,1.0514592E0,4.2229524E0,1.3188881E0,1.3296286E0,1.1922051E0,3.5396262E2,5.258658E1,3.0720394E0,1.0678314E0,7.19814E1,2.5883553E0,4.1461453E0,1.0818493E0,5.5534748E1,1.0556414E0,5.427406E0,1.720576E0,7.5625916E0,3.1219895E0,2.406893E0,1.6172187E0,8.403271E1,1.3025465E0,3.221474E0,1.0014784E0,3.2726224E2,2.6700392E1,4.8455387E1,4.131191E0,1.9917989E0,1.0802405E0,6.118742E1,1.0793981E1,1.5063965E0,1.0819589E0,3.0957935E0,1.0503516E0,5.3556797E1,1.9779507E0,3.8659916E0,1.5614144E0,6.5575595E0,1.0050317E0,2.0921626E0,1.0298268E0,1.3482286E0,1.0586643E0,8.256143E1,1.4712737E0],"tree_param":{"num_deleted":"0","num_feature":"618","num_nodes":"75","size_leaf_vector":"0"}},{"base_weights":[1.8423602E-1,1.2889163E-1,6.203168E-1,6.956321E-2,5.4472136E-1,7.344416E-1,-1.9166996E-1,3.7069082E-2,8.868294E-1,6.259709E-1,-7.440891E-1,7.9756683E-1,-6.2833625E-1,2.0720702E-1,-1.3863726E0,-1.0832546E-2,5.768793E-1,9.6688765E-1,-2.5517824E-1,6.834072E-1,-7.510876E-1,8.689642E-3,-1.5648007E0,8.6190665E-1,-4.770621E-1,1.5953794E-1,-1.0803015E0,5.6181014E-1,-8.105862E-1,1.6499804E-2,-1.1329799E0,6.752316E-1,-8.64028E-1,1.0201402E0,5.1571213E-2,7.427388E-1,-6.901219E-1,1.2939899E-1,-1.3040422E0,6.312223E-1,-6.391492E-1,9.230259E-1,-2.5137743E-1,5.9162146E-1,-1.2468963E0,9.27414E-1,-3.515552E-1,6.2332194E-2,-6.020127E-1,-1.6273018E0,4.6062848E-1,7.6024306E-1,-5.146049E-1,8.0811495E-1,-2.6663187E-1,-1.3157909E0,2.2257526E-1,1.0029975E0,1.2307677E-2,4.6027094E-1,-9.845562E-1],"categories":[],"categories_nodes":[],"categories_segments":[],"categories_sizes":[],"default_left":[true,true,true,true,true,true,true,true,true,true,true,true,true,true,false,true,true,true,false,true,true,true,false,true,true,false,false,true,false,true,true,true,false,false,false,true,true,false,false,false,false,true,true,false,false,false,false,false,false,false,false,false,false,false,false,false,false,false,false,false,false],"id":9,"left_children":[1,3,5,7,9,11,13,15,17,19,21,23,25,27,-1,29,31,33,-1,35,37,39,-1,41,43,-1,-1,45,-1,47,49,51,-1,-1,-1,53,55,-1,-1,-1,-1,57,59,-1,-1,-1,-1,-1,-1,-1,-1,-1,-1,-1,-1,-1,-1,-1,-1,-1,-1],"loss_changes":[1.5077688E1,1.3742497E1,6.6709156E0,1.2979193E1,7.753727E0,5.8339996E0,4.803359E0,1.2218535E1,1.9557562E0,5.7345085E0,2.8458395E0,5.306137E0,1.3487787E0,3.3335822E0,0E0,1.3353624E1,6.0412436E0,8.090191E-1,0E0,5.7195263E0,1.6875532E0,1.768854E0,0E0,4.122452E0,3.6268892E0,0E0,0E0,2.4982002E0,0E0,1.2097344E1,8.904762E0,4.0946064E0,0E0,0E0,0E0,4.288948E0,2.0996902E0,0E0,0E0,0E0,0E0,3.9507446E0,2.415808E0,0E0,0E0,0E0,0E0,0E0,0E0,0E0,0E0,0E0,0E0,0E0,0E0,0E0,0E0,0E0,0E0,0E0,0E0],"parents":[2147483647,0,0,1,1,2,2,3,3,4,4,5,5,6,6,7,7,8,8,9,9,10,10,11,11,12,12,13,13,15,15,16,16,17,17,19,19,20,20,21,21,23,23,24,24,27,27,29,29,30,30,31,31,35,35,36,36,41,41,42,42],"right_children":[2,4,6,8,10,12,14,16,18,20,22,24,26,28,-1,30,32,34,-1,36,38,40,-1,42,44,-1,-1,46,-1,48,50,52,-1,-1,-1,54,56,-1,-1,-1,-1,58,60,-1,-1,-1,-1,-1,-1,-1,-1,-1,-1,-1,-1,-1,-1,-1,-1,-1,-1],"split_conditions":[6.479168E-2,5.181562E-2,1.0205664E-1,1.4026035E-1,1.2519477E-1,1.2380225E-1,1.7385121E-2,1.452194E-1,1.3308264E-1,1.1568058E-1,5.4093815E-2,2.3424527E-1,2.588212E-2,6.458155E-2,-4.159118E-1,1.939588E-1,8.8932216E-2,9.994116E-2,-7.655348E-2,1.00169644E-1,5.2974857E-2,2.0885218E-2,-4.6944025E-1,8.771457E-2,4.4693574E-2,4.7861386E-2,-3.2409048E-1,4.7869056E-2,-2.4317588E-1,1.8890798E-1,1.7562263E-2,9.159857E-2,-2.592084E-1,3.0604208E-1,1.5471364E-2,1.14794105E-1,4.802508E-2,3.8819697E-2,-3.9121267E-1,1.893667E-1,-1.9174476E-1,1.5859392E-1,2.2259885E-2,1.7748645E-1,-3.740689E-1,2.782242E-1,-1.0546657E-1,1.8699659E-2,-1.8060382E-1,-4.8819056E-1,1.3818856E-1,2.2807293E-1,-1.5438148E-1,2.4243449E-1,-7.998957E-2,-3.9473727E-1,6.677258E-2,3.0089927E-1,3.6923033E-3,1.3808128E-1,-2.9536688E-1],"split_indices":[284,285,291,277,463,574,470,173,467,373,91,285,14,65,0,177,393,482,0,4,173,519,0,170,14,0,0,238,0,291,190,378,0,0,0,414,15,0,0,0,0,293,106,0,0,0,0,0,0,0,0,0,0,0,0,0,0,0,0,0,0],"split_type":[0,0,0,0,0,0,0,0,0,0,0,0,0,0,0,0,0,0,0,0,0,0,0,0,0,0,0,0,0,0,0,0,0,0,0,0,0,0,0,0,0,0,0,0,0,0,0,0,0,0,0,0,0,0,0,0,0,0,0,0,0],"sum_hessian":[6.270454E2,5.5757715E2,6.946831E1,4.889794E2,6.859775E1,6.0991455E1,8.476851E0,4.712866E2,1.7692783E1,6.501346E1,3.5842938E0,5.868773E1,2.3037262E0,6.9747453E0,1.5021058E0,4.3377432E2,3.7512287E1,1.6677017E1,1.0157667E0,6.2893906E1,2.1195478E0,2.385584E0,1.1987097E0,5.617592E1,2.5118105E0,1.0756484E0,1.2280778E0,5.5048466E0,1.4698985E0,4.2442188E2,9.352426E0,3.5612843E1,1.8994468E0,1.565188E1,1.0251373E0,6.0729843E1,2.1640654E0,1.1131041E0,1.0064437E0,1.2296329E0,1.1559511E0,5.341437E1,2.761547E0,1.1486918E0,1.3631188E0,3.9202566E0,1.5845901E0,3.959787E2,2.8443193E1,7.122082E0,2.2303438E0,3.3575024E1,2.037817E0,5.7222942E1,3.5069005E0,1.0218911E0,1.1421744E0,4.9009445E1,4.4049263E0,1.5902355E0,1.1713115E0],"tree_param":{"num_deleted":"0","num_feature":"618","num_nodes":"61","size_leaf_vector":"0"}},{"base_weights":[1.3944331E-1,1.05275564E-1,8.2927185E-1,5.7150085E-2,5.595027E-1,9.142531E-1,-6.361472E-1,8.8657506E-2,-8.3366483E-1,6.2945986E-1,-1.2938193E0,1.0184171E0,-2.1619457E-1,9.346338E-3,3.8701704E-1,-1.0416067E0,7.941174E-1,7.271904E-1,-4.1268384E-1,1.0396081E0,2.5717178E-1,9.8496094E-2,-4.376187E-1,-4.7135573E-2,5.152969E-1,4.2546037E-1,-1.5064428E0,-1.1957093E0,4.0746096E-1,8.1114084E-1,-6.2650174E-1,-8.4476215E-1,6.3068837E-1,-6.9181775E-3,-7.9379684E-1,6.1327654E-1,-8.4660614E-1,5.0646466E-1,-3.4540075E-1,-1.3967711E0,2.0753862E-1,8.860097E-1,-2.699993E-1,2.3613405E-1,-1.1478986E0,9.304249E-3,-1.1653169E0],"categories":[],"categories_nodes":[],"categories_segments":[],"categories_sizes":[],"default_left":[true,true,true,true,true,true,false,true,true,true,false,true,true,true,true,true,false,true,true,false,false,false,false,true,true,true,false,true,false,true,true,true,false,false,false,false,false,false,false,false,false,false,false,false,false,false,false],"id":10,"left_children":[1,3,5,7,9,11,-1,13,15,17,-1,19,21,23,25,27,-1,29,31,-1,-1,-1,-1,33,35,37,-1,39,-1,41,43,45,-1,-1,-1,-1,-1,-1,-1,-1,-1,-1,-1,-1,-1,-1,-1],"loss_changes":[1.3981341E1,1.2425254E1,4.071493E0,1.4567494E1,7.877859E0,3.387476E0,0E0,1.1819742E1,6.8306503E0,5.7154922E0,0E0,1.3276672E-1,2.5871307E-1,1.1333613E1,8.276861E0,4.0957966E0,0E0,6.0737343E0,2.8755505E0,0E0,0E0,0E0,0E0,1.0712434E1,5.8336134E0,6.6436977E0,0E0,4.4826775E0,0E0,4.007147E0,1.8111023E0,1.1339574E0,0E0,0E0,0E0,0E0,0E0,0E0,0E0,0E0,0E0,0E0,0E0,0E0,0E0,0E0,0E0],"parents":[2147483647,0,0,1,1,2,2,3,3,4,4,5,5,7,7,8,8,9,9,11,11,12,12,13,13,14,14,15,15,17,17,18,18,23,23,24,24,25,25,27,27,29,29,30,30,31,31],"right_children":[2,4,6,8,10,12,-1,14,16,18,-1,20,22,24,26,28,-1,30,32,-1,-1,-1,-1,34,36,38,-1,40,-1,42,44,46,-1,-1,-1,-1,-1,-1,-1,-1,-1,-1,-1,-1,-1,-1,-1],"split_conditions":[1.1370571E-1,5.7532106E-2,1.3469012E-1,1.7299438E-1,1.4696705E-1,7.0733994E-2,-1.9084416E-1,4.527207E-2,5.890058E-2,1.03944495E-1,-3.881458E-1,9.6299306E-2,1.8755673E-1,6.395906E-2,1.02308095E-1,5.3121433E-2,2.3823522E-1,8.7029114E-2,2.4521299E-2,3.1188244E-1,7.715154E-2,2.954883E-2,-1.3128562E-1,9.159219E-2,7.120332E-2,6.895317E-2,-4.5193285E-1,1.7246386E-1,1.2223829E-1,1.10987484E-1,4.9077526E-2,1.8648231E-2,1.8920653E-1,-2.0754533E-3,-2.3813906E-1,1.8398297E-1,-2.5398186E-1,1.519394E-1,-1.0362023E-1,-4.1903135E-1,6.226159E-2,2.6580292E-1,-8.099979E-2,7.084022E-2,-3.443696E-1,2.7912748E-3,-3.495951E-1],"split_indices":[275,384,261,175,282,475,0,524,10,120,0,460,275,496,430,35,0,470,547,0,0,0,0,67,567,92,0,167,0,575,543,45,0,0,0,0,0,0,0,0,0,0,0,0,0,0,0],"split_type":[0,0,0,0,0,0,0,0,0,0,0,0,0,0,0,0,0,0,0,0,0,0,0,0,0,0,0,0,0,0,0,0,0,0,0,0,0,0,0,0,0,0,0,0,0,0,0],"sum_hessian":[5.958906E2,5.688668E2,2.7023804E1,5.153872E2,5.347959E1,2.5898062E1,1.125742E0,4.9865082E2,1.6736408E1,5.217067E1,1.3089204E0,2.3803787E1,2.0942743E0,3.9474847E2,1.03902336E2,1.5159905E1,1.5765032E0,4.797397E1,4.196701E0,2.2803337E1,1.0004503E0,1.0942636E0,1.0000107E0,3.5592188E2,3.8826588E1,1.02594635E2,1.3077003E0,1.3860715E1,1.2991904E0,4.5549942E1,2.4240282E0,3.102328E0,1.0943731E0,3.386884E2,1.72335E1,3.673355E1,2.0930371E0,9.314924E1,9.445397E0,1.2127645E1,1.7330706E0,4.27687E1,2.781242E0,1.1192968E0,1.3047314E0,1.1116066E0,1.9907216E0],"tree_param":{"num_deleted":"0","num_feature":"618","num_nodes":"47","size_leaf_vector":"0"}},{"base_weights":[1.0461262E-1,1.2792464E-1,-7.6884454E-1,2.2209257E-1,-8.2007065E-2,-9.32187E-1,4.524772E-1,2.4587071E-1,-1.3723367E0,-1.4619587E-1,6.1814976E-1,-1.0754337E0,3.7429774E-1,3.2666224E-1,-1.2066245E-1,-1.693594E0,-7.894162E-2,-2.3421656E-1,3.9777434E-1,8.745326E-1,-5.8831173E-1,-1.2045679E0,1.9291852E-1,2.2404124E-1,6.894186E-1,3.0487673E-2,-1.0810105E0,-3.0762926E-1,3.183247E-1,5.712624E-1,-1.0545751E0,1.0847554E0,-6.509218E-2,2.740851E-1,-1.2293292E0,-1.3137797E0,-9.400247E-2,2.9320386E-1,-4.6666858E-1,8.1452423E-1,9.577505E-3,1.4582638E-1,-9.998501E-1,-1.4810791E0,7.0531803E-1,-2.2679512E-1,-9.4356227E-1,6.953114E-1,-4.932866E-1,7.5729316E-1,-7.07799E-1,1.184858E0,1.7905729E-1,5.9328663E-1,-6.9961387E-1,-1.387303E0,-3.3096704E-1],"categories":[],"categories_nodes":[],"categories_segments":[],"categories_sizes":[],"default_left":[true,true,true,true,true,true,false,true,true,true,true,true,false,true,true,false,false,true,true,true,true,true,false,true,true,true,true,true,true,true,false,true,true,false,false,true,false,false,false,false,false,false,false,false,false,false,false,false,false,false,false,false,false,false,false,false,false],"id":11,"left_children":[1,3,5,7,9,11,-1,13,15,17,19,21,-1,23,25,-1,-1,27,29,31,33,35,-1,37,39,41,43,45,47,49,-1,51,53,-1,-1,55,-1,-1,-1,-1,-1,-1,-1,-1,-1,-1,-1,-1,-1,-1,-1,-1,-1,-1,-1,-1,-1],"loss_changes":[1.1827541E1,1.1126615E1,3.4375248E0,1.5054361E1,7.9432907E0,2.959075E0,0E0,1.1390739E1,2.2995138E0,7.7956505E0,5.1125383E0,2.2910023E0,0E0,1.154813E1,1.018853E1,0E0,0E0,5.740027E0,6.3410993E0,2.5717487E0,2.1076794E0,1.2768154E0,0E0,1.1913568E1,5.8470955E0,7.4449787E0,7.863513E0,6.123658E0,5.4845905E0,5.5314064E0,0E0,7.310686E-1,1.7762654E0,0E0,0E0,2.948532E-1,0E0,0E0,0E0,0E0,0E0,0E0,0E0,0E0,0E0,0E0,0E0,0E0,0E0,0E0,0E0,0E0,0E0,0E0,0E0,0E0,0E0],"parents":[2147483647,0,0,1,1,2,2,3,3,4,4,5,5,7,7,8,8,9,9,10,10,11,11,13,13,14,14,17,17,18,18,19,19,20,20,21,21,23,23,24,24,25,25,26,26,27,27,28,28,29,29,31,31,32,32,35,35],"right_children":[2,4,6,8,10,12,-1,14,16,18,20,22,-1,24,26,-1,-1,28,30,32,34,36,-1,38,40,42,44,46,48,50,-1,52,54,-1,-1,56,-1,-1,-1,-1,-1,-1,-1,-1,-1,-1,-1,-1,-1,-1,-1,-1,-1,-1,-1,-1,-1],"split_conditions":[2.847447E-1,2.0783637E-2,6.0218267E-2,2.5132993E-1,1.304813E-1,5.704923E-2,1.3574316E-1,4.8052024E-2,5.3060256E-2,4.421271E-2,4.71072E-2,5.2972168E-2,1.12289324E-1,4.301892E-2,5.880487E-2,-5.080782E-1,-2.3682488E-2,6.577811E-2,7.331076E-2,1.9453282E-2,2.0944146E-2,1.5271147E-2,5.787556E-2,6.391846E-2,5.861163E-2,6.6873565E-2,2.5394937E-2,4.4368945E-2,6.453022E-2,6.863393E-2,-3.1637254E-1,3.1048697E-1,6.467336E-2,8.222553E-2,-3.687988E-1,9.6530214E-2,-2.8200742E-2,8.796116E-2,-1.4000058E-1,2.4435727E-1,2.8732517E-3,4.3747917E-2,-2.9995504E-1,-4.4432375E-1,2.1159542E-1,-6.803854E-2,-2.830687E-1,2.0859344E-1,-1.47986E-1,2.2718796E-1,-2.1233971E-1,3.554574E-1,5.371719E-2,1.77986E-1,-2.0988417E-1,-4.1619092E-1,-9.929012E-2],"split_indices":[290,294,524,176,172,471,0,290,290,16,428,164,0,351,375,0,0,196,308,149,476,344,0,146,222,307,555,521,178,92,0,294,293,0,0,178,0,0,0,0,0,0,0,0,0,0,0,0,0,0,0,0,0,0,0,0,0],"split_type":[0,0,0,0,0,0,0,0,0,0,0,0,0,0,0,0,0,0,0,0,0,0,0,0,0,0,0,0,0,0,0,0,0,0,0,0,0,0,0,0,0,0,0,0,0,0,0,0,0,0,0,0,0,0,0,0,0],"sum_hessian":[5.7503174E2,5.609148E2,1.411692E1,3.8718112E2,1.7373367E2,1.2660424E1,1.456496E0,3.823252E2,4.8559217E0,1.5986848E2,1.3865188E1,1.1568834E1,1.0915904E0,3.133624E2,6.8962814E1,3.6419148E0,1.2140067E0,1.3809288E2,2.1775599E1,1.1662036E1,2.203151E0,1.0545463E1,1.0233713E0,2.4552333E2,6.7839066E1,6.04213E1,8.541514E0,1.2228844E2,1.5804454E1,1.9993921E1,1.7816783E0,9.4036875E0,2.2583492E0,1.1834333E0,1.0197177E0,9.434683E0,1.1107796E0,2.2369923E2,2.1824099E1,5.712813E1,1.0710932E1,5.5110546E1,5.310752E0,7.1181946E0,1.42332E0,1.0970087E2,1.2587564E1,1.0889613E1,4.9148397E0,1.7811317E1,2.1826046E0,8.190233E0,1.2134539E0,1.1402321E0,1.1181171E0,8.39509E0,1.0395927E0],"tree_param":{"num_deleted":"0","num_feature":"618","num_nodes":"57","size_leaf_vector":"0"}},{"base_weights":[7.864228E-2,5.373419E-2,8.8669026E-1,1.6972138E-2,6.105762E-1,9.910378E-1,-1.7515324E-1,-5.8881775E-2,3.0065948E-1,7.013803E-1,-1.0434794E0,-1.1283736E-1,5.636523E-1,3.423192E-1,-1.291545E0,7.6958716E-1,-6.456855E-1,-1.5982915E-1,4.813912E-1,6.6094404E-1,-1.1078765E0,3.8525847E-1,-1.2255869E0,8.8428724E-1,-2.0555119E-1,-2.278004E-1,3.0234542E-1,6.325123E-1,-4.5236906E-1,7.539937E-1,-6.366379E-1,4.4826725E-1,-4.6016195E-1,9.605422E-1,-4.556789E-1,-8.4600675E-1,6.215456E-1],"categories":[],"categories_nodes":[],"categories_segments":[],"categories_sizes":[],"default_left":[true,true,true,true,true,false,false,true,true,true,false,true,true,true,false,true,false,true,true,true,false,true,false,true,true,false,false,false,false,false,false,false,false,false,false,false,false],"id":12,"left_children":[1,3,5,7,9,-1,-1,11,13,15,-1,17,19,21,-1,23,-1,25,27,29,-1,31,-1,33,35,-1,-1,-1,-1,-1,-1,-1,-1,-1,-1,-1,-1],"loss_changes":[1.1078967E1,1.0989654E1,1.9981022E0,1.0886964E1,5.725855E0,0E0,0E0,1.3478367E1,7.521468E0,3.4478493E0,0E0,1.0362896E1,5.939598E0,7.5276117E0,0E0,3.6519775E0,0E0,1.0816201E1,4.130594E0,4.2091236E0,0E0,5.6804247E0,0E0,3.2935295E0,2.6853507E0,0E0,0E0,0E0,0E0,0E0,0E0,0E0,0E0,0E0,0E0,0E0,0E0],"parents":[2147483647,0,0,1,1,2,2,3,3,4,4,7,7,8,8,9,9,11,11,12,12,13,13,15,15,17,17,18,18,19,19,21,21,23,23,24,24],"right_children":[2,4,6,8,10,-1,-1,12,14,16,-1,18,20,22,-1,24,-1,26,28,30,-1,32,-1,34,36,-1,-1,-1,-1,-1,-1,-1,-1,-1,-1,-1,-1],"split_conditions":[1.4762893E-1,7.795378E-2,1.0268135E-1,2.9806152E-2,1.2794018E-1,2.9731134E-1,-5.2545976E-2,6.6019885E-2,9.3170434E-2,9.973058E-2,-3.1304383E-1,1.21351935E-1,8.972412E-2,1.211998E-1,-3.8746354E-1,5.484753E-2,-1.9370566E-1,5.8217246E-2,6.661957E-2,9.795636E-2,-3.3236298E-1,7.576199E-2,-3.6767608E-1,1.7330678E-1,7.819761E-2,-6.834012E-2,9.070363E-2,1.897537E-1,-1.3571073E-1,2.2619812E-1,-1.9099139E-1,1.3448018E-1,-1.3804859E-1,2.8816268E-1,-1.3670368E-1,-2.5380203E-1,1.8646368E-1],"split_indices":[277,174,588,608,261,0,0,270,191,393,0,172,325,141,0,420,0,543,114,287,0,383,0,176,420,0,0,0,0,0,0,0,0,0,0,0,0],"split_type":[0,0,0,0,0,0,0,0,0,0,0,0,0,0,0,0,0,0,0,0,0,0,0,0,0,0,0,0,0,0,0,0,0,0,0,0,0],"sum_hessian":[5.518221E2,5.363554E2,1.5466665E1,5.0410544E2,3.224996E1,1.4143466E1,1.323199E0,3.9837747E2,1.0572796E2,3.1117636E1,1.1323282E0,3.6735706E2,3.102042E1,1.0379713E2,1.9308276E0,3.0026003E1,1.0916309E0,3.4111276E2,2.6244287E1,2.9885511E1,1.1349075E0,1.0176445E2,2.032677E0,2.6949276E1,3.076727E0,2.9781998E2,4.329277E1,2.2866207E1,3.3780813E0,2.8276712E1,1.6087997E0,9.514324E1,6.621209E0,2.5766134E1,1.183143E0,1.7211251E0,1.3556019E0],"tree_param":{"num_deleted":"0","num_feature":"618","num_nodes":"37","size_leaf_vector":"0"}},{"base_weights":[5.9786044E-2,6.695918E-3,4.1083091E-1,-4.476417E-2,4.3198776E-1,5.188973E-1,-3.2505533E-1,-2.3935465E-2,-1.0297962E0,5.401532E-1,-7.3772854E-1,6.068988E-1,-6.7553955E-1,1.0402947E-1,-1.135343E0,-6.2017765E-2,5.471019E-1,-1.3177334E0,4.8223487E-1,7.49628E-1,-2.4556406E-1,-1.1213517E0,2.664503E-1,6.913941E-1,-3.5442796E-1,6.02604E-2,-1.5477566E0,4.9877447E-1,-8.7328595E-1,-1.0781508E-1,4.4437507E-1,7.2936416E-1,-9.9248743E-1,-1.558815E0,-7.7579156E-2,8.187915E-1,-8.107565E-1,1.7175908E-1,-1.30226E0,-3.7023458E-1,-1.3343201E0,7.436243E-1,-7.1229964E-1,3.463774E-1,-1.1176808E0,6.4742935E-1,-7.1325886E-1,8.218056E-1,-4.235029E-1,-1.8055338E-1,2.8190544E-1,5.495097E-1,-9.346451E-1,8.675115E-1,-5.4852355E-1,-1.342801E0,-1.5180324E-1,-1.9452096E0,1.2420103E-1,8.7515265E-1,-4.9291143E-1,5.4633576E-1,-6.521582E-1,-1.9431232E0,-1.5070092E-2,8.4506464E-1,1.9253362E-2,7.12982E-1,-2.9153228E-1],"categories":[],"categories_nodes":[],"categories_segments":[],"categories_sizes":[],"default_left":[true,true,true,true,true,true,true,true,true,true,true,true,true,true,false,true,true,true,false,true,true,true,false,true,true,true,false,true,false,true,true,true,true,true,false,true,false,true,true,false,false,true,false,true,false,false,false,false,false,false,false,false,false,false,false,false,false,false,false,false,false,false,false,false,false,false,false,false,false],"id":13,"left_children":[1,3,5,7,9,11,13,15,17,19,21,23,25,27,-1,29,31,33,-1,35,37,39,-1,41,43,45,-1,47,-1,49,51,53,55,57,-1,59,-1,61,63,-1,-1,65,-1,67,-1,-1,-1,-1,-1,-1,-1,-1,-1,-1,-1,-1,-1,-1,-1,-1,-1,-1,-1,-1,-1,-1,-1,-1,-1],"loss_changes":[1.0075209E1,1.0321509E1,5.8165226E0,8.609402E0,6.838994E0,6.9596786E0,3.493697E0,9.018137E0,4.4189854E0,7.948105E0,2.1214516E0,5.0019264E0,3.1411176E0,3.2377949E0,0E0,9.050915E0,8.000389E0,2.1417694E0,0E0,4.7098274E0,4.934455E0,8.4344864E-2,0E0,4.5011578E0,3.2715638E0,2.0689278E0,0E0,2.079071E0,0E0,1.0165665E1,5.20987E0,4.6708307E0,7.2928095E-1,4.3281183E0,0E0,3.1221237E0,0E0,2.9923792E0,2.5617075E0,0E0,0E0,3.8573017E0,0E0,1.043836E0,0E0,0E0,0E0,0E0,0E0,0E0,0E0,0E0,0E0,0E0,0E0,0E0,0E0,0E0,0E0,0E0,0E0,0E0,0E0,0E0,0E0,0E0,0E0,0E0,0E0],"parents":[2147483647,0,0,1,1,2,2,3,3,4,4,5,5,6,6,7,7,8,8,9,9,10,10,11,11,12,12,13,13,15,15,16,16,17,17,19,19,20,20,21,21,23,23,24,24,25,25,27,27,29,29,30,30,31,31,32,32,33,33,35,35,37,37,38,38,41,41,43,43],"right_children":[2,4,6,8,10,12,14,16,18,20,22,24,26,28,-1,30,32,34,-1,36,38,40,-1,42,44,46,-1,48,-1,50,52,54,56,58,-1,60,-1,62,64,-1,-1,66,-1,68,-1,-1,-1,-1,-1,-1,-1,-1,-1,-1,-1,-1,-1,-1,-1,-1,-1,-1,-1,-1,-1,-1,-1,-1,-1],"split_conditions":[5.4626822E-2,5.808904E-2,1.1806336E-1,1.2946208E-1,7.327175E-2,8.212216E-2,7.647808E-2,7.155138E-2,2.8166441E-2,5.1427487E-2,2.5224205E-2,8.083384E-2,2.1078503E-2,1.9171586E-2,-3.406029E-1,6.33125E-2,7.628934E-2,2.397777E-2,1.4467047E-1,1.1698749E-1,6.7817345E-2,5.1082432E-2,7.993509E-2,3.407572E-1,5.090152E-2,2.6457917E-2,-4.6432698E-1,5.484214E-2,-2.619858E-1,5.701176E-2,7.774615E-2,1.11030854E-1,8.854653E-2,5.8058377E-2,-2.3273747E-2,1.1085725E-1,-2.4322696E-1,5.7768233E-2,2.9205624E-2,-1.1107038E-1,-4.0029603E-1,1.1843401E-1,-2.1368991E-1,2.1622123E-2,-3.3530426E-1,1.9422881E-1,-2.1397766E-1,2.465417E-1,-1.2705088E-1,-5.4166015E-2,8.457164E-2,1.6485292E-1,-2.8039354E-1,2.6025346E-1,-1.6455707E-1,-4.0284032E-1,-4.5540974E-2,-5.835629E-1,3.726031E-2,2.625458E-1,-1.4787343E-1,1.6390073E-1,-1.9564746E-1,-5.82937E-1,-4.5210277E-3,2.5351942E-1,5.7760086E-3,2.138946E-1,-8.745968E-2],"split_indices":[284,415,291,63,481,397,539,610,329,485,318,287,513,607,0,93,405,596,0,430,577,397,0,293,14,135,0,576,0,167,572,234,405,447,0,511,0,186,372,0,0,294,0,378,0,0,0,0,0,0,0,0,0,0,0,0,0,0,0,0,0,0,0,0,0,0,0,0,0],"split_type":[0,0,0,0,0,0,0,0,0,0,0,0,0,0,0,0,0,0,0,0,0,0,0,0,0,0,0,0,0,0,0,0,0,0,0,0,0,0,0,0,0,0,0,0,0,0,0,0,0,0,0,0,0,0,0,0,0,0,0,0,0,0,0,0,0,0,0,0,0],"sum_hessian":[5.397496E2,4.697293E2,7.002024E1,4.198254E2,4.9903904E1,6.131141E1,8.708834E0,4.1213504E2,7.690379E0,4.6172485E1,3.7314205E0,5.7562332E1,3.7490768E0,6.263588E0,2.4452455E0,3.8720392E2,2.4931112E1,6.5681105E0,1.1222684E0,3.6490047E1,9.682435E0,2.615532E0,1.1158885E0,5.3169796E1,4.3925395E0,2.5385087E0,1.2105682E0,4.8103147E0,1.4532735E0,3.5581198E2,3.1391943E1,2.2762648E1,2.168465E0,5.2839723E0,1.2841381E0,3.539638E1,1.0936693E0,7.541508E0,2.1409268E0,1.1827048E0,1.4328271E0,5.1715733E1,1.4540606E0,2.5746884E0,1.8178512E0,1.5357488E0,1.0027598E0,3.6432064E0,1.1671082E0,3.0030005E2,5.551195E1,2.972711E1,1.6648327E0,2.0831747E1,1.9309006E0,1.1090512E0,1.0594137E0,4.170664E0,1.1133085E0,3.425723E1,1.1391497E0,5.4160976E0,2.1254103E0,1.0891019E0,1.051825E0,4.521697E1,6.498763E0,1.5603027E0,1.0143857E0],"tree_param":{"num_deleted":"0","num_feature":"618","num_nodes":"69","size_leaf_vector":"0"}},{"base_weights":[4.327346E-2,1.6924946E-2,7.139457E-1,-2.4560694E-2,4.4115847E-1,8.311709E-1,-5.7149786E-1,-5.7664003E-2,6.0985625E-1,6.8365717E-1,-7.754544E-1,9.5581174E-1,-5.2869385E-1,-8.782957E-2,5.862084E-1,7.082592E-1,-7.339045E-1,7.629655E-1,-7.213116E-1,-1.161013E0,6.521232E-1,9.9694777E-1,1.4095838E-1,-7.398379E-2,-1.6092832E0,8.0133915E-1,-3.9793196E-1,8.857933E-1,-5.0899383E-2,8.385515E-1,-5.2127373E-1,-1.502722E0,3.812757E-1,-1.03133604E-1,6.42442E-1,-5.0138557E-1,-2.085177E0,9.684003E-1,-2.5237563E-1,2.205324E-1,-1.0503348E0,9.6533585E-1,-1.6236466E-1,5.1308715E-1,-9.789105E-1,9.984497E-1,2.2325538E-1,-1.7701808E0,-2.2681907E-1],"categories":[],"categories_nodes":[],"categories_segments":[],"categories_sizes":[],"default_left":[true,true,true,true,true,true,false,true,true,true,true,true,false,true,true,true,false,true,false,true,false,false,false,true,true,true,true,true,true,true,false,true,false,false,false,false,false,false,false,false,false,false,false,false,false,false,false,false,false],"id":14,"left_children":[1,3,5,7,9,11,-1,13,15,17,19,21,-1,23,25,27,-1,29,-1,31,-1,-1,-1,33,35,37,39,41,43,45,-1,47,-1,-1,-1,-1,-1,-1,-1,-1,-1,-1,-1,-1,-1,-1,-1,-1,-1],"loss_changes":[9.30237E0,8.954891E0,3.4738016E0,9.777132E0,1.3901424E1,3.6655807E0,0E0,8.632154E0,3.5730658E0,4.8203106E0,5.1609488E0,4.4391632E-1,0E0,8.789255E0,4.532439E0,3.0133982E0,0E0,4.005396E0,0E0,4.082449E0,0E0,0E0,0E0,8.839838E0,9.3984413E-1,3.1777468E0,1.9417129E0,1.6494513E0,3.1819618E0,3.2303658E0,0E0,1.5278482E0,0E0,0E0,0E0,0E0,0E0,0E0,0E0,0E0,0E0,0E0,0E0,0E0,0E0,0E0,0E0,0E0,0E0],"parents":[2147483647,0,0,1,1,2,2,3,3,4,4,5,5,7,7,8,8,9,9,10,10,11,11,13,13,14,14,15,15,17,17,19,19,23,23,24,24,25,25,26,26,27,27,28,28,29,29,31,31],"right_children":[2,4,6,8,10,12,-1,14,16,18,20,22,-1,24,26,28,-1,30,-1,32,-1,-1,-1,34,36,38,40,42,44,46,-1,48,-1,-1,-1,-1,-1,-1,-1,-1,-1,-1,-1,-1,-1,-1,-1,-1,-1],"split_conditions":[1.1370571E-1,6.402966E-2,9.528649E-2,9.388143E-2,5.9813194E-2,8.2389444E-2,-1.7144936E-1,7.81479E-2,3.414511E-1,1.1110876E-1,2.901668E-2,1.0102211E-1,-1.5860817E-1,1.6301051E-1,5.388838E-2,4.8403803E-2,-2.2017135E-1,8.464977E-2,-2.163935E-1,6.0968623E-2,1.9563697E-1,2.9908434E-1,4.2287517E-2,8.092132E-2,2.074448E-2,6.138147E-2,2.2271544E-2,8.770205E-2,4.22958E-2,1.9693835E-2,-1.5638213E-1,6.2294476E-2,1.1438272E-1,-3.0940082E-2,1.927326E-1,-1.5041567E-1,-6.2555313E-1,2.905201E-1,-7.5712696E-2,6.6159725E-2,-3.1510046E-1,2.8960076E-1,-4.87094E-2,1.5392615E-1,-2.9367316E-1,2.9953492E-1,6.6976614E-2,-5.3105426E-1,-6.804572E-2],"split_indices":[275,342,252,168,143,416,0,522,293,413,421,190,0,550,559,114,0,512,0,300,0,0,0,49,365,151,591,353,173,293,0,304,0,0,0,0,0,0,0,0,0,0,0,0,0,0,0,0,0],"split_type":[0,0,0,0,0,0,0,0,0,0,0,0,0,0,0,0,0,0,0,0,0,0,0,0,0,0,0,0,0,0,0,0,0,0,0,0,0,0,0,0,0,0,0,0,0,0,0,0,0],"sum_hessian":[5.260975E2,5.0719662E2,1.890086E1,4.628744E2,4.4322212E1,1.764512E1,1.2557385E0,4.407838E2,2.2090597E1,3.732129E1,7.0009203E0,1.6435795E1,1.2093254E0,4.218821E2,1.8901682E1,2.102395E1,1.0666468E0,3.5759666E1,1.5616254E0,5.6592116E0,1.3417088E0,1.5433216E1,1.00258E0,4.1911664E2,2.7654877E0,1.5663439E1,3.238243E0,1.6904026E1,4.1199236E0,3.4099716E1,1.6599507E0,4.6537766E0,1.0054346E0,4.0355298E2,1.5563654E1,1.4480174E0,1.3174703E0,1.3589808E1,2.07363E0,2.0021837E0,1.2360594E0,1.5785142E1,1.1188843E0,2.8406606E0,1.279263E0,2.6571749E1,7.527965E0,3.5270343E0,1.1267425E0],"tree_param":{"num_deleted":"0","num_feature":"618","num_nodes":"49","size_leaf_vector":"0"}},{"base_weights":[3.445926E-2,-3.4033604E-2,2.8020108E-1,-7.577398E-2,4.6653488E-1,3.4838378E-1,-5.89356E-1,-1.3562386E-1,3.5262027E-1,6.314888E-1,-5.1297027E-1,3.9038602E-1,-1.1838913E0,-1.027748E0,7.4275327E-1,-1.6230164E-1,8.92213E-1,4.2977032E-1,-9.922714E-1,7.539377E-1,-5.8059597E-1,-8.760107E-1,4.2642775E-1,4.380293E-1,-7.8353727E-1,-6.9333185E-3,-1.7726588E0,-1.3772515E0,3.1398982E-1,-2.4060395E-1,1.8114173E-1,1.0065007E0,3.3882573E-2,6.1621547E-1,-1.1123745E-1,9.0341884E-1,-3.1563872E-1,3.2724342E-1,-1.20102E0,5.202189E-1,-1.6460562E-1,-4.5739666E-2,-1.5095268E0,-1.7224377E0,-4.921752E-2,-2.740694E-1,6.6726744E-1,1.0753896E-2,8.0752355E-1,6.9893265E-1,-9.794288E-1,2.426705E-1,-1.0870731E0,1.0045035E0,-6.267511E-1,6.241154E-1,-9.706533E-1,6.2069905E-1,-1.2001406E-1,1.7733593E-1,-1.2613485E0,5.5411905E-1,-5.958852E-1,-2.0616717E0,-4.718765E-1],"categories":[],"categories_nodes":[],"categories_segments":[],"categories_sizes":[],"default_left":[true,true,true,true,true,true,true,true,true,true,true,true,true,true,false,true,true,true,false,true,true,false,false,true,true,false,false,true,false,true,true,false,false,true,true,true,true,false,false,true,true,true,false,true,false,false,false,false,false,false,false,false,false,false,false,false,false,false,false,false,false,false,false,false,false],"id":15,"left_children":[1,3,5,7,9,11,13,15,17,19,21,23,25,27,-1,29,31,33,-1,35,37,-1,-1,39,41,-1,-1,43,-1,45,47,-1,-1,49,51,53,55,-1,-1,57,59,61,-1,63,-1,-1,-1,-1,-1,-1,-1,-1,-1,-1,-1,-1,-1,-1,-1,-1,-1,-1,-1,-1,-1],"loss_changes":[8.726397E0,8.516127E0,6.9044085E0,9.675812E0,5.394224E0,7.2458572E0,5.7780733E0,9.199218E0,5.231426E0,4.490447E0,2.1042523E0,6.1231747E0,2.1082797E0,3.6589165E0,0E0,8.721742E0,8.004737E-1,4.5566416E0,0E0,4.3198605E0,2.1224039E0,0E0,0E0,5.0364094E0,2.281939E0,0E0,0E0,2.5026007E0,0E0,8.179979E0,6.446599E0,0E0,0E0,5.0722866E0,4.4947543E0,4.094349E0,2.9667368E0,0E0,0E0,5.7483826E0,5.0073624E0,1.3889043E0,0E0,9.151201E-1,0E0,0E0,0E0,0E0,0E0,0E0,0E0,0E0,0E0,0E0,0E0,0E0,0E0,0E0,0E0,0E0,0E0,0E0,0E0,0E0,0E0],"parents":[2147483647,0,0,1,1,2,2,3,3,4,4,5,5,6,6,7,7,8,8,9,9,10,10,11,11,12,12,13,13,15,15,16,16,17,17,19,19,20,20,23,23,24,24,27,27,29,29,30,30,33,33,34,34,35,35,36,36,39,39,40,40,41,41,43,43],"right_children":[2,4,6,8,10,12,14,16,18,20,22,24,26,28,-1,30,32,34,-1,36,38,-1,-1,40,42,-1,-1,44,-1,46,48,-1,-1,50,52,54,56,-1,-1,58,60,62,-1,64,-1,-1,-1,-1,-1,-1,-1,-1,-1,-1,-1,-1,-1,-1,-1,-1,-1,-1,-1,-1,-1],"split_conditions":[4.4028915E-2,5.7559326E-2,7.2264805E-2,4.215096E-2,1.1620138E-1,1.16622806E-1,5.2003384E-2,1.3218373E-1,8.039566E-2,8.904938E-2,2.6303373E-2,9.602897E-2,2.3905003E-2,6.545411E-2,2.2282599E-1,3.461951E-2,6.9802165E-2,6.240589E-2,-2.9768145E-1,6.7148566E-2,2.3199456E-2,-2.6280323E-1,1.2792833E-1,6.5769315E-2,5.0406165E-2,-2.0799956E-3,-5.3179765E-1,1.9446023E-2,9.419695E-2,1.0116759E-1,4.8007086E-2,3.0195022E-1,1.0164772E-2,1.01455E-1,4.065668E-2,1.0236272E-1,8.8547684E-2,9.817303E-2,-3.6030602E-1,9.6163094E-2,7.039681E-2,5.4490462E-2,-4.5285806E-1,2.2676498E-2,-1.4765256E-2,-8.222082E-2,2.0018025E-1,3.226169E-3,2.4225707E-1,2.096798E-1,-2.9382867E-1,7.280116E-2,-3.2612193E-1,3.0135107E-1,-1.8802534E-1,1.8723463E-1,-2.91196E-1,1.8620972E-1,-3.600422E-2,5.320078E-2,-3.7840456E-1,1.6623572E-1,-1.7876557E-1,-6.1850154E-1,-1.4156295E-1],"split_indices":[267,281,348,462,291,92,551,114,74,419,369,67,297,487,0,608,117,293,0,264,552,0,0,614,252,0,0,163,0,558,167,0,0,561,190,351,281,0,0,293,309,519,0,366,0,0,0,0,0,0,0,0,0,0,0,0,0,0,0,0,0,0,0,0,0],"split_type":[0,0,0,0,0,0,0,0,0,0,0,0,0,0,0,0,0,0,0,0,0,0,0,0,0,0,0,0,0,0,0,0,0,0,0,0,0,0,0,0,0,0,0,0,0,0,0,0,0,0,0,0,0,0,0,0,0,0,0,0,0,0,0,0,0],"sum_hessian":[5.1688776E2,4.048969E2,1.1199087E2,3.7451614E2,3.0380756E1,1.0440383E2,7.587036E0,3.292069E2,4.530925E1,2.6305986E1,4.07477E0,1.0234364E2,2.0601864E0,5.880325E0,1.7067116E0,3.216992E2,7.507697E0,4.3494614E1,1.814637E0,2.4235605E1,2.0703812E0,2.9876409E0,1.0871292E0,9.8954475E1,3.389166E0,1.0243222E0,1.0358644E0,4.6441274E0,1.2361972E0,2.622156E2,5.9483593E1,6.4731617E0,1.0345356E0,3.224362E1,1.1250993E1,2.140013E1,2.8354752E0,1.0323448E0,1.0380365E0,8.7198746E1,1.1755733E1,2.2081275E0,1.1810387E0,3.4503262E0,1.1938013E0,2.5356688E2,8.648723E0,4.7562775E1,1.1920817E1,3.1188787E1,1.0548323E0,8.807927E0,2.4430656E0,2.0396267E1,1.0038636E0,1.1839815E0,1.6514937E0,7.539632E1,1.1802425E1,9.600732E0,2.1550012E0,1.0528814E0,1.1552461E0,2.20389E0,1.2464361E0],"tree_param":{"num_deleted":"0","num_feature":"618","num_nodes":"65","size_leaf_vector":"0"}},{"base_weights":[2.7296988E-2,7.211076E-2,-3.011945E-1,1.1619755E-1,-3.9179835E-1,-3.7980574E-1,6.7862207E-1,1.759385E-1,-2.4755429E-1,-2.619013E-1,-1.5496681E0,-5.590444E-1,1.4978753E-1,9.8850346E-1,-1.0063501E-1,2.021313E-1,-6.688749E-1,-4.058136E-2,-9.9445266E-1,-9.4035484E-2,-1.1537783E0,-7.32881E-1,2.7975857E-1,3.6012828E-1,-7.716251E-1,2.1359022E-1,-1.7635031E0,-9.679125E-1,6.568818E-1,6.808897E-2,-1.1915238E0,-1.2349187E0,1.9508065E-1,5.2072614E-2,-1.1627164E0,-1.3174722E0,-2.1743053E-1,-8.379273E-1,4.2370546E-1,6.432773E-1,-7.4217576E-1,5.221236E-1,-7.017618E-1,3.010187E-1,-6.2483713E-2,-1.2357371E0,5.8453727E-1,2.6222733E-1,-6.040075E-1,-1.4558846E0,-5.533999E-2,2.1252729E-1,-6.2530416E-1,-1.4577299E0,-1.7949332E-1,-9.278679E-1,8.0443704E-1,7.053387E-1,-1.3190314E-1,8.969448E-1,-3.6986378E-1,7.4708146E-1,-2.9714534E-1],"categories":[],"categories_nodes":[],"categories_segments":[],"categories_sizes":[],"default_left":[true,true,true,true,true,true,true,true,true,true,false,true,true,false,false,true,true,true,true,true,true,true,true,true,false,true,false,true,false,true,false,true,false,true,true,false,false,true,true,true,false,true,false,false,false,false,false,false,false,false,false,false,false,false,false,false,false,false,false,false,false,false,false],"id":16,"left_children":[1,3,5,7,9,11,13,15,17,19,-1,21,23,-1,-1,25,27,29,31,33,35,37,39,41,-1,43,-1,45,-1,47,-1,49,-1,51,53,-1,-1,55,57,59,-1,61,-1,-1,-1,-1,-1,-1,-1,-1,-1,-1,-1,-1,-1,-1,-1,-1,-1,-1,-1,-1,-1],"loss_changes":[7.4904165E0,9.192865E0,4.963848E0,8.936032E0,5.4664984E0,5.5135527E0,1.2819307E0,7.925763E0,8.947601E0,5.3275204E0,0E0,6.4676085E0,3.2340858E0,0E0,0E0,8.085487E0,4.92517E0,5.9055867E0,3.8373518E0,5.001884E0,5.8148766E-1,4.710911E0,3.485261E0,2.619885E0,0E0,8.253212E0,0E0,4.5610285E0,0E0,5.833826E0,0E0,2.6810493E0,0E0,3.2628064E0,8.548336E-1,0E0,0E0,5.650997E0,6.640711E-1,2.0042865E0,0E0,2.422445E0,0E0,0E0,0E0,0E0,0E0,0E0,0E0,0E0,0E0,0E0,0E0,0E0,0E0,0E0,0E0,0E0,0E0,0E0,0E0,0E0,0E0],"parents":[2147483647,0,0,1,1,2,2,3,3,4,4,5,5,6,6,7,7,8,8,9,9,11,11,12,12,15,15,16,16,17,17,18,18,19,19,20,20,21,21,22,22,23,23,25,25,27,27,29,29,31,31,33,33,34,34,37,37,38,38,39,39,41,41],"right_children":[2,4,6,8,10,12,14,16,18,20,-1,22,24,-1,-1,26,28,30,32,34,36,38,40,42,-1,44,-1,46,-1,48,-1,50,-1,52,54,-1,-1,56,58,60,-1,62,-1,-1,-1,-1,-1,-1,-1,-1,-1,-1,-1,-1,-1,-1,-1,-1,-1,-1,-1,-1,-1],"split_conditions":[1.2258999E-1,1.00041255E-1,6.706759E-2,1.0563744E-1,1.0100192E-1,9.652252E-2,5.744911E-2,1.1474353E-1,5.081997E-2,3.871622E-1,-4.6490043E-1,5.1161513E-2,1.6812807E-2,2.9655105E-1,-3.0190503E-2,1.8610829E-1,2.4066444E-2,8.0291495E-2,2.104308E-2,5.9716277E-2,4.183574E-2,6.5987065E-2,5.9833482E-2,7.098012E-2,-2.3148754E-1,5.3170796E-2,-5.2905095E-1,2.0243123E-1,1.9706455E-1,5.4183297E-2,-3.5745716E-1,6.4544946E-2,5.85242E-2,4.7369994E-2,9.341399E-2,-3.9524168E-1,-6.522916E-2,7.3017605E-2,2.4229722E-2,9.890412E-2,-2.2265273E-1,3.720328E-2,-2.1052854E-1,9.030561E-2,-1.8745115E-2,-3.7072113E-1,1.7536119E-1,7.86682E-2,-1.8120225E-1,-4.367654E-1,-1.6601996E-2,6.375819E-2,-1.8759125E-1,-4.37319E-1,-5.3848E-2,-2.7836037E-1,2.4133112E-1,2.1160163E-1,-3.9570943E-2,2.6908347E-1,-1.10959135E-1,2.2412445E-1,-8.9143604E-2],"split_indices":[291,178,265,294,591,290,40,25,81,178,0,184,30,0,0,112,486,231,287,304,465,306,336,577,0,293,0,25,0,247,0,18,0,45,304,0,0,366,238,42,0,584,0,0,0,0,0,0,0,0,0,0,0,0,0,0,0,0,0,0,0,0,0],"split_type":[0,0,0,0,0,0,0,0,0,0,0,0,0,0,0,0,0,0,0,0,0,0,0,0,0,0,0,0,0,0,0,0,0,0,0,0,0,0,0,0,0,0,0,0,0,0,0,0,0,0,0,0,0,0,0,0,0,0,0,0,0,0,0],"sum_hessian":[5.0635187E2,4.4625317E2,6.009869E1,4.0820926E2,3.8043926E1,5.6201946E1,3.8967457E0,3.5106778E2,5.7141464E1,3.530894E1,2.7349856E0,4.1948902E1,1.4253044E1,2.5959237E0,1.3008221E0,3.4124838E2,9.819406E0,4.5568356E1,1.1573109E1,3.0646252E1,4.6626887E0,3.485227E1,7.0966325E0,1.2100003E1,2.153041E0,3.4015674E2,1.0916505E0,8.232419E0,1.5869869E0,4.2496716E1,3.0716383E0,9.595258E0,1.9778512E0,2.779715E1,2.8491013E0,3.622384E0,1.0403048E0,3.220297E1,2.6492996E0,5.5079093E0,1.5887233E0,1.0939455E1,1.1605476E0,2.5827466E2,8.188206E1,7.19514E0,1.0372788E0,3.344562E1,9.051095E0,7.884116E0,1.7111413E0,2.302849E1,4.7686596E0,1.8203167E0,1.0287848E0,3.0943457E1,1.2595112E0,1.579285E0,1.0700147E0,4.4967213E0,1.0111879E0,8.651897E0,2.2875578E0],"tree_param":{"num_deleted":"0","num_feature":"618","num_nodes":"63","size_leaf_vector":"0"}},{"base_weights":[1.645803E-2,-4.453093E-2,2.9299417E-1,-8.3165765E-2,5.631724E-1,4.005392E-1,-4.1667557E-1,-1.327764E-1,3.9206362E-1,7.50926E-1,-8.2109207E-1,5.9662956E-1,7.764448E-2,2.0212738E-2,-1.2065243E0,-1.9023527E-1,3.6494938E-1,5.004268E-1,-7.6674217E-1,9.268549E-1,-8.6477466E-2,3.888872E-1,-1.7090137E0,7.174672E-1,-4.0088847E-1,2.7553263E-1,-9.781048E-1,3.2869682E-1,-9.270721E-1,-2.507345E-1,2.3787096E-1,5.715109E-1,-3.6060727E-1,5.9830046E-1,-7.043755E-1,4.5905304E-3,-1.328246E0,1.0161419E0,-2.5226918E-1,-1.0040414E0,5.1177186E-1,7.75058E-1,-8.167954E-1,9.537997E-2,-1.3668988E0,4.3676242E-1,-6.997601E-1,-1.2593211E0,-8.607951E-2,5.936522E-1,-6.009185E-1,-3.177853E-1,1.7259169E-1,3.813744E-1,-4.7004345E-1,6.753286E-1,-1.0044593E0,1.0762811E-1,-1.3373175E0,7.245088E-1,-4.2543238E-1,1.0759368E0,6.741407E-2,6.668676E-1,6.611729E-2,8.5614514E-1,-4.513205E-1,5.996962E-1,-6.587134E-1,6.4252305E-1,-1.8286759E-1,7.639675E-2,-9.77792E-1,8.439952E-1,-1.7869543E-1],"categories":[],"categories_nodes":[],"categories_segments":[],"categories_sizes":[],"default_left":[true,true,true,true,true,true,true,true,true,true,true,true,true,true,false,true,true,true,true,true,true,false,false,true,true,true,true,true,false,true,true,true,true,true,false,false,false,true,false,false,true,true,false,true,false,true,true,false,false,true,false,false,false,false,false,false,false,false,false,false,false,false,false,false,false,false,false,false,false,false,false,false,false,false,false],"id":17,"left_children":[1,3,5,7,9,11,13,15,17,19,21,23,25,27,-1,29,31,33,35,37,39,-1,-1,41,43,45,47,49,-1,51,53,55,57,59,-1,-1,-1,61,-1,-1,63,65,-1,67,-1,69,71,-1,-1,73,-1,-1,-1,-1,-1,-1,-1,-1,-1,-1,-1,-1,-1,-1,-1,-1,-1,-1,-1,-1,-1,-1,-1,-1,-1],"loss_changes":[8.259293E0,9.47245E0,6.9198375E0,8.971757E0,6.8868785E0,4.8509684E0,4.2115645E0,9.887852E0,4.9061494E0,3.2868843E0,4.2735577E0,6.070122E0,6.61517E0,2.8751693E0,0E0,8.048327E0,5.582635E0,4.376419E0,1.5110381E0,2.159071E0,3.090336E0,0E0,0E0,4.4455585E0,2.9228535E0,4.450536E0,1.149446E0,2.1729093E0,0E0,7.739559E0,4.1111856E0,5.3104362E0,4.0600595E0,4.3860044E0,0E0,0E0,0E0,8.9184E-1,0E0,0E0,1.9807267E-1,4.572941E0,0E0,2.2139509E0,0E0,3.0799365E0,9.645791E-1,0E0,0E0,1.3575659E0,0E0,0E0,0E0,0E0,0E0,0E0,0E0,0E0,0E0,0E0,0E0,0E0,0E0,0E0,0E0,0E0,0E0,0E0,0E0,0E0,0E0,0E0,0E0,0E0,0E0],"parents":[2147483647,0,0,1,1,2,2,3,3,4,4,5,5,6,6,7,7,8,8,9,9,10,10,11,11,12,12,13,13,15,15,16,16,17,17,18,18,19,19,20,20,23,23,24,24,25,25,26,26,27,27,29,29,30,30,31,31,32,32,33,33,37,37,40,40,41,41,43,43,45,45,46,46,49,49],"right_children":[2,4,6,8,10,12,14,16,18,20,22,24,26,28,-1,30,32,34,36,38,40,-1,-1,42,44,46,48,50,-1,52,54,56,58,60,-1,-1,-1,62,-1,-1,64,66,-1,68,-1,70,72,-1,-1,74,-1,-1,-1,-1,-1,-1,-1,-1,-1,-1,-1,-1,-1,-1,-1,-1,-1,-1,-1,-1,-1,-1,-1,-1,-1],"split_conditions":[5.7528533E-2,7.398643E-2,9.7659506E-2,6.4080544E-2,5.514848E-2,4.5776054E-2,4.7601946E-2,5.3102743E-2,8.029795E-2,6.0142145E-2,6.6817015E-2,7.584825E-2,5.6212075E-2,4.9215034E-2,-3.6195728E-1,4.8646837E-2,5.8490813E-2,1.2782721E-1,7.172271E-2,1.0386799E-1,6.317964E-2,1.1666616E-1,-5.1270413E-1,1.2162462E-1,6.400789E-2,5.723677E-2,3.8272783E-2,5.7672173E-2,-2.7812165E-1,4.6801336E-2,6.164661E-2,1.3296026E-1,3.0791927E-2,1.3107653E-1,-2.1131267E-1,1.3771591E-3,-3.9847383E-1,7.425036E-2,-7.5680755E-2,-3.0121243E-1,1.23169586E-1,3.151185E-1,-2.4503863E-1,2.572646E-2,-4.1006964E-1,3.4090348E-2,2.587273E-2,-3.7779635E-1,-2.5823854E-2,4.7399335E-2,-1.8027554E-1,-9.5335595E-2,5.1777508E-2,1.1441232E-1,-1.4101304E-1,2.0259859E-1,-3.0133778E-1,3.2288432E-2,-4.0119526E-1,2.1735266E-1,-1.2762973E-1,3.2278106E-1,2.0224221E-2,2.000603E-1,1.9835187E-2,2.5684357E-1,-1.3539615E-1,1.7990887E-1,-1.9761403E-1,1.9275692E-1,-5.486028E-2,2.2919025E-2,-2.933376E-1,2.5319856E-1,-5.360863E-2],"split_indices":[173,302,481,153,286,176,388,168,194,224,320,378,201,393,0,277,177,295,25,607,224,0,0,480,47,117,66,96,0,122,614,431,93,290,0,0,0,62,0,0,224,294,0,197,0,357,293,0,0,39,0,0,0,0,0,0,0,0,0,0,0,0,0,0,0,0,0,0,0,0,0,0,0,0,0],"split_type":[0,0,0,0,0,0,0,0,0,0,0,0,0,0,0,0,0,0,0,0,0,0,0,0,0,0,0,0,0,0,0,0,0,0,0,0,0,0,0,0,0,0,0,0,0,0,0,0,0,0,0,0,0,0,0,0,0,0,0,0,0,0,0,0,0,0,0,0,0,0,0,0,0,0,0],"sum_hessian":[4.8793726E2,4.00457E2,8.7480255E1,3.7733127E2,2.3125746E1,7.6346176E1,1.1134084E1,3.423164E2,3.501484E1,2.076661E1,2.3591363E0,4.697253E1,2.9373644E1,7.796192E0,3.3378913E0,3.074422E2,3.4874214E1,3.2540077E1,2.4747612E0,1.7072958E1,3.6936524E0,1.2363609E0,1.1227756E0,4.214759E1,4.8249397E0,2.5359343E1,4.014302E0,6.373627E0,1.4225652E0,2.6973767E2,3.7704548E1,2.7311195E1,7.563017E0,3.0560833E1,1.9792436E0,1.46042E0,1.0143411E0,1.5999637E1,1.0733207E0,1.190076E0,2.5035765E0,4.109969E1,1.0479026E0,3.7828436E0,1.0420961E0,2.2235645E1,3.1236966E0,2.7390466E0,1.2752553E0,5.2412004E0,1.1324265E0,2.3307082E2,3.6666847E1,3.1733107E1,5.9714413E0,2.6159416E1,1.1517786E0,5.7136807E0,1.8493361E0,2.7466927E1,3.0939057E0,1.4924892E1,1.0747447E0,1.489E0,1.0145764E0,3.883391E1,2.2657773E0,2.3895357E0,1.393308E0,1.6664812E1,5.570833E0,1.0151148E0,2.1085818E0,3.8881562E0,1.3530444E0],"tree_param":{"num_deleted":"0","num_feature":"618","num_nodes":"75","size_leaf_vector":"0"}},{"base_weights":[1.21261645E-2,-2.2315467E-2,4.0780795E-1,-6.267971E-2,3.381898E-1,4.8389915E-1,-1.1964991E0,-1.0781627E-1,3.429685E-1,4.9874285E-1,-5.5661714E-1,7.005077E-1,3.5633694E-2,-9.4936356E-2,-1.7141169E0,4.7698796E-1,-4.0552342E-1,5.775168E-1,-6.254366E-1,-8.716502E-1,6.129318E-1,7.7052563E-1,-4.8983365E-1,3.5743836E-1,-7.4944603E-1,-5.120168E-2,-5.39315E-1,5.486214E-1,-7.3937327E-1,-3.071968E-2,-1.1203358E0,6.773187E-1,-4.787303E-1,-1.1753788E0,3.1458908E-1,8.639968E-1,-2.4584392E-1,5.592083E-1,-5.354899E-1,-4.576822E-2,-1.0312513E0,4.3133803E-2,-3.4941366E-1,-2.4845085E-1,-1.2254089E0,6.31003E-1,-4.1756687E-1,4.0213832E-1,-7.285349E-1,7.71077E-1,-5.623224E-1,1.5656273E-1,-9.479116E-1,-1.4734921E0,3.5984064E-3,9.2279285E-1,-1.8692589E-1,7.327489E-1,-3.4844324E-1],"categories":[],"categories_nodes":[],"categories_segments":[],"categories_sizes":[],"default_left":[true,true,true,true,true,true,false,true,true,true,true,true,true,true,false,true,true,true,false,true,false,true,false,true,true,true,true,true,false,true,false,true,true,true,false,true,false,true,false,false,false,false,false,false,false,false,false,false,false,false,false,false,false,false,false,false,false,false,false],"id":18,"left_children":[1,3,5,7,9,11,-1,13,15,17,19,21,23,25,-1,27,29,31,-1,33,-1,35,-1,37,39,41,43,45,-1,47,-1,49,51,53,-1,55,-1,57,-1,-1,-1,-1,-1,-1,-1,-1,-1,-1,-1,-1,-1,-1,-1,-1,-1,-1,-1,-1,-1],"loss_changes":[6.501633E0,6.4124255E0,5.242216E0,7.284493E0,6.653637E0,3.5853825E0,0E0,7.222394E0,4.1932287E0,3.7402487E0,3.1960647E0,2.462328E0,3.594477E0,6.875183E0,0E0,3.392323E0,1.7326719E0,4.138013E0,0E0,2.5690784E0,0E0,2.493785E0,0E0,2.1040273E0,7.7595115E-1,9.142744E0,6.025362E0,2.885808E0,0E0,1.9105159E0,0E0,4.3236046E0,1.253993E0,1.7876062E0,0E0,1.5450497E0,0E0,1.6192727E0,0E0,0E0,0E0,0E0,0E0,0E0,0E0,0E0,0E0,0E0,0E0,0E0,0E0,0E0,0E0,0E0,0E0,0E0,0E0,0E0,0E0],"parents":[2147483647,0,0,1,1,2,2,3,3,4,4,5,5,7,7,8,8,9,9,10,10,11,11,12,12,13,13,15,15,16,16,17,17,19,19,21,21,23,23,24,24,25,25,26,26,27,27,29,29,31,31,32,32,33,33,35,35,37,37],"right_children":[2,4,6,8,10,12,-1,14,16,18,20,22,24,26,-1,28,30,32,-1,34,-1,36,-1,38,40,42,44,46,-1,48,-1,50,52,54,-1,56,-1,58,-1,-1,-1,-1,-1,-1,-1,-1,-1,-1,-1,-1,-1,-1,-1,-1,-1,-1,-1,-1,-1],"split_conditions":[5.7532106E-2,6.25828E-2,9.541984E-2,5.384842E-2,6.2971845E-2,4.108087E-2,-3.5894975E-1,1.4241815E-1,7.252367E-2,1.142941E-1,5.9667148E-2,1.13839135E-1,4.418929E-2,7.2824985E-2,-5.142351E-1,1.1947581E-1,7.119061E-2,6.455164E-2,-1.87631E-1,3.0258423E-2,1.8387954E-1,1.3356632E-1,-1.469501E-1,5.383019E-2,4.5838717E-2,4.491962E-2,5.2110218E-2,1.0989672E-1,-2.21812E-1,5.7623386E-2,-3.3610076E-1,8.863965E-2,4.99679E-2,2.5857715E-2,9.437673E-2,8.38251E-2,-7.375318E-2,6.70858E-2,-1.6064698E-1,-1.3730466E-2,-3.093754E-1,1.2940141E-2,-1.048241E-1,-7.453526E-2,-3.6762267E-1,1.8930091E-1,-1.2527007E-1,1.206415E-1,-2.1856047E-1,2.3132311E-1,-1.6869672E-1,4.696882E-2,-2.843735E-1,-4.4204766E-1,1.079522E-3,2.7683786E-1,-5.6077767E-2,2.1982469E-1,-1.0453298E-1],"split_indices":[384,66,195,275,231,290,0,437,463,343,299,45,227,410,0,136,367,7,0,235,0,176,0,414,403,282,259,35,0,519,0,204,89,230,0,343,0,470,0,0,0,0,0,0,0,0,0,0,0,0,0,0,0,0,0,0,0,0,0],"split_type":[0,0,0,0,0,0,0,0,0,0,0,0,0,0,0,0,0,0,0,0,0,0,0,0,0,0,0,0,0,0,0,0,0,0,0,0,0,0,0,0,0,0,0,0,0,0,0,0,0,0,0,0,0,0,0,0,0,0,0],"sum_hessian":[4.7541385E2,4.3821368E2,3.7200165E1,3.9483212E2,4.338154E1,3.618243E1,1.0177326E0,3.5595874E2,3.8873394E1,3.7157146E1,6.2243915E0,2.4015213E1,1.2167217E1,3.5417792E2,1.7808278E0,3.3277676E1,5.5957212E0,3.517839E1,1.9787577E0,5.104217E0,1.1201743E0,2.3014166E1,1.001048E0,9.016187E0,3.1510298E0,3.2345908E2,3.0718843E1,3.1945328E1,1.332346E0,4.355133E0,1.2405884E0,3.2469215E1,2.7091765E0,4.0710163E0,1.0332007E0,2.1213198E1,1.8009685E0,7.659215E0,1.3569722E0,1.2334561E0,1.9175736E0,2.4637645E2,7.708263E1,2.2529684E1,8.189159E0,2.975518E1,2.1901472E0,2.9493535E0,1.4057795E0,3.053754E1,1.931674E0,1.4339072E0,1.2752694E0,3.0499961E0,1.0210202E0,2.0204723E1,1.0084745E0,6.5916133E0,1.0676017E0],"tree_param":{"num_deleted":"0","num_feature":"618","num_nodes":"59","size_leaf_vector":"0"}},{"base_weights":[6.881637E-3,-1.0558112E-2,7.757081E-1,-6.856609E-2,2.2676402E-1,9.2900455E-1,-2.3249476E-1,-1.0623043E-1,4.658272E-1,3.1026524E-1,-7.526772E-1,-1.3390921E-1,5.749818E-1,6.1925334E-1,-1.134119E0,4.044753E-1,-4.4273433E-1,-5.9564885E-2,-1.6894785E0,-1.8741968E-1,2.1631478E-1,7.769082E-1,-3.5500497E-1,7.335729E-1,-6.3569343E-1,5.3636265E-1,-3.2092658E-1,-7.852042E-1,7.454667E-1,4.5430535E-1,-7.4019456E-1,-2.639853E-1,1.5334661E-1,3.5054633E-1,-9.399186E-1,9.0955895E-1,-2.9140538E-1,2.922246E-1,-8.1012386E-1,9.213433E-1,-1.1496627E-1,5.81771E-1,-1.0141013E0,-4.9455395E-1,6.674258E-1,-1.1440979E0,5.653493E-1,7.251564E-1,-8.44228E-2],"categories":[],"categories_nodes":[],"categories_segments":[],"categories_sizes":[],"default_left":[true,true,true,true,true,false,false,true,true,true,true,true,true,true,false,true,true,true,false,true,true,true,true,true,false,true,true,true,false,true,false,false,false,false,false,false,false,false,false,false,false,false,false,false,false,false,false,false,false],"id":19,"left_children":[1,3,5,7,9,-1,-1,11,13,15,17,19,21,23,-1,25,27,29,-1,31,33,35,37,39,-1,41,43,45,-1,47,-1,-1,-1,-1,-1,-1,-1,-1,-1,-1,-1,-1,-1,-1,-1,-1,-1,-1,-1],"loss_changes":[6.2966275E0,6.342466E0,1.8258376E0,7.498349E0,7.635255E0,0E0,0E0,6.610874E0,6.729169E0,6.1452293E0,4.705216E0,6.296386E0,2.8521295E0,3.7732544E0,0E0,7.373479E0,4.585199E0,2.1866858E0,0E0,7.609586E0,7.2681713E0,1.9068551E0,1.1598498E0,3.5459042E0,0E0,5.1004925E0,2.424625E0,4.5813103E0,0E0,5.9151334E-1,0E0,0E0,0E0,0E0,0E0,0E0,0E0,0E0,0E0,0E0,0E0,0E0,0E0,0E0,0E0,0E0,0E0,0E0,0E0],"parents":[2147483647,0,0,1,1,2,2,3,3,4,4,7,7,8,8,9,9,10,10,11,11,12,12,13,13,15,15,16,16,17,17,19,19,20,20,21,21,22,22,23,23,25,25,26,26,27,27,29,29],"right_children":[2,4,6,8,10,-1,-1,12,14,16,18,20,22,24,-1,26,28,30,-1,32,34,36,38,40,-1,42,44,46,-1,48,-1,-1,-1,-1,-1,-1,-1,-1,-1,-1,-1,-1,-1,-1,-1,-1,-1,-1,-1],"split_conditions":[1.4762893E-1,4.8120283E-2,1.0268135E-1,6.936686E-2,8.649507E-2,2.7870136E-1,-6.974843E-2,1.2518471E-1,7.559764E-2,6.796032E-2,5.2425917E-2,5.3134833E-2,1.05425015E-1,1.4819404E-1,-3.402357E-1,7.473384E-2,5.6644294E-2,5.2473605E-2,-5.0684357E-1,3.461951E-2,6.762773E-2,6.864066E-2,6.891081E-2,9.389886E-2,-1.9070804E-1,1.798324E-1,9.309095E-2,5.8775887E-2,2.2364002E-1,5.7099815E-2,-2.2205837E-1,-7.91956E-2,4.6003986E-2,1.051639E-1,-2.819756E-1,2.728677E-1,-8.742162E-2,8.7667376E-2,-2.4303716E-1,2.76403E-1,-3.4489885E-2,1.7453131E-1,-3.042304E-1,-1.483662E-1,2.0022775E-1,-3.4322938E-1,1.696048E-1,2.1754694E-1,-2.532684E-2],"split_indices":[277,12,588,503,247,0,0,284,47,233,81,457,285,500,0,291,89,282,0,608,192,75,14,293,0,169,172,586,0,474,0,0,0,0,0,0,0,0,0,0,0,0,0,0,0,0,0,0,0],"split_type":[0,0,0,0,0,0,0,0,0,0,0,0,0,0,0,0,0,0,0,0,0,0,0,0,0,0,0,0,0,0,0,0,0,0,0,0,0,0,0,0,0,0,0,0,0,0,0,0,0],"sum_hessian":[4.6800146E2,4.585854E2,9.416098E0,3.6908264E2,8.950274E1,8.241533E0,1.1745647E0,3.4553067E2,2.3551981E1,8.310125E1,6.401488E0,3.328114E2,1.2719254E1,2.2050419E1,1.5015615E0,7.4271736E1,8.829514E0,4.2905884E0,2.1108994E0,2.8910422E2,4.3707172E1,1.0585455E1,2.1337984E0,2.0590206E1,1.4602125E0,6.3066113E1,1.1205624E1,7.117294E0,1.7122201E0,2.6342623E0,1.656326E0,2.3624783E2,5.28564E1,3.978518E1,3.9219933E0,9.548444E0,1.0370111E0,1.0287366E0,1.1050618E0,1.6789183E1,3.8010232E0,6.187865E1,1.1874632E0,9.956201E0,1.2494233E0,5.7438107E0,1.3734833E0,1.5226712E0,1.111591E0],"tree_param":{"num_deleted":"0","num_feature":"618","num_nodes":"49","size_leaf_vector":"0"}},{"base_weights":[8.120548E-3,2.0938251E-2,-9.5822716E-1,-2.1039302E-2,3.6445874E-1,-1.103354E0,-1.4192605E-1,2.0676335E-2,-4.084152E-1,4.949837E-1,-7.021129E-1,-1.3409233E0,-2.690125E-1,7.123966E-2,-3.3026648E-1,-5.0012875E-1,8.5686547E-1,6.677336E-1,-2.1894524E-1,6.305637E-2,-1.5672282E0,8.867539E-2,-1.1190156E0,-5.047409E-1,5.0801677E-1,-5.896111E-1,6.191836E-1,7.549527E-1,-5.477071E-1,2.9305705E-1,-1.2575545E0,4.055612E-1,-4.8006013E-1,1.7208011E-1,-1.5897101E-1,-1.5563397E0,2.5608623E-1,-5.892318E-1,8.3835423E-1,7.4165535E-1,-4.8388058E-1,-6.8964547E-1,3.3317706E-1,8.2534474E-1,-5.8665997E-1,6.4691746E-1,-7.7682054E-1],"categories":[],"categories_nodes":[],"categories_segments":[],"categories_sizes":[],"default_left":[true,true,true,true,true,true,false,true,true,true,true,false,false,true,true,true,false,true,true,true,false,true,true,true,true,true,false,true,false,true,false,false,false,false,false,false,false,false,false,false,false,false,false,false,false,false,false],"id":20,"left_children":[1,3,5,7,9,11,-1,13,15,17,19,-1,-1,21,23,25,-1,27,29,31,-1,33,35,37,39,41,-1,43,-1,45,-1,-1,-1,-1,-1,-1,-1,-1,-1,-1,-1,-1,-1,-1,-1,-1,-1],"loss_changes":[5.725955E0,6.577599E0,5.6032324E-1,6.5844655E0,7.261816E0,6.2846327E-1,0E0,6.5594974E0,5.025067E0,5.676077E0,3.9572892E0,0E0,0E0,6.7976227E0,7.066652E0,4.127515E0,0E0,4.2668324E0,5.414346E0,9.4889706E-1,0E0,6.6169786E0,3.2450037E0,4.924531E0,2.3333604E0,3.4879856E0,0E0,3.7268162E0,0E0,3.2157218E0,0E0,0E0,0E0,0E0,0E0,0E0,0E0,0E0,0E0,0E0,0E0,0E0,0E0,0E0,0E0,0E0,0E0],"parents":[2147483647,0,0,1,1,2,2,3,3,4,4,5,5,7,7,8,8,9,9,10,10,13,13,14,14,15,15,17,17,18,18,19,19,21,21,22,22,23,23,24,24,25,25,27,27,29,29],"right_children":[2,4,6,8,10,12,-1,14,16,18,20,-1,-1,22,24,26,-1,28,30,32,-1,34,36,38,40,42,-1,44,-1,46,-1,-1,-1,-1,-1,-1,-1,-1,-1,-1,-1,-1,-1,-1,-1,-1,-1],"split_conditions":[3.034372E-1,6.280778E-2,1.0917635E-1,1.21826455E-1,5.8436602E-2,2.9342975E-2,-4.2577818E-2,6.2854335E-2,7.115626E-2,1.62124E-2,2.6662488E-2,-4.0227702E-1,-8.070376E-2,1.5034732E-1,5.3567875E-2,5.1898897E-2,2.5705966E-1,2.0003995E-1,4.933814E-2,5.0828688E-2,-4.7016847E-1,3.563696E-2,4.7738094E-2,6.849526E-2,6.637356E-2,6.0421698E-2,1.8575509E-1,9.088561E-2,-1.6431212E-1,2.3158887E-2,-3.7726638E-1,1.2166837E-1,-1.4401804E-1,5.1624037E-2,-4.7691304E-2,-4.6690193E-1,7.682587E-2,-1.7676954E-1,2.5150627E-1,2.2249661E-1,-1.4516418E-1,-2.0689365E-1,9.995312E-2,2.4760343E-1,-1.75998E-1,1.9407524E-1,-2.3304617E-1],"split_indices":[500,322,551,290,266,471,0,67,222,54,546,0,0,515,329,331,0,290,139,12,0,291,189,240,291,278,0,494,0,528,0,0,0,0,0,0,0,0,0,0,0,0,0,0,0,0,0],"split_type":[0,0,0,0,0,0,0,0,0,0,0,0,0,0,0,0,0,0,0,0,0,0,0,0,0,0,0,0,0,0,0,0,0,0,0,0,0,0,0,0,0,0,0,0,0,0,0],"sum_hessian":[4.5965933E2,4.5460773E2,5.051615E0,4.0594122E2,4.8666492E1,3.9905086E0,1.0611069E0,3.6733084E2,3.86104E1,4.383764E1,4.828853E0,2.6334887E0,1.3570198E0,3.2176797E2,4.5562847E1,3.6564747E1,2.0456564E0,3.5348938E1,8.488704E0,3.0544198E0,1.7744333E0,3.1803467E2,3.7333062E0,3.8042778E1,7.5200715E0,3.4296207E1,2.2685401E0,3.333566E1,2.0132773E0,6.166598E0,2.3221052E0,2.0284753E0,1.0259444E0,2.3813756E2,7.989711E1,2.7324913E0,1.000815E0,3.6319305E1,1.723471E0,6.29062E0,1.2294514E0,3.11699E1,3.1263063E0,3.203942E1,1.2962394E0,4.9310093E0,1.2355888E0],"tree_param":{"num_deleted":"0","num_feature":"618","num_nodes":"47","size_leaf_vector":"0"}},{"base_weights":[5.796917E-3,-2.4383403E-2,4.216217E-1,2.066865E-2,-3.3950084E-1,5.143868E-1,-5.9280634E-1,-3.5990085E-2,3.2905832E-1,-5.239329E-1,4.0311882E-1,7.053246E-1,-6.4654656E-2,-1.5560881E-2,-9.7160804E-1,3.8696808E-1,-1.000089E0,-6.880319E-1,4.4326052E-1,5.872519E-1,-6.2240076E-1,8.672364E-1,-2.5564557E-1,4.0469593E-1,-7.5905806E-1,-1.0455077E-3,-1.3136811E0,-3.5966098E-1,-2.017832E0,4.4638753E-1,-8.8303375E-1,-8.6491823E-1,4.0740418E-1,7.3957384E-1,-3.8818225E-1,8.1093115E-1,-2.1255435E-1,9.769115E-1,-1.12159595E-1,2.9817545E-1,-7.3486423E-1,6.9324684E-1,-4.3375483E-1,-1.678144E-1,-1.0121461E0,-5.6220867E-2,3.339268E-1,-2.899842E-1,-1.692506E0,6.620205E-2,-1.0257568E0,6.198734E-1,-7.943057E-2,-1.0243139E0,1.6003887E-1,8.2851255E-1,-7.936367E-1,8.97424E-1,2.8572358E-2,9.625423E-1,6.4348236E-2,1.0376526E0,1.774901E-2,8.555774E-1,6.891535E-2],"categories":[],"categories_nodes":[],"categories_segments":[],"categories_sizes":[],"default_left":[true,true,true,true,true,true,false,true,true,true,true,true,true,true,true,true,false,true,true,true,false,true,true,true,true,true,true,true,false,true,false,true,true,true,false,true,false,true,false,false,false,true,false,false,false,false,false,false,false,false,false,false,false,false,false,false,false,false,false,false,false,false,false,false,false],"id":21,"left_children":[1,3,5,7,9,11,-1,13,15,17,19,21,23,25,27,29,-1,31,33,35,-1,37,39,41,43,45,47,49,-1,51,-1,53,55,57,-1,59,-1,61,-1,-1,-1,63,-1,-1,-1,-1,-1,-1,-1,-1,-1,-1,-1,-1,-1,-1,-1,-1,-1,-1,-1,-1,-1,-1,-1],"loss_changes":[5.6790404E0,5.9992013E0,3.1864386E0,6.480848E0,7.4502378E0,3.206596E0,0E0,5.9803066E0,4.817542E0,7.0938396E0,2.4577994E0,3.5801144E0,2.916442E0,5.8018303E0,3.5550623E0,4.610982E0,0E0,7.5142326E0,1.9655205E0,1.9449232E0,0E0,2.1182356E0,1.2501204E0,1.6142356E0,3.6533308E-1,