{"learner":{"attributes":{"best_iteration":"99","best_ntree_limit":"100","scikit_learn":"{\"use_label_encoder\": true, \"n_estimators\": 100, \"objective\": \"binary:logistic\", \"max_depth\": null, \"learning_rate\": null, \"verbosity\": null, \"booster\": null, \"tree_method\": null, \"gamma\": null, \"min_child_weight\": null, \"max_delta_step\": null, \"subsample\": null, \"colsample_bytree\": null, \"colsample_bylevel\": null, \"colsample_bynode\": null, \"reg_alpha\": null, \"reg_lambda\": null, \"scale_pos_weight\": null, \"base_score\": null, \"missing\": NaN, \"num_parallel_tree\": null, \"random_state\": null, \"n_jobs\": null, \"monotone_constraints\": null, \"interaction_constraints\": null, \"importance_type\": null, \"gpu_id\": null, \"validate_parameters\": null, \"predictor\": null, \"enable_categorical\": false, \"classes_\": [0, 1], \"n_classes_\": 2, \"_le\": {\"classes_\": [0, 1]}, \"_estimator_type\": \"classifier\"}"},"feature_names":[],"feature_types":[],"gradient_booster":{"model":{"gbtree_model_param":{"num_trees":"100","size_leaf_vector":"0"},"tree_info":[0,0,0,0,0,0,0,0,0,0,0,0,0,0,0,0,0,0,0,0,0,0,0,0,0,0,0,0,0,0,0,0,0,0,0,0,0,0,0,0,0,0,0,0,0,0,0,0,0,0,0,0,0,0,0,0,0,0,0,0,0,0,0,0,0,0,0,0,0,0,0,0,0,0,0,0,0,0,0,0,0,0,0,0,0,0,0,0,0,0,0,0,0,0,0,0,0,0,0,0],"trees":[{"base_weights":[4.4305465E-1,6.9668543E-1,-5.066251E-1,8.4648496E-1,-3.1987077E-1,-6.565401E-1,1.254902E0,6.87079E-1,1.4086957E0,-5.147059E-1,1.0379747E0,-7.6950353E-1,1.4754099E0,1.5E0,-2.2222222E-1,5.413643E-1,1.463035E0,1.5155876E0,3.5555556E-1,-6.7489713E-1,7.741935E-1,1.2432432E0,-1.1111112E0,-4.7959185E-1,-1.4137931E0,1.6491228E0,-5E-1,1.6190476E0,-5E-1,-1.0769231E0,1.1111112E0,5.928972E-1,-1.1058824E0,1.5019763E0,-6.666667E-1,1.5927835E0,4.516129E-1,9.032258E-1,-7.5E-1,-9.38992E-1,2.300885E-1,1.0545454E0,-9.0909094E-1,1.5151515E0,-6.666667E-1,-6.80916E-1,5.263158E-1,-1.5375E0,-0E0,1.8431373E0,-0E0,1.7894737E0,-0E0,4.542884E-1,1.1166966E0,-1.2911392E0,8E-1,1.5573771E0,-0E0,-0E0,-1E0,1.6584022E0,5.925926E-1,9.166667E-1,-8.888889E-1,1.1034483E0,-1E0,-1.5789474E0,3.529412E-1,-1.0948012E0,7.4074075E-2,4.742268E-1,-1E0,1.3469387E0,-8E-1,1.6774193E0,-5E-1,-1E0,-0E0,-8.7732345E-1,2.1487603E-1,7.457627E-1,-9.4736844E-1,-1.5974026E0,-0E0,5.6E-1,-1.2727273E0,1.8888888E0,-0E0,-1E0,1E0],"categories":[],"categories_nodes":[],"categories_segments":[],"categories_sizes":[],"default_left":[true,true,true,true,true,true,true,true,true,true,true,true,true,true,true,true,true,true,true,true,true,true,false,true,true,true,false,true,false,false,false,true,true,true,true,true,true,true,true,true,true,true,false,true,true,true,true,true,true,false,false,true,true,false,false,false,false,false,false,false,false,false,false,false,false,false,false,false,false,false,false,false,false,false,false,false,false,false,false,false,false,false,false,false,false,false,false,false,false,false,false],"id":0,"left_children":[1,3,5,7,9,11,13,15,17,19,21,23,25,27,29,31,33,35,37,39,41,43,-1,45,47,49,-1,51,-1,-1,-1,53,55,57,59,61,63,65,67,69,71,73,-1,75,77,79,81,83,85,-1,-1,87,89,-1,-1,-1,-1,-1,-1,-1,-1,-1,-1,-1,-1,-1,-1,-1,-1,-1,-1,-1,-1,-1,-1,-1,-1,-1,-1,-1,-1,-1,-1,-1,-1,-1,-1,-1,-1,-1,-1],"loss_changes":[3.662315E2,1.8289209E2,8.5527336E1,9.272955E1,4.147429E1,7.248194E1,9.565357E0,9.152817E1,2.5352722E1,2.8602478E1,1.0093891E1,5.199591E1,6.057667E0,6.047619E0,6.324786E0,5.914308E1,1.1658234E1,1.6405731E1,1.4300716E1,2.925481E1,8.273314E0,1.0617525E1,0E0,4.0051025E1,1.5215958E1,4.5593376E0,0E0,5.794487E0,0E0,0E0,0E0,4.804608E1,8.535812E0,1.0526154E1,6.666666E-1,1.1749725E1,1.0477598E1,7.0100107E0,7.871517E0,1.4957985E1,8.958033E0,8.533581E0,0E0,6.2341156E0,6.666666E-1,2.8998718E1,1.1459411E1,7.3680115E0,6.4145455E0,0E0,0E0,3.3801155E0,4E0,0E0,0E0,0E0,0E0,0E0,0E0,0E0,0E0,0E0,0E0,0E0,0E0,0E0,0E0,0E0,0E0,0E0,0E0,0E0,0E0,0E0,0E0,0E0,0E0,0E0,0E0,0E0,0E0,0E0,0E0,0E0,0E0,0E0,0E0,0E0,0E0,0E0,0E0],"parents":[2147483647,0,0,1,1,2,2,3,3,4,4,5,5,6,6,7,7,8,8,9,9,10,10,11,11,12,12,13,13,14,14,15,15,16,16,17,17,18,18,19,19,20,20,21,21,23,23,24,24,25,25,27,27,31,31,32,32,33,33,34,34,35,35,36,36,37,37,38,38,39,39,40,40,41,41,43,43,44,44,45,45,46,46,47,47,48,48,51,51,52,52],"right_children":[2,4,6,8,10,12,14,16,18,20,22,24,26,28,30,32,34,36,38,40,42,44,-1,46,48,50,-1,52,-1,-1,-1,54,56,58,60,62,64,66,68,70,72,74,-1,76,78,80,82,84,86,-1,-1,88,90,-1,-1,-1,-1,-1,-1,-1,-1,-1,-1,-1,-1,-1,-1,-1,-1,-1,-1,-1,-1,-1,-1,-1,-1,-1,-1,-1,-1,-1,-1,-1,-1,-1,-1,-1,-1,-1,-1],"split_conditions":[4.2218342E-2,6.479168E-2,1.4855418E-1,4.4091865E-2,6.9266446E-2,2.5471175E-1,5.0584592E-2,4.8197217E-2,5.6853265E-2,1.0270454E-1,9.0500526E-2,1.2781115E-1,9.738514E-2,1.4297831E-1,3.9549902E-2,2.1540222E-1,1.0749599E-1,1.2307727E-1,4.13957E-2,5.2276507E-2,1.8171625E-2,2.575735E-1,-3.3333337E-1,5.563751E-2,7.021561E-2,3.2137223E-2,-1.5E-1,7.580527E-2,-1.5E-1,-3.2307696E-1,3.3333337E-1,5.2325375E-2,5.0383143E-2,1.3911948E-1,2.6707187E-2,6.1490804E-2,2.6903281E-2,7.374875E-2,5.8175385E-2,7.070929E-2,5.2133016E-2,6.9478124E-2,-2.7272728E-1,9.1305144E-2,2.613054E-2,1.4398009E-2,5.7042547E-2,8.188573E-2,1.8217778E-2,5.529412E-1,-0E0,1.1984663E-1,2.4014454E-2,1.3628653E-1,3.3500898E-1,-3.873418E-1,2.4000001E-1,4.6721315E-1,-0E0,-0E0,-3E-1,4.975207E-1,1.7777778E-1,2.75E-1,-2.6666668E-1,3.3103448E-1,-3E-1,-4.7368425E-1,1.0588236E-1,-3.2844037E-1,2.2222223E-2,1.4226805E-1,-3E-1,4.0408164E-1,-2.4000001E-1,5.032258E-1,-1.5E-1,-3E-1,-0E0,-2.6319703E-1,6.446281E-2,2.2372882E-1,-2.8421053E-1,-4.7922078E-1,-0E0,1.6800001E-1,-3.818182E-1,5.6666666E-1,-0E0,-3E-1,3E-1],"split_indices":[275,284,277,277,277,173,14,285,377,285,128,275,234,377,310,172,355,167,42,173,277,284,0,285,512,165,0,243,0,0,0,173,8,481,28,463,425,216,548,168,303,453,0,368,65,168,505,95,365,0,0,147,69,0,0,0,0,0,0,0,0,0,0,0,0,0,0,0,0,0,0,0,0,0,0,0,0,0,0,0,0,0,0,0,0,0,0,0,0,0,0],"split_type":[0,0,0,0,0,0,0,0,0,0,0,0,0,0,0,0,0,0,0,0,0,0,0,0,0,0,0,0,0,0,0,0,0,0,0,0,0,0,0,0,0,0,0,0,0,0,0,0,0,0,0,0,0,0,0,0,0,0,0,0,0,0,0,0,0,0,0,0,0,0,0,0,0,0,0,0,0,0,0,0,0,0,0,0,0,0,0,0,0,0,0],"sum_hessian":[1.518E3,1.19825E3,3.1975E2,1.0445E3,1.5375E2,2.9525E2,2.45E1,8.155E2,2.29E2,1.35E2,1.875E1,2.81E2,1.425E1,2.1E1,3.5E0,6.88E2,1.275E2,2.075E2,2.15E1,1.205E2,1.45E1,1.75E1,1.25E0,1.95E2,8.6E1,1.325E1,1E0,2E1,1E0,2.25E0,1.25E0,6.6775E2,2.025E1,1.255E2,2E0,1.93E2,1.45E1,1.45E1,7E0,9.325E1,2.725E1,1.275E1,1.75E0,1.55E1,2E0,1.6275E2,3.225E1,7.9E1,7E0,1.175E1,1.5E0,1.8E1,2E0,5.295E2,1.3825E2,1.875E1,1.5E0,1.21E2,4.5E0,1E0,1E0,1.805E2,1.25E1,1.1E1,3.5E0,1.35E1,1E0,3.75E0,3.25E0,8.075E1,1.25E1,2.325E1,4E0,1.125E1,1.5E0,1.45E1,1E0,1E0,1E0,1.335E2,2.925E1,2.85E1,3.75E0,7.6E1,3E0,5.25E0,1.75E0,1.7E1,1E0,1E0,1E0],"tree_param":{"num_deleted":"0","num_feature":"618","num_nodes":"91","size_leaf_vector":"0"}},{"base_weights":[3.1992438E-1,5.0245875E-1,-3.6715043E-1,6.484333E-1,-1.0300103E-1,-5.2925557E-1,6.626574E-1,7.271102E-1,-2.2134271E-1,1.5572838E-1,-6.1627245E-1,-6.1983764E-1,1.1488535E0,9.662369E-1,-4.2825878E-1,7.8402644E-1,-2.478291E-1,-5.610356E-2,-1.2334726E0,7.4827005E-3,9.145095E-1,-7.491926E-1,7.882338E-1,-7.7699035E-1,7.359011E-2,1.3681568E0,-6.5113467E-1,1.1798407E0,-1.9948734E-1,-9.2403835E-1,7.1800524E-1,8.1911105E-1,-8.9543664E-1,-5.3901994E-1,6.2696856E-1,1.21882424E-1,-1.1052506E0,-1.6170961E0,3.980702E-1,-1.8385108E-1,7.3747003E-1,1.1544526E0,-6.6090924E-1,-8.712073E-1,3.902192E-1,1.3973063E0,-5.394127E-1,-9.0023875E-1,1.9510694E-2,8.030757E-1,-5.479701E-1,1.4958856E0,6.0607266E-2,1.3090495E0,-3.9846894E-1,-8.888416E-1,6.0175955E-1,-1.3763933E0,3.9967063E-1,1.223744E0,-1.6702047E-1,6.9932485E-1,1.2245903E0,-1.2437532E0,5.9503025E-1,-8.6173314E-1,5.968557E-1,1.1126866E0,-3.7588936E-1,3.3540726E-1,-7.102096E-1,-1.4041948E0,5.7223797E-1,-1.891844E0,8.678973E-2,-4.2634964E-1,6.534107E-1,9.8791194E-1,-6.0903776E-1,1.3036875E0,-7.4942976E-1,-1.3469931E0,4.8688188E-1,-1.0380458E0,5.8678575E-2,8.645454E-1,-1.1324087E0,-9.429111E-1,5.854055E-1,3.016042E-1,-9.446599E-1,1.0583531E0,-6.701971E-1,-1.0435458E0,3.7295657E-1,1.4173698E0,-1.8555872E-1,-1.0900544E0,-2.57207E-1,1.1005893E0,-1.6599883E-1],"categories":[],"categories_nodes":[],"categories_segments":[],"categories_sizes":[],"default_left":[true,true,true,true,true,true,true,true,true,true,true,true,true,true,true,true,true,true,true,true,true,true,true,true,true,true,false,true,true,true,true,true,true,true,true,true,true,true,false,true,true,true,true,true,true,false,false,true,true,true,true,false,false,true,false,true,true,false,false,false,false,false,false,false,false,false,false,false,false,false,false,false,false,false,false,false,false,false,false,false,false,false,false,false,false,false,false,false,false,false,false,false,false,false,false,false,false,false,false,false,false],"id":1,"left_children":[1,3,5,7,9,11,13,15,17,19,21,23,25,27,29,31,33,35,37,39,41,43,45,47,49,51,-1,53,55,57,59,61,63,65,67,69,71,73,-1,75,77,79,81,83,85,-1,-1,87,89,91,93,-1,-1,95,-1,97,99,-1,-1,-1,-1,-1,-1,-1,-1,-1,-1,-1,-1,-1,-1,-1,-1,-1,-1,-1,-1,-1,-1,-1,-1,-1,-1,-1,-1,-1,-1,-1,-1,-1,-1,-1,-1,-1,-1,-1,-1,-1,-1,-1,-1],"loss_changes":[1.8590158E2,1.0351013E2,5.2336357E1,6.4704315E1,3.0404457E1,4.1694824E1,1.4587263E1,4.8202972E1,1.3144133E1,1.7151606E1,1.4907724E1,2.8003914E1,6.479782E0,8.648476E0,6.351925E0,4.8914825E1,1.2688004E1,1.3012964E1,7.554018E0,1.809949E1,1.0184092E1,1.0151382E1,6.509333E0,2.0550041E1,2.2338213E1,2.071001E0,0E0,6.3743477E0,3.897358E0,4.995946E0,1.8089857E0,3.807251E1,9.674802E0,1.4044943E1,6.541239E0,1.0874326E1,5.869583E0,4.441284E0,0E0,2.1131481E1,9.676178E0,7.225731E0,3.7506886E0,9.998623E0,6.407974E0,0E0,0E0,1.2036224E1,8.174244E0,9.218186E0,1.2561641E1,0E0,0E0,4.595539E0,0E0,1.868279E-1,1.4892931E0,0E0,0E0,0E0,0E0,0E0,0E0,0E0,0E0,0E0,0E0,0E0,0E0,0E0,0E0,0E0,0E0,0E0,0E0,0E0,0E0,0E0,0E0,0E0,0E0,0E0,0E0,0E0,0E0,0E0,0E0,0E0,0E0,0E0,0E0,0E0,0E0,0E0,0E0,0E0,0E0,0E0,0E0,0E0,0E0],"parents":[2147483647,0,0,1,1,2,2,3,3,4,4,5,5,6,6,7,7,8,8,9,9,10,10,11,11,12,12,13,13,14,14,15,15,16,16,17,17,18,18,19,19,20,20,21,21,22,22,23,23,24,24,25,25,27,27,28,28,29,29,30,30,31,31,32,32,33,33,34,34,35,35,36,36,37,37,39,39,40,40,41,41,42,42,43,43,44,44,47,47,48,48,49,49,50,50,53,53,55,55,56,56],"right_children":[2,4,6,8,10,12,14,16,18,20,22,24,26,28,30,32,34,36,38,40,42,44,46,48,50,52,-1,54,56,58,60,62,64,66,68,70,72,74,-1,76,78,80,82,84,86,-1,-1,88,90,92,94,-1,-1,96,-1,98,100,-1,-1,-1,-1,-1,-1,-1,-1,-1,-1,-1,-1,-1,-1,-1,-1,-1,-1,-1,-1,-1,-1,-1,-1,-1,-1,-1,-1,-1,-1,-1,-1,-1,-1,-1,-1,-1,-1,-1,-1,-1,-1,-1,-1],"split_conditions":[4.2218342E-2,4.372677E-2,1.000815E-1,1.1291014E-1,1.2188884E-1,2.4932303E-1,1.4307016E-1,1.24632016E-1,4.5931123E-2,6.1776854E-2,7.5204074E-2,5.1769592E-2,2.7797375E-2,6.0921386E-2,2.7622113E-2,1.8582296E-1,9.484904E-2,5.773683E-2,4.9636118E-2,6.0689796E-2,2.8645031E-2,1.407626E-1,6.980108E-2,5.7573035E-2,5.550722E-2,3.4985328E-1,-1.9534041E-1,2.9798565E-2,5.4696646E-2,2.051484E-1,3.1502113E-2,4.4165994E-3,5.3336136E-2,2.380923E-2,4.450784E-2,5.3865504E-2,2.0916706E-2,5.0808847E-2,1.1942106E-1,4.6198696E-2,5.2567147E-2,6.7157656E-2,4.734426E-2,4.786589E-2,2.52006E-2,4.1919193E-1,-1.6182381E-1,2.7446204E-1,2.3862088E-2,6.2703356E-2,5.3575847E-2,4.487657E-1,1.818218E-2,1.1027403E-1,-1.19540684E-1,2.4733672E-2,6.8840995E-2,-4.12918E-1,1.19901195E-1,3.6712322E-1,-5.010614E-2,2.0979746E-1,3.673771E-1,-3.7312597E-1,1.7850909E-1,-2.5851995E-1,1.7905672E-1,3.33806E-1,-1.1276681E-1,1.00622185E-1,-2.130629E-1,-4.2125848E-1,1.7167139E-1,-5.675532E-1,2.603692E-2,-1.2790489E-1,1.9602321E-1,2.963736E-1,-1.8271133E-1,3.9110625E-1,-2.2482894E-1,-4.0409794E-1,1.4606456E-1,-3.1141374E-1,1.7603572E-2,2.5936362E-1,-3.3972263E-1,-2.8287333E-1,1.7562166E-1,9.048127E-2,-2.8339797E-1,3.1750593E-1,-2.0105915E-1,-3.1306377E-1,1.1188698E-1,4.2521098E-1,-5.566762E-2,-3.2701632E-1,-7.71621E-2,3.301768E-1,-4.979965E-2],"split_indices":[275,284,277,293,284,173,275,172,438,168,291,372,452,475,90,290,173,471,277,285,513,285,463,285,377,174,0,195,447,277,307,277,368,305,519,306,53,312,0,277,539,369,551,277,291,0,0,294,563,6,173,0,0,109,0,90,275,0,0,0,0,0,0,0,0,0,0,0,0,0,0,0,0,0,0,0,0,0,0,0,0,0,0,0,0,0,0,0,0,0,0,0,0,0,0,0,0,0,0,0,0],"split_type":[0,0,0,0,0,0,0,0,0,0,0,0,0,0,0,0,0,0,0,0,0,0,0,0,0,0,0,0,0,0,0,0,0,0,0,0,0,0,0,0,0,0,0,0,0,0,0,0,0,0,0,0,0,0,0,0,0,0,0,0,0,0,0,0,0,0,0,0,0,0,0,0,0,0,0,0,0,0,0,0,0,0,0,0,0,0,0,0,0,0,0,0,0,0,0,0,0,0,0,0,0],"sum_hessian":[1.4798235E3,1.169415E3,3.1040842E2,9.421858E2,2.2722926E2,2.6861154E2,4.1796894E1,8.641792E2,7.800658E1,1.5153848E2,7.569079E1,2.5545314E2,1.3158383E1,3.2787186E1,9.009708E0,8.166969E2,4.7482334E1,6.796596E1,1.0040613E1,1.2761563E2,2.3922846E1,6.957309E1,6.1177025E0,2.0815755E2,4.7295597E1,1.1943182E1,1.2152009E0,2.7699501E1,5.0876827E0,6.424757E0,2.5849519E0,8.004867E2,1.6210167E1,3.5912197E1,1.1570135E1,5.886367E1,9.102292E0,8.136369E0,1.9042441E0,1.01706055E2,2.5909582E1,2.0992767E1,2.9300792E0,6.3056072E1,6.517013E0,4.1577983E0,1.9599044E0,1.801512E2,2.8006355E1,2.1624393E1,2.5671204E1,1.0749111E1,1.1940715E0,2.5761156E1,1.9383451E0,2.676031E0,2.4116514E0,4.7587385E0,1.6660182E0,1.4014095E0,1.1835425E0,6.200399E2,1.8044676E2,1.3273685E1,2.9364822E0,2.8154566E1,7.757633E0,7.7210517E0,3.8490832E0,4.731817E1,1.1545501E1,7.8638067E0,1.2384856E0,6.91158E0,1.2247889E0,7.92449E1,2.2461151E1,2.2070858E1,3.838724E0,1.97592E1,1.2335677E0,1.7252631E0,1.204816E0,5.3365086E1,9.690988E0,5.298604E0,1.2184094E0,1.7547629E2,4.6749015E0,2.2198723E1,5.8076334E0,1.8670877E1,2.953515E0,1.6603344E1,9.06786E0,2.4068493E1,1.6926637E0,1.4790876E0,1.1969436E0,1.1990755E0,1.212576E0],"tree_param":{"num_deleted":"0","num_feature":"618","num_nodes":"101","size_leaf_vector":"0"}},{"base_weights":[2.3699369E-1,3.2398838E-1,-5.987854E-1,4.0933004E-1,-2.4307573E-1,-7.732726E-1,1.4290632E-1,2.869056E-1,8.4406126E-1,-5.0818557E-1,6.4298964E-1,-8.731492E-1,6.6682047E-1,4.5364E-1,-8.595987E-1,1.8341716E-1,8.593602E-1,8.682693E-1,-1.3221526E0,-6.537147E-1,7.3827565E-1,1.1478658E0,2.82277E-2,-9.659234E-1,1.3278927E-1,1.1020434E0,-4.76806E-1,6.954418E-1,-9.0992653E-1,-1.1726466E0,3.4975928E-1,3.0140418E-1,-3.7609363E-1,9.8953754E-1,3.5712183E-2,9.1858274E-1,-9.2274025E-2,-8.096209E-1,6.186828E-2,1.1630912E0,-8.019434E-1,1.3035066E0,-8.56463E-1,-4.1416606E-1,1.4720681E0,-1.0137649E0,8.8337153E-1,-5.412527E-1,1.0701185E0,1.0257981E0,-4.3593404E-1,2.0882756E-1,1.2509172E0,-5.217472E-1,6.853279E-1,1.0232599E0,-1.0504396E0,2.970637E-1,-1.2747673E0,9.7543657E-1,4.4221845E-2,-4.8350316E-1,9.794702E-1,-9.068015E-1,3.7084725E-1,-3.2252467E-1,1.0938765E0,1.4385364E0,-1.19841926E-1,-1.356409E0,1.9406714E-1,1.4685869E0,-5.3429335E-1,-7.882718E-1,8.7965024E-1,-1.0708365E0,4.2010754E-1,-1.0062941E0,7.6460254E-1,1.5248992E0,-1.04838274E-1,1.2602923E0,-6.669611E-1,-9.230536E-1,6.3313085E-1],"categories":[],"categories_nodes":[],"categories_segments":[],"categories_sizes":[],"default_left":[true,true,true,true,true,true,true,true,true,true,true,true,true,true,true,true,true,true,false,true,true,true,true,true,true,false,false,true,false,false,false,true,true,true,true,true,true,true,true,true,true,true,false,true,false,true,false,true,true,true,true,false,false,false,false,false,false,false,false,false,false,false,false,false,false,false,false,false,false,false,false,false,false,false,false,false,false,false,false,false,false,false,false,false,false],"id":2,"left_children":[1,3,5,7,9,11,13,15,17,19,21,23,25,27,29,31,33,35,-1,37,39,41,43,45,47,-1,-1,49,-1,-1,-1,51,53,55,57,59,61,63,65,67,69,71,-1,73,-1,75,-1,77,79,81,83,-1,-1,-1,-1,-1,-1,-1,-1,-1,-1,-1,-1,-1,-1,-1,-1,-1,-1,-1,-1,-1,-1,-1,-1,-1,-1,-1,-1,-1,-1,-1,-1,-1,-1],"loss_changes":[1.0324714E2,6.225592E1,1.7448593E1,5.9192657E1,3.9940556E1,1.6204208E1,8.601132E0,5.155346E1,1.3988815E1,2.4129448E1,1.2158615E1,9.647583E0,4.3138103E0,7.4831405E0,2.9021683E0,4.899779E1,1.4264351E1,1.1817154E1,0E0,1.3132229E1,1.0157467E1,7.8362846E0,1.2577677E1,9.168602E0,6.5762825E0,0E0,0E0,7.2548246E0,0E0,0E0,0E0,5.3544033E1,2.03635E1,8.994858E0,6.968074E0,1.1428787E1,5.9210334E0,1.13899765E1,9.043099E0,4.2216244E0,2.273325E0,6.969307E0,0E0,8.013137E0,0E0,7.94722E0,0E0,4.5257897E0,2.4610128E0,6.5549E0,3.093558E0,0E0,0E0,0E0,0E0,0E0,0E0,0E0,0E0,0E0,0E0,0E0,0E0,0E0,0E0,0E0,0E0,0E0,0E0,0E0,0E0,0E0,0E0,0E0,0E0,0E0,0E0,0E0,0E0,0E0,0E0,0E0,0E0,0E0,0E0],"parents":[2147483647,0,0,1,1,2,2,3,3,4,4,5,5,6,6,7,7,8,8,9,9,10,10,11,11,12,12,13,13,14,14,15,15,16,16,17,17,19,19,20,20,21,21,22,22,23,23,24,24,27,27,31,31,32,32,33,33,34,34,35,35,36,36,37,37,38,38,39,39,40,40,41,41,43,43,45,45,47,47,48,48,49,49,50,50],"right_children":[2,4,6,8,10,12,14,16,18,20,22,24,26,28,30,32,34,36,-1,38,40,42,44,46,48,-1,-1,50,-1,-1,-1,52,54,56,58,60,62,64,66,68,70,72,-1,74,-1,76,-1,78,80,82,84,-1,-1,-1,-1,-1,-1,-1,-1,-1,-1,-1,-1,-1,-1,-1,-1,-1,-1,-1,-1,-1,-1,-1,-1,-1,-1,-1,-1,-1,-1,-1,-1,-1,-1],"split_conditions":[9.48534E-2,6.016899E-2,6.3061826E-2,4.4357307E-2,1.1973305E-1,1.4860259E-1,2.2659418E-1,5.4151062E-2,3.766742E-1,1.4679353E-1,1.4547363E-1,6.914917E-2,4.420898E-2,6.288595E-2,2.8008776E-2,4.0743895E-2,9.563173E-2,8.1945226E-2,-3.966458E-1,5.3648815E-2,1.02483094E-1,7.001716E-2,4.3353252E-2,1.02503546E-1,2.2717586E-2,3.3061302E-1,-1.430418E-1,4.8628237E-2,-2.7297798E-1,-3.51794E-1,1.04927786E-1,6.0595583E-2,5.77937E-2,1.5166235E-1,6.2719725E-2,1.1410995E-1,2.7248777E-2,6.699754E-2,1.8364744E-2,5.589059E-2,1.8891765E-2,2.788947E-2,-2.569389E-1,7.0355445E-2,4.4162044E-1,7.254996E-2,2.6501146E-1,5.3668812E-2,3.276527E-2,7.326999E-2,2.9989813E-2,6.264827E-2,3.7527516E-1,-1.5652415E-1,2.0559837E-1,3.06978E-1,-3.151319E-1,8.9119114E-2,-3.824302E-1,2.9263097E-1,1.3266554E-2,-1.4505096E-1,2.9384106E-1,-2.7204046E-1,1.1125418E-1,-9.6757405E-2,3.2816297E-1,4.3156093E-1,-3.595258E-2,-4.069227E-1,5.8220144E-2,4.405761E-1,-1.60288E-1,-2.3648155E-1,2.638951E-1,-3.2125098E-1,1.2603226E-1,-3.0188826E-1,2.2938077E-1,4.574698E-1,-3.1451482E-2,3.780877E-1,-2.0008834E-1,-2.769161E-1,1.8993926E-1],"split_indices":[275,377,174,277,372,277,275,285,167,294,377,550,28,592,526,284,284,436,0,221,167,312,583,61,282,0,0,104,0,0,0,168,174,505,452,290,558,114,163,79,247,127,0,574,0,216,0,432,396,148,614,0,0,0,0,0,0,0,0,0,0,0,0,0,0,0,0,0,0,0,0,0,0,0,0,0,0,0,0,0,0,0,0,0,0],"split_type":[0,0,0,0,0,0,0,0,0,0,0,0,0,0,0,0,0,0,0,0,0,0,0,0,0,0,0,0,0,0,0,0,0,0,0,0,0,0,0,0,0,0,0,0,0,0,0,0,0,0,0,0,0,0,0,0,0,0,0,0,0,0,0,0,0,0,0,0,0,0,0,0,0,0,0,0,0,0,0,0,0,0,0,0,0],"sum_hessian":[1.4163496E3,1.2833776E3,1.3297202E2,1.1157397E3,1.6763779E2,1.076129E2,2.535912E1,8.7187225E2,2.4386757E2,1.2935991E2,3.8277878E1,1.01001686E2,6.6112175E0,1.9776686E1,5.5824337E0,7.395048E2,1.3236742E2,2.4176495E2,2.1026201E0,1.16261475E2,1.3098434E1,2.0541172E1,1.7736708E1,9.250962E1,8.492062E0,4.8151183E0,1.7960992E0,1.7214088E1,2.5625975E0,4.4586477E0,1.1237859E0,6.1110016E2,1.2840465E2,1.1412809E2,1.823932E1,2.2977309E2,1.1991863E1,9.535482E1,2.0906654E1,1.0458638E1,2.6397963E0,1.9385498E1,1.155674E0,1.41226635E1,3.614045E0,9.061716E1,1.8924656E0,5.185605E0,3.3064566E0,1.3395875E1,3.8182123E0,5.579231E2,5.317705E1,1.13357605E2,1.5047048E1,1.12762436E2,1.3656514E0,1.5851367E1,2.387953E0,2.1563611E2,1.4136976E1,9.187078E0,2.8047845E0,8.831613E1,7.038689E0,1.5733765E1,5.1728897E0,8.510213E0,1.948426E0,1.4633355E0,1.1764609E0,1.7972057E1,1.4134403E0,1.1258126E1,2.864537E0,8.739193E1,3.225229E0,3.9930112E0,1.1925937E0,2.169062E0,1.1373947E0,1.1990357E1,1.4055182E0,2.7168553E0,1.1013571E0],"tree_param":{"num_deleted":"0","num_feature":"618","num_nodes":"85","size_leaf_vector":"0"}},{"base_weights":[1.7751795E-1,2.9231653E-1,-2.4855097E-1,3.4354207E-1,-4.405015E-1,-3.7634864E-1,4.2521736E-1,4.0304664E-1,-2.2195488E-1,-2.4102528E-1,-1.1059827E0,-5.034823E-1,4.321727E-1,6.454223E-1,-3.141427E-1,3.522057E-1,1.1141212E0,-4.825653E-1,3.6032706E-1,-4.452766E-1,5.152189E-1,-1.2550802E0,4.301265E-1,-6.2613946E-1,2.6764527E-2,5.952847E-1,-8.548511E-1,7.979284E-1,-4.6424744E-1,-6.4732987E-1,6.5798235E-1,3.8788912E-1,-7.0353585E-1,1.2598001E0,-1.1599516E0,-6.106191E-1,8.224133E-1,5.05656E-1,-1.1668409E0,-5.750123E-1,7.6634306E-1,9.1015375E-1,-8.941754E-1,-1.4106555E0,6.174355E-2,-7.242024E-1,5.8057487E-2,3.8635772E-1,-7.803159E-1,8.5185057E-1,-4.8438165E-1,-2.4660729E-1,-1.065209E0,9.9819034E-1,-7.5218596E-2,-8.729692E-1,4.6609172E-1,-9.4710565E-1,8.1941307E-1,1.1439978E0,-1.851104E-1,4.2222333E-1,-7.00837E-1,-9.132167E-1,1.0021944E0,1.332611E0,-3.4438193E-1,-2.6975924E-1,-1.4430394E0,-7.646598E-1,4.8189923E-1,1.3115504E0,-7.226704E-1,7.273008E-1,-6.206949E-1,-7.1414334E-1,6.754697E-1,1.2524303E0,-1.02575205E-1,1.2136151E0,-5.6060106E-1,-1.4702042E0,-4.291614E-1,-8.394909E-1,-1.1346368E-1,3.4933642E-1,-1.1274453E0,6.0226023E-1,-9.216002E-1,-1.0024214E0,4.8123866E-1,1.0793183E0,-3.7985945E-1,-9.937464E-1,1.0011117E0,1.0986423E0,-6.4888155E-1,-4.242286E-1,7.947731E-1,-1.1267418E0,-8.442045E-2,-1.1091293E0,8.3730936E-2],"categories":[],"categories_nodes":[],"categories_segments":[],"categories_sizes":[],"default_left":[true,true,true,true,true,true,true,true,true,true,true,true,true,true,true,true,true,true,true,true,true,true,false,true,true,true,true,true,true,true,true,true,true,true,true,true,true,true,false,true,true,true,false,true,false,true,true,true,true,true,true,false,false,true,true,true,false,true,false,false,false,false,false,false,false,false,false,false,false,false,false,false,false,false,false,false,false,false,false,false,false,false,false,false,false,false,false,false,false,false,false,false,false,false,false,false,false,false,false,false,false,false,false],"id":3,"left_children":[1,3,5,7,9,11,13,15,17,19,21,23,25,27,29,31,33,35,37,39,41,43,-1,45,47,49,51,53,55,57,59,61,63,65,67,69,71,73,-1,75,77,79,-1,81,-1,83,85,87,89,91,93,-1,-1,95,97,99,-1,101,-1,-1,-1,-1,-1,-1,-1,-1,-1,-1,-1,-1,-1,-1,-1,-1,-1,-1,-1,-1,-1,-1,-1,-1,-1,-1,-1,-1,-1,-1,-1,-1,-1,-1,-1,-1,-1,-1,-1,-1,-1,-1,-1,-1,-1],"loss_changes":[6.643036E1,4.0287292E1,2.5001005E1,3.37353E1,9.064679E0,2.5198448E1,7.7678165E0,3.2326538E1,1.4717655E1,8.78066E0,4.1888275E0,1.3705269E1,7.554068E0,6.4847145E0,4.097555E0,3.2148186E1,2.1314987E1,1.1637541E1,7.2938223E0,7.376624E0,7.6247244E0,3.1145878E0,0E0,1.1513123E1,1.2054926E1,8.826532E0,2.7282023E-1,5.6936283E0,2.3072438E0,4.7096953E0,1.600596E0,3.0914253E1,1.0936327E1,7.093361E0,6.5115166E-1,1.0677288E1,5.770004E0,7.5110984E0,0E0,7.516116E0,2.112091E0,5.167391E0,0E0,1.4395905E-1,0E0,1.04390335E1,8.114425E0,8.655363E0,4.072747E0,7.387703E0,5.890143E0,0E0,0E0,5.0489388E0,2.4397461E0,6.693673E-1,0E0,1.4109845E0,0E0,0E0,0E0,0E0,0E0,0E0,0E0,0E0,0E0,0E0,0E0,0E0,0E0,0E0,0E0,0E0,0E0,0E0,0E0,0E0,0E0,0E0,0E0,0E0,0E0,0E0,0E0,0E0,0E0,0E0,0E0,0E0,0E0,0E0,0E0,0E0,0E0,0E0,0E0,0E0,0E0,0E0,0E0,0E0,0E0],"parents":[2147483647,0,0,1,1,2,2,3,3,4,4,5,5,6,6,7,7,8,8,9,9,10,10,11,11,12,12,13,13,14,14,15,15,16,16,17,17,18,18,19,19,20,20,21,21,23,23,24,24,25,25,26,26,27,27,28,28,29,29,30,30,31,31,32,32,33,33,34,34,35,35,36,36,37,37,39,39,40,40,41,41,43,43,45,45,46,46,47,47,48,48,49,49,50,50,53,53,54,54,55,55,57,57],"right_children":[2,4,6,8,10,12,14,16,18,20,22,24,26,28,30,32,34,36,38,40,42,44,-1,46,48,50,52,54,56,58,60,62,64,66,68,70,72,74,-1,76,78,80,-1,82,-1,84,86,88,90,92,94,-1,-1,96,98,100,-1,102,-1,-1,-1,-1,-1,-1,-1,-1,-1,-1,-1,-1,-1,-1,-1,-1,-1,-1,-1,-1,-1,-1,-1,-1,-1,-1,-1,-1,-1,-1,-1,-1,-1,-1,-1,-1,-1,-1,-1,-1,-1,-1,-1,-1,-1],"split_conditions":[2.8155036E-2,1.2188884E-1,7.659854E-2,1.0667078E-1,2.653197E-1,7.6801375E-2,1.4474122E-1,1.4568856E-1,4.663291E-2,4.6876237E-2,7.100958E-2,4.9918145E-2,6.498663E-2,6.123637E-2,2.7622113E-2,1.4604864E-1,1.9586033E-1,5.4660715E-2,6.86689E-2,7.5204074E-2,6.801492E-2,4.9104307E-2,1.2903795E-1,6.4485036E-2,1.1244221E-1,5.9763495E-2,2.8552888E-2,4.9990512E-2,6.1127268E-2,1.0917121E-1,3.1502113E-2,1.5008843E-1,5.7632014E-2,2.85721E-2,2.6145867E-1,7.0194714E-2,2.6375659E-2,8.266885E-2,-3.500523E-1,7.2815776E-2,2.041853E-2,3.1778846E-2,-2.6825264E-1,1.916132E-1,1.8523065E-2,1.342588E-2,1.855649E-1,6.173907E-2,6.631437E-2,5.5383094E-2,5.3285092E-2,-7.398219E-2,-3.1956273E-1,9.829294E-2,5.4188877E-2,5.4360967E-2,1.3982752E-1,5.9798703E-2,2.4582393E-1,3.4319934E-1,-5.5533122E-2,1.2666701E-1,-2.1025111E-1,-2.7396503E-1,3.0065835E-1,3.997833E-1,-1.03314586E-1,-8.0927774E-2,-4.3291184E-1,-2.2939795E-1,1.4456977E-1,3.9346513E-1,-2.1680112E-1,2.1819025E-1,-1.8620847E-1,-2.1424301E-1,2.0264092E-1,3.757291E-1,-3.0772563E-2,3.6408454E-1,-1.6818032E-1,-4.410613E-1,-1.2874843E-1,-2.5184727E-1,-3.4039106E-2,1.0480093E-1,-3.3823362E-1,1.8067807E-1,-2.7648008E-1,-3.007264E-1,1.443716E-1,3.237955E-1,-1.1395784E-1,-2.9812393E-1,3.0033353E-1,3.295927E-1,-1.9466448E-1,-1.2726858E-1,2.3843195E-1,-3.3802253E-1,-2.5326136E-2,-3.3273882E-1,2.5119282E-2],"split_indices":[275,284,277,293,284,174,275,294,173,252,316,294,482,246,90,290,167,219,487,291,73,109,0,168,275,346,617,342,559,76,307,377,579,544,167,357,322,287,0,206,427,169,0,285,0,285,275,605,119,390,190,0,0,550,505,244,0,18,0,0,0,0,0,0,0,0,0,0,0,0,0,0,0,0,0,0,0,0,0,0,0,0,0,0,0,0,0,0,0,0,0,0,0,0,0,0,0,0,0,0,0,0,0],"split_type":[0,0,0,0,0,0,0,0,0,0,0,0,0,0,0,0,0,0,0,0,0,0,0,0,0,0,0,0,0,0,0,0,0,0,0,0,0,0,0,0,0,0,0,0,0,0,0,0,0,0,0,0,0,0,0,0,0,0,0,0,0,0,0,0,0,0,0,0,0,0,0,0,0,0,0,0,0,0,0,0,0,0,0,0,0,0,0,0,0,0,0,0,0,0,0,0,0,0,0,0,0,0,0],"sum_hessian":[1.3556727E3,1.0681799E3,2.8749286E2,9.988868E2,6.929314E1,2.4202747E2,4.5465378E1,9.040456E2,9.4841156E1,5.4360806E1,1.4932326E1,2.0946762E2,3.2559856E1,3.5129692E1,1.0335686E1,8.4511615E2,5.892943E1,6.563591E1,2.9205242E1,4.312463E1,1.1236177E1,1.3777961E1,1.154366E0,1.699693E2,3.949831E1,2.9374525E1,3.185332E0,3.113203E1,3.9976614E0,7.946278E0,2.3894072E0,8.180976E2,2.701861E1,5.58008E1,3.1286266E0,6.0255314E1,5.3805966E0,2.727827E1,1.9269719E0,3.942822E1,3.6964095E0,9.053473E0,2.1827042E0,1.225844E1,1.5195203E0,1.4861107E2,2.1358238E1,2.7684723E1,1.1813587E1,2.3904903E1,5.4696226E0,1.3767682E0,1.8085638E0,2.5207352E1,5.9246798E0,2.820298E0,1.1773634E0,6.891965E0,1.0543134E0,1.2892758E0,1.1001315E0,7.936801E2,2.4417423E1,2.4474628E1,2.5439816E0,5.354001E1,2.2607915E0,1.2260697E0,1.902557E0,5.307241E1,7.1829023E0,4.201612E0,1.178985E0,2.308906E1,4.1892104E0,3.5866547E1,3.5616739E0,2.087346E0,1.6090634E0,7.6499023E0,1.4035712E0,1.1087802E1,1.1706388E0,1.2469751E2,2.3913557E1,1.771177E1,3.6464686E0,2.4225414E1,3.4593086E0,1.0219739E1,1.5938481E0,2.0282862E1,3.6220417E0,4.319523E0,1.1500998E0,2.4072203E1,1.1351486E0,4.5940747E0,1.3306047E0,1.8091825E0,1.0111154E0,5.890209E0,1.0017556E0],"tree_param":{"num_deleted":"0","num_feature":"618","num_nodes":"103","size_leaf_vector":"0"}},{"base_weights":[1.2992501E-1,2.1481068E-1,-2.3838983E-1,1.5180984E-1,7.932217E-1,-4.1112489E-1,4.5236447E-1,6.2943876E-2,5.308347E-1,8.4529704E-1,-1.0466113E0,-4.6897185E-1,8.573681E-1,5.8011514E-1,-9.718503E-1,-3.0350065E-2,5.1241267E-1,5.866461E-1,-5.548059E-1,8.853525E-1,-1.0451304E0,-1.2807226E0,-3.274344E-1,-5.1519084E-1,8.5377604E-1,1.2278924E0,-5.79835E-1,7.372051E-1,-4.2332166E-1,-1.2326823E0,-8.646919E-2,-9.01374E-2,8.4412456E-1,5.7827896E-1,-7.8746885E-1,6.561195E-1,-2.7735034E-1,-9.754522E-1,3.9744177E-1,9.172907E-1,-1.025205E0,-4.0574574E-1,-1.0440866E0,1.2602715E0,-6.228848E-1,8.7020516E-1,-5.9784174E-1,-9.769241E-1,7.1329653E-1,-1.7074937E-1,5.831361E-1,1.0124593E0,-1.8845724E-1,6.306865E-1,-1.170028E0,-1.3000631E0,9.678655E-1,6.846921E-1,-1.1641139E0,1.3276654E-1,-1.6163756E0,-1.3572576E0,2.4302807E-1,8.2549655E-1,-3.5282487E-1,9.9204934E-1,6.2754415E-2,-5.256289E-1,2.1787465E-1,-1.1525515E0,1.9364733E-1,1.536388E0,7.003408E-2,9.546786E-1,-5.893282E-1,1.8366307E-1,-1.4278365E0,-1.2886567E0,-5.023058E-2],"categories":[],"categories_nodes":[],"categories_segments":[],"categories_sizes":[],"default_left":[true,true,true,true,true,true,true,true,true,true,true,true,true,true,true,true,true,true,true,true,false,false,false,true,true,false,false,true,true,false,false,true,true,true,true,true,true,true,true,true,false,true,true,true,false,true,true,true,false,false,false,false,false,false,false,false,false,false,false,false,false,false,false,false,false,false,false,false,false,false,false,false,false,false,false,false,false,false,false],"id":4,"left_children":[1,3,5,7,9,11,13,15,17,19,21,23,25,27,29,31,33,35,37,39,-1,-1,-1,41,43,-1,-1,45,47,-1,-1,49,51,53,55,57,59,61,63,65,-1,67,69,71,-1,73,75,77,-1,-1,-1,-1,-1,-1,-1,-1,-1,-1,-1,-1,-1,-1,-1,-1,-1,-1,-1,-1,-1,-1,-1,-1,-1,-1,-1,-1,-1,-1,-1],"loss_changes":[4.06593E1,3.8364185E1,2.926986E1,3.2086212E1,1.08005905E1,1.4748669E1,9.522187E0,3.2455547E1,1.1291378E1,8.588364E0,1.3550878E-1,1.1911083E1,5.4411507E0,7.5331373E0,9.1570807E-1,3.361997E1,1.1845314E1,1.05434E1,4.138155E0,7.0205154E0,0E0,0E0,0E0,1.0106987E1,4.813464E0,0E0,0E0,7.618103E0,4.9983797E0,0E0,0E0,3.2741764E1,7.344244E0,1.2391834E1,7.411985E0,9.12204E0,7.655702E0,3.4858184E0,1.4407659E0,6.2323074E0,0E0,1.150576E1,4.325287E0,1.7306137E0,0E0,5.094805E0,2.9958153E0,1.385191E0,0E0,0E0,0E0,0E0,0E0,0E0,0E0,0E0,0E0,0E0,0E0,0E0,0E0,0E0,0E0,0E0,0E0,0E0,0E0,0E0,0E0,0E0,0E0,0E0,0E0,0E0,0E0,0E0,0E0,0E0,0E0],"parents":[2147483647,0,0,1,1,2,2,3,3,4,4,5,5,6,6,7,7,8,8,9,9,10,10,11,11,12,12,13,13,14,14,15,15,16,16,17,17,18,18,19,19,23,23,24,24,27,27,28,28,31,31,32,32,33,33,34,34,35,35,36,36,37,37,38,38,39,39,41,41,42,42,43,43,45,45,46,46,47,47],"right_children":[2,4,6,8,10,12,14,16,18,20,22,24,26,28,30,32,34,36,38,40,-1,-1,-1,42,44,-1,-1,46,48,-1,-1,50,52,54,56,58,60,62,64,66,-1,68,70,72,-1,74,76,78,-1,-1,-1,-1,-1,-1,-1,-1,-1,-1,-1,-1,-1,-1,-1,-1,-1,-1,-1,-1,-1,-1,-1,-1,-1,-1,-1,-1,-1,-1,-1],"split_conditions":[4.2430036E-2,5.6247123E-2,1.2059656E-1,5.0900318E-2,1.5434265E-1,2.6459193E-1,6.267249E-2,1.9501682E-2,8.422059E-2,1.4198998E-1,1.9873083E-2,1.23964615E-1,9.8652035E-2,2.718886E-1,9.299283E-2,1.5858626E-1,2.3208565E-1,6.5417565E-2,4.901515E-2,1.3651437E-1,-3.1353912E-1,-3.8421682E-1,-9.8230325E-2,9.066002E-2,4.0540207E-2,3.6836773E-1,-1.7395051E-1,5.4403033E-2,3.561288E-2,-3.698047E-1,-2.5940757E-2,6.5423615E-2,7.447947E-2,2.585616E-1,1.3716932E-1,3.766742E-1,7.378301E-2,2.9053157E-2,5.4800227E-2,7.743741E-2,-3.0756152E-1,5.380052E-2,6.4368114E-2,5.740846E-2,-1.8686545E-1,9.152575E-2,5.914455E-2,3.5433054E-2,2.1398897E-1,-5.1224813E-2,1.7494082E-1,3.037378E-1,-5.6537174E-2,1.8920596E-1,-3.5100842E-1,-3.9001897E-1,2.9035968E-1,2.0540763E-1,-3.4923416E-1,3.9829966E-2,-4.849127E-1,-4.071773E-1,7.2908424E-2,2.4764897E-1,-1.0584746E-1,2.976148E-1,1.8826324E-2,-1.5768868E-1,6.5362394E-2,-3.4576547E-1,5.80942E-2,4.6091643E-1,2.1010224E-2,2.864036E-1,-1.7679848E-1,5.5098925E-2,-4.2835099E-1,-3.8659704E-1,-1.5069175E-2],"split_indices":[377,372,372,277,148,294,325,294,303,298,330,367,167,377,548,173,290,135,335,469,0,0,0,275,205,0,0,366,546,0,0,285,175,284,175,167,309,418,358,410,0,285,506,487,0,500,294,358,0,0,0,0,0,0,0,0,0,0,0,0,0,0,0,0,0,0,0,0,0,0,0,0,0,0,0,0,0,0,0],"split_type":[0,0,0,0,0,0,0,0,0,0,0,0,0,0,0,0,0,0,0,0,0,0,0,0,0,0,0,0,0,0,0,0,0,0,0,0,0,0,0,0,0,0,0,0,0,0,0,0,0,0,0,0,0,0,0,0,0,0,0,0,0,0,0,0,0,0,0,0,0,0,0,0,0,0,0,0,0,0,0],"sum_hessian":[1.2978499E3,1.0550978E3,2.4275204E2,9.5260236E2,1.024955E2,1.9451501E2,4.8237026E1,7.7262024E2,1.7998207E2,1.0019996E2,2.29554E0,1.8663425E2,7.880769E0,4.481027E1,3.4267602E0,6.405889E2,1.3203131E2,1.71619E2,8.363078E0,9.8641556E1,1.5584078E0,1.142733E0,1.1528072E0,1.8092302E2,5.711236E0,6.3812585E0,1.4995104E0,3.8974117E1,5.8361506E0,2.3439684E0,1.0827917E0,6.004345E2,4.015444E1,1.2619215E2,5.8391576E0,1.5906895E2,1.2550047E1,5.7837806E0,2.579298E0,9.7531044E1,1.1105111E0,1.513675E2,2.9555517E1,4.5933247E0,1.1179116E0,3.575983E1,3.2142847E0,4.019102E0,1.8170487E0,5.368974E2,6.3537086E1,3.4542675E1,5.6117673E0,1.2314014E2,3.052011E0,4.720142E0,1.1190157E0,1.5722481E2,1.844144E0,1.0297098E1,2.2529488E0,4.317132E0,1.4666485E0,1.5784583E0,1.0008396E0,8.953702E1,7.9940248E0,1.2709266E2,2.4274836E1,2.723747E1,2.318048E0,3.492333E0,1.1009916E0,3.4130367E1,1.6294624E0,2.056576E0,1.1577086E0,2.7151499E0,1.3039521E0],"tree_param":{"num_deleted":"0","num_feature":"618","num_nodes":"79","size_leaf_vector":"0"}},{"base_weights":[9.524285E-2,1.7759712E-1,-2.1986139E-1,1.3140488E-1,7.2884995E-1,-3.3611456E-1,3.655545E-1,9.676927E-2,9.300979E-1,8.053864E-1,-9.9035895E-1,-4.3705586E-1,2.3959222E-1,5.3399706E-1,-8.73685E-1,1.7762211E-1,-2.2219123E-1,1.009652E0,-6.0985905E-1,8.7234294E-1,-5.3291607E-1,-1.5991503E0,2.770942E-1,-4.7268048E-1,8.7610215E-1,4.2726758E-1,-5.5062824E-1,7.4929917E-1,-4.8808265E-1,-1.1430062E0,8.424672E-2,2.1667916E-1,-7.148023E-1,-3.0900234E-1,6.3040143E-1,1.0812497E0,-5.324448E-1,9.4027376E-1,-3.036841E-1,2.1273713E-1,-1.188656E0,-5.369978E-1,2.9928857E-1,1.2091911E0,-1.6717865E-1,5.6362164E-1,-7.4077284E-1,-9.044252E-1,4.2772135E-1,9.195038E-1,-8.1628704E-1,-9.931722E-1,9.248078E-1,2.4616939E-1,-7.994745E-1,-9.419008E-1,6.9301456E-1,-1.9055977E-1,-1.0244999E0,9.8454666E-1,-8.507873E-1,1.1559781E0,7.4300565E-2,1.0069581E0,-4.2473635E-1,2.8985724E-1,-9.750552E-1,-6.581891E-1,-7.2918504E-2,5.8872646E-1,-8.205371E-1,1.493005E0,1.7412354E-1,7.532668E-1,-4.28533E-1,-1.0145067E0,-8.469687E-2,-1.3098706E0,2.4646325E-1,1.1016963E0,-3.6021245E-1,-1.2253606E0,-2.2282302E-3],"categories":[],"categories_nodes":[],"categories_segments":[],"categories_sizes":[],"default_left":[true,true,true,true,true,true,true,true,true,true,true,true,true,true,true,true,true,true,false,true,true,false,false,true,true,true,true,true,true,false,false,true,true,true,true,true,false,true,true,false,false,true,true,true,false,true,true,true,false,true,false,true,false,false,false,false,false,false,false,false,false,false,false,false,false,false,false,false,false,false,false,false,false,false,false,false,false,false,false,false,false,false,false],"id":5,"left_children":[1,3,5,7,9,11,13,15,17,19,21,23,25,27,29,31,33,35,-1,37,39,-1,-1,41,43,45,47,49,51,-1,-1,53,55,57,59,61,-1,63,65,-1,-1,67,69,71,-1,73,75,77,-1,79,-1,81,-1,-1,-1,-1,-1,-1,-1,-1,-1,-1,-1,-1,-1,-1,-1,-1,-1,-1,-1,-1,-1,-1,-1,-1,-1,-1,-1,-1,-1,-1,-1],"loss_changes":[3.2650593E1,2.5287895E1,1.787454E1,2.5388012E1,1.0910187E1,1.2781549E1,9.587428E0,2.2832783E1,5.291176E0,7.107498E0,3.3166656E0,9.113209E0,5.1572227E0,8.967038E0,1.5430694E0,2.4751076E1,1.3456775E1,4.623974E0,0E0,5.9557686E0,2.2834172E0,0E0,0E0,9.181927E0,2.0307097E0,4.778531E0,2.7427561E0,9.458912E0,6.204119E0,0E0,0E0,2.0479462E1,1.0186938E1,1.3643148E1,9.695912E0,2.5755157E0,0E0,6.5577583E0,2.128342E0,0E0,0E0,9.405045E0,5.2203355E0,9.4741297E-1,0E0,5.0431705E0,5.0572205E-1,2.8051414E0,0E0,7.3789234E0,0E0,1.3635869E0,0E0,0E0,0E0,0E0,0E0,0E0,0E0,0E0,0E0,0E0,0E0,0E0,0E0,0E0,0E0,0E0,0E0,0E0,0E0,0E0,0E0,0E0,0E0,0E0,0E0,0E0,0E0,0E0,0E0,0E0,0E0],"parents":[2147483647,0,0,1,1,2,2,3,3,4,4,5,5,6,6,7,7,8,8,9,9,10,10,11,11,12,12,13,13,14,14,15,15,16,16,17,17,19,19,20,20,23,23,24,24,25,25,26,26,27,27,28,28,31,31,32,32,33,33,34,34,35,35,37,37,38,38,41,41,42,42,43,43,45,45,46,46,47,47,49,49,51,51],"right_children":[2,4,6,8,10,12,14,16,18,20,22,24,26,28,30,32,34,36,-1,38,40,-1,-1,42,44,46,48,50,52,-1,-1,54,56,58,60,62,-1,64,66,-1,-1,68,70,72,-1,74,76,78,-1,80,-1,82,-1,-1,-1,-1,-1,-1,-1,-1,-1,-1,-1,-1,-1,-1,-1,-1,-1,-1,-1,-1,-1,-1,-1,-1,-1,-1,-1,-1,-1,-1,-1],"split_conditions":[2.8155036E-2,7.050137E-2,1.8271554E-2,1.5768397E-1,8.687176E-2,7.659854E-2,6.806268E-2,1.5407607E-2,9.816722E-2,1.0535279E-1,6.741097E-2,2.7524045E-1,4.6560746E-2,5.444277E-2,6.733069E-2,1.6722222E-1,7.126118E-2,8.887597E-2,-1.8295772E-1,1.2404251E-1,2.214923E-2,-4.7974512E-1,8.312826E-2,7.2864026E-2,2.8233135E-2,2.7026672E-2,2.5780814E-2,2.1005338E-1,5.711785E-2,-3.429019E-1,2.5274016E-2,1.9273384E-1,4.3897964E-2,6.377278E-2,5.5925697E-2,5.7506576E-2,-1.5973344E-1,7.065202E-2,2.7682729E-2,6.3821144E-2,-3.565968E-1,4.837485E-2,6.599495E-2,4.6416886E-2,-5.0153594E-2,6.123637E-2,1.4010403E-1,2.3337096E-2,1.2831642E-1,8.501178E-2,-2.4488612E-1,3.008453E-2,2.7744234E-1,7.385082E-2,-2.3984236E-1,-2.8257024E-1,2.0790438E-1,-5.7167936E-2,-3.0734998E-1,2.9536402E-1,-2.552362E-1,3.4679344E-1,2.229017E-2,3.0208746E-1,-1.2742092E-1,8.695717E-2,-2.925166E-1,-1.9745675E-1,-2.1875553E-2,1.7661795E-1,-2.4616113E-1,4.4790152E-1,5.2237064E-2,2.2598006E-1,-1.285599E-1,-3.0435202E-1,-2.5409061E-2,-3.929612E-1,7.393898E-2,3.305089E-1,-1.08063735E-1,-3.676082E-1,-6.684691E-4],"split_indices":[275,174,477,277,116,277,48,284,354,10,5,291,230,313,440,172,424,337,0,284,109,0,0,541,563,354,234,275,372,0,0,167,150,421,555,258,0,336,202,0,0,372,555,372,0,246,277,388,0,267,0,552,0,0,0,0,0,0,0,0,0,0,0,0,0,0,0,0,0,0,0,0,0,0,0,0,0,0,0,0,0,0,0],"split_type":[0,0,0,0,0,0,0,0,0,0,0,0,0,0,0,0,0,0,0,0,0,0,0,0,0,0,0,0,0,0,0,0,0,0,0,0,0,0,0,0,0,0,0,0,0,0,0,0,0,0,0,0,0,0,0,0,0,0,0,0,0,0,0,0,0,0,0,0,0,0,0,0,0,0,0,0,0,0,0,0,0,0,0],"sum_hessian":[1.2556982E3,9.958608E2,2.5983743E2,9.2000714E2,7.5853645E1,2.1714264E2,4.2694805E1,8.828435E2,3.716366E1,7.312957E1,2.7240753E0,1.8495454E2,3.218809E1,3.808696E1,4.6078444E0,7.046627E2,1.781808E2,3.5665543E1,1.4981178E0,6.997674E1,3.1528313E0,1.6633977E0,1.0606776E0,1.8069258E2,4.2619596E0,2.6381788E1,5.806302E0,3.168035E1,6.4066105E0,3.4458473E0,1.1619971E0,6.758416E2,2.8821072E1,1.6229362E2,1.5887184E1,3.4368687E1,1.2968535E0,6.6344925E1,3.6318128E0,1.791389E0,1.3614423E0,1.6707681E2,1.3615774E1,3.1100001E0,1.1519592E0,2.4087357E1,2.294432E0,4.319733E0,1.486569E0,2.8946115E1,2.7342348E0,4.938298E0,1.4683125E0,6.575173E2,1.8324354E1,2.510265E1,3.7184222E0,1.4032991E2,2.1963703E1,1.3092201E1,2.7949836E0,3.1856533E1,2.5121548E0,6.350485E1,2.840074E0,2.2292516E0,1.4025612E0,1.3214874E2,3.4928066E1,1.1196197E1,2.419577E0,2.0935338E0,1.0164664E0,2.0424162E1,3.6631956E0,1.2334684E0,1.0609635E0,3.0922346E0,1.2274988E0,2.5460436E1,3.485679E0,3.8092036E0,1.1290945E0],"tree_param":{"num_deleted":"0","num_feature":"618","num_nodes":"83","size_leaf_vector":"0"}},{"base_weights":[6.900884E-2,9.3068354E-2,-7.277989E-1,1.11385114E-1,-1.018691E0,-8.353001E-1,1.1839013E0,1.3294446E-1,-8.363188E-1,-1.2484468E0,6.6923916E-1,-9.61359E-1,4.527853E-1,9.50456E-2,6.03134E-1,-9.659732E-1,2.7453598E-1,-1.4679652E0,3.8670456E-1,-1.0720357E0,4.0420318E-1,1.1822313E0,-7.141791E-1,2.5925433E-2,4.072556E-1,6.989611E-1,-3.1951392E-1,-1.058409E0,1.5549253E-1,7.043251E-1,-3.5352156E-1,-1.7306213E0,3.0200744E-1,-1.2257371E0,-2.3832805E-2,-1.0290095E-1,6.9568723E-1,-2.1680105E-2,7.276557E-1,4.582799E-1,-6.4603835E-1,7.8233E-1,-4.3739513E-1,4.1105133E-1,-1.156224E0,-1.1384237E0,2.7463755E-1,-1.9152726E0,2.4299866E-1,-1.3042401E0,5.3417534E-2,-6.3753647E-1,1.0992903E0],"categories":[],"categories_nodes":[],"categories_segments":[],"categories_sizes":[],"default_left":[true,true,true,true,true,true,false,true,true,true,false,true,true,true,true,true,true,true,false,true,true,false,false,true,true,true,true,true,false,false,false,true,false,true,true,false,false,false,false,false,false,false,false,false,false,false,false,false,false,false,false,false,false],"id":6,"left_children":[1,3,5,7,9,11,-1,13,15,17,-1,19,21,23,25,27,29,31,-1,33,35,-1,-1,37,39,41,43,45,-1,-1,-1,47,-1,49,51,-1,-1,-1,-1,-1,-1,-1,-1,-1,-1,-1,-1,-1,-1,-1,-1,-1,-1],"loss_changes":[2.3347595E1,2.413533E1,8.326756E0,2.3841072E1,8.2887E0,6.019497E0,0E0,2.0193714E1,4.005657E0,6.764868E0,0E0,5.216076E0,4.03261E0,2.2710232E1,7.701584E0,2.5983353E0,1.1918825E0,7.6959877E0,0E0,4.73106E0,5.2961665E-1,0E0,0E0,2.8848316E1,1.0548988E1,7.6309547E0,5.7593794E0,2.6398125E0,0E0,0E0,0E0,5.416115E0,0E0,2.6552582E0,4.008142E0,0E0,0E0,0E0,0E0,0E0,0E0,0E0,0E0,0E0,0E0,0E0,0E0,0E0,0E0,0E0,0E0,0E0,0E0],"parents":[2147483647,0,0,1,1,2,2,3,3,4,4,5,5,7,7,8,8,9,9,11,11,12,12,13,13,14,14,15,15,16,16,17,17,19,19,20,20,23,23,24,24,25,25,26,26,27,27,31,31,33,33,34,34],"right_children":[2,4,6,8,10,12,-1,14,16,18,-1,20,22,24,26,28,30,32,-1,34,36,-1,-1,38,40,42,44,46,-1,-1,-1,48,-1,50,52,-1,-1,-1,-1,-1,-1,-1,-1,-1,-1,-1,-1,-1,-1,-1,-1,-1,-1],"split_conditions":[2.1289693E-1,2.0795208E-1,1.085141E-1,2.0993486E-1,5.1338706E-2,5.543109E-2,3.551704E-1,1.6046366E-1,6.292526E-2,3.641767E-2,2.0077176E-1,6.501287E-2,5.4332882E-2,5.124271E-2,1.3816726E-1,7.264747E-2,2.4792226E-2,5.423619E-2,1.1601137E-1,5.8055535E-2,2.1244252E-2,3.546694E-1,-2.1425374E-1,1.4568856E-1,8.0277994E-2,6.3728765E-2,1.4572594E-1,1.3717164E-1,4.664776E-2,2.1129753E-1,-1.06056474E-1,6.6789955E-2,9.0602234E-2,1.1873854E-1,5.4650925E-2,-3.0870287E-2,2.0870619E-1,-6.504032E-3,2.1829672E-1,1.3748398E-1,-1.9381152E-1,2.34699E-1,-1.3121854E-1,1.233154E-1,-3.468672E-1,-3.415271E-1,8.239127E-2,-5.745818E-1,7.28996E-2,-3.9127204E-1,1.602526E-2,-1.9126095E-1,3.2978708E-1],"split_indices":[284,127,243,275,168,44,0,173,216,50,0,188,423,277,290,550,267,330,0,221,366,0,0,294,314,259,178,277,0,0,0,5,0,291,351,0,0,0,0,0,0,0,0,0,0,0,0,0,0,0,0,0,0],"split_type":[0,0,0,0,0,0,0,0,0,0,0,0,0,0,0,0,0,0,0,0,0,0,0,0,0,0,0,0,0,0,0,0,0,0,0,0,0,0,0,0,0,0,0,0,0,0,0,0,0,0,0,0,0],"sum_hessian":[1.2133392E3,1.1786337E3,3.47055E1,1.1604152E3,1.8218576E1,3.339088E1,1.3146209E0,1.1354446E3,2.497054E1,1.6265003E1,1.953574E0,3.064541E1,2.745471E0,1.051863E3,8.3581566E1,2.2477484E1,2.4930553E0,1.4430023E1,1.8349801E0,2.8546696E1,2.0987148E0,1.6813871E0,1.0640839E0,8.620883E2,1.8977469E2,7.59371E1,7.6444635E0,2.081782E1,1.6596638E0,1.4080629E0,1.0849923E0,1.2584737E1,1.8452861E0,2.4748388E1,3.798308E0,1.002175E0,1.0965399E0,8.082271E2,5.3861202E1,1.8154507E2,8.229614E0,7.103701E1,4.90009E0,4.3526864E0,3.291777E0,1.9776741E1,1.0410787E0,1.1535082E1,1.0496548E0,2.32989E1,1.4494879E0,2.7357674E0,1.0625405E0],"tree_param":{"num_deleted":"0","num_feature":"618","num_nodes":"53","size_leaf_vector":"0"}},{"base_weights":[5.027549E-2,-2.1297676E-3,3.6786264E-1,-5.1228598E-2,4.369347E-1,4.843808E-1,-2.2536196E-1,-9.2206694E-2,6.6178006E-1,5.398401E-1,-3.2870853E-1,6.1122364E-1,-2.0230325E-1,-4.1826567E-1,8.7111413E-1,-1.277929E-1,6.065176E-1,7.7469105E-1,-6.312218E-1,5.8513E-1,-1.3385106E0,-6.29222E-1,8.5523826E-1,7.023813E-1,-1.1650816E-1,1.459804E-1,-1.3482888E0,-5.7456607E-1,9.8843354E-1,1.2360766E0,-1.2504116E-1,-1.822117E-1,3.252889E-1,7.8925806E-1,-3.2648328E-1,9.172076E-1,-1.8861182E-1,-1.1885971E0,5.581246E-1,6.4949954E-1,-7.6214397E-1,-9.368268E-1,5.548903E-1,7.49712E-1,-5.632782E-1,3.9232704E-1,-1.267789E0,4.298897E-1,-1.1633166E0,-1.9743168E0,3.5146958E-1,-8.1016445E-1,5.411742E-1,-2.3095317E-1,3.3804932E-1,4.2000237E-1,-6.66876E-1,8.8492584E-1,-1.1163459E0,1.3357423E-1,-1.6537739E0,1.0868062E0,1.01314574E-1,2.603613E-1,-1.2436415E0,7.65654E-1,-3.1398264E-1,-1.2132405E0,3.775287E-1,-1.1176867E0,1.8060602E-1,8.0573833E-1,-2.946179E-1,3.911765E-1,-1.7198205E0,7.189218E-1,-8.430738E-1,-1.5039686E0,-2.240798E-1,6.6332614E-1,-1.0447966E0,-1.451687E0,-2.5021186E-1,-2.2539032E0,-6.0652477E-1,-1.0081726E0,5.5565846E-1,-4.7326788E-1,1.034631E0],"categories":[],"categories_nodes":[],"categories_segments":[],"categories_sizes":[],"default_left":[true,true,true,true,true,true,true,true,true,true,true,true,true,true,true,true,true,true,true,true,false,true,false,true,true,true,true,true,false,false,false,true,true,true,true,true,true,false,false,true,true,true,false,true,true,true,true,true,true,true,false,true,true,false,false,false,false,false,false,false,false,false,false,false,false,false,false,false,false,false,false,false,false,false,false,false,false,false,false,false,false,false,false,false,false,false,false,false,false],"id":7,"left_children":[1,3,5,7,9,11,13,15,17,19,21,23,25,27,29,31,33,35,37,39,-1,41,-1,43,45,47,49,51,-1,-1,-1,53,55,57,59,61,63,-1,-1,65,67,69,-1,71,73,75,77,79,81,83,-1,85,87,-1,-1,-1,-1,-1,-1,-1,-1,-1,-1,-1,-1,-1,-1,-1,-1,-1,-1,-1,-1,-1,-1,-1,-1,-1,-1,-1,-1,-1,-1,-1,-1,-1,-1,-1,-1],"loss_changes":[1.9758024E1,2.2010172E1,1.1731625E1,2.6890696E1,8.2683525E0,1.2392578E1,6.347432E0,2.1691061E1,7.792906E0,8.51631E0,5.0881233E0,7.985718E0,9.262464E0,6.0053515E0,1.8110752E0,2.0473076E1,7.469548E0,6.5513115E0,3.692171E0,8.253134E0,0E0,4.4447265E0,0E0,6.773636E0,8.769523E0,7.3107214E0,6.43128E0,6.4554086E0,0E0,0E0,0E0,1.8838152E1,8.656524E0,7.489567E0,4.883241E0,5.5138016E0,3.5529313E0,0E0,0E0,9.855835E0,2.7917018E0,2.0057063E0,0E0,6.242344E0,5.5219984E0,4.8653383E0,7.8813696E-1,6.1276655E0,5.675216E-1,1.9764328E-1,0E0,5.7796593E0,2.787456E0,0E0,0E0,0E0,0E0,0E0,0E0,0E0,0E0,0E0,0E0,0E0,0E0,0E0,0E0,0E0,0E0,0E0,0E0,0E0,0E0,0E0,0E0,0E0,0E0,0E0,0E0,0E0,0E0,0E0,0E0,0E0,0E0,0E0,0E0,0E0,0E0],"parents":[2147483647,0,0,1,1,2,2,3,3,4,4,5,5,6,6,7,7,8,8,9,9,10,10,11,11,12,12,13,13,14,14,15,15,16,16,17,17,18,18,19,19,21,21,23,23,24,24,25,25,26,26,27,27,31,31,32,32,33,33,34,34,35,35,36,36,39,39,40,40,41,41,43,43,44,44,45,45,46,46,47,47,48,48,49,49,51,51,52,52],"right_children":[2,4,6,8,10,12,14,16,18,20,22,24,26,28,30,32,34,36,38,40,-1,42,-1,44,46,48,50,52,-1,-1,-1,54,56,58,60,62,64,-1,-1,66,68,70,-1,72,74,76,78,80,82,84,-1,86,88,-1,-1,-1,-1,-1,-1,-1,-1,-1,-1,-1,-1,-1,-1,-1,-1,-1,-1,-1,-1,-1,-1,-1,-1,-1,-1,-1,-1,-1,-1,-1,-1,-1,-1,-1,-1],"split_conditions":[5.6303505E-2,6.452562E-2,9.563173E-2,1.651339E-1,6.958379E-2,5.5355698E-2,5.907204E-2,1.3163134E-1,5.6784365E-2,3.4963268E-1,6.253038E-2,6.722447E-2,2.4717603E-2,7.107924E-2,2.8236493E-2,7.11336E-2,5.1327728E-2,5.536042E-2,4.344794E-2,7.862169E-2,-4.015532E-1,4.7235727E-2,2.565715E-1,9.510078E-2,5.844926E-2,6.23292E-2,2.147509E-2,4.3639574E-2,2.9653007E-1,3.70823E-1,-3.7512347E-2,6.253511E-2,8.3093986E-2,9.008101E-2,2.34457E-2,1.12831265E-1,5.2803405E-2,-3.5657912E-1,1.6743739E-1,6.686738E-2,2.3586117E-2,1.79935E-2,1.6646709E-1,2.2273797E-1,1.7890098E-2,2.0217126E-2,2.4083482E-2,7.392865E-2,8.194655E-2,1.1346425E-1,1.0544088E-1,5.5001367E-2,9.215659E-2,-6.928595E-2,1.014148E-1,1.2600072E-1,-2.0006281E-1,2.6547778E-1,-3.3490378E-1,4.007227E-2,-4.961322E-1,3.2604188E-1,3.0394373E-2,7.81084E-2,-3.7309247E-1,2.2969621E-1,-9.419479E-2,-3.6397216E-1,1.13258615E-1,-3.3530605E-1,5.418181E-2,2.4172151E-1,-8.838537E-2,1.17352955E-1,-5.1594615E-1,2.1567655E-1,-2.5292215E-1,-4.511906E-1,-6.7223944E-2,1.9899786E-1,-3.1343898E-1,-4.355061E-1,-7.5063564E-2,-6.7617095E-1,-1.8195744E-1,-3.024518E-1,1.6669755E-1,-1.4198036E-1,3.103893E-1],"split_indices":[285,168,284,291,377,292,464,277,267,293,346,187,552,26,344,219,96,184,224,279,0,150,0,350,598,139,69,580,0,0,0,174,83,337,98,173,279,0,0,73,478,64,0,198,64,413,596,32,139,292,0,328,285,0,0,0,0,0,0,0,0,0,0,0,0,0,0,0,0,0,0,0,0,0,0,0,0,0,0,0,0,0,0,0,0,0,0,0,0],"split_type":[0,0,0,0,0,0,0,0,0,0,0,0,0,0,0,0,0,0,0,0,0,0,0,0,0,0,0,0,0,0,0,0,0,0,0,0,0,0,0,0,0,0,0,0,0,0,0,0,0,0,0,0,0,0,0,0,0,0,0,0,0,0,0,0,0,0,0,0,0,0,0,0,0,0,0,0,0,0,0,0,0,0,0,0,0,0,0,0,0],"sum_hessian":[1.1861033E3,1.01895764E3,1.6714555E2,9.172667E2,1.01690956E2,1.3985869E2,2.728686E1,8.68238E2,4.9028763E1,8.990262E1,1.178834E1,1.1814508E2,2.1713615E1,2.3730478E1,3.556381E0,8.2693884E2,4.1299095E1,4.5459854E1,3.568908E0,8.8458244E1,1.4443746E0,9.775601E0,2.0127385E0,1.05024284E2,1.3120795E1,1.7321842E1,4.3917737E0,2.188982E1,1.8406591E0,2.426525E0,1.129856E0,7.388007E2,8.813814E1,3.46638E1,6.6352944E0,3.964273E1,5.817124E0,2.4305058E0,1.1384023E0,8.491894E1,3.5393066E0,7.9255614E0,1.8500403E0,1.01631325E2,3.3929605E0,9.556365E0,3.5644307E0,1.4787064E1,2.5347784E0,3.0915976E0,1.3001761E0,1.829958E1,3.5902405E0,6.760226E2,6.2778152E1,8.098398E1,7.1541653E0,3.3516766E1,1.1470354E0,5.5952616E0,1.0400326E0,3.2545498E1,7.097234E0,4.608972E0,1.2081519E0,7.596603E1,8.952912E0,2.489414E0,1.0498927E0,6.8212876E0,1.1042736E0,9.667344E1,4.9578867E0,2.221447E0,1.1715134E0,7.8888955E0,1.6674693E0,2.5470726E0,1.017358E0,1.3241226E1,1.5458366E0,1.4781295E0,1.0566489E0,2.0290127E0,1.062585E0,1.6211235E1,2.0883436E0,1.1882877E0,2.4019527E0],"tree_param":{"num_deleted":"0","num_feature":"618","num_nodes":"89","size_leaf_vector":"0"}},{"base_weights":[3.7028335E-2,1.0086048E-1,-2.1435353E-1,1.2073997E-1,-8.591106E-1,-1.6224897E-1,-1.0452154E0,5.117434E-2,3.6520517E-1,-1.0655267E0,7.350223E-1,-1.09645925E-1,-9.804054E-1,-1.1974072E0,3.247526E-1,9.8226875E-2,-4.629921E-1,4.665848E-1,-2.817251E-1,-1.2408642E0,5.5696464E-1,-3.936767E-2,-6.917499E-1,-1.1880244E0,3.5662445E-1,-1.28751E0,-1.9836989E-1,1.531585E-1,-2.8406128E-1,-5.636194E-1,8.926335E-1,5.278632E-1,-6.81868E-1,-9.894618E-2,-1.5311501E0,-1.4237584E0,4.8168844E-1,3.972926E-2,-6.1403537E-1,-7.9433423E-1,4.8663864E-1,-1.3648989E0,-1.0237997E-1,2.314946E-1,-1.9426599E-1,-4.7874227E-1,7.2789764E-1,-7.482813E-1,3.130755E-1,1.2069873E0,3.0776341E-3,5.9019095E-1,-3.6558074E-1,-9.9511033E-1,8.092907E-1,1.9501986E-1,-9.4236296E-1,-1.559332E0,9.689084E-2,1.0218255E-1,-7.4224424E-1,-8.464757E-1,4.404174E-1,-9.3822515E-1,4.831319E-2],"categories":[],"categories_nodes":[],"categories_segments":[],"categories_sizes":[],"default_left":[true,true,true,true,true,true,true,true,true,true,false,true,true,true,false,true,true,true,true,true,false,true,true,true,false,false,false,true,true,true,true,true,true,true,false,true,false,true,true,true,false,false,false,false,false,false,false,false,false,false,false,false,false,false,false,false,false,false,false,false,false,false,false,false,false],"id":8,"left_children":[1,3,5,7,9,11,13,15,17,19,-1,21,23,25,-1,27,29,31,33,35,-1,37,39,41,-1,-1,-1,43,45,47,49,51,53,55,-1,57,-1,59,61,63,-1,-1,-1,-1,-1,-1,-1,-1,-1,-1,-1,-1,-1,-1,-1,-1,-1,-1,-1,-1,-1,-1,-1,-1,-1],"loss_changes":[1.864043E1,1.7775883E1,1.0016519E1,1.5425165E1,7.005883E0,9.472187E0,3.245471E0,1.7176735E1,1.3314695E1,5.570324E0,0E0,8.574686E0,4.121436E0,8.7379265E-1,0E0,1.3684282E1,8.625559E0,1.2615986E1,6.20988E0,5.6597977E0,0E0,8.600622E0,3.1174421E0,2.1186848E0,0E0,0E0,0E0,1.552015E1,1.6495596E1,9.306971E0,1.2550554E0,9.453842E0,5.129677E0,6.4738836E0,0E0,3.1456757E0,0E0,8.221295E0,5.9826536E0,2.611167E0,0E0,0E0,0E0,0E0,0E0,0E0,0E0,0E0,0E0,0E0,0E0,0E0,0E0,0E0,0E0,0E0,0E0,0E0,0E0,0E0,0E0,0E0,0E0,0E0,0E0],"parents":[2147483647,0,0,1,1,2,2,3,3,4,4,5,5,6,6,7,7,8,8,9,9,11,11,12,12,13,13,15,15,16,16,17,17,18,18,19,19,21,21,22,22,23,23,27,27,28,28,29,29,30,30,31,31,32,32,33,33,35,35,37,37,38,38,39,39],"right_children":[2,4,6,8,10,12,14,16,18,20,-1,22,24,26,-1,28,30,32,34,36,-1,38,40,42,-1,-1,-1,44,46,48,50,52,54,56,-1,58,-1,60,62,64,-1,-1,-1,-1,-1,-1,-1,-1,-1,-1,-1,-1,-1,-1,-1,-1,-1,-1,-1,-1,-1,-1,-1,-1,-1],"split_conditions":[2.8155036E-2,2.3114905E-1,1.0290037E-1,5.201865E-2,1.695399E-1,1.0406345E-1,1.09114155E-1,7.0268616E-2,5.830703E-2,6.0247667E-2,2.205067E-1,2.0081708E-1,2.8218497E-2,1.2583058E-1,9.742578E-2,5.5385437E-2,7.9641625E-2,1.1024529E-1,8.165944E-2,7.012302E-2,1.670894E-1,5.7282593E-2,6.0933813E-2,2.7112886E-2,1.0698734E-1,-3.8625303E-1,-5.951097E-2,4.6804246E-2,6.0332853E-2,4.3190345E-2,2.5385417E-2,1.1320311E-1,8.424684E-2,5.4360453E-2,-4.5934504E-1,4.681085E-2,1.4450654E-1,1.05833754E-1,5.0253876E-2,9.189379E-2,1.459916E-1,-4.094697E-1,-3.0713992E-2,6.944838E-2,-5.82798E-2,-1.4362268E-1,2.183693E-1,-2.244844E-1,9.392266E-2,3.620962E-1,9.2329027E-4,1.770573E-1,-1.0967422E-1,-2.985331E-1,2.4278723E-1,5.850596E-2,-2.827089E-1,-4.6779963E-1,2.9067252E-2,3.0654768E-2,-2.2267328E-1,-2.5394273E-1,1.3212523E-1,-2.8146756E-1,1.4493957E-2],"split_indices":[275,290,201,500,178,563,168,413,42,183,0,275,149,277,0,85,118,212,147,196,0,448,314,323,0,0,0,377,477,446,210,78,46,596,0,168,0,253,538,277,0,0,0,0,0,0,0,0,0,0,0,0,0,0,0,0,0,0,0,0,0,0,0,0,0],"split_type":[0,0,0,0,0,0,0,0,0,0,0,0,0,0,0,0,0,0,0,0,0,0,0,0,0,0,0,0,0,0,0,0,0,0,0,0,0,0,0,0,0,0,0,0,0,0,0,0,0,0,0,0,0,0,0,0,0,0,0,0,0,0,0,0,0],"sum_hessian":[1.1593221E3,9.2503217E2,2.3429002E2,9.0712134E2,1.791083E1,2.2158913E2,1.27009E1,7.0711285E2,2.0000847E2,1.6151102E1,1.7597287E0,2.0926831E2,1.2320807E1,1.1544377E1,1.1565231E0,6.4856976E2,5.8543125E1,1.731527E2,2.6855768E1,1.4788199E1,1.3629023E0,1.8767738E2,2.1590933E1,1.0761212E1,1.5595957E0,1.0324466E1,1.2199107E0,5.6760846E2,8.096126E1,5.5041653E1,3.5014727E0,1.6489473E2,8.257972E0,2.436988E1,2.485887E0,1.3525565E1,1.262634E0,1.6578912E2,2.1888254E1,2.0161676E1,1.4292561E0,9.032414E0,1.7287973E0,4.6344595E2,1.0416254E2,6.834076E1,1.26205015E1,4.5586132E1,9.455521E0,2.3235335E0,1.1779392E0,1.544589E2,1.0435831E1,7.099306E0,1.1586658E0,1.8641361E1,5.72852E0,1.2395044E1,1.1305207E0,1.5433249E2,1.1456631E1,1.809638E1,3.7918744E0,1.7124126E1,3.0375502E0],"tree_param":{"num_deleted":"0","num_feature":"618","num_nodes":"65","size_leaf_vector":"0"}},{"base_weights":[2.5548063E-2,7.009797E-2,-3.324456E-1,2.7954152E-2,4.557863E-1,-4.3119335E-1,6.2606E-1,8.675578E-2,-2.8058243E-1,5.9000677E-1,-5.225059E-1,-5.662732E-1,2.6243627E-1,9.5690185E-1,-4.8557764E-1,3.9571084E-2,4.4619906E-1,-3.403122E-1,1.2293075E0,7.557569E-1,-3.633177E-2,-6.433462E-2,-1.7788033E0,-7.0410705E-1,1.18568756E-1,5.4387003E-1,-6.884995E-1,1.1728015E0,-1.2861897E-1,-1.0277122E0,3.9828297E-1,1.9171389E-2,8.748458E-1,5.3404045E-1,-5.459928E-1,-4.0768224E-1,8.566481E-1,1.338633E0,3.6922237E-1,8.4439325E-1,-7.4376947E-1,3.5169417E-1,-1.1214012E0,4.031054E-1,-1.2220273E0,-7.707226E-1,1.1996086E0,3.766293E-1,-1.2538867E0,7.343119E-1,-9.363352E-1,-9.5397437E-1,1.158948E-1,1.3073916E0,1.6548117E-1,6.166126E-2,-3.8559446E-1,1.0611813E0,-5.912944E-1,5.881364E-1,-1.0239606E0,-9.612192E-1,7.4413675E-1,-4.8237062E-1,6.8306243E-1,1.1637801E0,-4.114014E-1,9.427844E-1,-3.6650014E-1,-1.1644251E0,2.909793E-1,7.720858E-1,-4.1602814E-1,-1.3647722E0,-1.9129886E-1,8.210074E-1,-1.2110245E0,-8.690114E-1,5.598732E-1,5.857997E-1,-1.1108803E0,9.520657E-1,-5.8724016E-1],"categories":[],"categories_nodes":[],"categories_segments":[],"categories_sizes":[],"default_left":[true,true,true,true,true,true,true,true,true,true,true,true,true,true,true,true,true,true,true,true,true,true,false,true,true,true,true,true,false,false,false,true,true,true,true,true,true,false,false,true,true,true,true,true,false,true,false,true,false,true,false,false,false,false,false,false,false,false,false,false,false,false,false,false,false,false,false,false,false,false,false,false,false,false,false,false,false,false,false,false,false,false,false],"id":9,"left_children":[1,3,5,7,9,11,13,15,17,19,21,23,25,27,29,31,33,35,37,39,41,43,-1,45,47,49,51,53,-1,-1,-1,55,57,59,61,63,65,-1,-1,67,69,71,73,75,-1,77,-1,79,-1,81,-1,-1,-1,-1,-1,-1,-1,-1,-1,-1,-1,-1,-1,-1,-1,-1,-1,-1,-1,-1,-1,-1,-1,-1,-1,-1,-1,-1,-1,-1,-1,-1,-1],"loss_changes":[1.8140789E1,1.6422022E1,1.2186011E1,1.6580496E1,1.3377691E1,1.0898207E1,4.939213E0,1.2995066E1,1.3613809E1,9.162685E0,7.102808E0,9.177906E0,5.56216E0,2.427144E0,2.064304E0,1.1558328E1,8.042633E0,1.1762131E1,4.967022E-2,9.882343E0,8.548844E0,6.026089E0,0E0,1.1113949E1,6.4924817E0,5.061455E0,1.150116E0,8.95401E-1,0E0,0E0,0E0,1.1446007E1,5.045787E0,7.5306625E0,4.8549337E0,1.1300203E1,3.5414462E0,0E0,0E0,8.233803E0,2.261689E0,5.171177E0,9.4776106E-1,6.415056E0,0E0,1.0718903E1,0E0,5.341733E0,0E0,4.6765146E0,0E0,0E0,0E0,0E0,0E0,0E0,0E0,0E0,0E0,0E0,0E0,0E0,0E0,0E0,0E0,0E0,0E0,0E0,0E0,0E0,0E0,0E0,0E0,0E0,0E0,0E0,0E0,0E0,0E0,0E0,0E0,0E0,0E0],"parents":[2147483647,0,0,1,1,2,2,3,3,4,4,5,5,6,6,7,7,8,8,9,9,10,10,11,11,12,12,13,13,14,14,15,15,16,16,17,17,18,18,19,19,20,20,21,21,23,23,24,24,25,25,26,26,27,27,31,31,32,32,33,33,34,34,35,35,36,36,39,39,40,40,41,41,42,42,43,43,45,45,47,47,49,49],"right_children":[2,4,6,8,10,12,14,16,18,20,22,24,26,28,30,32,34,36,38,40,42,44,-1,46,48,50,52,54,-1,-1,-1,56,58,60,62,64,66,-1,-1,68,70,72,74,76,-1,78,-1,80,-1,82,-1,-1,-1,-1,-1,-1,-1,-1,-1,-1,-1,-1,-1,-1,-1,-1,-1,-1,-1,-1,-1,-1,-1,-1,-1,-1,-1,-1,-1,-1,-1,-1,-1],"split_conditions":[6.358482E-2,5.9729584E-2,6.758022E-2,2.388072E-2,6.70271E-2,5.9924155E-2,6.160558E-2,5.8202937E-2,9.331163E-2,4.740694E-2,3.0564416E-2,5.6152232E-2,2.8086917E-2,7.55685E-2,3.088174E-2,2.6393312E-1,4.694999E-2,9.93662E-2,5.3579696E-2,7.6210335E-2,5.234602E-2,4.3639112E-2,-5.3364104E-1,1.2677664E-1,6.993743E-2,6.758051E-2,2.3067353E-2,2.9810997E-2,-3.8585693E-2,-3.0831367E-1,1.19484894E-1,1.06516495E-1,1.7827696E-1,1.1166674E-1,2.2534149E-2,7.380665E-2,6.107683E-2,4.015899E-1,1.1076672E-1,9.7951174E-2,2.6269078E-2,2.2054898E-2,4.8986115E-2,5.0039247E-2,-3.666082E-1,7.509182E-2,3.598826E-1,3.5986133E-2,-3.7616602E-1,6.5381765E-2,-2.8090057E-1,-2.8619233E-1,3.4768444E-2,3.9221752E-1,4.964435E-2,1.8498378E-2,-1.1567834E-1,3.183544E-1,-1.7738833E-1,1.7644092E-1,-3.0718818E-1,-2.8836578E-1,2.2324103E-1,-1.447112E-1,2.0491874E-1,3.4913403E-1,-1.23420425E-1,2.8283533E-1,-1.0995004E-1,-3.4932756E-1,8.729379E-2,2.3162575E-1,-1.24808446E-1,-4.0943167E-1,-5.7389658E-2,2.4630222E-1,-3.6330736E-1,-2.6070344E-1,1.6796197E-1,1.7573991E-1,-3.3326408E-1,2.8561974E-1,-1.7617205E-1],"split_indices":[421,311,193,450,248,120,293,53,517,284,119,111,284,496,322,291,355,162,299,541,286,28,0,240,447,330,520,429,0,0,0,293,173,393,224,136,391,0,0,167,597,353,593,399,0,30,0,451,0,445,0,0,0,0,0,0,0,0,0,0,0,0,0,0,0,0,0,0,0,0,0,0,0,0,0,0,0,0,0,0,0,0,0],"split_type":[0,0,0,0,0,0,0,0,0,0,0,0,0,0,0,0,0,0,0,0,0,0,0,0,0,0,0,0,0,0,0,0,0,0,0,0,0,0,0,0,0,0,0,0,0,0,0,0,0,0,0,0,0,0,0,0,0,0,0,0,0,0,0,0,0,0,0,0,0,0,0,0,0,0,0,0,0,0,0,0,0,0,0],"sum_hessian":[1.1349933E3,1.0100976E3,1.2489567E2,9.115643E2,9.853333E1,1.1372913E2,1.1166533E1,7.6624945E2,1.4531482E2,8.6994675E1,1.1538662E1,9.534493E1,1.8384201E1,8.712688E0,2.453845E0,6.783159E2,8.793354E1,1.4053018E2,4.7846265E0,6.862704E1,1.8367636E1,9.225379E0,2.313283E0,7.9347115E1,1.5997825E1,1.45161495E1,3.8680518E0,7.2002277E0,1.5124604E0,1.4200647E0,1.0337803E0,6.6314307E2,1.5172815E1,8.120592E1,6.7276225E0,1.3366628E2,6.8639064E0,3.751392E0,1.0332347E0,6.520943E1,3.4176083E0,1.402729E1,4.340346E0,7.036189E0,2.18919E0,7.723946E1,2.1076446E0,1.4076604E1,1.9212205E0,1.3307882E1,1.2082673E0,2.7684307E0,1.099621E0,6.0888E0,1.111428E0,6.0091077E2,6.223231E1,1.3706969E1,1.4658463E0,7.9082565E1,2.1233478E0,5.282425E0,1.4451973E0,1.2562211E2,8.04417E0,5.5917635E0,1.2721429E0,6.0513794E1,4.6956344E0,2.3407168E0,1.0768915E0,9.060327E0,4.9669633E0,3.0697725E0,1.2705735E0,5.9794564E0,1.0567329E0,7.224943E1,4.9900393E0,1.2872665E1,1.203939E0,1.1665352E1,1.6425303E0],"tree_param":{"num_deleted":"0","num_feature":"618","num_nodes":"83","size_leaf_vector":"0"}},{"base_weights":[1.9259213E-2,-2.8447316E-3,7.1096927E-1,4.5199495E-2,-3.1672898E-1,8.039509E-1,-5.9621626E-1,8.955713E-2,-3.0253816E-1,-4.975335E-1,7.5986154E-2,9.089776E-1,-3.8028708E-1,6.5488406E-2,8.452256E-1,-2.0295942E-1,-1.1227176E0,-6.0517585E-1,2.7144542E-1,-6.5289415E-2,1.1408087E0,9.8471075E-1,-5.527769E-1,2.2563133E-1,-7.3243827E-1,1.07256554E-1,-3.383446E-1,9.8191804E-1,-4.0048584E-1,-3.2214323E-1,4.2360455E-1,-1.4148147E0,3.1126967E-1,-6.815136E-1,4.8256403E-1,5.997644E-1,-7.8496855E-1,-2.3721436E-1,7.130776E-1,1.4541861E0,6.743258E-2,1.0977545E0,3.8642537E-2,4.9594995E-2,4.2172328E-1,-5.088427E-1,3.956533E-1,1.0667611E0,-3.3718234E-1,-9.6708083E-1,4.0205622E-1,-5.234734E-1,1.5766571E-1,8.03449E-1,-1.0249344E0,-1.6383697E0,2.406736E-1,-7.551342E-1,2.6405886E-1,1.082077E0,-7.942085E-1,8.508258E-1,-4.7253308E-1,-1.0029948E0,-1.4128731E-1,-3.6040175E-1,9.046693E-1,1.0651833E0,-4.8220843E-1,1.1754397E0,-1.319312E-1,4.8716363E-1,-6.8887466E-1],"categories":[],"categories_nodes":[],"categories_segments":[],"categories_sizes":[],"default_left":[true,true,true,true,true,true,false,true,true,true,true,true,true,true,true,true,true,true,true,true,true,true,false,false,false,true,true,true,true,true,true,true,false,true,true,true,true,true,true,false,false,true,true,false,false,false,false,false,false,false,false,false,false,false,false,false,false,false,false,false,false,false,false,false,false,false,false,false,false,false,false,false,false],"id":10,"left_children":[1,3,5,7,9,11,-1,13,15,17,19,21,23,25,27,29,31,33,35,37,39,41,-1,-1,-1,43,45,47,49,51,53,55,-1,57,59,61,63,65,67,-1,-1,69,71,-1,-1,-1,-1,-1,-1,-1,-1,-1,-1,-1,-1,-1,-1,-1,-1,-1,-1,-1,-1,-1,-1,-1,-1,-1,-1,-1,-1,-1,-1],"loss_changes":[1.7112091E1,1.638272E1,4.691704E0,1.4560456E1,1.027727E1,4.4229183E0,0E0,1.515682E1,8.49638E0,8.348915E0,7.044033E0,3.9103642E0,8.8550675E-1,1.3726728E1,4.7751064E0,7.3409023E0,5.192114E0,7.5568447E0,4.9214144E0,5.7693954E0,1.7455764E0,3.0876827E0,0E0,0E0,0E0,1.3330736E1,9.752472E0,2.9873352E0,1.8688407E0,7.9675226E0,9.544736E0,3.9490185E0,0E0,5.8905144E0,5.676923E0,3.1900942E0,3.460467E-1,5.2532854E0,3.8051717E0,0E0,0E0,2.6490746E0,1.69315E0,0E0,0E0,0E0,0E0,0E0,0E0,0E0,0E0,0E0,0E0,0E0,0E0,0E0,0E0,0E0,0E0,0E0,0E0,0E0,0E0,0E0,0E0,0E0,0E0,0E0,0E0,0E0,0E0,0E0,0E0],"parents":[2147483647,0,0,1,1,2,2,3,3,4,4,5,5,7,7,8,8,9,9,10,10,11,11,12,12,13,13,14,14,15,15,16,16,17,17,18,18,19,19,20,20,21,21,25,25,26,26,27,27,28,28,29,29,30,30,31,31,33,33,34,34,35,35,36,36,37,37,38,38,41,41,42,42],"right_children":[2,4,6,8,10,12,-1,14,16,18,20,22,24,26,28,30,32,34,36,38,40,42,-1,-1,-1,44,46,48,50,52,54,56,-1,58,60,62,64,66,68,-1,-1,70,72,-1,-1,-1,-1,-1,-1,-1,-1,-1,-1,-1,-1,-1,-1,-1,-1,-1,-1,-1,-1,-1,-1,-1,-1,-1,-1,-1,-1,-1,-1],"split_conditions":[1.7300439E-1,6.016899E-2,6.5741815E-2,6.472698E-2,3.8978316E-2,3.0358258E-1,-1.7886488E-1,1.977673E-1,5.310978E-2,2.5390225E-2,6.1795935E-2,2.2948429E-1,1.5081962E-2,6.705621E-2,6.502695E-2,5.0466754E-2,6.1384838E-2,7.2554454E-2,4.6177667E-2,5.116103E-2,2.196443E-2,5.239527E-2,-1.6583307E-1,6.7689404E-2,-2.197315E-1,5.343005E-2,6.37038E-2,2.1274489E-1,8.007908E-2,1.8999493E-2,6.1021995E-2,3.432525E-2,9.3380906E-2,7.551579E-2,7.989423E-2,6.0318623E-2,5.7667643E-2,6.258277E-2,6.692001E-2,4.3625584E-1,2.0229775E-2,6.234647E-2,5.6023676E-2,1.4878499E-2,1.2651698E-1,-1.5265281E-1,1.18696E-1,3.2002836E-1,-1.0115471E-1,-2.9012427E-1,1.2061687E-1,-1.5704203E-1,4.7299717E-2,2.410347E-1,-3.0748034E-1,-4.9151093E-1,7.220209E-2,-2.2654028E-1,7.921766E-2,3.246231E-1,-2.3826256E-1,2.5524774E-1,-1.4175993E-1,-3.0089843E-1,-4.2386197E-2,-1.0812053E-1,2.714008E-1,3.1955498E-1,-1.4466253E-1,3.5263193E-1,-3.957936E-2,1.461491E-1,-2.066624E-1],"split_indices":[372,377,598,167,167,377,0,294,347,243,572,148,465,207,33,457,295,530,135,520,275,325,0,0,0,120,295,290,33,178,558,566,0,311,539,275,548,52,177,0,0,248,568,0,0,0,0,0,0,0,0,0,0,0,0,0,0,0,0,0,0,0,0,0,0,0,0,0,0,0,0,0,0],"split_type":[0,0,0,0,0,0,0,0,0,0,0,0,0,0,0,0,0,0,0,0,0,0,0,0,0,0,0,0,0,0,0,0,0,0,0,0,0,0,0,0,0,0,0,0,0,0,0,0,0,0,0,0,0,0,0,0,0,0,0,0,0,0,0,0,0,0,0,0,0,0,0,0,0],"sum_hessian":[1.1180717E3,1.0844146E3,3.3657127E1,9.412062E2,1.4320833E2,3.178145E1,1.8756763E0,8.353862E2,1.05819954E2,9.787853E1,4.5329803E1,2.9405956E1,2.3754942E0,8.1065283E2,2.473337E1,9.5475624E1,1.0344326E1,8.604665E1,1.1831876E1,4.0848858E1,4.480946E0,2.8267761E1,1.1381956E0,1.0052015E0,1.3702927E0,7.353324E2,7.532048E1,2.247855E1,2.25482E0,8.062513E1,1.4850501E1,8.604912E0,1.7394142E0,8.075287E1,5.2937884E0,9.356323E0,2.4755533E0,3.4028023E1,6.8208346E0,3.1937401E0,1.287206E0,2.5107397E1,3.1603649E0,6.223704E2,1.1296198E2,6.137145E1,1.3949031E1,2.129986E1,1.1786885E0,1.2015227E0,1.0532974E0,5.6729958E1,2.389517E1,1.2118147E1,2.7323534E0,7.5902724E0,1.0146395E0,7.51066E1,5.64627E0,3.7060773E0,1.587711E0,7.7486415E0,1.6076813E0,1.4322187E0,1.0433345E0,3.133225E1,2.6957712E0,5.352847E0,1.4679878E0,2.3656984E1,1.4504118E0,2.1594307E0,1.000934E0],"tree_param":{"num_deleted":"0","num_feature":"618","num_nodes":"73","size_leaf_vector":"0"}},{"base_weights":[1.5109795E-2,3.0525515E-2,-7.489393E-1,-2.4606302E-2,2.4389058E-1,-8.841773E-1,9.344714E-1,1.9665457E-2,-3.916778E-1,2.9071188E-1,-6.011646E-1,-1.0139768E0,4.70736E-1,-3.2077912E-2,3.485705E-1,-5.274076E-1,1.3944444E-1,1.9475561E-1,7.081855E-1,-8.8237983E-1,9.373648E-1,-1.1361698E0,2.788151E-1,-7.814633E-2,3.9658278E-1,5.339944E-1,-1.4466238E-1,-6.1714435E-1,4.517757E-1,-1.9490395E-1,1.0052392E0,1.2174154E-1,8.364213E-1,7.8456193E-1,-8.2466936E-1,-1.2297575E0,2.705804E-1,-1.2313349E0,1.0289172E-1,-1.5822472E-1,2.832847E-1,5.323906E-1,-4.838337E-1,5.9825426E-1,-1.0184884E0,-4.2152533E-1,9.0698886E-1,-7.596877E-1,-1.8853303E-2,7.572172E-1,-6.119978E-1,-5.411831E-1,8.540054E-1,1.4155047E0,-2.733049E-1,2.8696546E-2,6.92049E-1,1.0729566E0,-5.847773E-1,9.5199275E-1,-1.5042993E-1,-1.5478727E0,3.3816838E-1,-1.04384705E-1,5.4144657E-1,-1.339735E0,-1.8867992E-2],"categories":[],"categories_nodes":[],"categories_segments":[],"categories_sizes":[],"default_left":[true,true,true,true,true,true,false,true,true,true,true,true,false,true,true,true,true,true,true,true,false,true,false,true,true,true,true,true,true,true,true,true,true,true,false,true,true,true,false,false,false,false,false,false,false,false,false,false,false,false,false,false,false,false,false,false,false,false,false,false,false,false,false,false,false,false,false],"id":11,"left_children":[1,3,5,7,9,11,-1,13,15,17,19,21,-1,23,25,27,29,31,33,35,-1,37,-1,39,41,43,45,47,49,51,53,55,57,59,-1,61,63,65,-1,-1,-1,-1,-1,-1,-1,-1,-1,-1,-1,-1,-1,-1,-1,-1,-1,-1,-1,-1,-1,-1,-1,-1,-1,-1,-1,-1,-1],"loss_changes":[1.3010026E1,1.2731229E1,5.7997704E0,1.3992626E1,8.967226E0,4.124008E0,0E0,1.3096742E1,6.753889E0,8.323687E0,6.015514E0,3.3560905E0,0E0,1.3168977E1,9.644024E0,6.7824593E0,5.884825E0,8.009421E0,5.224312E0,4.5997505E0,0E0,2.222681E0,0E0,1.7455828E1,7.996646E0,8.21489E0,8.932885E0,5.8040314E0,2.6699576E0,5.915847E0,3.343895E0,8.290682E0,6.5160837E0,6.053524E0,0E0,4.6969814E0,3.903002E-1,2.1544628E0,0E0,0E0,0E0,0E0,0E0,0E0,0E0,0E0,0E0,0E0,0E0,0E0,0E0,0E0,0E0,0E0,0E0,0E0,0E0,0E0,0E0,0E0,0E0,0E0,0E0,0E0,0E0,0E0,0E0],"parents":[2147483647,0,0,1,1,2,2,3,3,4,4,5,5,7,7,8,8,9,9,10,10,11,11,13,13,14,14,15,15,16,16,17,17,18,18,19,19,21,21,23,23,24,24,25,25,26,26,27,27,28,28,29,29,30,30,31,31,32,32,33,33,35,35,36,36,37,37],"right_children":[2,4,6,8,10,12,-1,14,16,18,20,22,-1,24,26,28,30,32,34,36,-1,38,-1,40,42,44,46,48,50,52,54,56,58,60,-1,62,64,66,-1,-1,-1,-1,-1,-1,-1,-1,-1,-1,-1,-1,-1,-1,-1,-1,-1,-1,-1,-1,-1,-1,-1,-1,-1,-1,-1,-1,-1],"split_conditions":[2.5568062E-1,5.2331343E-2,6.9733165E-2,7.950569E-2,8.003722E-2,1.455588E-1,2.8034145E-1,1.05253E-2,4.5657918E-2,7.569145E-2,7.290943E-2,6.6358045E-2,1.4122081E-1,7.140887E-2,4.0502384E-2,6.1573654E-2,2.711719E-2,6.490156E-2,8.991364E-2,5.7560176E-2,2.8120947E-1,8.917698E-2,8.364453E-2,4.59296E-2,5.817146E-2,1.1485434E-1,4.6010077E-2,4.5352906E-2,5.804357E-2,6.05067E-2,1.7940942E-2,1.955549E-2,6.217574E-2,2.2774512E-1,-2.4740082E-1,4.5563526E-2,4.9731586E-2,7.925694E-2,3.0867517E-2,-4.7467418E-2,8.498541E-2,1.5971719E-1,-1.4515011E-1,1.7947629E-1,-3.0554652E-1,-1.264576E-1,2.7209666E-1,-2.2790633E-1,-5.655991E-3,2.2716518E-1,-1.8359934E-1,-1.6235495E-1,2.5620162E-1,4.246514E-1,-8.199148E-2,8.608964E-3,2.0761472E-1,3.21887E-1,-1.7543319E-1,2.8559783E-1,-4.5128983E-2,-4.6436182E-1,1.0145052E-1,-3.1315412E-2,1.6243398E-1,-4.0192053E-1,-5.660398E-3],"split_indices":[172,173,516,284,391,124,0,285,300,372,419,8,0,294,553,188,114,582,424,519,0,277,0,277,274,599,109,500,421,123,263,129,408,198,0,157,176,567,0,0,0,0,0,0,0,0,0,0,0,0,0,0,0,0,0,0,0,0,0,0,0,0,0,0,0,0,0],"split_type":[0,0,0,0,0,0,0,0,0,0,0,0,0,0,0,0,0,0,0,0,0,0,0,0,0,0,0,0,0,0,0,0,0,0,0,0,0,0,0,0,0,0,0,0,0,0,0,0,0,0,0,0,0,0,0,0,0,0,0,0,0,0,0,0,0,0,0],"sum_hessian":[1.1016287E3,1.0807825E3,2.0846195E1,8.59563E2,2.2121948E2,1.97355E1,1.110696E0,7.678951E2,9.166787E1,2.1022755E2,1.0991923E1,1.8239775E1,1.4957247E0,6.642912E2,1.0360388E2,7.301553E1,1.8652332E1,1.7213E2,3.8097553E1,9.6538515E0,1.3380709E0,1.6775343E1,1.4644328E0,6.0056573E2,6.372546E1,7.523697E1,2.8366915E1,6.722452E1,5.7910204E0,1.401498E1,4.6373515E0,1.5561281E2,1.6517195E1,3.6754387E1,1.3431648E0,7.3674803E0,2.2863715E0,1.5584615E1,1.1907275E0,4.920989E2,1.0846684E2,5.5551685E1,8.173775E0,7.2836784E1,2.4001882E0,2.2929546E1,5.437369E0,5.4072037E1,1.3152477E1,4.723064E0,1.0679562E0,1.090044E1,3.1145396E0,3.429693E0,1.2076586E0,1.3468881E2,2.0924002E1,1.4370494E1,2.1467E0,3.1156881E1,5.5975075E0,6.135453E0,1.2320273E0,1.2166986E0,1.0696728E0,1.4209274E1,1.3753408E0],"tree_param":{"num_deleted":"0","num_feature":"618","num_nodes":"67","size_leaf_vector":"0"}},{"base_weights":[1.2950061E-2,3.074244E-2,-6.3777536E-1,3.9775863E-2,-1.2520132E0,-8.1055355E-1,9.168425E-1,5.2518215E-2,-8.819023E-1,-1.6628165E0,6.050255E-1,-9.93055E-1,5.683964E-1,7.4695915E-2,-4.517865E-1,-1.2192373E0,3.9989462E-1,-1.937572E0,-4.5518127E-1,-1.1932386E0,3.9456618E-1,8.6856055E-1,-7.2662584E-2,5.0061874E-2,5.9023887E-1,-5.576731E-1,8.5387343E-1,-1.4639084E0,5.776656E-1,7.1849453E-1,-2.3039351E-1,-1.3063596E0,4.7225338E-1,-3.1649882E-1,1.0518248E0,3.2513224E-2,8.348701E-1,7.529365E-1,-3.9906928E-1,-6.4189315E-1,6.5113926E-1,1.2533793E0,6.365014E-2,-1.6786432E0,2.1162592E-1,-1.453735E0,-1.295026E-1],"categories":[],"categories_nodes":[],"categories_segments":[],"categories_sizes":[],"default_left":[true,true,true,true,true,true,false,true,true,true,false,true,true,true,true,true,true,false,false,true,true,false,false,true,true,true,true,true,false,false,false,true,false,false,false,false,false,false,false,false,false,false,false,false,false,false,false],"id":12,"left_children":[1,3,5,7,9,11,-1,13,15,17,-1,19,21,23,25,27,29,-1,-1,31,33,-1,-1,35,37,39,41,43,-1,-1,-1,45,-1,-1,-1,-1,-1,-1,-1,-1,-1,-1,-1,-1,-1,-1,-1],"loss_changes":[1.2515771E1,1.2234653E1,8.471261E0,1.2320934E1,6.6392365E0,7.214411E0,0E0,1.1574206E1,6.674513E0,1.2128468E0,0E0,7.0541553E0,7.797804E-1,1.2533646E1,6.505007E0,5.9343567E0,9.153817E-1,0E0,0E0,4.565922E0,2.080564E0,0E0,0E0,1.2990667E1,7.546815E0,4.5860357E0,1.077663E0,4.1223965E0,0E0,0E0,0E0,3.2619476E0,0E0,0E0,0E0,0E0,0E0,0E0,0E0,0E0,0E0,0E0,0E0,0E0,0E0,0E0,0E0],"parents":[2147483647,0,0,1,1,2,2,3,3,4,4,5,5,7,7,8,8,9,9,11,11,12,12,13,13,14,14,15,15,16,16,19,19,20,20,23,23,24,24,25,25,26,26,27,27,31,31],"right_children":[2,4,6,8,10,12,-1,14,16,18,-1,20,22,24,26,28,30,-1,-1,32,34,-1,-1,36,38,40,42,44,-1,-1,-1,46,-1,-1,-1,-1,-1,-1,-1,-1,-1,-1,-1,-1,-1,-1,-1],"split_conditions":[1.5339424E-1,3.3880785E-1,1.2503207E-1,1.4860412E-1,4.3240484E-2,6.368123E-2,2.7505276E-1,1.3787073E-1,4.3471E-2,3.412721E-2,1.8150765E-1,6.420389E-2,2.203628E-2,1.3267581E-1,1.16010256E-1,5.5274475E-2,2.343707E-2,-5.8127165E-1,-1.3655439E-1,8.101173E-2,2.6032515E-2,2.6056817E-1,-2.1798776E-2,1.7687446E-1,5.913683E-2,8.8467896E-2,5.583262E-2,5.739478E-2,1.732997E-1,2.1554837E-1,-6.911806E-2,2.3905173E-2,1.4167602E-1,-9.494965E-2,3.1554747E-1,9.753968E-3,2.5046104E-1,2.2588095E-1,-1.1972079E-1,-1.9256796E-1,1.9534178E-1,3.7601382E-1,1.9095043E-2,-5.0359297E-1,6.3487776E-2,-4.361205E-1,-3.885078E-2],"split_indices":[127,175,293,490,502,368,0,275,28,394,0,202,552,285,202,364,362,0,0,26,335,0,0,174,303,452,340,552,0,0,0,220,0,0,0,0,0,0,0,0,0,0,0,0,0,0,0],"split_type":[0,0,0,0,0,0,0,0,0,0,0,0,0,0,0,0,0,0,0,0,0,0,0,0,0,0,0,0,0,0,0,0,0,0,0,0,0,0,0,0,0,0,0,0,0,0,0],"sum_hessian":[1.0783069E3,1.0505355E3,2.777138E1,1.0441514E3,6.3841333E0,2.5424364E1,2.3470156E0,1.0308429E3,1.330855E1,5.3133354E0,1.0707979E0,2.269992E1,2.7244444E0,9.8823535E2,4.260753E1,1.0574442E1,2.7341075E0,3.836124E0,1.4772114E0,1.9960434E1,2.7394872E0,1.613887E0,1.1105573E0,9.442153E2,4.402006E1,3.994125E1,2.6662815E0,9.470262E0,1.1041801E0,1.7231423E0,1.0109653E0,1.8892853E1,1.0675801E0,1.5649159E0,1.1745714E0,9.2458264E2,1.9632635E1,3.8008297E1,6.011763E0,3.7778168E1,2.1630821E0,1.3816606E0,1.2846209E0,8.392795E0,1.0774676E0,1.658116E1,2.3116932E0],"tree_param":{"num_deleted":"0","num_feature":"618","num_nodes":"47","size_leaf_vector":"0"}},{"base_weights":[1.0043758E-2,2.1230396E-2,-8.684164E-1,4.680945E-2,-3.546948E-1,-1.0787168E0,5.170039E-1,8.913381E-3,3.5200506E-1,-4.6895188E-1,6.1499494E-1,-1.3705602E0,-4.697202E-2,6.611304E-2,-2.133443E-1,4.590429E-1,-5.406561E-1,-5.894375E-1,4.8346484E-1,9.916202E-1,-7.745229E-1,-1.5644815E0,-6.848425E-2,5.253615E-1,-7.2925365E-1,9.299605E-2,-6.003141E-1,-1.1645994E-1,-7.9419357E-1,5.4858416E-1,-4.6995103E-1,-8.9021677E-1,7.561021E-1,-7.1022004E-1,5.612333E-1,7.5811994E-1,-5.7069623E-1,1.28601E0,-2.4442473E-1,-1.6936959E0,-3.5306865E-1,1.4463954E-1,-2.3307979E-1,-7.3815745E-1,7.962258E-1,-1.8182942E-1,7.1581596E-1,-1.0859846E0,8.764666E-2,6.352206E-1,-1.9734086E-1,3.4291086E-1,-1.1608928E0,-1.1568271E0,7.5276023E-1,2.3391049E-1,9.2636526E-1,-9.487639E-1,-1.6885723E-1,1.2144414E0,-7.336124E-1,1.0919999E0,-4.108895E-1,-1.8649745E0,-4.9287462E-1],"categories":[],"categories_nodes":[],"categories_segments":[],"categories_sizes":[],"default_left":[true,true,true,true,true,true,false,true,true,true,true,true,true,true,true,true,true,true,true,true,false,true,false,false,false,true,true,true,true,true,true,true,true,true,true,true,false,false,false,true,false,false,false,false,false,false,false,false,false,false,false,false,false,false,false,false,false,false,false,false,false,false,false,false,false],"id":13,"left_children":[1,3,5,7,9,11,-1,13,15,17,19,21,23,25,27,29,31,33,35,37,-1,39,-1,-1,-1,41,43,45,47,49,51,53,55,57,59,61,-1,-1,-1,63,-1,-1,-1,-1,-1,-1,-1,-1,-1,-1,-1,-1,-1,-1,-1,-1,-1,-1,-1,-1,-1,-1,-1,-1,-1],"loss_changes":[1.0500342E1,1.0153646E1,4.4723616E0,1.1422952E1,7.7423925E0,3.5457048E0,0E0,1.1199471E1,1.0672071E1,7.25661E0,4.705703E0,2.2437E0,1.8197694E0,1.2605875E1,1.005515E1,8.40604E0,6.176111E0,7.956621E0,2.567062E0,2.627985E0,0E0,6.632862E-1,0E0,0E0,0E0,1.1387274E1,5.84239E0,8.60195E0,6.6838856E0,5.9289474E0,5.537101E0,5.2606244E0,6.0570717E-2,6.252453E0,5.7328315E0,2.8989353E0,0E0,0E0,0E0,5.2415466E-1,0E0,0E0,0E0,0E0,0E0,0E0,0E0,0E0,0E0,0E0,0E0,0E0,0E0,0E0,0E0,0E0,0E0,0E0,0E0,0E0,0E0,0E0,0E0,0E0,0E0],"parents":[2147483647,0,0,1,1,2,2,3,3,4,4,5,5,7,7,8,8,9,9,10,10,11,11,12,12,13,13,14,14,15,15,16,16,17,17,18,18,19,19,21,21,25,25,26,26,27,27,28,28,29,29,30,30,31,31,32,32,33,33,34,34,35,35,39,39],"right_children":[2,4,6,8,10,12,-1,14,16,18,20,22,24,26,28,30,32,34,36,38,-1,40,-1,-1,-1,42,44,46,48,50,52,54,56,58,60,62,-1,-1,-1,64,-1,-1,-1,-1,-1,-1,-1,-1,-1,-1,-1,-1,-1,-1,-1,-1,-1,-1,-1,-1,-1,-1,-1,-1,-1],"split_conditions":[1.5149578E-1,1.2161205E-1,5.7018563E-2,4.459677E-2,5.937989E-2,1.0044961E-1,1.5510118E-1,4.684913E-2,6.592448E-2,5.8669064E-2,5.8086284E-2,5.7027694E-2,5.1748592E-2,1.6911955E-1,5.039505E-2,6.5218925E-2,2.672084E-2,6.482367E-2,5.288782E-2,5.8363795E-2,-2.3235688E-1,6.5552E-2,-2.0545274E-2,1.5760845E-1,-2.187761E-1,4.884076E-2,7.2591834E-2,6.822966E-2,4.715026E-2,2.0509195E-2,8.294803E-2,1.7102244E-1,4.6157397E-2,5.5390034E-2,2.3445086E-1,5.794262E-2,-1.7120887E-1,3.85803E-1,-7.332742E-2,4.5464084E-2,-1.059206E-1,4.339186E-2,-6.992394E-2,-2.2144724E-1,2.3886774E-1,-5.454883E-2,2.1474479E-1,-3.2579538E-1,2.6294E-2,1.9056618E-1,-5.920226E-2,1.0287326E-1,-3.4826785E-1,-3.4704813E-1,2.2582808E-1,7.017315E-2,2.7790958E-1,-2.846292E-1,-5.065717E-2,3.6433244E-1,-2.2008373E-1,3.2759997E-1,-1.2326685E-1,-5.5949235E-1,-1.4786239E-1],"split_indices":[288,290,446,161,168,287,0,284,344,110,377,65,275,172,134,115,460,143,382,119,0,175,0,0,0,85,85,113,173,229,161,611,235,178,290,529,0,0,0,351,0,0,0,0,0,0,0,0,0,0,0,0,0,0,0,0,0,0,0,0,0,0,0,0,0],"split_type":[0,0,0,0,0,0,0,0,0,0,0,0,0,0,0,0,0,0,0,0,0,0,0,0,0,0,0,0,0,0,0,0,0,0,0,0,0,0,0,0,0,0,0,0,0,0,0,0,0,0,0,0,0,0,0,0,0,0,0,0,0,0,0,0,0],"sum_hessian":[1.0656417E3,1.0532056E3,1.2436079E1,9.869276E2,6.627797E1,1.0989329E1,1.4467496E0,8.788324E2,1.0809522E2,5.9753677E1,6.524295E0,8.310265E0,2.6790648E0,6.995107E2,1.7932172E2,9.695521E1,1.1140015E1,5.338173E1,6.371949E0,5.3582983E0,1.1659964E0,7.0576267E0,1.2526376E0,1.5819967E0,1.0970682E0,6.7321436E2,2.6296347E1,1.5471594E2,2.4605776E1,8.880518E1,8.150017E0,9.02161E0,2.118405E0,4.8657112E1,4.724617E0,5.2777066E0,1.0942426E0,4.2949443E0,1.0633539E0,6.017643E0,1.039984E0,5.816498E2,9.1564545E1,2.4363066E1,1.9332812E0,1.4417363E2,1.0542308E1,1.8314285E1,6.29149E0,7.969708E1,9.108108E0,3.9760633E0,4.173954E0,8.016626E0,1.0049835E0,1.104563E0,1.0138421E0,3.3252377E1,1.5404736E1,3.181665E0,1.5429521E0,4.156459E0,1.1212475E0,4.782422E0,1.2352209E0],"tree_param":{"num_deleted":"0","num_feature":"618","num_nodes":"65","size_leaf_vector":"0"}},{"base_weights":[6.7429994E-3,-3.870927E-2,2.0390445E-1,-7.186765E-2,3.1195605E-1,3.2093638E-1,-3.025003E-1,-9.823585E-2,4.8158312E-1,3.7823445E-1,-1.3385578E0,3.825009E-1,-5.6626606E-1,-4.4118395E-1,1.1146417E0,-5.368391E-2,-4.5668715E-1,6.4390194E-1,-1.0699115E0,5.098212E-1,-3.0862832E-1,-1.6470016E0,-3.769106E-1,2.4065712E-1,7.563539E-1,-9.297631E-1,9.0477407E-1,-6.887933E-1,3.5751852E-1,-2.4170041E-2,-5.7389057E-1,-5.453408E-1,5.755074E-1,7.663715E-1,-3.1887087E-1,-2.92153E-1,-1.4321233E0,5.870304E-1,-6.3477165E-1,-7.128498E-1,7.916438E-1,3.4483573E-1,-6.350813E-1,8.9465964E-1,-2.6778886E-1,-1.1913021E0,4.486263E-1,-4.2769435E-1,-1.637605E0,7.067676E-1,-8.9949304E-1,-7.375452E-2,2.8956538E-1,-6.608691E-1,7.1507543E-1,-5.975098E-1,1.0936617E0,9.303855E-1,-3.9495426E-1,8.6312014E-1,-6.1375755E-1,-7.8541964E-1,5.6085056E-1,6.605096E-1,-5.5077314E-1,-1.0310245E0,2.4845232E-1,-1.0763465E0,4.2527315E-1,4.4156593E-1,-3.0365664E-1,-9.867736E-1,8.009458E-1,1.112081E0,1.7943749E-1,-6.702373E-1,7.6205343E-1,-1.4621058E0,2.90215E-1,-6.9813496E-1,4.5964488E-1,-1.8405548E0,-4.2636424E-1,1.0970386E0,-4.3457913E-1],"categories":[],"categories_nodes":[],"categories_segments":[],"categories_sizes":[],"default_left":[true,true,true,true,true,true,true,true,true,true,true,true,true,true,false,true,true,true,true,true,true,false,false,true,true,true,false,true,true,true,true,true,true,true,true,false,false,true,true,true,false,true,true,true,true,true,false,true,true,true,false,false,false,false,false,false,false,false,false,false,false,false,false,false,false,false,false,false,false,false,false,false,false,false,false,false,false,false,false,false,false,false,false,false,false],"id":14,"left_children":[1,3,5,7,9,11,13,15,17,19,21,23,25,27,-1,29,31,33,35,37,39,-1,-1,41,43,45,-1,47,49,51,53,55,57,59,61,-1,-1,63,65,67,-1,69,71,73,75,77,-1,79,81,83,-1,-1,-1,-1,-1,-1,-1,-1,-1,-1,-1,-1,-1,-1,-1,-1,-1,-1,-1,-1,-1,-1,-1,-1,-1,-1,-1,-1,-1,-1,-1,-1,-1,-1,-1],"loss_changes":[9.427773E0,9.964738E0,1.1777597E1,1.14596195E1,8.60757E0,8.987259E0,7.8642063E0,1.1909329E1,9.687733E0,6.662777E0,2.9260063E-1,7.812208E0,6.628344E0,7.145309E0,0E0,1.0208395E1,7.8612766E0,4.1321974E0,6.4085245E-1,5.7441235E0,5.988123E0,0E0,0E0,1.0323491E1,6.046774E0,3.840797E0,0E0,5.9812527E0,4.548983E0,9.839003E0,4.4752283E0,7.191906E0,2.7817392E0,4.4748344E0,2.2575488E0,0E0,0E0,5.1677704E0,1.7685825E0,4.3650627E0,0E0,6.383623E0,6.91478E0,5.453163E0,2.8514206E0,3.6268559E0,0E0,5.721287E0,5.5912685E-1,3.8333974E0,0E0,0E0,0E0,0E0,0E0,0E0,0E0,0E0,0E0,0E0,0E0,0E0,0E0,0E0,0E0,0E0,0E0,0E0,0E0,0E0,0E0,0E0,0E0,0E0,0E0,0E0,0E0,0E0,0E0,0E0,0E0,0E0,0E0,0E0,0E0],"parents":[2147483647,0,0,1,1,2,2,3,3,4,4,5,5,6,6,7,7,8,8,9,9,10,10,11,11,12,12,13,13,15,15,16,16,17,17,18,18,19,19,20,20,23,23,24,24,25,25,27,27,28,28,29,29,30,30,31,31,32,32,33,33,34,34,37,37,38,38,39,39,41,41,42,42,43,43,44,44,45,45,47,47,48,48,49,49],"right_children":[2,4,6,8,10,12,14,16,18,20,22,24,26,28,-1,30,32,34,36,38,40,-1,-1,42,44,46,-1,48,50,52,54,56,58,60,62,-1,-1,64,66,68,-1,70,72,74,76,78,-1,80,82,84,-1,-1,-1,-1,-1,-1,-1,-1,-1,-1,-1,-1,-1,-1,-1,-1,-1,-1,-1,-1,-1,-1,-1,-1,-1,-1,-1,-1,-1,-1,-1,-1,-1,-1,-1],"split_conditions":[5.2170888E-2,7.0912406E-2,5.5893593E-2,1.6530883E-1,9.577812E-2,7.837157E-2,9.515527E-2,5.42539E-2,6.68379E-2,5.1190965E-2,2.2033663E-2,4.2307157E-2,3.0315902E-2,5.038718E-2,3.3439252E-1,1.1893016E-1,6.8087325E-2,1.9861032E-1,2.303744E-2,8.543563E-2,5.2112363E-2,-4.941005E-1,-1.13073185E-1,6.720543E-2,7.245551E-2,2.6728053E-2,2.7143222E-1,6.52601E-2,5.4072507E-2,6.0000323E-2,1.1486536E-1,1.5505338E-1,5.729942E-2,8.1427544E-2,4.084783E-2,-8.76459E-2,-4.29637E-1,8.080007E-2,4.3088716E-2,1.9581106E-1,2.3749314E-1,6.2716685E-2,8.843637E-2,5.2737206E-2,5.8812246E-2,7.143517E-2,1.345879E-1,5.3249907E-2,2.8363002E-2,3.097464E-2,-2.6984793E-1,-2.2126356E-2,8.686962E-2,-1.9826074E-1,2.1452264E-1,-1.7925295E-1,3.280985E-1,2.7911565E-1,-1.18486285E-1,2.5893605E-1,-1.8412727E-1,-2.3562591E-1,1.6825518E-1,1.9815288E-1,-1.6523194E-1,-3.0930734E-1,7.45357E-2,-3.2290396E-1,1.2758195E-1,1.3246979E-1,-9.1097E-2,-2.960321E-1,2.4028376E-1,3.3362433E-1,5.383125E-2,-2.010712E-1,2.2861604E-1,-4.3863174E-1,8.70645E-2,-2.094405E-1,1.3789347E-1,-5.5216646E-1,-1.2790927E-1,3.291116E-1,-1.3037375E-1],"split_indices":[81,168,363,291,549,191,28,355,577,421,607,230,212,502,0,275,395,290,412,144,389,0,0,248,92,529,0,302,150,576,72,586,78,337,476,0,0,276,244,168,0,90,161,393,520,296,0,589,284,266,0,0,0,0,0,0,0,0,0,0,0,0,0,0,0,0,0,0,0,0,0,0,0,0,0,0,0,0,0,0,0,0,0,0,0],"split_type":[0,0,0,0,0,0,0,0,0,0,0,0,0,0,0,0,0,0,0,0,0,0,0,0,0,0,0,0,0,0,0,0,0,0,0,0,0,0,0,0,0,0,0,0,0,0,0,0,0,0,0,0,0,0,0,0,0,0,0,0,0,0,0,0,0,0,0,0,0,0,0,0,0,0,0,0,0,0,0,0,0,0,0,0,0],"sum_hessian":[1.0501575E3,8.5406964E2,1.960878E2,7.810133E2,7.305638E1,1.5957556E2,3.6512234E1,7.462806E2,3.473273E1,7.097705E1,2.0793314E0,1.4975282E2,9.822734E0,3.3884888E1,2.6273456E0,6.64802E2,8.147853E1,3.1972698E1,2.7600336E0,5.9781986E1,1.11950655E1,1.0347519E0,1.0445795E0,1.0975453E2,3.999829E1,8.171495E0,1.6512378E0,2.5971085E1,7.913804E0,6.3009985E2,3.4702183E1,7.546834E1,6.0101933E0,2.8545555E1,3.427144E0,1.4509866E0,1.309047E0,5.6460533E1,3.3214524E0,8.444729E0,2.7503364E0,9.862791E1,1.1126628E1,3.535077E1,4.6475244E0,6.9823723E0,1.1891234E0,2.1504211E1,4.466874E0,6.5356684E0,1.3781357E0,5.447668E2,8.5333046E1,3.296501E1,1.7371694E0,7.375614E1,1.7121943E0,4.431119E0,1.579074E0,2.7025635E1,1.5199194E0,2.309517E0,1.117627E0,5.3429546E1,3.0309849E0,2.177285E0,1.1441673E0,6.4416556E0,2.0030735E0,8.610363E1,1.2524272E1,9.189022E0,1.937606E0,2.6684143E1,8.666625E0,3.592722E0,1.0548025E0,5.9143934E0,1.0679787E0,1.6644558E1,4.859653E0,3.380835E0,1.086039E0,4.8992457E0,1.6364224E0],"tree_param":{"num_deleted":"0","num_feature":"618","num_nodes":"85","size_leaf_vector":"0"}},{"base_weights":[5.5396627E-3,3.2730922E-2,-2.9274142E-1,1.0625774E-3,3.3519703E-1,-1.5513991E-1,-1.1825788E0,4.3930363E-2,-2.5470945E-1,4.414508E-1,-4.102001E-1,-2.2769038E-1,1.0356526E0,-1.4123627E0,3.8507867E-1,8.644036E-4,3.4211478E-1,-1.1597405E-1,-7.709922E-1,5.560945E-1,-2.9394838E-1,-7.014425E-1,8.7578464E-1,-3.575977E-1,4.5625907E-1,1.1728855E0,2.741635E-1,-1.5949317E0,3.551641E-2,6.451107E-2,-2.635269E-1,4.6813816E-1,-7.381119E-1,4.7370024E-2,-7.3338175E-1,-1.0217054E0,6.2752527E-1,6.328573E-1,-8.8330793E-1,-7.4189514E-1,6.0746425E-1,-9.5878E-1,7.5251013E-1,-1.9691937E-1,-1.0121654E0,6.709433E-1,-6.178049E-1,-1.7565911E0,-2.8774822E-1,1.5198405E-2,4.4827858E-1,-4.4132477E-1,3.2538688E-1,5.933384E-1,-3.6438817E-1,-1.1346574E0,9.700978E-1,1.8016341E-1,-6.4830637E-1,-1.0973974E0,5.783388E-1,-1.2273415E0,2.6723602E-1,1.0953081E0,-5.2064395E-1,6.9598526E-1,-6.014872E-1,-1.180597E0,-1.6825896E-2,-1.1039133E0,7.106154E-1,9.9643487E-1,-2.2011036E-1,-1.2186106E0,3.681134E-1,-3.1562975E-1,7.220374E-1,-1.2852956E0,3.5530418E-1,8.9615196E-1,-4.7641864E-1,-1.8949485E0,-4.0423024E-1],"categories":[],"categories_nodes":[],"categories_segments":[],"categories_sizes":[],"default_left":[true,true,true,true,true,true,true,true,true,true,true,true,true,true,false,true,true,true,true,true,true,true,false,true,true,false,false,true,false,true,true,true,true,true,true,true,true,true,true,true,true,true,false,true,true,true,false,true,false,false,false,false,false,false,false,false,false,false,false,false,false,false,false,false,false,false,false,false,false,false,false,false,false,false,false,false,false,false,false,false,false,false,false],"id":15,"left_children":[1,3,5,7,9,11,13,15,17,19,21,23,25,27,-1,29,31,33,35,37,39,41,-1,43,45,-1,-1,47,-1,49,51,53,55,57,59,61,63,65,67,69,71,73,-1,75,77,79,-1,81,-1,-1,-1,-1,-1,-1,-1,-1,-1,-1,-1,-1,-1,-1,-1,-1,-1,-1,-1,-1,-1,-1,-1,-1,-1,-1,-1,-1,-1,-1,-1,-1,-1,-1,-1],"loss_changes":[8.41023E0,9.100512E0,1.0423994E1,9.452374E0,7.3129206E0,6.817237E0,4.668892E0,9.481024E0,8.77433E0,6.848673E0,5.016129E0,6.6159306E0,1.5444946E-1,2.7533207E0,0E0,1.0890233E1,1.3029792E1,9.990205E0,9.769188E0,8.177002E0,5.033013E0,4.5146394E0,0E0,6.278784E0,3.1888635E0,0E0,0E0,1.4135456E0,0E0,9.864048E0,1.3291202E1,8.977186E0,7.9575853E0,7.415132E0,1.0525024E1,6.2801304E0,3.028582E0,5.56439E0,9.86845E-1,5.0076E0,1.6090294E0,3.5698023E0,0E0,5.75826E0,4.9005604E0,3.141881E0,0E0,7.0949745E-1,0E0,0E0,0E0,0E0,0E0,0E0,0E0,0E0,0E0,0E0,0E0,0E0,0E0,0E0,0E0,0E0,0E0,0E0,0E0,0E0,0E0,0E0,0E0,0E0,0E0,0E0,0E0,0E0,0E0,0E0,0E0,0E0,0E0,0E0,0E0],"parents":[2147483647,0,0,1,1,2,2,3,3,4,4,5,5,6,6,7,7,8,8,9,9,10,10,11,11,12,12,13,13,15,15,16,16,17,17,18,18,19,19,20,20,21,21,23,23,24,24,27,27,29,29,30,30,31,31,32,32,33,33,34,34,35,35,36,36,37,37,38,38,39,39,40,40,41,41,43,43,44,44,45,45,47,47],"right_children":[2,4,6,8,10,12,14,16,18,20,22,24,26,28,-1,30,32,34,36,38,40,42,-1,44,46,-1,-1,48,-1,50,52,54,56,58,60,62,64,66,68,70,72,74,-1,76,78,80,-1,82,-1,-1,-1,-1,-1,-1,-1,-1,-1,-1,-1,-1,-1,-1,-1,-1,-1,-1,-1,-1,-1,-1,-1,-1,-1,-1,-1,-1,-1,-1,-1,-1,-1,-1,-1],"split_conditions":[7.471596E-2,6.283535E-2,5.263094E-2,6.52171E-2,6.51165E-2,8.67559E-2,6.620048E-2,6.2317006E-2,1.7838787E-2,5.950825E-2,6.5261364E-2,9.359256E-2,3.8362905E-2,5.8722954E-2,1.1552361E-1,4.1685402E-2,7.00822E-2,2.6423505E-2,5.6192618E-2,9.029037E-2,4.6699263E-2,5.0216574E-2,2.627354E-1,6.1985493E-2,5.361318E-2,3.5186568E-1,8.224906E-2,2.4145229E-2,1.06549235E-2,4.751236E-2,4.824254E-2,5.8295526E-2,6.6836E-2,5.9255406E-2,5.0350465E-2,7.081868E-2,6.0333773E-2,1.0060109E-1,2.7119707E-2,2.5859907E-2,5.330404E-2,6.2218435E-2,2.2575305E-1,6.176653E-2,5.47364E-2,4.8182003E-2,-1.8534148E-1,2.9289996E-2,-8.632447E-2,4.5595216E-3,1.3448358E-1,-1.3239744E-1,9.761607E-2,1.7800152E-1,-1.0931645E-1,-3.4039724E-1,2.9102933E-1,5.4049026E-2,-1.9449192E-1,-3.2921925E-1,1.7350164E-1,-3.6820248E-1,8.017081E-2,3.2859242E-1,-1.561932E-1,2.0879559E-1,-1.8044618E-1,-3.5417908E-1,-5.047769E-3,-3.3117402E-1,2.1318462E-1,2.9893047E-1,-6.603311E-2,-3.655832E-1,1.10434026E-1,-9.468893E-2,2.1661122E-1,-3.855887E-1,1.0659126E-1,2.688456E-1,-1.429256E-1,-5.6848454E-1,-1.2126908E-1],"split_indices":[42,424,599,588,229,564,484,580,260,207,212,372,590,157,0,32,103,115,565,503,110,173,0,508,401,0,0,597,0,95,230,275,32,202,553,597,186,579,389,475,12,240,0,582,471,66,0,583,0,0,0,0,0,0,0,0,0,0,0,0,0,0,0,0,0,0,0,0,0,0,0,0,0,0,0,0,0,0,0,0,0,0,0],"split_type":[0,0,0,0,0,0,0,0,0,0,0,0,0,0,0,0,0,0,0,0,0,0,0,0,0,0,0,0,0,0,0,0,0,0,0,0,0,0,0,0,0,0,0,0,0,0,0,0,0,0,0,0,0,0,0,0,0,0,0,0,0,0,0,0,0,0,0,0,0,0,0,0,0,0,0,0,0,0,0,0,0,0,0],"sum_hessian":[1.0347567E3,9.491249E2,8.563182E1,8.600778E2,8.904704E1,7.51805E1,1.0451318E1,7.373287E2,1.22749176E2,7.8294235E1,1.0752805E1,7.162543E1,3.5550745E0,9.201626E0,1.2496927E0,6.451538E2,9.21749E1,9.7715675E1,2.5033503E1,6.794578E1,1.0348464E1,9.137863E0,1.6149421E0,6.0593613E1,1.1031814E1,2.5544653E0,1.0006092E0,8.081084E0,1.1205413E0,5.205889E2,1.2456487E2,8.305232E1,9.122572E0,7.800232E1,1.9713358E1,2.145643E1,3.5770717E0,6.5037674E1,2.9081008E0,7.031302E0,3.317162E0,8.053102E0,1.0847619E0,4.969556E1,1.0898053E1,9.506895E0,1.5249188E0,6.885728E0,1.1953561E0,4.6223328E2,5.8355614E1,9.587119E1,2.8693684E1,7.244493E1,1.0607393E1,7.6763406E0,1.446231E0,6.6121765E1,1.1880553E1,1.5558975E1,4.154382E0,1.8545496E1,2.9109342E0,2.5742996E0,1.0027721E0,6.2288223E1,2.7494507E0,1.8953061E0,1.0127949E0,5.8205953E0,1.2107066E0,2.11775E0,1.1994119E0,6.8026257E0,1.2504758E0,4.4591755E1,5.1038055E0,9.133812E0,1.764241E0,8.130045E0,1.3768505E0,5.882668E0,1.0030599E0],"tree_param":{"num_deleted":"0","num_feature":"618","num_nodes":"83","size_leaf_vector":"0"}},{"base_weights":[4.521445E-3,1.43620325E-2,-8.374231E-1,-1.7046576E-2,2.795315E-1,-1.1850145E0,5.8665836E-1,-6.237954E-3,-1.0350547E0,3.6161664E-1,-6.323578E-1,-1.3511473E0,2.3383142E-2,-1.4224678E-2,1.1002582E0,-1.325409E0,4.7213382E-1,4.23772E-1,-7.602364E-1,-9.1752607E-1,6.744325E-1,-1.5186137E0,-2.2952211E-1,1.4536749E-4,-6.18124E-1,1.2938287E0,6.7699745E-2,-1.7125356E0,-1.8475567E-1,5.167338E-1,-3.7948108E-1,-1.1224158E0,4.4408324E-1,-1.1459912E0,2.9830936E-1,1.8978432E-2,-4.837018E-1,-9.021536E-1,8.3702743E-1,3.884957E-1,-6.8432426E-1,5.724439E-1,-8.656243E-1,-6.5274245E-1,8.487997E-1,-1.3488305E0,-3.332269E-1,-1.3245348E0,-1.3369614E-1],"categories":[],"categories_nodes":[],"categories_segments":[],"categories_sizes":[],"default_left":[true,true,true,true,true,true,false,true,true,true,true,true,false,true,true,true,false,true,true,true,false,false,false,true,true,false,false,false,true,true,true,true,false,true,false,false,false,false,false,false,false,false,false,false,false,false,false,false,false],"id":16,"left_children":[1,3,5,7,9,11,-1,13,15,17,19,21,-1,23,25,27,-1,29,31,33,-1,-1,-1,35,37,-1,-1,-1,39,41,43,45,-1,47,-1,-1,-1,-1,-1,-1,-1,-1,-1,-1,-1,-1,-1,-1,-1],"loss_changes":[8.489723E0,8.43658E0,6.5550585E0,9.963811E0,8.25834E0,2.0083628E0,0E0,7.948041E0,4.7890606E0,7.2288733E0,4.0557046E0,1.2806435E0,0E0,7.74231E0,1.200644E0,3.3219595E0,0E0,7.2520466E0,2.9225748E0,2.5624852E0,0E0,0E0,0E0,7.9589906E0,9.325503E0,0E0,0E0,0E0,1.1847713E0,7.050318E0,4.037351E0,3.6465025E-1,0E0,1.0765676E0,0E0,0E0,0E0,0E0,0E0,0E0,0E0,0E0,0E0,0E0,0E0,0E0,0E0,0E0,0E0],"parents":[2147483647,0,0,1,1,2,2,3,3,4,4,5,5,7,7,8,8,9,9,10,10,11,11,13,13,14,14,15,15,17,17,18,18,19,19,23,23,24,24,28,28,29,29,30,30,31,31,33,33],"right_children":[2,4,6,8,10,12,-1,14,16,18,20,22,-1,24,26,28,-1,30,32,34,-1,-1,-1,36,38,-1,-1,-1,40,42,44,46,-1,48,-1,-1,-1,-1,-1,-1,-1,-1,-1,-1,-1,-1,-1,-1,-1],"split_conditions":[3.2713526E-1,6.2488515E-2,5.3447098E-2,1.4603597E-1,6.806844E-2,2.5812851E-2,1.7599751E-1,1.7230478E-1,6.656408E-2,8.7325044E-2,4.015336E-2,6.257062E-2,7.014943E-3,1.422897E-1,2.8293317E-2,5.7318345E-2,1.4164016E-1,1.1137797E-1,5.6839444E-2,3.1966124E-2,2.0232977E-1,-4.5558414E-1,-6.8856634E-2,2.0590943E-1,7.046809E-2,3.8814864E-1,2.0309925E-2,-5.137607E-1,2.2850946E-2,1.05641246E-1,6.655583E-2,4.9294416E-2,1.3322498E-1,6.999168E-2,8.949281E-2,5.6935297E-3,-1.4511055E-1,-2.706461E-1,2.5110823E-1,1.1654872E-1,-2.0529729E-1,1.7173317E-1,-2.596873E-1,-1.9582275E-1,2.5463992E-1,-4.0464917E-1,-9.996807E-2,-3.9736044E-1,-4.0108845E-2],"split_indices":[167,458,351,562,315,400,0,119,277,102,396,293,0,431,279,173,0,284,104,306,0,0,0,293,258,0,0,0,133,194,474,313,0,309,0,0,0,0,0,0,0,0,0,0,0,0,0,0,0],"split_type":[0,0,0,0,0,0,0,0,0,0,0,0,0,0,0,0,0,0,0,0,0,0,0,0,0,0,0,0,0,0,0,0,0,0,0,0,0,0,0,0,0,0,0,0,0,0,0,0,0],"sum_hessian":[1.0222302E3,1.0113921E3,1.0838137E1,9.0511896E2,1.0627318E2,8.846699E0,1.9914378E0,8.966054E2,8.513512E0,9.805045E1,8.222721E0,7.673588E0,1.1731108E0,8.9116016E2,5.4452777E0,7.239464E0,1.2740476E0,9.349282E1,4.557637E0,6.9943E0,1.2284209E0,6.368749E0,1.3048385E0,8.71424E2,1.973615E1,4.3725395E0,1.0727382E0,5.030722E0,2.2087417E0,8.411478E1,9.378044E0,3.5561821E0,1.0014551E0,5.9362726E0,1.0580274E0,8.397006E2,3.172338E1,1.6830961E1,2.905191E0,1.1320546E0,1.076687E0,8.14194E1,2.6953707E0,8.054659E0,1.323385E0,2.2123373E0,1.3438447E0,4.7840405E0,1.1522322E0],"tree_param":{"num_deleted":"0","num_feature":"618","num_nodes":"49","size_leaf_vector":"0"}},{"base_weights":[2.4155404E-3,-1.3643673E-2,4.9886742E-1,-2.9172666E-2,5.351431E-1,6.3168865E-1,-5.793573E-1,-4.3604646E-2,5.422968E-1,6.6821074E-1,-7.601806E-1,7.4886435E-1,-4.1123253E-1,-1.050116E0,4.0689933E-1,-8.732905E-2,1.5294024E-1,2.1599777E-1,1.3671715E0,8.236671E-1,-3.5667297E-1,8.463778E-1,-3.531681E-1,1.8073179E-1,-8.9424074E-1,-4.246332E-2,-3.9654174E-1,2.020976E-1,-7.221716E-1,4.7784126E-1,-8.101422E-1,9.1741323E-1,-4.5272195E-1,1.7215908E-1,-9.277572E-1,9.2957574E-1,-3.0765638E-1,-6.1108813E-2,7.026457E-1,-5.0267464E-1,4.1895443E-1,1.1006935E-1,6.688189E-1,-1.1195576E0,6.611676E-1,7.288552E-1,-7.3642373E-1,-1.1315191E0,5.7589997E-2,1.038807E0,-1.8321823E-1,1.0085318E0,-3.0310622E-1],"categories":[],"categories_nodes":[],"categories_segments":[],"categories_sizes":[],"default_left":[true,true,true,true,true,true,true,true,true,true,false,true,true,false,false,true,true,true,false,true,true,true,false,false,false,true,true,true,true,true,true,true,false,false,false,true,false,false,false,false,false,false,false,false,false,false,false,false,false,false,false,false,false],"id":17,"left_children":[1,3,5,7,9,11,13,15,17,19,-1,21,23,-1,-1,25,27,29,-1,31,33,35,-1,-1,-1,37,39,41,43,45,47,49,-1,-1,-1,51,-1,-1,-1,-1,-1,-1,-1,-1,-1,-1,-1,-1,-1,-1,-1,-1,-1],"loss_changes":[8.102648E0,8.406558E0,4.926568E0,7.9285097E0,5.187078E0,3.831256E0,2.2910528E0,8.055268E0,6.0792127E0,4.300749E0,0E0,3.1223335E0,1.1788199E0,0E0,0E0,1.0611616E1,7.487322E0,5.265952E0,0E0,3.0644732E0,1.3708196E0,2.6317883E0,0E0,0E0,0E0,9.353502E0,8.602267E0,6.9000974E0,5.849909E0,5.1378193E0,1.1980605E0,2.9901447E0,0E0,0E0,0E0,2.547903E0,0E0,0E0,0E0,0E0,0E0,0E0,0E0,0E0,0E0,0E0,0E0,0E0,0E0,0E0,0E0,0E0,0E0],"parents":[2147483647,0,0,1,1,2,2,3,3,4,4,5,5,6,6,7,7,8,8,9,9,11,11,12,12,15,15,16,16,17,17,19,19,20,20,21,21,25,25,26,26,27,27,28,28,29,29,30,30,31,31,35,35],"right_children":[2,4,6,8,10,12,14,16,18,20,-1,22,24,-1,-1,26,28,30,-1,32,34,36,-1,-1,-1,38,40,42,44,46,48,50,-1,-1,-1,52,-1,-1,-1,-1,-1,-1,-1,-1,-1,-1,-1,-1,-1,-1,-1,-1,-1],"split_conditions":[1.6397247E-1,2.4897712E-1,6.1618738E-2,1.0622908E-1,6.695241E-2,6.5560505E-2,2.2399852E-2,5.239796E-2,2.0396892E-2,5.8766678E-2,-2.2805418E-1,9.2914164E-2,2.23785E-2,-3.150348E-1,1.22069806E-1,3.2600287E-2,1.08778805E-1,4.9204484E-2,4.1015148E-1,7.684699E-2,2.3502192E-2,1.1597858E-1,-1.0595044E-1,5.421954E-2,-2.6827222E-1,1.743195E-1,6.3344285E-2,5.9562646E-2,5.454252E-2,5.1272295E-2,2.8528826E-2,1.0896582E-1,-1.3581659E-1,5.1647726E-2,-2.7832717E-1,1.0183066E-1,-9.229691E-2,-1.8332645E-2,2.1079372E-1,-1.508024E-1,1.2568633E-1,3.3020806E-2,2.0064567E-1,-3.358673E-1,1.983503E-1,2.1865657E-1,-2.2092713E-1,-3.3945572E-1,1.7277E-2,3.116421E-1,-5.496547E-2,3.0255955E-1,-9.093187E-2],"split_indices":[277,173,109,142,437,548,15,607,45,213,0,617,279,0,0,196,524,109,0,266,541,1,0,0,0,477,53,422,313,413,5,588,0,0,0,492,0,0,0,0,0,0,0,0,0,0,0,0,0,0,0,0,0],"split_type":[0,0,0,0,0,0,0,0,0,0,0,0,0,0,0,0,0,0,0,0,0,0,0,0,0,0,0,0,0,0,0,0,0,0,0,0,0,0,0,0,0,0,0,0,0,0,0,0,0,0,0,0,0],"sum_hessian":[1.0144548E3,9.8360956E2,3.0845259E1,9.574631E2,2.6146448E1,2.783103E1,3.0142283E0,9.347797E2,2.2683376E1,2.4149702E1,1.9967458E0,2.527343E1,2.557601E0,1.9965085E0,1.0177197E0,7.6512225E2,1.6965746E2,1.715798E1,5.5253963E0,2.1139545E1,3.0101562E0,2.343203E1,1.8413998E0,1.4303795E0,1.1272216E0,6.6916583E2,9.595641E1,1.6136235E2,8.295091E0,1.4095512E1,3.0624666E0,1.9955156E1,1.1843898E0,1.9255809E0,1.0845753E0,2.2037758E1,1.3942724E0,6.5372516E2,1.544073E1,8.52457E1,1.0710715E1,1.3581763E2,2.5544727E1,6.592093E0,1.7029976E0,1.2012114E1,2.0833986E0,2.0129476E0,1.0495191E0,1.8023438E1,1.9317187E0,2.0882055E1,1.1557025E0],"tree_param":{"num_deleted":"0","num_feature":"618","num_nodes":"53","size_leaf_vector":"0"}},{"base_weights":[3.111977E-3,-1.4359274E-2,4.5166442E-1,1.8800426E-2,-2.8147092E-1,5.272948E-1,-6.680537E-1,2.8337527E-2,-1.0096676E0,-1.8118188E-1,-9.877048E-1,6.0527796E-1,-4.9745476E-1,4.36314E-2,-5.771601E-1,-1.2968892E0,2.2088943E-1,-3.294315E-1,2.652719E-1,-1.3204594E0,1.7615147E-1,6.70579E-1,-5.848199E-1,-8.0924726E-1,6.0506653E-2,9.237533E-3,4.0820792E-1,-8.3018166E-1,7.249862E-1,-1.5866184E0,-8.992131E-2,-5.366819E-1,2.4365928E-2,-4.3126285E-2,1.0607493E0,-1.5388055E0,-2.6745636E-2,7.728824E-1,-5.3524125E-1,7.364261E-1,-2.606321E-1,2.850134E-2,-6.731408E-1,4.9034247E-1,-7.964209E-1,-1.0121652E0,7.6533914E-1,1.1786844E0,-1.0717909E-1,-6.4076245E-1,5.3895044E-1,3.9724433E-1,-9.85236E-1,-3.744176E-1,7.007554E-1,1.2703774E0,2.6004076E-2,-1.6743436E0,-2.5347728E-1,8.16248E-1,-1.6254446E-1],"categories":[],"categories_nodes":[],"categories_segments":[],"categories_sizes":[],"default_left":[true,true,true,true,true,true,false,true,true,true,true,true,true,true,true,true,false,true,true,true,true,true,false,false,false,true,true,true,true,false,false,true,true,true,true,true,false,false,false,true,false,false,false,false,false,false,false,false,false,false,false,false,false,false,false,false,false,false,false,false,false],"id":18,"left_children":[1,3,5,7,9,11,-1,13,15,17,19,21,23,25,27,29,-1,31,33,35,37,39,-1,-1,-1,41,43,45,47,-1,-1,49,51,53,55,57,-1,-1,-1,59,-1,-1,-1,-1,-1,-1,-1,-1,-1,-1,-1,-1,-1,-1,-1,-1,-1,-1,-1,-1,-1],"loss_changes":[7.8857703E0,8.585405E0,3.5469275E0,8.490121E0,7.4023237E0,3.1696844E0,0E0,7.9493904E0,3.0975256E0,6.3720217E0,5.300268E0,3.0196133E0,5.860751E-1,1.0473443E1,7.5707097E0,2.163147E0,0E0,5.272585E0,5.9885187E0,2.8665657E0,2.0232828E0,2.1857443E0,0E0,0E0,0E0,1.0069346E1,7.5150433E0,6.0523405E0,1.6271474E0,0E0,0E0,5.4140806E0,1.0726376E1,4.801195E0,1.4434323E0,1.1068249E0,0E0,0E0,0E0,2.330618E0,0E0,0E0,0E0,0E0,0E0,0E0,0E0,0E0,0E0,0E0,0E0,0E0,0E0,0E0,0E0,0E0,0E0,0E0,0E0,0E0,0E0],"parents":[2147483647,0,0,1,1,2,2,3,3,4,4,5,5,7,7,8,8,9,9,10,10,11,11,12,12,13,13,14,14,15,15,17,17,18,18,19,19,20,20,21,21,25,25,26,26,27,27,28,28,31,31,32,32,33,33,34,34,35,35,39,39],"right_children":[2,4,6,8,10,12,-1,14,16,18,20,22,24,26,28,30,-1,32,34,36,38,40,-1,-1,-1,42,44,46,48,-1,-1,50,52,54,56,58,-1,-1,-1,60,-1,-1,-1,-1,-1,-1,-1,-1,-1,-1,-1,-1,-1,-1,-1,-1,-1,-1,-1,-1,-1],"split_conditions":[1.4403796E-1,6.0873047E-2,9.439036E-2,1.6914362E-1,3.6899198E-2,1.5082555E-1,-2.0041612E-1,1.3808152E-1,5.4624483E-2,4.848901E-2,9.341924E-2,1.0279697E-1,3.6452964E-2,5.9471227E-2,5.0944604E-2,2.438888E-2,6.6266835E-2,5.7118557E-2,5.503626E-2,5.812691E-2,8.026765E-2,7.403269E-2,-1.7544597E-1,-2.4277419E-1,1.8151997E-2,8.86011E-2,7.3363416E-2,6.952359E-2,5.789904E-2,-4.7598556E-1,-2.6976394E-2,6.502345E-2,6.9914855E-2,2.268929E-2,6.0142867E-2,2.6711775E-2,-8.023691E-3,2.3186474E-1,-1.6057238E-1,9.299627E-2,-7.8189634E-2,8.550402E-3,-2.0194225E-1,1.4710274E-1,-2.3892628E-1,-3.0364957E-1,2.2960176E-1,3.5360533E-1,-3.215373E-2,-1.9222875E-1,1.6168514E-1,1.191733E-1,-2.9557082E-1,-1.1232529E-1,2.1022664E-1,3.8111323E-1,7.801223E-3,-5.023031E-1,-7.604319E-2,2.448744E-1,-4.876334E-2],"split_indices":[372,463,345,577,534,573,0,377,40,502,203,325,184,203,279,499,0,372,178,276,377,205,0,0,0,288,460,545,203,0,0,541,148,277,477,321,0,0,0,362,0,0,0,0,0,0,0,0,0,0,0,0,0,0,0,0,0,0,0,0,0],"split_type":[0,0,0,0,0,0,0,0,0,0,0,0,0,0,0,0,0,0,0,0,0,0,0,0,0,0,0,0,0,0,0,0,0,0,0,0,0,0,0,0,0,0,0,0,0,0,0,0,0,0,0,0,0,0,0,0,0,0,0,0,0],"sum_hessian":[1.0044248E3,9.6770056E2,3.6724236E1,8.61662E2,1.0603858E2,3.489628E1,1.8279561E0,8.547086E2,6.9533625E0,9.3953255E1,1.2085327E1,3.2808876E1,2.087405E0,8.34557E2,2.0151598E1,5.593818E0,1.3595446E0,7.072905E1,2.32242E1,9.293653E0,2.7916753E0,3.151611E1,1.2927649E0,1.0501887E0,1.0372164E0,7.635497E2,7.100735E1,1.7176468E1,2.9751287E0,4.2573133E0,1.3365048E0,4.4275856E1,2.6453197E1,1.741743E1,5.8067684E0,7.789529E0,1.504123E0,1.4711819E0,1.3204935E0,2.9630102E1,1.8860073E0,7.435181E2,2.0031572E1,6.703003E1,3.9773195E0,1.5746104E1,1.4303641E0,1.6559143E0,1.3192143E0,4.0738224E1,3.537629E0,1.9761263E1,6.6919346E0,1.23942585E1,5.0231724E0,4.639198E0,1.1675706E0,6.772689E0,1.01684E0,2.729824E1,2.3318624E0],"tree_param":{"num_deleted":"0","num_feature":"618","num_nodes":"61","size_leaf_vector":"0"}},{"base_weights":[1.2815864E-3,3.2292187E-2,-2.4811652E-1,1.4906344E-2,5.48609E-1,-1.2603979E-1,-7.83411E-1,-3.9802073E-3,5.0675386E-1,7.8949004E-1,-4.3948013E-1,-2.0274302E-1,8.9664835E-1,-1.0703409E0,3.265361E-1,-3.4660086E-2,2.8513616E-1,6.874754E-1,-7.607003E-1,1.0006909E0,-4.8382515E-1,-8.601277E-1,8.917665E-1,-2.9027268E-1,6.9968295E-1,1.1884795E0,7.539636E-2,-1.2345997E0,2.371329E-1,7.641032E-1,-6.736086E-1,-6.0724936E-2,3.8700122E-1,3.8432568E-1,-4.3779817E-1,8.3068943E-1,-6.212672E-1,-1.2979878E0,3.222315E-1,1.1390786E0,-4.6650547E-1,-8.984585E-1,3.4052742E-1,-1.2813945E0,4.226846E-1,-4.2103568E-1,4.4243053E-1,9.872332E-1,-3.181019E-1,-1.3659637E0,2.655899E-1,9.1674894E-1,1.8772568E-1,-1.0485741E-1,1.9935286E-1,6.429692E-1,-5.919208E-1,4.9324343E-1,-2.824236E-1,1.3890594E-2,-1.3043597E0,9.350615E-1,-4.055155E-1,-2.1629982E-2,-9.8731804E-1,1.3131237E0,-2.653285E-1,-1.4799079E0,-3.367515E-1,-5.6275123E-1,3.6500624E-1,7.7854407E-1,-6.466846E-1,1.103031E0,2.13113E-1,-1.4742472E0,-1.3810242E-2],"categories":[],"categories_nodes":[],"categories_segments":[],"categories_sizes":[],"default_left":[true,true,true,true,true,true,true,true,true,true,true,true,true,true,true,true,true,true,true,true,true,true,false,true,true,false,false,true,false,true,false,true,true,true,true,true,true,false,false,true,false,false,false,true,false,true,true,true,false,true,false,false,false,false,false,false,false,false,false,false,false,false,false,false,false,false,false,false,false,false,false,false,false,false,false,false,false],"id":19,"left_children":[1,3,5,7,9,11,13,15,17,19,21,