{"learner":{"attributes":{"best_iteration":"99","best_ntree_limit":"100","scikit_learn":"{\"use_label_encoder\": true, \"n_estimators\": 100, \"objective\": \"binary:logistic\", \"max_depth\": null, \"learning_rate\": null, \"verbosity\": null, \"booster\": null, \"tree_method\": null, \"gamma\": null, \"min_child_weight\": null, \"max_delta_step\": null, \"subsample\": null, \"colsample_bytree\": null, \"colsample_bylevel\": null, \"colsample_bynode\": null, \"reg_alpha\": null, \"reg_lambda\": null, \"scale_pos_weight\": null, \"base_score\": null, \"missing\": NaN, \"num_parallel_tree\": null, \"random_state\": null, \"n_jobs\": null, \"monotone_constraints\": null, \"interaction_constraints\": null, \"importance_type\": null, \"gpu_id\": null, \"validate_parameters\": null, \"predictor\": null, \"enable_categorical\": false, \"classes_\": [0, 1], \"n_classes_\": 2, \"_le\": {\"classes_\": [0, 1]}, \"_estimator_type\": \"classifier\"}"},"feature_names":[],"feature_types":[],"gradient_booster":{"model":{"gbtree_model_param":{"num_trees":"100","size_leaf_vector":"0"},"tree_info":[0,0,0,0,0,0,0,0,0,0,0,0,0,0,0,0,0,0,0,0,0,0,0,0,0,0,0,0,0,0,0,0,0,0,0,0,0,0,0,0,0,0,0,0,0,0,0,0,0,0,0,0,0,0,0,0,0,0,0,0,0,0,0,0,0,0,0,0,0,0,0,0,0,0,0,0,0,0,0,0,0,0,0,0,0,0,0,0,0,0,0,0,0,0,0,0,0,0,0,0],"trees":[{"base_weights":[1.6721527E-1,-1.2652798E-1,1.1333804E0,7.863425E-2,-1.1161048E0,1.3864818E0,2.247191E-2,-1.2425851E-1,1.0524738E0,-1.3700787E0,-1.4117648E-1,1.5095786E0,2.1052632E-1,-3.2E-1,9.859155E-1,-2.8258488E-1,8.034188E-1,1.2626086E0,-2.5E-1,-1.4475874E0,-0E0,-3.7241378E-1,1.0344827E0,1.5603533E0,-4.827586E-1,-1.5053764E-1,1.52E0,-6.1077845E-1,1.027027E0,1.1641791E0,-1E0,-1.1617516E-1,-1.0178218E0,9.590362E-1,-3.859649E-1,1.4362935E0,-2.9508197E-1,-8.125E-1,7.777778E-1,-1.5077989E0,-0E0,-6.666667E-1,1.2E0,-6.3414633E-1,9.230769E-1,1.36E0,-5E-1,1.5833334E0,-4E-1,-1.0909091E0,9.0909094E-1,1.5E-1,-1.5294118E0,-2.184874E-1,-1.4615384E0,1.3939394E0,-1E0,1.3548387E0,-6.666667E-1,8.0938414E-2,-7.4115455E-1,-1.2254902E0,-1.3861386E-1,1.0704961E0,-3.3333334E-1,-8.0851066E-1,1.1428572E0,1.5156577E0,4.1860464E-1,-5.925926E-1,1.2727273E0,-1.2727273E0,1.6666667E-1,1.2258065E0,-1.1111112E0,-1.5414462E0,2.857143E-1,1.3333334E0,-8E-1,-1.0909091E0,6.666667E-1,-8.6238533E-1,8.888889E-1,1.2727273E0,-5E-1,1.6190476E0,-0E0,1.6E0,-3.3333334E-1,-1.2E0,6.666667E-1,-1.5555556E0,5E-1,-2.2222222E-1,1.2380953E0,-4.7619048E-1,1.3333334E0,-1.6666666E0,5E-1,1.7037038E0,-0E0,1.68E0,-0E0],"categories":[],"categories_nodes":[],"categories_segments":[],"categories_sizes":[],"default_left":[true,true,true,true,true,true,true,true,true,true,true,true,true,true,true,true,true,true,true,true,true,true,true,true,true,true,false,true,true,true,false,true,true,true,true,true,true,true,true,true,true,true,false,true,true,true,false,true,true,true,false,true,false,true,true,true,false,true,false,false,false,false,false,false,false,false,false,false,false,false,false,false,false,false,false,false,false,false,false,false,false,false,false,false,false,false,false,false,false,false,false,false,false,false,false,false,false,false,false,false,false,false,false],"id":0,"left_children":[1,3,5,7,9,11,13,15,17,19,21,23,25,27,29,31,33,35,37,39,41,43,45,47,49,51,-1,53,55,57,-1,59,61,63,65,67,69,71,73,75,77,79,-1,81,83,85,-1,87,89,91,-1,93,-1,95,97,99,-1,101,-1,-1,-1,-1,-1,-1,-1,-1,-1,-1,-1,-1,-1,-1,-1,-1,-1,-1,-1,-1,-1,-1,-1,-1,-1,-1,-1,-1,-1,-1,-1,-1,-1,-1,-1,-1,-1,-1,-1,-1,-1,-1,-1,-1,-1],"loss_changes":[4.312424E2,2.3676276E2,9.957419E1,1.9109668E2,4.938974E1,4.1444397E1,2.2339811E1,1.17837814E2,4.595433E1,1.6858124E1,1.1939148E1,2.7156128E1,1.3703723E1,2.0211609E1,7.4479713E0,8.3661316E1,2.2025536E1,3.9314972E1,1.4506945E1,1.3096039E1,8.4E0,1.287673E1,4.3013797E0,1.2109558E1,7.1285267E0,9.864294E0,0E0,1.3614548E1,8.273547E0,6.75012E0,0E0,6.898587E1,2.2881332E1,1.530175E1,1.0129473E1,9.825012E0,7.867417E0,7.422348E0,8.978495E0,9.145416E0,8.533334E0,4.5454545E0,0E0,1.1455756E1,3.8706293E0,2.2019043E0,0E0,8.583313E0,4E0,4.843435E0,0E0,8.375397E0,0E0,1.2532213E1,6.064102E0,3.5622883E0,0E0,6.8283863E0,0E0,0E0,0E0,0E0,0E0,0E0,0E0,0E0,0E0,0E0,0E0,0E0,0E0,0E0,0E0,0E0,0E0,0E0,0E0,0E0,0E0,0E0,0E0,0E0,0E0,0E0,0E0,0E0,0E0,0E0,0E0,0E0,0E0,0E0,0E0,0E0,0E0,0E0,0E0,0E0,0E0,0E0,0E0,0E0,0E0],"parents":[2147483647,0,0,1,1,2,2,3,3,4,4,5,5,6,6,7,7,8,8,9,9,10,10,11,11,12,12,13,13,14,14,15,15,16,16,17,17,18,18,19,19,20,20,21,21,22,22,23,23,24,24,25,25,27,27,28,28,29,29,31,31,32,32,33,33,34,34,35,35,36,36,37,37,38,38,39,39,40,40,41,41,43,43,44,44,45,45,47,47,48,48,49,49,51,51,53,53,54,54,55,55,57,57],"right_children":[2,4,6,8,10,12,14,16,18,20,22,24,26,28,30,32,34,36,38,40,42,44,46,48,50,52,-1,54,56,58,-1,60,62,64,66,68,70,72,74,76,78,80,-1,82,84,86,-1,88,90,92,-1,94,-1,96,98,100,-1,102,-1,-1,-1,-1,-1,-1,-1,-1,-1,-1,-1,-1,-1,-1,-1,-1,-1,-1,-1,-1,-1,-1,-1,-1,-1,-1,-1,-1,-1,-1,-1,-1,-1,-1,-1,-1,-1,-1,-1,-1,-1,-1,-1,-1,-1],"split_conditions":[4.5199353E-2,4.8197217E-2,5.0736163E-2,5.209507E-2,4.1057326E-2,9.618108E-2,1.2290525E-1,4.453551E-2,6.728469E-2,7.126405E-2,5.3366832E-2,2.2655536E-1,1.0282746E-1,5.6636855E-2,7.2588906E-2,4.603368E-2,5.9553493E-2,1.105123E-1,1.2280145E-1,9.72389E-2,2.0092273E-2,1.19181566E-1,7.1983054E-2,2.654499E-1,2.7928574E-2,3.1164408E-2,4.56E-1,1.4552817E-1,6.365107E-2,8.649494E-2,-3E-1,5.0956815E-2,2.31445E-2,5.4476224E-2,5.7713475E-2,1.07173726E-1,5.706176E-2,4.2405937E-2,5.8165744E-2,1.5010706E-1,6.5053865E-2,2.5867071E-2,3.6E-1,2.995692E-2,1.8387774E-2,5.9785903E-2,-1.5E-1,2.1959531E-1,6.681716E-2,5.8963597E-2,2.7272728E-1,4.6595383E-2,-4.5882356E-1,2.8605003E-2,6.311483E-2,6.2026344E-2,-3E-1,5.644781E-2,-2.0000002E-1,2.4281526E-2,-2.2234638E-1,-3.6764708E-1,-4.158416E-2,3.2114884E-1,-1.0000001E-1,-2.425532E-1,3.4285718E-1,4.546973E-1,1.255814E-1,-1.7777778E-1,3.818182E-1,-3.818182E-1,5.0000004E-2,3.6774194E-1,-3.3333337E-1,-4.6243387E-1,8.5714296E-2,4.0000004E-1,-2.4000001E-1,-3.2727274E-1,2.0000002E-1,-2.587156E-1,2.6666668E-1,3.818182E-1,-1.5E-1,4.8571432E-1,-0E0,4.8000002E-1,-1.0000001E-1,-3.6E-1,2.0000002E-1,-4.666667E-1,1.5E-1,-6.666667E-2,3.714286E-1,-1.4285715E-1,4.0000004E-1,-5E-1,1.5E-1,5.1111114E-1,-0E0,5.04E-1,-0E0],"split_indices":[277,285,285,275,275,284,277,44,174,468,44,173,275,253,117,284,225,284,275,168,235,377,90,294,84,280,0,285,264,186,0,173,168,331,390,173,531,72,292,76,285,193,0,217,94,4,0,151,277,207,0,500,0,327,220,45,0,86,0,0,0,0,0,0,0,0,0,0,0,0,0,0,0,0,0,0,0,0,0,0,0,0,0,0,0,0,0,0,0,0,0,0,0,0,0,0,0,0,0,0,0,0,0],"split_type":[0,0,0,0,0,0,0,0,0,0,0,0,0,0,0,0,0,0,0,0,0,0,0,0,0,0,0,0,0,0,0,0,0,0,0,0,0,0,0,0,0,0,0,0,0,0,0,0,0,0,0,0,0,0,0,0,0,0,0,0,0,0,0,0,0,0,0,0,0,0,0,0,0,0,0,0,0,0,0,0,0,0,0,0,0,0,0,0,0,0,0,0,0,0,0,0,0,0,0,0,0,0,0],"sum_hessian":[1.518E3,1.16475E3,3.5325E2,9.655E2,1.9925E2,2.875E2,6.575E1,7.9975E2,1.6575E2,1.5775E2,4.15E1,2.6E2,2.75E1,4.9E1,1.675E1,6.8375E2,1.16E2,1.4275E2,2.3E1,1.4925E2,8.5E0,3.525E1,6.25E0,2.5375E2,6.25E0,2.225E1,5.25E0,4.075E1,8.25E0,1.575E1,1E0,5.585E2,1.2525E2,1.0275E2,1.325E1,1.285E2,1.425E1,1.5E1,8E0,1.4325E2,6E0,5.75E0,2.75E0,2.975E1,5.5E0,5.25E0,1E0,2.51E2,2.75E0,4.5E0,1.75E0,1.9E1,3.25E0,2.875E1,1.2E1,7.25E0,1E0,1.45E1,1.25E0,4.2525E2,1.3325E2,1.01E2,2.425E1,9.475E1,8E0,1.075E1,2.5E0,1.1875E2,9.75E0,1.25E1,1.75E0,1E1,5E0,6.75E0,1.25E0,1.4075E2,2.5E0,2E0,4E0,4.5E0,1.25E0,2.625E1,3.5E0,4.5E0,1E0,4.25E0,1E0,2.49E2,2E0,1.5E0,1.25E0,3.5E0,1E0,1.475E1,4.25E0,2.525E1,3.5E0,1.1E1,1E0,5.75E0,1.5E0,1.15E1,3E0],"tree_param":{"num_deleted":"0","num_feature":"618","num_nodes":"103","size_leaf_vector":"0"}},{"base_weights":[1.2237214E-1,-7.707308E-2,9.0121615E-1,7.325788E-2,-8.129745E-1,1.0602694E0,-4.1777883E-2,-7.032212E-2,7.800691E-1,-1.0065429E0,-6.829682E-2,1.1926255E0,5.0446695E-1,-2.9793555E-1,8.913195E-1,6.1888013E-2,-7.071079E-1,9.613084E-1,-1.8536451E-1,-1.0753657E0,-8.84353E-3,-2.3044689E-1,1.2181827E0,1.2247044E0,-5.72519E-1,6.629595E-1,-4.3161875E-1,-6.260586E-1,8.382691E-1,1.1703954E0,-5.991256E-1,2.3209745E-1,-6.5115863E-1,-8.211951E-1,4.7676128E-1,1.0666835E0,-1.0512507E0,1.1002385E-1,-1.3858066E0,-1.1190411E0,3.780685E-1,-6.6092384E-1,1.1835446E0,-5.1249075E-1,6.196794E-1,1.5249943E0,1.5759647E-1,1.2553613E0,-2.371096E-1,1.66611E-1,-1.1049289E0,7.7317935E-1,-1.1505277E0,-9.187924E-1,1.0566869E0,-7.758486E-1,1.2398143E0,1.0988076E0,-3.947691E-1,1.4571329E0,-3.1598657E-1,3.5114357E-1,-8.9394176E-1,-8.4616685E-1,7.4172217E-1,-9.2372304E-1,7.287539E-2,8.6729777E-1,-1.2997248E0,1.1077127E0,-8.250962E-1,-1.3654113E0,1.2733357E-1,4.6228775E-1,-1.0299984E0,-1.1693169E0,1.7968516E-1,-5.353545E-1,1.2365562E0,-1.137829E0,8.7248737E-1,1.670547E0,-5.7489008E-2,-6.5479094E-1,1.1447486E0,1.0474098E0,-1.1089932E0,1.2754003E0,-5.440178E-1,-8.049554E-1,8.7645274E-1,9.372931E-1,-6.8786293E-1,-2.0706272E-1,-1.5063865E0,-1.0284986E0,4.2240658E-1,1.4024416E0,-2.1339037E-1],"categories":[],"categories_nodes":[],"categories_segments":[],"categories_sizes":[],"default_left":[true,true,true,true,true,true,true,true,true,true,true,true,true,true,true,true,true,true,true,true,true,true,true,true,true,true,true,true,true,true,false,true,true,true,true,true,true,true,false,true,true,true,true,true,true,false,false,true,true,false,false,true,false,true,false,true,false,true,false,false,false,false,false,false,false,false,false,false,false,false,false,false,false,false,false,false,false,false,false,false,false,false,false,false,false,false,false,false,false,false,false,false,false,false,false,false,false,false,false],"id":1,"left_children":[1,3,5,7,9,11,13,15,17,19,21,23,25,27,29,31,33,35,37,39,41,43,45,47,49,51,53,55,57,59,-1,61,63,65,67,69,71,73,-1,75,77,79,81,83,85,-1,-1,87,89,-1,-1,91,-1,93,-1,95,-1,97,-1,-1,-1,-1,-1,-1,-1,-1,-1,-1,-1,-1,-1,-1,-1,-1,-1,-1,-1,-1,-1,-1,-1,-1,-1,-1,-1,-1,-1,-1,-1,-1,-1,-1,-1,-1,-1,-1,-1,-1,-1],"loss_changes":[2.2985855E2,1.3045012E2,4.5289886E1,9.947041E1,2.876236E1,1.8389984E1,1.090194E1,6.866977E1,2.9133224E1,1.0885864E1,9.112393E0,1.2466339E1,7.9100494E0,1.3821044E1,4.792273E0,8.218491E1,1.9330696E1,3.0702988E1,9.724378E0,9.845215E0,9.527647E0,9.534262E0,1.3534861E0,9.457275E0,1.9116853E0,9.752457E0,6.8050222E0,8.856167E0,3.1384583E0,4.1355343E0,0E0,7.355882E1,3.6078773E1,1.1825066E1,1.0117271E1,1.1240601E1,2.9299908E0,9.547902E0,0E0,9.6354065E0,4.64365E0,6.779383E0,2.7158966E0,7.6853533E0,8.576745E0,0E0,0E0,7.917938E0,3.8921344E0,0E0,0E0,1.0810829E1,0E0,2.4469914E0,0E0,8.536169E0,0E0,3.1738558E0,0E0,0E0,0E0,0E0,0E0,0E0,0E0,0E0,0E0,0E0,0E0,0E0,0E0,0E0,0E0,0E0,0E0,0E0,0E0,0E0,0E0,0E0,0E0,0E0,0E0,0E0,0E0,0E0,0E0,0E0,0E0,0E0,0E0,0E0,0E0,0E0,0E0,0E0,0E0,0E0,0E0],"parents":[2147483647,0,0,1,1,2,2,3,3,4,4,5,5,6,6,7,7,8,8,9,9,10,10,11,11,12,12,13,13,14,14,15,15,16,16,17,17,18,18,19,19,20,20,21,21,22,22,23,23,24,24,25,25,26,26,27,27,28,28,29,29,31,31,32,32,33,33,34,34,35,35,36,36,37,37,39,39,40,40,41,41,42,42,43,43,44,44,47,47,48,48,51,51,53,53,55,55,57,57],"right_children":[2,4,6,8,10,12,14,16,18,20,22,24,26,28,30,32,34,36,38,40,42,44,46,48,50,52,54,56,58,60,-1,62,64,66,68,70,72,74,-1,76,78,80,82,84,86,-1,-1,88,90,-1,-1,92,-1,94,-1,96,-1,98,-1,-1,-1,-1,-1,-1,-1,-1,-1,-1,-1,-1,-1,-1,-1,-1,-1,-1,-1,-1,-1,-1,-1,-1,-1,-1,-1,-1,-1,-1,-1,-1,-1,-1,-1,-1,-1,-1,-1,-1,-1],"split_conditions":[5.1542707E-2,4.8197217E-2,6.090183E-2,5.2428532E-2,4.932282E-2,4.8458137E-2,2.1253457E-2,4.619933E-2,1.00149065E-1,1.3362436E-1,5.5451255E-2,2.2327942E-1,7.1765974E-2,1.4614135E-1,6.345871E-2,5.4908395E-2,1.13106325E-1,1.8140174E-1,5.3155176E-2,1.166094E-1,2.3801524E-2,4.8191257E-2,7.0454665E-2,8.803077E-2,7.919631E-2,1.0808228E-1,3.434308E-2,7.352911E-2,2.8308567E-2,6.278904E-2,-1.7973769E-1,1.1859902E-1,1.383157E-1,3.0700356E-2,5.140023E-2,8.985542E-2,5.6628063E-2,4.301995E-2,-4.1574198E-1,8.268745E-2,2.8156426E-2,5.4447122E-2,4.9783118E-2,9.567827E-2,4.88629E-2,4.5749828E-1,4.7278944E-2,1.8033025E-1,5.2144498E-2,4.9983304E-2,-3.3147866E-1,6.752597E-2,-3.4515834E-1,2.412138E-2,3.1700608E-1,5.322894E-2,3.719443E-1,6.456178E-2,-1.1843073E-1,4.371399E-1,-9.479598E-2,1.0534307E-1,-2.6818255E-1,-2.5385007E-1,2.2251666E-1,-2.7711692E-1,2.1862617E-2,2.6018935E-1,-3.8991746E-1,3.3231384E-1,-2.4752887E-1,-4.096234E-1,3.8200073E-2,1.3868633E-1,-3.0899954E-1,-3.507951E-1,5.390555E-2,-1.6060635E-1,3.7096685E-1,-3.413487E-1,2.6174623E-1,5.0116414E-1,-1.7246703E-2,-1.9643728E-1,3.434246E-1,3.1422293E-1,-3.3269796E-1,3.826201E-1,-1.6320534E-1,-2.4148664E-1,2.6293585E-1,2.8118795E-1,-2.063589E-1,-6.2118817E-2,-4.5191598E-1,-3.085496E-1,1.2672198E-1,4.207325E-1,-6.401711E-2],"split_indices":[277,285,285,275,275,284,253,284,173,235,185,173,384,277,264,294,168,284,225,562,588,189,613,129,277,23,211,456,298,17,0,173,291,58,143,491,344,247,0,480,552,189,23,362,64,0,0,548,423,0,0,134,0,597,0,25,0,11,0,0,0,0,0,0,0,0,0,0,0,0,0,0,0,0,0,0,0,0,0,0,0,0,0,0,0,0,0,0,0,0,0,0,0,0,0,0,0,0,0],"split_type":[0,0,0,0,0,0,0,0,0,0,0,0,0,0,0,0,0,0,0,0,0,0,0,0,0,0,0,0,0,0,0,0,0,0,0,0,0,0,0,0,0,0,0,0,0,0,0,0,0,0,0,0,0,0,0,0,0,0,0,0,0,0,0,0,0,0,0,0,0,0,0,0,0,0,0,0,0,0,0,0,0,0,0,0,0,0,0,0,0,0,0,0,0,0,0,0,0,0,0],"sum_hessian":[1.4782966E3,1.1776315E3,3.006651E2,9.786184E2,1.9901308E2,2.5716513E2,4.349997E1,8.14137E2,1.644814E2,1.5767583E2,4.133725E1,2.0677818E2,5.0386948E1,3.4664448E1,8.835522E0,6.749136E2,1.3922345E2,1.3848761E2,2.5993784E1,1.4742818E2,1.0247645E1,3.7439217E1,3.8980324E0,2.0338809E2,3.3900986E0,4.3340553E1,7.046396E0,2.7245304E1,7.4191437E0,7.622916E0,1.212606E0,5.4539764E2,1.295159E2,1.27265465E2,1.1957983E1,1.3204395E2,6.4436684E0,2.1589647E1,4.4041376E0,1.4335059E2,4.077589E0,6.912905E0,3.3347404E0,2.8410656E1,9.02856E0,2.6837776E0,1.2142549E0,1.993486E2,4.0394893E0,1.707159E0,1.6829395E0,4.1398117E1,1.9424379E0,5.596973E0,1.4494232E0,2.57614E1,1.4839048E0,6.2148256E0,1.2043182E0,6.406683E0,1.2162331E0,4.9387302E2,5.1524643E1,1.1395439E2,1.5561513E1,1.1414291E2,1.312256E1,1.0222496E1,1.7354872E0,1.296466E2,2.3973358E0,4.962388E0,1.4812804E0,1.6947428E1,4.6422186E0,1.38104E2,5.2465935E0,2.1579492E0,1.91964E0,5.4697404E0,1.443165E0,2.146374E0,1.1883665E0,2.6721117E1,1.6895398E0,7.5536375E0,1.4749222E0,1.9744098E2,1.9076133E0,2.858812E0,1.1806772E0,3.753987E1,3.8582451E0,3.1427155E0,2.4542575E0,2.1392498E1,4.3689017E0,4.991136E0,1.2236893E0],"tree_param":{"num_deleted":"0","num_feature":"618","num_nodes":"99","size_leaf_vector":"0"}},{"base_weights":[9.1361485E-2,-7.145545E-2,6.7150784E-1,-2.2275065E-1,3.5690174E-1,8.2932335E-1,2.016591E-2,-3.542209E-1,3.2147625E-1,4.485582E-1,-8.9969856E-1,9.626699E-1,2.5067478E-1,2.3796017E-1,-8.820306E-1,-4.4300407E-1,4.5723855E-1,5.170865E-1,-4.856246E-1,5.324393E-1,-8.5083336E-1,-1.0823781E0,8.520957E-1,1.0808257E0,4.5350513E-1,-3.2961732E-1,6.098518E-1,4.188105E-1,-1.0051429E0,-1.1465077E0,5.879428E-1,-5.94268E-1,5.636506E-3,2.2982106E-1,1.3550713E0,7.241285E-1,-1.8305774E-1,-6.623383E-1,6.9884413E-1,6.3971025E-1,-5.467789E-1,-1.138474E0,1.3284698E0,-1.2698246E0,9.1809195E-1,1.1065416E0,-6.898863E-1,6.256419E-1,-9.4122374E-1,-7.149835E-1,6.663079E-1,7.355662E-1,-1.3342066E0,6.572955E-1,-8.4819883E-1,-1.3033947E0,3.0405578E-1,-1.3145678E0,1.6083021E-1,-6.3427997E-1,1.2997516E0,-1.144199E-1,1.0900835E0,4.2645437E-1,-9.9202657E-1,1.614211E0,-6.2816083E-1,8.508165E-1,-7.941174E-2,-4.4780314E-1,8.6427903E-1,-8.3447677E-1,6.2941885E-1,1.314195E0,-5.834066E-1,7.511799E-1,-1.11799866E-1,-8.3614993E-1,7.373993E-1,-1.3518848E0,2.4230517E-1,-1.451686E0,-6.0677435E-2,1.1494293E0,8.674285E-2,7.818041E-1,-8.092814E-1,-1.3871764E0,3.0164814E-1,-1.0033325E0,9.7225237E-1,1.1087655E0,-6.1149323E-1,8.7512577E-1,-6.734402E-1,8.576923E-1,-7.903646E-1,-1.1589698E0,4.7981572E-1,-1.4896632E0,2.937351E-2],"categories":[],"categories_nodes":[],"categories_segments":[],"categories_sizes":[],"default_left":[true,true,true,true,true,true,true,true,true,true,true,true,true,true,true,true,true,true,true,true,true,true,false,true,true,true,true,true,true,true,false,true,true,true,true,true,true,true,true,true,true,true,false,true,false,true,false,true,true,true,true,true,false,true,true,false,false,true,false,false,false,false,false,false,false,false,false,false,false,false,false,false,false,false,false,false,false,false,false,false,false,false,false,false,false,false,false,false,false,false,false,false,false,false,false,false,false,false,false,false,false],"id":2,"left_children":[1,3,5,7,9,11,13,15,17,19,21,23,25,27,29,31,33,35,37,39,41,43,-1,45,47,49,51,53,55,57,-1,59,61,63,65,67,69,71,73,75,77,79,-1,81,-1,83,-1,85,87,89,91,93,-1,95,97,-1,-1,99,-1,-1,-1,-1,-1,-1,-1,-1,-1,-1,-1,-1,-1,-1,-1,-1,-1,-1,-1,-1,-1,-1,-1,-1,-1,-1,-1,-1,-1,-1,-1,-1,-1,-1,-1,-1,-1,-1,-1,-1,-1,-1,-1],"loss_changes":[1.3343358E2,7.159976E1,3.1803085E1,5.8508324E1,3.362319E1,1.8983765E1,1.2274514E1,4.7594406E1,2.540414E1,2.9825443E1,7.3035316E0,1.1670761E1,1.0208765E1,1.1717365E1,5.3985844E0,4.0276848E1,1.3035416E1,1.8792309E1,7.0763063E0,2.972718E1,1.1997479E1,8.102123E0,0E0,8.20137E0,1.0143278E1,7.7709703E0,8.315504E0,1.4025388E1,3.0030212E0,2.5487642E0,0E0,3.445894E1,1.973564E1,1.3243202E1,7.698572E0,1.0201431E1,8.754208E0,6.7530317E0,4.3872013E0,1.9458237E1,9.342449E0,4.8403873E0,0E0,3.7233086E0,0E0,6.9589996E0,0E0,8.705156E0,3.0629988E0,7.877246E0,3.9685874E0,6.258684E0,0E0,1.1723518E1,3.6502366E0,0E0,0E0,2.2876225E0,0E0,0E0,0E0,0E0,0E0,0E0,0E0,0E0,0E0,0E0,0E0,0E0,0E0,0E0,0E0,0E0,0E0,0E0,0E0,0E0,0E0,0E0,0E0,0E0,0E0,0E0,0E0,0E0,0E0,0E0,0E0,0E0,0E0,0E0,0E0,0E0,0E0,0E0,0E0,0E0,0E0,0E0,0E0],"parents":[2147483647,0,0,1,1,2,2,3,3,4,4,5,5,6,6,7,7,8,8,9,9,10,10,11,11,12,12,13,13,14,14,15,15,16,16,17,17,18,18,19,19,20,20,21,21,23,23,24,24,25,25,26,26,27,27,28,28,29,29,31,31,32,32,33,33,34,34,35,35,36,36,37,37,38,38,39,39,40,40,41,41,43,43,45,45,47,47,48,48,49,49,50,50,51,51,53,53,54,54,57,57],"right_children":[2,4,6,8,10,12,14,16,18,20,22,24,26,28,30,32,34,36,38,40,42,44,-1,46,48,50,52,54,56,58,-1,60,62,64,66,68,70,72,74,76,78,80,-1,82,-1,84,-1,86,88,90,92,94,-1,96,98,-1,-1,100,-1,-1,-1,-1,-1,-1,-1,-1,-1,-1,-1,-1,-1,-1,-1,-1,-1,-1,-1,-1,-1,-1,-1,-1,-1,-1,-1,-1,-1,-1,-1,-1,-1,-1,-1,-1,-1,-1,-1,-1,-1,-1,-1],"split_conditions":[4.5033634E-2,2.3631535E-2,5.0736163E-2,4.654818E-3,1.6190174E-1,4.998199E-2,2.8409926E-2,5.5463612E-2,6.7351274E-2,1.3120225E-1,8.668099E-2,4.5115694E-2,6.91462E-2,2.0534477E-1,5.5498637E-2,3.922442E-2,6.0632624E-2,4.4832338E-2,5.4682728E-2,6.875339E-2,3.0312147E-2,7.1666226E-2,2.5562873E-1,2.1363269E-1,9.8344415E-2,5.37182E-2,8.69413E-2,6.330886E-2,2.7816184E-2,6.195925E-2,1.7638284E-1,2.2664982E-1,6.942925E-2,5.261162E-2,1.1580302E-1,7.087973E-2,4.8448488E-2,6.674099E-2,5.6991294E-2,5.6759655E-2,5.5648036E-2,4.501901E-2,3.9854094E-1,2.615108E-2,2.754276E-1,7.164172E-2,-2.069659E-1,7.353157E-2,5.121528E-2,1.0712072E-1,3.2588996E-2,7.1542844E-2,-4.00262E-1,6.2155485E-2,5.3541806E-2,-3.9101842E-1,9.1216736E-2,6.864588E-2,4.8249066E-2,-1.90284E-1,3.899255E-1,-3.4325972E-2,3.2702506E-1,1.2793632E-1,-2.97608E-1,4.842633E-1,-1.8844827E-1,2.5524497E-1,-2.3823522E-2,-1.3434094E-1,2.5928372E-1,-2.5034305E-1,1.8882567E-1,3.9425853E-1,-1.7502199E-1,2.2535397E-1,-3.3539962E-2,-2.50845E-1,2.212198E-1,-4.0556547E-1,7.269155E-2,-4.3550584E-1,-1.820323E-2,3.448288E-1,2.6022855E-2,2.3454124E-1,-2.4278443E-1,-4.1615292E-1,9.049445E-2,-3.0099976E-1,2.9167572E-1,3.3262965E-1,-1.8344797E-1,2.6253775E-1,-2.0203207E-1,2.573077E-1,-2.371094E-1,-3.4769094E-1,1.4394473E-1,-4.46899E-1,8.812053E-3],"split_indices":[277,500,285,275,173,284,174,161,174,294,120,173,277,285,351,201,168,284,584,285,487,561,0,412,202,411,318,163,604,432,0,290,167,296,247,294,344,448,406,54,246,608,0,541,0,29,0,298,259,275,280,38,0,568,253,0,0,21,0,0,0,0,0,0,0,0,0,0,0,0,0,0,0,0,0,0,0,0,0,0,0,0,0,0,0,0,0,0,0,0,0,0,0,0,0,0,0,0,0,0,0],"split_type":[0,0,0,0,0,0,0,0,0,0,0,0,0,0,0,0,0,0,0,0,0,0,0,0,0,0,0,0,0,0,0,0,0,0,0,0,0,0,0,0,0,0,0,0,0,0,0,0,0,0,0,0,0,0,0,0,0,0,0,0,0,0,0,0,0,0,0,0,0,0,0,0,0,0,0,0,0,0,0,0,0,0,0,0,0,0,0,0,0,0,0,0,0,0,0,0,0,0,0,0,0],"sum_hessian":[1.4111207E3,1.1025648E3,3.0855582E2,8.1513885E2,2.87426E2,2.4815611E2,6.0399708E1,6.5681866E2,1.583202E2,2.684857E2,1.8940315E1,2.0114064E2,4.701547E1,4.924741E1,1.11523E1,5.924516E2,6.436708E1,1.2772411E2,3.0596092E1,2.5275926E2,1.572641E1,1.7497757E1,1.4425592E0,1.6234456E2,3.879609E1,1.8006378E1,2.9009092E1,4.357158E1,5.6758294E0,9.63824E0,1.5140605E0,4.4282413E2,1.4962746E2,5.236038E1,1.2006704E1,9.854792E1,2.9176188E1,2.7007582E1,3.5885105E0,2.3027762E2,2.2481644E1,1.4314653E1,1.4117571E0,1.6332607E1,1.1651483E0,1.603903E2,1.9542546E0,3.5024773E1,3.7713165E0,1.31861725E1,4.8202047E0,2.7831007E1,1.1780853E0,3.7074406E1,6.497172E0,4.6263275E0,1.0495018E0,8.535464E0,1.1027757E0,4.3431418E2,8.509955E0,1.3551898E2,1.4108476E1,4.566279E1,6.697589E0,1.0783717E1,1.2229873E0,8.5075836E1,1.3472087E1,2.3746096E1,5.4300933E0,2.4144152E1,2.8634305E0,2.4080007E0,1.1805098E0,2.0053343E2,2.9744186E1,1.8632061E1,3.849583E0,1.2416505E1,1.898148E0,1.402291E1,2.3096976E0,1.5379532E2,6.594985E0,3.1997639E1,3.0271316E0,2.6900122E0,1.0813043E0,1.1607746E1,1.5784266E0,3.6786904E0,1.1415145E0,2.5667583E1,2.163423E0,3.2924294E1,4.1501136E0,5.3682337E0,1.128938E0,7.4556727E0,1.0797912E0],"tree_param":{"num_deleted":"0","num_feature":"618","num_nodes":"101","size_leaf_vector":"0"}},{"base_weights":[6.994123E-2,-9.910853E-3,8.3764243E-1,8.312538E-2,-5.759371E-1,9.1371024E-1,-1.7158543E-1,1.783359E-1,-5.293096E-1,-6.7017907E-1,4.559935E-1,9.802819E-1,-8.012282E-2,4.0163964E-1,-9.3262064E-1,2.895555E-1,-3.3296132E-1,-7.0981747E-1,3.4504628E-1,-8.1335664E-1,1.2852581E-1,6.9500816E-1,-9.94567E-1,1.0208808E0,-3.265212E-1,3.5783473E-1,-1.2895908E0,9.138445E-1,-9.836868E-1,-1.3415842E0,7.226356E-2,1.7503305E-1,7.632739E-1,-4.7497362E-1,6.11325E-1,-8.099723E-1,4.822128E-1,5.5231494E-1,-1.0789084E0,-9.765438E-1,-1.11109376E-1,4.532573E-1,-9.584383E-1,9.5988107E-1,-5.2660084E-1,1.045353E0,-6.836914E-1,-9.020322E-1,4.0680477E-1,8.0794895E-1,-7.085429E-1,2.80996E-1,-3.863633E-1,8.8920707E-1,-4.113094E-1,-6.1109716E-1,2.739E-1,9.0787035E-1,-5.31859E-1,-9.1098106E-1,-2.5973614E-2,8.430495E-1,-9.686796E-1,8.0941933E-1,-5.632036E-1,-1.1459162E0,-1.9131093E-1,3.5357064E-1,-1.1723447E0,7.133011E-1,-1.0425911E0,-1.3509678E0,4.0977335E-1,1.1318594E0,-3.9098397E-1,1.0880738E0,-9.159607E-2,1.0792197E0,-1.2831499E-1],"categories":[],"categories_nodes":[],"categories_segments":[],"categories_sizes":[],"default_left":[true,true,true,true,true,true,true,true,true,true,true,true,true,true,true,true,true,true,true,true,true,true,false,true,true,true,false,false,false,false,false,true,true,true,true,true,true,true,false,true,true,true,true,true,false,true,false,false,false,true,false,false,false,false,false,false,false,false,false,false,false,false,false,false,false,false,false,false,false,false,false,false,false,false,false,false,false,false,false],"id":3,"left_children":[1,3,5,7,9,11,13,15,17,19,21,23,25,27,29,31,33,35,37,39,41,43,-1,45,47,49,-1,-1,-1,-1,-1,51,53,55,57,59,61,63,-1,65,67,69,71,73,-1,75,-1,-1,-1,77,-1,-1,-1,-1,-1,-1,-1,-1,-1,-1,-1,-1,-1,-1,-1,-1,-1,-1,-1,-1,-1,-1,-1,-1,-1,-1,-1,-1,-1],"loss_changes":[8.284212E1,6.455291E1,9.930916E0,6.148762E1,1.7133965E1,7.9220734E0,4.634731E0,5.1956203E1,2.2642506E1,1.8283188E1,5.9180536E0,6.2322464E0,4.8934636E0,5.3472624E0,1.9448271E0,4.0531258E1,2.2201958E1,1.4472874E1,7.9616446E0,1.5354912E1,9.2686205E0,4.883933E0,0E0,5.2230988E0,2.1006014E0,3.8966656E0,0E0,0E0,0E0,0E0,0E0,3.6094254E1,2.1907509E1,1.4703812E1,7.8725815E0,8.622803E0,5.9311934E0,6.8937817E0,0E0,1.4325882E1,1.3518152E1,8.503885E0,3.8180075E0,3.108348E0,0E0,5.294029E0,0E0,0E0,0E0,1.4940207E0,0E0,0E0,0E0,0E0,0E0,0E0,0E0,0E0,0E0,0E0,0E0,0E0,0E0,0E0,0E0,0E0,0E0,0E0,0E0,0E0,0E0,0E0,0E0,0E0,0E0,0E0,0E0,0E0,0E0],"parents":[2147483647,0,0,1,1,2,2,3,3,4,4,5,5,6,6,7,7,8,8,9,9,10,10,11,11,12,12,13,13,14,14,15,15,16,16,17,17,18,18,19,19,20,20,21,21,23,23,24,24,25,25,31,31,32,32,33,33,34,34,35,35,36,36,37,37,39,39,40,40,41,41,42,42,43,43,45,45,49,49],"right_children":[2,4,6,8,10,12,14,16,18,20,22,24,26,28,30,32,34,36,38,40,42,44,-1,46,48,50,-1,-1,-1,-1,-1,52,54,56,58,60,62,64,-1,66,68,70,72,74,-1,76,-1,-1,-1,78,-1,-1,-1,-1,-1,-1,-1,-1,-1,-1,-1,-1,-1,-1,-1,-1,-1,-1,-1,-1,-1,-1,-1,-1,-1,-1,-1,-1,-1],"split_conditions":[9.7184E-2,5.6769535E-2,8.828029E-2,5.9643403E-2,1.00739285E-1,1.5662578E-1,3.9934635E-2,4.839189E-2,1.7655078E-2,5.3306915E-2,3.0322518E-2,9.033756E-2,4.6471193E-2,2.4561288E-2,4.8953027E-2,4.6958145E-2,5.780833E-2,1.11125395E-1,7.963298E-2,5.0195735E-2,2.6788535E-2,1.10493116E-1,-2.983701E-1,1.9735935E-1,3.0592756E-2,3.1120505E-2,-3.8687727E-1,2.7415338E-1,-2.9510605E-1,-4.0247527E-1,2.167907E-2,5.1057898E-2,6.3314356E-2,7.449198E-2,5.0014E-2,6.296426E-2,5.2466363E-2,4.607647E-2,-3.2367253E-1,4.2381205E-2,5.012694E-2,6.2042877E-2,4.8952825E-2,7.1263745E-2,-1.5798026E-1,7.676959E-2,-2.0510742E-1,-2.7060968E-1,1.22041434E-1,4.8752032E-2,-2.1256287E-1,8.4298804E-2,-1.15908995E-1,2.6676214E-1,-1.2339282E-1,-1.8332915E-1,8.217E-2,2.7236113E-1,-1.595577E-1,-2.7329433E-1,-7.7920845E-3,2.5291488E-1,-2.906039E-1,2.428258E-1,-1.6896108E-1,-3.4377488E-1,-5.739328E-2,1.060712E-1,-3.517034E-1,2.1399035E-1,-3.1277734E-1,-4.0529034E-1,1.2293201E-1,3.3955783E-1,-1.172952E-1,3.2642215E-1,-2.7478822E-2,3.2376593E-1,-3.8494498E-2],"split_indices":[277,29,42,285,235,284,173,477,253,290,94,9,614,261,397,246,336,275,84,201,421,29,0,496,336,321,0,0,0,0,0,284,172,235,173,133,72,30,0,133,414,8,64,381,0,29,0,0,0,189,0,0,0,0,0,0,0,0,0,0,0,0,0,0,0,0,0,0,0,0,0,0,0,0,0,0,0,0,0],"split_type":[0,0,0,0,0,0,0,0,0,0,0,0,0,0,0,0,0,0,0,0,0,0,0,0,0,0,0,0,0,0,0,0,0,0,0,0,0,0,0,0,0,0,0,0,0,0,0,0,0,0,0,0,0,0,0,0,0,0,0,0,0,0,0,0,0,0,0,0,0,0,0,0,0,0,0,0,0,0,0],"sum_hessian":[1.3502297E3,1.2239121E3,1.2631756E2,1.0518718E3,1.7204025E2,1.1755204E2,8.765519E0,9.109607E2,1.4091121E2,1.5796455E2,1.4075695E1,1.1018497E2,7.3670745E0,5.269035E0,3.4964838E0,7.485636E2,1.623971E2,1.16954506E2,2.3956697E1,1.3393648E2,2.402809E1,1.2531671E1,1.544024E0,1.0707715E2,3.1078148E0,5.925533E0,1.4415417E0,4.095224E0,1.1738112E0,2.2469616E0,1.2495223E0,6.039314E2,1.446322E2,1.4159888E2,2.0798214E1,1.0818526E2,8.769252E0,2.1447027E1,2.50967E0,1.08364334E2,2.5572136E1,1.8949821E1,5.0782695E0,1.0474752E1,2.0569186E0,1.0594289E2,1.1342651E0,1.6123742E0,1.4954406E0,4.337171E0,1.588362E0,5.0845966E2,9.547173E1,1.3084644E2,1.3785767E1,1.1997489E2,2.1623983E1,1.6677786E1,4.1204267E0,9.569424E1,1.2491019E1,7.35821E0,1.4110416E0,1.7652813E1,3.7942147E0,8.875977E1,1.9604559E1,1.8248535E1,7.3236017E0,1.6589062E1,2.360758E0,3.9559426E0,1.1223267E0,9.435627E0,1.0391251E0,1.02147675E2,3.7952075E0,3.2444458E0,1.0927252E0],"tree_param":{"num_deleted":"0","num_feature":"618","num_nodes":"79","size_leaf_vector":"0"}},{"base_weights":[4.9983647E-2,-5.589147E-2,4.5923224E-1,-1.3929267E-1,6.2041724E-1,6.2833154E-1,2.1401597E-2,-2.1579069E-1,6.215237E-1,7.810957E-1,-4.2298466E-1,6.805897E-1,-4.2623404E-1,-1.037683E-1,1.0630393E0,-3.0910245E-1,3.6216763E-1,7.513252E-1,-1.0463402E0,8.5225856E-1,-1.0000591E0,-7.029314E-1,9.7923344E-1,7.7641785E-1,9.449137E-2,-8.329779E-1,7.266755E-1,5.9358638E-2,-8.246029E-1,1.2324624E0,-6.83537E-2,-3.5733542E-1,6.438903E-1,4.691031E-1,-9.549596E-1,8.57274E-1,-8.0294746E-1,-1.3183614E0,1.6861753E-1,9.420876E-1,-2.0323174E-1,-9.895384E-1,7.1551305E-1,8.265408E-1,-3.5243654E-1,2.5771907E-1,-1.6360999E0,-1.1276624E0,2.4019405E-1,1.6095844E-1,9.2721057E-1,2.4498901E-1,-6.8024004E-1,-1.132926E0,7.263516E-1,-2.800214E-1,-1.0839841E0,9.2167985E-1,-5.7854575E-1,5.699705E-1,-8.075932E-1,-1.3019906E0,5.7782286E-1,9.395113E-1,-7.238467E-1,-1.3255153E0,4.6397305E-1,1.0497544E0,-1.793936E-1,-6.5693676E-1,1.1806883E0,-1.2367225E0,4.9403554E-1,8.866742E-1,-2.1036538E-1,-8.403542E-1,5.765312E-1,4.505009E-1,-1.0149094E0,5.5491213E-2,1.0745528E0,-9.849561E-1,8.3754975E-1,-1.4172741E0,7.148918E-1],"categories":[],"categories_nodes":[],"categories_segments":[],"categories_sizes":[],"default_left":[true,true,true,true,true,true,true,true,true,true,true,true,true,true,true,true,true,true,true,true,false,true,false,true,true,true,true,true,true,false,false,true,true,true,true,true,true,false,false,true,true,true,false,true,true,true,false,false,false,false,false,true,true,true,false,false,false,false,false,false,false,false,false,false,false,false,false,false,false,false,false,false,false,false,false,false,false,false,false,false,false,false,false,false,false],"id":4,"left_children":[1,3,5,7,9,11,13,15,17,19,21,23,25,27,29,31,33,35,37,39,-1,41,-1,43,45,47,49,51,53,-1,-1,55,57,59,61,63,65,-1,-1,67,69,71,-1,73,75,77,-1,-1,-1,-1,-1,79,81,83,-1,-1,-1,-1,-1,-1,-1,-1,-1,-1,-1,-1,-1,-1,-1,-1,-1,-1,-1,-1,-1,-1,-1,-1,-1,-1,-1,-1,-1,-1,-1],"loss_changes":[5.6447536E1,5.8489178E1,1.9809711E1,5.3828392E1,1.941793E1,1.093251E1,9.971519E0,4.536068E1,1.9089298E1,1.3402065E1,6.90693E0,1.0282349E1,5.16933E0,8.095564E0,1.6565409E0,3.346012E1,1.6939976E1,1.370116E1,2.3779593E0,9.269531E0,0E0,6.3131146E0,0E0,9.249977E0,8.062424E0,2.6934357E0,1.9929504E-1,7.955969E0,6.893795E0,0E0,0E0,3.839042E1,1.2480793E1,1.4493025E1,5.604521E0,1.0362236E1,4.295505E0,0E0,0E0,1.0864014E1,6.0072823E0,4.971054E0,0E0,9.657883E0,3.8532925E0,6.7333555E0,0E0,0E0,0E0,0E0,0E0,7.1853814E0,6.2119603E0,6.782778E0,0E0,0E0,0E0,0E0,0E0,0E0,0E0,0E0,0E0,0E0,0E0,0E0,0E0,0E0,0E0,0E0,0E0,0E0,0E0,0E0,0E0,0E0,0E0,0E0,0E0,0E0,0E0,0E0,0E0,0E0,0E0],"parents":[2147483647,0,0,1,1,2,2,3,3,4,4,5,5,6,6,7,7,8,8,9,9,10,10,11,11,12,12,13,13,14,14,15,15,16,16,17,17,18,18,19,19,21,21,23,23,24,24,25,25,26,26,27,27,28,28,31,31,32,32,33,33,34,34,35,35,36,36,39,39,40,40,41,41,43,43,44,44,45,45,51,51,52,52,53,53],"right_children":[2,4,6,8,10,12,14,16,18,20,22,24,26,28,30,32,34,36,38,40,-1,42,-1,44,46,48,50,52,54,-1,-1,56,58,60,62,64,66,-1,-1,68,70,72,-1,74,76,78,-1,-1,-1,-1,-1,80,82,84,-1,-1,-1,-1,-1,-1,-1,-1,-1,-1,-1,-1,-1,-1,-1,-1,-1,-1,-1,-1,-1,-1,-1,-1,-1,-1,-1,-1,-1,-1,-1],"split_conditions":[3.9758816E-2,6.0830545E-2,4.285237E-2,7.432698E-2,1.1162527E-1,1.4511481E-1,1.4138989E-1,5.4449487E-2,9.010127E-2,3.1403887E-1,2.9928122E-2,1.7849866E-2,2.2381647E-2,5.1785134E-2,5.3247996E-2,1.4610325E-1,7.661493E-2,7.087209E-2,5.3252913E-2,7.199708E-2,-3.0001774E-1,6.000773E-2,2.9377005E-1,8.3882466E-2,8.578162E-2,4.5609225E-2,2.0888334E-2,4.898332E-2,5.6177557E-2,3.6973873E-1,-2.050611E-2,6.869589E-2,4.0339712E-2,6.8757296E-2,5.6298025E-2,7.045555E-2,3.2300074E-2,-3.9550844E-1,5.0585262E-2,6.661406E-2,6.883994E-2,6.46946E-2,2.1465392E-1,7.824305E-2,2.1645145E-2,6.1799765E-2,-4.9083E-1,-3.3829874E-1,7.2058216E-2,4.8287533E-2,2.781632E-1,5.034937E-2,5.363281E-2,6.774835E-2,2.1790549E-1,-8.400642E-2,-3.2519525E-1,2.7650398E-1,-1.7356373E-1,1.7099115E-1,-2.4227798E-1,-3.905972E-1,1.7334686E-1,2.818534E-1,-2.1715401E-1,-3.976546E-1,1.3919193E-1,3.1492633E-1,-5.3818084E-2,-1.9708104E-1,3.542065E-1,-3.7101674E-1,1.4821067E-1,2.6600227E-1,-6.310962E-2,-2.5210628E-1,1.7295936E-1,1.3515028E-1,-3.0447283E-1,1.6647365E-2,3.2236585E-1,-2.9548684E-1,2.5126493E-1,-4.2518225E-1,2.1446754E-1],"split_indices":[277,168,173,167,284,285,275,44,174,173,58,458,456,471,513,291,280,308,308,302,0,575,0,550,319,411,44,384,322,0,0,172,596,276,72,160,344,0,0,59,306,390,0,96,189,314,0,0,0,0,0,246,515,507,0,0,0,0,0,0,0,0,0,0,0,0,0,0,0,0,0,0,0,0,0,0,0,0,0,0,0,0,0,0,0],"split_type":[0,0,0,0,0,0,0,0,0,0,0,0,0,0,0,0,0,0,0,0,0,0,0,0,0,0,0,0,0,0,0,0,0,0,0,0,0,0,0,0,0,0,0,0,0,0,0,0,0,0,0,0,0,0,0,0,0,0,0,0,0,0,0,0,0,0,0,0,0,0,0,0,0,0,0,0,0,0,0,0,0,0,0,0,0],"sum_hessian":[1.3011661E3,1.034419E3,2.6674707E2,9.21567E2,1.1285199E2,1.9211368E2,7.46334E1,8.3802246E2,8.3544525E1,9.80103E1,1.4841684E1,1.8338101E2,8.732667E0,6.7430855E1,7.2025456E0,7.219314E2,1.1609111E2,7.802199E1,5.522535E0,9.474639E1,3.2639084E0,1.278743E1,2.0542543E0,1.5733217E2,2.6048845E1,6.660394E0,2.0722725E0,5.573542E1,1.1695433E1,6.186763E0,1.0157828E0,6.8774805E2,3.4183342E1,1.0796912E2,8.121997E0,7.346275E1,4.5592337E0,4.4427276E0,1.0798069E0,8.741431E1,7.3320847E0,1.0889504E1,1.8979253E0,1.5089978E2,6.432388E0,2.4581429E1,1.4674163E0,5.185674E0,1.4747201E0,1.0141007E0,1.0581717E0,4.5087704E1,1.0647717E1,9.980819E0,1.7146139E0,6.2286206E2,6.488597E1,2.8054253E1,6.1290903E0,1.0057647E2,7.3926454E0,6.745374E0,1.3766224E0,7.021645E1,3.246306E0,3.1950989E0,1.364135E0,7.981564E1,7.598666E0,5.9174213E0,1.4146633E0,9.476909E0,1.4125956E0,1.4276527E2,8.134513E0,4.279876E0,2.1525114E0,2.1908644E1,2.6727839E0,3.7572E1,7.5157046E0,9.159822E0,1.4878947E0,8.851692E0,1.1291258E0],"tree_param":{"num_deleted":"0","num_feature":"618","num_nodes":"85","size_leaf_vector":"0"}},{"base_weights":[3.779026E-2,-1.839847E-2,6.686085E-1,4.9815875E-2,-5.810836E-1,8.28191E-1,-6.277055E-2,1.3618979E-1,-4.3148798E-1,-6.8205386E-1,3.284186E-1,9.3297607E-1,-2.1524645E-1,3.4254396E-1,-1.1548493E0,2.1938305E-1,-4.574921E-1,-5.4930955E-1,3.1116533E-1,-8.403755E-1,-5.1497992E-2,6.750749E-1,-8.113747E-1,1.007916E0,-2.719061E-1,-6.7363065E-1,1.0466008E0,-1.5591346E-1,1.1146826E0,-1.5245422E0,1.1320966E-1,2.694372E-1,-8.252148E-1,-6.482378E-1,2.8591558E-1,-6.210616E-1,7.878172E-1,5.4649806E-1,-9.93219E-1,-9.3805134E-1,1.5401156E-1,-3.3277467E-1,9.3179846E-1,9.9451435E-1,-9.6555114E-1,-1.3582678E-1,-1.08057E0,1.0434632E0,-7.396655E-1,-8.0809015E-1,8.004578E-1,-1.0149379E0,2.7062643E-1,-5.167143E-1,9.119752E-1,3.3732882E-1,-4.5891508E-1,-1.0319602E0,5.6677264E-1,-5.2952635E-1,-1.578644E0,5.643056E-1,-6.8428737E-1,-7.040445E-1,4.9731034E-1,1.1875191E0,-8.0304056E-1,8.066594E-1,-5.99299E-1,-1.1341554E0,-3.074857E-1,-9.968154E-1,7.297346E-1,6.9086E-1,-6.3405097E-1,-6.6468495E-1,5.236324E-1,1.249023E0,-1.1499358E-1,1.2906563E0,-3.7922907E-1,1.0913438E0,-1.1416077E-1,-6.149128E-2,-1.2797422E0,-1.2010573E0,-1.5379001E-1,-9.0474826E-1,8.118857E-1],"categories":[],"categories_nodes":[],"categories_segments":[],"categories_sizes":[],"default_left":[true,true,true,true,true,true,true,true,true,true,true,true,true,true,true,true,true,true,true,true,true,true,true,true,true,true,false,true,false,false,false,true,true,true,true,true,true,true,true,true,true,true,true,true,false,false,false,true,false,true,false,true,false,true,false,false,false,false,false,false,false,false,false,false,false,false,false,false,false,false,false,false,false,false,false,false,false,false,false,false,false,false,false,false,false,false,false,false,false],"id":5,"left_children":[1,3,5,7,9,11,13,15,17,19,21,23,25,27,29,31,33,35,37,39,41,43,45,47,49,51,-1,53,-1,-1,-1,55,57,59,61,63,65,67,69,71,73,75,77,79,-1,-1,-1,81,-1,83,-1,85,-1,87,-1,-1,-1,-1,-1,-1,-1,-1,-1,-1,-1,-1,-1,-1,-1,-1,-1,-1,-1,-1,-1,-1,-1,-1,-1,-1,-1,-1,-1,-1,-1,-1,-1,-1,-1],"loss_changes":[4.462011E1,4.4421207E1,1.2068714E1,4.2978878E1,1.1714874E1,9.449287E0,8.969683E0,4.3371204E1,1.3937109E1,1.1232597E1,5.754698E0,7.231659E0,5.639928E0,5.9079313E0,2.7378178E0,4.0435642E1,1.5500452E1,1.3551365E1,7.351425E0,8.906994E0,6.874248E0,6.542141E0,4.9471593E-1,5.291527E0,3.6939745E0,2.4877102E0,0E0,4.2976437E0,0E0,0E0,0E0,3.6484116E1,1.07765465E1,8.691067E0,6.5300736E0,1.2393681E1,5.6428647E0,6.276997E0,1.320219E-2,8.79216E0,4.215249E0,5.8031945E0,1.9840007E0,4.3166924E0,0E0,0E0,0E0,4.099861E0,0E0,1.3406315E0,0E0,6.574173E-1,0E0,4.8905687E0,0E0,0E0,0E0,0E0,0E0,0E0,0E0,0E0,0E0,0E0,0E0,0E0,0E0,0E0,0E0,0E0,0E0,0E0,0E0,0E0,0E0,0E0,0E0,0E0,0E0,0E0,0E0,0E0,0E0,0E0,0E0,0E0,0E0,0E0,0E0],"parents":[2147483647,0,0,1,1,2,2,3,3,4,4,5,5,6,6,7,7,8,8,9,9,10,10,11,11,12,12,13,13,14,14,15,15,16,16,17,17,18,18,19,19,20,20,21,21,22,22,23,23,24,24,25,25,27,27,31,31,32,32,33,33,34,34,35,35,36,36,37,37,38,38,39,39,40,40,41,41,42,42,43,43,47,47,49,49,51,51,53,53],"right_children":[2,4,6,8,10,12,14,16,18,20,22,24,26,28,30,32,34,36,38,40,42,44,46,48,50,52,-1,54,-1,-1,-1,56,58,60,62,64,66,68,70,72,74,76,78,80,-1,-1,-1,82,-1,84,-1,86,-1,88,-1,-1,-1,-1,-1,-1,-1,-1,-1,-1,-1,-1,-1,-1,-1,-1,-1,-1,-1,-1,-1,-1,-1,-1,-1,-1,-1,-1,-1,-1,-1,-1,-1,-1,-1],"split_conditions":[1.0387136E-1,6.0507633E-2,5.168794E-2,6.2828794E-2,5.8043025E-2,1.9086778E-1,5.3799678E-2,5.388256E-2,1.4973036E-2,6.1029322E-2,3.0578284E-2,6.919111E-2,4.5920823E-2,2.1499053E-2,2.702472E-2,1.65019E-1,1.5450682E-2,1.18915305E-1,3.0341662E-2,1.03845164E-1,5.1069945E-2,6.0195476E-2,3.3014048E-2,1.407477E-1,4.6180993E-2,2.3550922E-2,3.1398025E-1,5.5453386E-2,3.3440477E-1,-4.5736268E-1,3.3962898E-2,6.918454E-2,6.5517165E-2,7.2329946E-2,5.5182926E-2,1.7184076E-1,6.1933808E-2,6.2433477E-2,4.4165056E-2,1.17520794E-1,1.262372E-1,4.611069E-2,5.783245E-2,2.606478E-2,-2.8966534E-1,-4.0748037E-2,-3.24171E-1,7.820298E-2,-2.2189966E-1,2.6418196E-2,2.4013734E-1,2.6310109E-2,8.118793E-2,6.1210655E-2,2.7359256E-1,1.0119865E-1,-1.3767453E-1,-3.0958807E-1,1.700318E-1,-1.5885791E-1,-4.7359324E-1,1.6929169E-1,-2.0528622E-1,-2.1121337E-1,1.4919311E-1,3.5625574E-1,-2.4091218E-1,2.4199782E-1,-1.797897E-1,-3.4024662E-1,-9.224571E-2,-2.9904464E-1,2.189204E-1,2.07258E-1,-1.902153E-1,-1.9940549E-1,1.5708973E-1,3.747069E-1,-3.4498077E-2,3.8719693E-1,-1.1376873E-1,3.2740313E-1,-3.4248233E-2,-1.8447384E-2,-3.839227E-1,-3.603172E-1,-4.6137005E-2,-2.714245E-1,2.4356572E-1],"split_indices":[275,174,282,294,336,173,45,330,11,168,306,331,150,277,358,293,277,189,271,291,502,238,541,492,394,213,0,40,0,0,0,285,58,359,505,167,157,392,72,482,174,167,303,374,0,0,0,7,0,69,0,177,0,547,0,0,0,0,0,0,0,0,0,0,0,0,0,0,0,0,0,0,0,0,0,0,0,0,0,0,0,0,0,0,0,0,0,0,0],"split_type":[0,0,0,0,0,0,0,0,0,0,0,0,0,0,0,0,0,0,0,0,0,0,0,0,0,0,0,0,0,0,0,0,0,0,0,0,0,0,0,0,0,0,0,0,0,0,0,0,0,0,0,0,0,0,0,0,0,0,0,0,0,0,0,0,0,0,0,0,0,0,0,0,0,0,0,0,0,0,0,0,0,0,0,0,0,0,0,0,0],"sum_hessian":[1.2575121E3,1.1555546E3,1.0195763E2,1.0314261E3,1.2412837E2,8.358706E1,1.8370562E1,8.750994E2,1.563267E2,1.1195008E2,1.21782875E1,7.605523E1,7.531833E0,1.3898576E1,4.471985E0,7.680958E2,1.0700359E2,1.3514616E2,2.1180534E1,8.92166E1,2.2733488E1,9.650814E0,2.527473E0,7.175572E1,4.299505E0,5.8667917E0,1.6650414E0,8.931126E0,4.9674506E0,3.3059082E0,1.1660765E0,7.3368195E2,3.4413883E1,8.52563E1,2.1747295E1,1.2877164E2,6.374538E0,1.8435493E1,2.7450414E0,8.1288506E1,7.928091E0,1.819134E1,4.542148E0,8.407621E0,1.2431929E0,1.1488898E0,1.3785831E0,7.072013E1,1.0355954E0,3.0306265E0,1.2688787E0,4.2542243E0,1.6125672E0,7.061452E0,1.8696734E0,6.716157E2,6.2066216E1,3.0188732E1,4.2251515E0,7.700082E1,8.255481E0,1.7223537E1,4.523758E0,1.2022169E2,8.549943E0,5.2971644E0,1.0773735E0,1.52653675E1,3.1701252E0,1.7346038E0,1.0104376E0,7.891042E1,2.3780775E0,4.7890267E0,3.1390643E0,1.3271635E1,4.919705E0,3.3375351E0,1.2046129E0,6.966347E0,1.4412742E0,6.796623E1,2.7538989E0,1.6109529E0,1.4196737E0,3.1735992E0,1.080625E0,5.712165E0,1.3492868E0],"tree_param":{"num_deleted":"0","num_feature":"618","num_nodes":"89","size_leaf_vector":"0"}},{"base_weights":[2.6639203E-2,-5.1661156E-2,4.271999E-1,-1.04246564E-1,5.722904E-1,5.3271973E-1,-3.202965E-1,-1.5853563E-1,5.3154606E-1,7.09589E-1,-4.356942E-1,6.3395035E-1,-3.1044778E-1,-5.414721E-1,1.1392128E0,-2.462552E-1,3.0066004E-1,6.1229324E-1,-1.280649E0,8.2993597E-1,-3.9387527E-1,-8.163904E-1,8.225125E-1,7.222745E-1,-3.6884752E-1,-5.956489E-1,8.3947605E-1,-8.328539E-1,8.059391E-1,1.3796566E0,2.7655193E-1,-3.1051376E-1,3.5166043E-1,4.1557983E-1,-4.5634115E-1,7.1042955E-1,-5.53959E-1,8.9063174E-1,-9.6610963E-1,-8.7570053E-1,8.2283646E-1,-1.2201022E0,2.8865367E-1,8.2854635E-1,-1.6334166E-1,-7.550669E-1,8.273397E-1,-9.5709705E-1,2.599971E-1,1.3067244E0,-2.9274502E-1,-1.0740981E0,4.4519353E-1,1.3421248E0,-5.026891E-1,-3.7390065E-1,2.8725517E-1,4.9705556E-1,-6.9429064E-1,5.010828E-1,-6.755036E-1,-6.3615066E-1,1.0843099E0,8.298674E-1,-4.914964E-1,3.8848516E-1,-1.5138113E0,9.9820703E-1,-4.738899E-2,-1.1399475E0,1.2680505E-1,-1.5110363E0,1.24071896E-1,9.28769E-1,-9.297392E-2,-5.3374374E-1,7.9759717E-1,-1.0551122E0,8.466047E-1,1.2388221E0,-1.3442251E-1,-1.1644875E0,4.5643425E-1,7.3401225E-1,-8.4084266E-1,-1.3085787E0,2.1198714E-1,1.045135E0,-4.782153E-1],"categories":[],"categories_nodes":[],"categories_segments":[],"categories_sizes":[],"default_left":[true,true,true,true,true,true,true,true,true,true,true,true,true,true,true,true,true,true,false,true,true,true,false,true,true,true,true,true,true,false,false,true,true,true,true,true,true,true,false,true,false,true,false,true,true,true,true,true,true,false,false,true,true,false,false,false,false,false,false,false,false,false,false,false,false,false,false,false,false,false,false,false,false,false,false,false,false,false,false,false,false,false,false,false,false,false,false,false,false],"id":6,"left_children":[1,3,5,7,9,11,13,15,17,19,21,23,25,27,29,31,33,35,-1,37,39,41,-1,43,45,47,49,51,53,-1,-1,55,57,59,61,63,65,67,-1,69,-1,71,-1,73,75,77,79,81,83,-1,-1,85,87,-1,-1,-1,-1,-1,-1,-1,-1,-1,-1,-1,-1,-1,-1,-1,-1,-1,-1,-1,-1,-1,-1,-1,-1,-1,-1,-1,-1,-1,-1,-1,-1,-1,-1,-1,-1],"loss_changes":[3.8247974E1,3.3539272E1,1.5898071E1,3.259612E1,1.1306837E1,1.5142803E1,8.780699E0,3.5061184E1,1.1660957E1,9.665264E0,5.531413E0,1.4142357E1,6.875865E0,9.559867E0,3.75607E-1,2.8149971E1,1.2348245E1,8.6153965E0,0E0,7.8074303E0,5.1720476E0,4.051029E0,0E0,1.3718224E1,6.789321E0,5.24741E0,2.6459982E0,6.369026E0,3.8557732E0,0E0,0E0,2.5097588E1,1.1186996E1,1.1707418E1,5.9248343E0,9.982922E0,6.1401534E0,6.320114E0,0E0,1.7137961E0,0E0,2.6370878E0,0E0,1.2002525E1,6.2267127E0,5.99199E0,1.6442297E0,3.9250965E0,3.5321627E0,0E0,0E0,5.2125797E0,2.5721648E0,0E0,0E0,0E0,0E0,0E0,0E0,0E0,0E0,0E0,0E0,0E0,0E0,0E0,0E0,0E0,0E0,0E0,0E0,0E0,0E0,0E0,0E0,0E0,0E0,0E0,0E0,0E0,0E0,0E0,0E0,0E0,0E0,0E0,0E0,0E0,0E0],"parents":[2147483647,0,0,1,1,2,2,3,3,4,4,5,5,6,6,7,7,8,8,9,9,10,10,11,11,12,12,13,13,14,14,15,15,16,16,17,17,19,19,20,20,21,21,23,23,24,24,25,25,26,26,27,27,28,28,31,31,32,32,33,33,34,34,35,35,36,36,37,37,39,39,41,41,43,43,44,44,45,45,46,46,47,47,48,48,51,51,52,52],"right_children":[2,4,6,8,10,12,14,16,18,20,22,24,26,28,30,32,34,36,-1,38,40,42,-1,44,46,48,50,52,54,-1,-1,56,58,60,62,64,66,68,-1,70,-1,72,-1,74,76,78,80,82,84,-1,-1,86,88,-1,-1,-1,-1,-1,-1,-1,-1,-1,-1,-1,-1,-1,-1,-1,-1,-1,-1,-1,-1,-1,-1,-1,-1,-1,-1,-1,-1,-1,-1,-1,-1,-1,-1,-1,-1],"split_conditions":[4.2401943E-2,1.0058324E-1,5.984274E-2,1.1936085E-1,2.6136767E-2,5.1815517E-2,7.1232125E-2,9.598456E-3,3.3631223E-1,5.3020045E-2,5.318492E-2,6.979873E-2,5.996328E-2,5.692646E-2,5.144252E-2,6.649305E-2,5.7145238E-2,5.8587633E-2,-3.841947E-1,1.2322201E-1,5.689264E-2,2.2915043E-2,2.4675377E-1,5.3771943E-2,5.506778E-2,2.0192863E-2,2.3392625E-2,5.1358096E-2,5.391892E-2,4.1389698E-1,8.296558E-2,6.0667623E-2,6.313736E-2,9.72314E-2,9.954642E-2,2.9258244E-2,5.8758892E-2,2.5255391E-2,-2.898329E-1,5.464973E-2,2.4685095E-1,5.1784575E-2,8.65961E-2,6.132462E-2,4.514418E-2,5.0585873E-2,2.2993349E-2,2.990447E-2,2.9349871E-2,3.9201733E-1,-8.782351E-2,1.9294327E-2,4.8781615E-2,4.0263745E-1,-1.5080674E-1,-1.121702E-1,8.617655E-2,1.4911668E-1,-2.082872E-1,1.5032484E-1,-2.026511E-1,-1.908452E-1,3.25293E-1,2.4896024E-1,-1.4744893E-1,1.1654555E-1,-4.5414343E-1,2.994621E-1,-1.4216698E-2,-3.4198427E-1,3.8041517E-2,-4.533109E-1,3.722157E-2,2.786307E-1,-2.7892176E-2,-1.6012312E-1,2.3927917E-1,-3.1653368E-1,2.539814E-1,3.7164664E-1,-4.0326755E-2,-3.4934625E-1,1.3693029E-1,2.2020368E-1,-2.5225282E-1,-3.9257362E-1,6.3596144E-2,3.1354052E-1,-1.434646E-1],"split_indices":[228,150,42,291,494,331,322,16,172,284,203,341,163,505,323,460,276,108,0,258,275,202,0,396,447,14,267,133,553,0,0,480,29,285,300,516,293,451,0,156,0,524,0,29,552,201,340,456,48,0,0,476,476,0,0,0,0,0,0,0,0,0,0,0,0,0,0,0,0,0,0,0,0,0,0,0,0,0,0,0,0,0,0,0,0,0,0,0,0],"split_type":[0,0,0,0,0,0,0,0,0,0,0,0,0,0,0,0,0,0,0,0,0,0,0,0,0,0,0,0,0,0,0,0,0,0,0,0,0,0,0,0,0,0,0,0,0,0,0,0,0,0,0,0,0,0,0,0,0,0,0,0,0,0,0,0,0,0,0,0,0,0,0,0,0,0,0,0,0,0,0,0,0,0,0,0,0,0,0,0,0],"sum_hessian":[1.2177809E3,1.0193856E3,1.983953E2,9.409197E2,7.846592E1,1.7410518E2,2.4290115E1,8.675887E2,7.333101E1,6.931983E1,9.14609E0,1.5566428E2,1.8440908E1,2.1639801E1,2.6503143E0,7.288257E2,1.3876297E2,7.0836815E1,2.4941955E0,6.2726574E1,6.593258E0,7.2911506E0,1.8549393E0,1.4332066E2,1.2343611E1,1.5162384E1,3.2785249E0,1.8106173E1,3.5336294E0,1.603952E0,1.0463622E0,6.585332E2,7.029252E1,1.2086548E2,1.7897482E1,6.569928E1,5.137536E0,6.1163715E1,1.5628576E0,4.923711E0,1.6695467E0,5.2639294E0,2.0272212E0,1.2802267E2,1.52979765E1,9.609661E0,2.7339504E0,1.05761595E1,4.586224E0,2.2116783E0,1.0668466E0,1.5365382E1,2.7407901E0,2.488441E0,1.0451884E0,5.957363E2,6.2796844E1,6.217456E1,8.117954E0,1.12583595E2,8.281888E0,1.6552704E1,1.3447775E0,6.00423E1,5.6569757E0,2.8926318E0,2.2449043E0,5.4813374E1,6.3503437E0,3.7881162E0,1.135595E0,4.225271E0,1.0386583E0,1.15457855E2,1.2564824E1,1.1362691E1,3.9352863E0,8.38089E0,1.2287709E0,1.7129871E0,1.0209633E0,9.376626E0,1.1995338E0,3.4387457E0,1.1474785E0,1.2981152E1,2.38423E0,1.581477E0,1.1593131E0],"tree_param":{"num_deleted":"0","num_feature":"618","num_nodes":"89","size_leaf_vector":"0"}},{"base_weights":[2.1077726E-2,-5.8358207E-2,3.7946174E-1,-8.832119E-2,9.27019E-1,4.4790456E-1,-7.710788E-1,-1.6962615E-1,2.7158883E-1,9.8681927E-1,-3.622227E-1,5.255527E-1,-3.985853E-1,-1.1922352E0,9.246528E-1,-1.1047342E-1,-7.0282E-1,3.551842E-1,-8.1106806E-1,1.0488272E0,-1.3660115E-1,5.916083E-1,-4.326463E-1,-7.2647095E-1,4.2164448E-1,-1.5370187E0,3.7610707E-1,-1.866593E-1,3.3573353E-1,-8.4176105E-1,3.5588688E-1,4.2886904E-1,-6.7985874E-1,-1.0906528E0,6.3594127E-1,1.1132079E0,1.0730716E-1,6.68901E-1,-1.9754294E-1,-8.2646555E-1,7.9484636E-1,-9.700984E-1,6.4567804E-1,7.6341385E-1,-4.2988035E-1,-1.71115E0,-2.7618134E-1,-1.05551936E-1,-6.30732E-1,4.357437E-1,-6.294972E-1,-9.7314554E-1,1.0111926E-1,7.330678E-1,-1.0055283E0,5.233094E-1,-4.2188653E-1,-9.084691E-1,6.903869E-1,-1.3395442E0,5.5488014E-1,1.1528692E0,1.047013E-1,7.360522E-1,-1.8485872E-1,-4.957914E-1,9.4300777E-1,-1.1617806E0,6.2364954E-1,1.038695E0,8.335923E-2,-1.1696981E0,3.009444E-1,1.0384861E0,-5.335331E-2],"categories":[],"categories_nodes":[],"categories_segments":[],"categories_sizes":[],"default_left":[true,true,true,true,true,true,true,true,true,true,false,true,true,true,false,true,true,true,true,true,false,true,true,true,true,true,false,true,true,true,true,true,true,true,false,true,false,true,true,true,true,true,false,true,false,false,false,false,false,false,false,false,false,false,false,false,false,false,false,false,false,false,false,false,false,false,false,false,false,false,false,false,false,false,false],"id":7,"left_children":[1,3,5,7,9,11,13,15,17,19,-1,21,23,25,-1,27,29,31,33,35,-1,37,39,41,43,45,-1,47,49,51,53,55,57,59,-1,61,-1,63,65,67,69,71,-1,73,-1,-1,-1,-1,-1,-1,-1,-1,-1,-1,-1,-1,-1,-1,-1,-1,-1,-1,-1,-1,-1,-1,-1,-1,-1,-1,-1,-1,-1,-1,-1],"loss_changes":[3.3917587E1,2.8882524E1,1.7366753E1,2.777514E1,2.5835056E0,1.3660847E1,1.0032354E1,2.4321451E1,1.612677E1,2.0841656E0,0E0,1.2148148E1,5.08377E0,6.230481E0,0E0,2.3774944E1,1.16358185E1,1.2734892E1,5.8916235E0,1.4880657E0,0E0,1.0879105E1,6.7936516E0,4.9915853E0,1.9887304E0,1.4519653E0,0E0,2.1415888E1,1.0128871E1,8.574589E0,5.689003E0,1.2507629E1,4.1449876E0,5.304267E0,0E0,8.678932E-1,0E0,9.349319E0,6.0767503E0,5.6362886E0,5.3683686E-1,3.2667093E0,0E0,1.0511246E0,0E0,0E0,0E0,0E0,0E0,0E0,0E0,0E0,0E0,0E0,0E0,0E0,0E0,0E0,0E0,0E0,0E0,0E0,0E0,0E0,0E0,0E0,0E0,0E0,0E0,0E0,0E0,0E0,0E0,0E0,0E0],"parents":[2147483647,0,0,1,1,2,2,3,3,4,4,5,5,6,6,7,7,8,8,9,9,11,11,12,12,13,13,15,15,16,16,17,17,18,18,19,19,21,21,22,22,23,23,24,24,25,25,27,27,28,28,29,29,30,30,31,31,32,32,33,33,35,35,37,37,38,38,39,39,40,40,41,41,43,43],"right_children":[2,4,6,8,10,12,14,16,18,20,-1,22,24,26,-1,28,30,32,34,36,-1,38,40,42,44,46,-1,48,50,52,54,56,58,60,-1,62,-1,64,66,68,70,72,-1,74,-1,-1,-1,-1,-1,-1,-1,-1,-1,-1,-1,-1,-1,-1,-1,-1,-1,-1,-1,-1,-1,-1,-1,-1,-1,-1,-1,-1,-1,-1,-1],"split_conditions":[5.0398365E-2,1.7665884E-1,7.952058E-2,2.650291E-2,8.413409E-2,8.023629E-2,2.7491538E-2,6.798509E-2,6.9579646E-2,1.4610209E-1,-1.08666815E-1,6.9085434E-2,5.396675E-2,6.1599713E-2,2.7739584E-1,5.6802686E-2,6.6903986E-2,7.034538E-2,2.5505343E-2,6.384574E-2,-4.0980347E-2,6.3753344E-2,5.2949708E-2,6.603344E-2,6.4684495E-2,6.907864E-2,1.1283212E-1,9.89694E-2,6.686424E-2,6.8983264E-2,3.1706486E-2,5.8215097E-2,6.664227E-2,7.8989156E-2,1.9078238E-1,1.372197E-1,3.219215E-2,6.6574365E-2,4.930388E-2,2.5042973E-2,3.4378245E-2,2.9653719E-2,1.9370343E-1,7.815923E-2,-1.2896411E-1,-5.1334506E-1,-8.2854405E-2,-3.1665582E-2,-1.8921961E-1,1.3072312E-1,-1.8884917E-1,-2.9194367E-1,3.0335778E-2,2.1992035E-1,-3.016585E-1,1.5699282E-1,-1.2656596E-1,-2.7254075E-1,2.0711608E-1,-4.0186328E-1,1.6646405E-1,3.4586078E-1,3.1410392E-2,2.2081567E-1,-5.5457618E-2,-1.4873743E-1,2.8290233E-1,-3.485342E-1,1.8709487E-1,3.116085E-1,2.500777E-2,-3.5090944E-1,9.028332E-2,3.1154585E-1,-1.6005993E-2],"split_indices":[246,277,54,253,441,172,565,94,458,285,0,593,167,71,0,201,616,180,35,313,0,276,201,504,4,247,0,173,172,500,182,396,263,440,0,270,0,331,167,340,158,138,0,291,0,0,0,0,0,0,0,0,0,0,0,0,0,0,0,0,0,0,0,0,0,0,0,0,0,0,0,0,0,0,0],"split_type":[0,0,0,0,0,0,0,0,0,0,0,0,0,0,0,0,0,0,0,0,0,0,0,0,0,0,0,0,0,0,0,0,0,0,0,0,0,0,0,0,0,0,0,0,0,0,0,0,0,0,0,0,0,0,0,0,0,0,0,0,0,0,0,0,0,0,0,0,0,0,0,0,0,0,0],"sum_hessian":[1.1896268E3,9.74472E2,2.1515488E2,9.465985E2,2.787344E1,2.0365088E2,1.1503989E1,7.725952E2,1.7400331E2,2.6862041E1,1.0113972E0,1.8688696E2,1.6763922E1,9.45311E0,2.0508795E0,6.965292E2,7.606602E1,1.6215477E2,1.184855E1,2.5519857E1,1.3421855E0,1.7519228E2,1.1694681E1,1.20580435E1,4.705878E0,7.7658443E0,1.687266E0,5.9544403E2,1.0108514E2,6.742262E1,8.643395E0,1.5192487E2,1.0229902E1,1.0136325E1,1.7122248E0,2.3715826E1,1.8040302E0,1.5970271E2,1.5489569E1,9.101372E0,2.5933094E0,1.0488755E1,1.5692886E0,3.4319136E0,1.2739639E0,6.509656E0,1.256188E0,5.0453183E2,9.091221E1,9.209181E1,8.99332E0,5.914854E1,8.274081E0,7.129659E0,1.5137367E0,1.3709154E2,1.4833321E1,9.056009E0,1.1738923E0,8.966125E0,1.1701996E0,2.2680723E1,1.0351038E0,1.4818529E2,1.1517428E1,1.2726861E1,2.7627072E0,7.55357E0,1.5478016E0,1.5888637E0,1.0044457E0,9.134104E0,1.3546516E0,2.3642263E0,1.0676873E0],"tree_param":{"num_deleted":"0","num_feature":"618","num_nodes":"75","size_leaf_vector":"0"}},{"base_weights":[1.6038997E-2,4.41126E-2,-8.32702E-1,-2.859142E-2,3.9366257E-1,-9.134408E-1,8.591028E-1,-1.0443366E-1,3.4579757E-1,4.5558178E-1,-5.938857E-1,-1.057404E0,2.8116375E-1,-1.6305894E-1,3.9146826E-1,4.0540966E-1,-7.9422224E-1,5.154275E-1,-5.271876E-1,-9.5375776E-1,7.580709E-1,-1.1239867E0,4.480628E-1,7.3956805E-1,-5.547596E-1,-2.4637893E-1,2.0298518E-1,4.9914992E-1,-9.650986E-1,4.7619054E-1,-3.2412454E-1,-1.1195943E0,6.7526716E-1,6.03134E-1,-1.6233538E-1,-9.0273005E-1,6.5593463E-1,-1.2893035E0,6.700904E-1,2.0098102E-1,9.379449E-1,-1.1909899E0,3.413508E-1,9.690122E-1,1.315751E-1,-3.0643433E-1,3.2362095E-1,4.3697533E-1,-1.5848841E-1,6.421992E-1,-2.7932754E-1,-1.3339698E0,4.0846813E-1,5.4697025E-1,-2.379422E-1,-6.0731184E-1,1.0338203E0,-1.2089707E0,-3.0269533E-1,7.263543E-1,9.706377E-2,-4.528619E-1,8.837262E-1,-1.179454E0,4.2254412E-1,1.1950756E0,-2.4347332E-1,-1.6328332E0,1.5992744E-1,-1.2707671E0,1.597056E-1],"categories":[],"categories_nodes":[],"categories_segments":[],"categories_sizes":[],"default_left":[true,true,true,true,true,true,false,true,true,true,true,true,true,true,true,true,true,true,true,true,true,true,false,true,false,true,true,true,true,true,true,true,false,true,true,true,true,true,false,false,false,true,false,false,false,false,false,false,false,false,false,false,false,false,false,false,false,false,false,false,false,false,false,false,false,false,false,false,false,false,false],"id":8,"left_children":[1,3,5,7,9,11,-1,13,15,17,19,21,23,25,27,29,31,33,35,37,39,41,-1,43,-1,45,47,49,51,53,55,57,-1,59,61,63,65,67,-1,-1,-1,69,-1,-1,-1,-1,-1,-1,-1,-1,-1,-1,-1,-1,-1,-1,-1,-1,-1,-1,-1,-1,-1,-1,-1,-1,-1,-1,-1,-1,-1],"loss_changes":[2.7739576E1,2.8636715E1,5.8764133E0,2.6538713E1,1.2133844E1,6.4993267E0,0E0,2.2650486E1,1.1022804E1,1.1042297E1,6.5033646E0,3.75074E0,2.199207E0,2.1261343E1,1.2522886E1,7.915264E0,4.658742E0,1.0389011E1,5.4821577E0,6.2178555E0,1.1760044E-1,3.4803543E0,0E0,3.5289848E-1,0E0,1.9507725E1,1.1022754E1,8.757179E0,3.7890053E0,7.0756855E0,5.9683275E0,1.4943695E-1,0E0,9.501347E0,6.6680284E0,3.7164454E0,1.8576555E0,4.4855385E0,0E0,0E0,0E0,3.4529343E0,0E0,0E0,0E0,0E0,0E0,0E0,0E0,0E0,0E0,0E0,0E0,0E0,0E0,0E0,0E0,0E0,0E0,0E0,0E0,0E0,0E0,0E0,0E0,0E0,0E0,0E0,0E0,0E0,0E0],"parents":[2147483647,0,0,1,1,2,2,3,3,4,4,5,5,7,7,8,8,9,9,10,10,11,11,12,12,13,13,14,14,15,15,16,16,17,17,18,18,19,19,20,20,21,21,23,23,25,25,26,26,27,27,28,28,29,29,30,30,31,31,33,33,34,34,35,35,36,36,37,37,41,41],"right_children":[2,4,6,8,10,12,-1,14,16,18,20,22,24,26,28,30,32,34,36,38,40,42,-1,44,-1,46,48,50,52,54,56,58,-1,60,62,64,66,68,-1,-1,-1,70,-1,-1,-1,-1,-1,-1,-1,-1,-1,-1,-1,-1,-1,-1,-1,-1,-1,-1,-1,-1,-1,-1,-1,-1,-1,-1,-1,-1,-1],"split_conditions":[2.0007999E-1,1.2208295E-2,1.085141E-1,4.947722E-2,7.0163116E-2,1.1159496E-1,2.5773084E-1,1.848077E-2,2.5471175E-1,7.087325E-2,5.0260216E-2,1.3353544E-1,1.9430105E-2,2.8075673E-2,7.914737E-2,7.252345E-2,6.1391823E-2,6.5249816E-2,2.751679E-2,5.69204E-2,6.761323E-2,8.615345E-2,1.3441885E-1,1.9235877E-2,-1.664279E-1,6.606224E-2,4.8434846E-2,2.1344827E-2,5.935216E-2,1.0462994E-1,6.091844E-2,2.328028E-2,2.0258015E-1,5.6250602E-2,5.151833E-2,3.0078223E-2,5.2069403E-2,5.90204E-2,2.0102713E-1,6.0294308E-2,2.8138348E-1,7.026354E-2,1.0240524E-1,2.9070368E-1,3.9472528E-2,-9.19303E-2,9.708629E-2,1.3109261E-1,-4.7546525E-2,1.9265978E-1,-8.379827E-2,-4.0019098E-1,1.22540444E-1,1.6409108E-1,-7.1382664E-2,-1.8219356E-1,3.101461E-1,-3.6269122E-1,-9.08086E-2,2.179063E-1,2.9119132E-2,-1.3585858E-1,2.6511785E-1,-3.538362E-1,1.2676324E-1,3.585227E-1,-7.3042E-2,-4.8984998E-1,4.7978234E-2,-3.8123015E-1,4.791168E-2],"split_indices":[284,336,243,275,276,275,0,161,173,29,314,502,300,291,392,595,119,172,99,425,314,459,0,14,0,360,173,546,23,178,297,543,0,81,552,290,538,201,0,0,0,604,0,0,0,0,0,0,0,0,0,0,0,0,0,0,0,0,0,0,0,0,0,0,0,0,0,0,0,0,0],"split_type":[0,0,0,0,0,0,0,0,0,0,0,0,0,0,0,0,0,0,0,0,0,0,0,0,0,0,0,0,0,0,0,0,0,0,0,0,0,0,0,0,0,0,0,0,0,0,0,0,0,0,0,0,0,0,0,0,0,0,0,0,0,0,0,0,0,0,0,0,0,0,0],"sum_hessian":[1.1616554E3,1.1253795E3,3.6275883E1,9.323709E2,1.930086E2,3.506265E1,1.2132332E0,7.75911E2,1.5645995E2,1.8212788E2,1.0880731E1,3.1394154E1,3.668495E0,6.94481E2,8.142999E1,1.492975E2,7.1624455E0,1.7212206E2,1.0005822E1,8.825927E0,2.0548038E0,3.0307148E1,1.0870056E0,2.4436903E0,1.2248045E0,5.6597833E2,1.2850267E2,7.602715E1,5.4028397E0,1.3640999E2,1.2887501E1,6.058982E0,1.1034639E0,1.5249802E2,1.9624035E1,7.7749257E0,2.230896E0,7.4852276E0,1.3406992E0,1.0183142E0,1.0364897E0,2.9160975E1,1.1461738E0,1.3430587E0,1.1006317E0,5.124489E2,5.352941E1,7.788017E1,5.062249E1,6.437328E1,1.1653872E1,4.2817926E0,1.121047E0,1.2432215E2,1.2087841E1,1.1121071E1,1.7664292E0,5.02883E0,1.0301517E0,1.2228759E2,3.0210434E1,1.5802287E1,3.821748E0,6.5229344E0,1.2519916E0,1.1892663E0,1.0416298E0,5.9484916E0,1.536736E0,2.759055E1,1.570426E0],"tree_param":{"num_deleted":"0","num_feature":"618","num_nodes":"71","size_leaf_vector":"0"}},{"base_weights":[1.2634542E-2,6.634036E-2,-4.021172E-1,-1.6892042E-2,3.7884107E-1,-4.9989593E-1,5.149566E-1,-8.492339E-2,4.2013824E-1,4.401321E-1,-5.7151484E-1,-6.226494E-1,2.5762534E-1,7.483587E-1,-6.436343E-1,-2.466732E-2,-5.5786204E-1,4.890564E-1,-1.0412318E0,5.417335E-1,-2.0686334E-1,-8.710583E-1,6.44345E-1,-6.897279E-1,4.8174554E-1,6.663011E-1,-5.947914E-1,9.7612816E-1,-6.691379E-1,-1.14871055E-1,3.3021015E-1,-6.402097E-1,7.495229E-1,6.0280055E-1,-4.8906156E-1,-1.158375E0,-3.3323887E-1,5.824551E-1,-8.6319864E-1,-3.6850506E-1,1.2907518E0,-1.1590133E0,1.7405674E-1,1.5711738E-1,8.278665E-1,-7.43128E-1,6.4294595E-1,8.8162386E-1,-7.2247076E-1,9.111182E-1,-7.669164E-1,-9.6622676E-1,6.404242E-1,1.1942452E0,-2.183142E-1,4.9045864E-3,-4.539007E-1,4.21255E-1,-1.2406303E0,-7.4038297E-1,3.7698802E-1,1.0631934E0,-2.2838983E-1,6.9666487E-1,-3.1833777E-1,-8.954278E-1,7.381293E-1,6.526022E-1,-1.6689801E-1,-1.1352851E0,1.2736082E-1,-6.4341164E-1,5.286687E-1,-1.3359478E0,-1.2835604E-1,5.2905875E-1,-2.7752796E-1,-8.3192825E-1,1.10501036E-1,9.361695E-1,-6.8992056E-2,1.3711042E0,-5.85117E-1,1.2462952E0,-1.7515756E-1,-1.2360344E0,5.8774367E-2,1.3855543E0,-2.973028E-2],"categories":[],"categories_nodes":[],"categories_segments":[],"categories_sizes":[],"default_left":[true,true,true,true,true,true,true,true,true,true,true,true,true,true,false,true,true,true,true,true,true,true,true,true,true,true,true,true,false,true,true,true,true,true,true,false,false,true,true,true,false,true,true,false,false,true,true,true,false,true,false,true,false,true,false,false,false,false,false,false,false,false,false,false,false,false,false,false,false,false,false,false,false,false,false,false,false,false,false,false,false,false,false,false,false,false,false,false,false],"id":9,"left_children":[1,3,5,7,9,11,13,15,17,19,21,23,25,27,-1,29,31,33,35,37,39,41,43,45,47,49,51,53,-1,55,57,59,61,63,65,-1,-1,67,69,71,-1,73,75,-1,-1,77,79,81,-1,83,-1,85,-1,87,-1,-1,-1,-1,-1,-1,-1,-1,-1,-1,-1,-1,-1,-1,-1,-1,-1,-1,-1,-1,-1,-1,-1,-1,-1,-1,-1,-1,-1,-1,-1,-1,-1,-1,-1],"loss_changes":[2.5294828E1,2.6151867E1,1.1931875E1,2.3664694E1,1.2568796E1,1.1147598E1,4.006937E0,1.9607313E1,1.1307766E1,1.3207565E1,5.3856845E0,7.8865128E0,6.382619E0,4.305673E0,0E0,1.9621078E1,8.851839E0,1.1761946E1,4.0966988E-2,1.0369003E1,7.196087E0,3.5281916E0,1.5545225E-1,7.3483925E0,3.7321455E0,4.9398026E0,3.416177E0,2.905981E0,0E0,1.9839636E1,1.8291307E1,7.788313E0,1.7975383E0,8.243824E0,6.290847E0,0E0,0E0,8.94994E0,1.5624192E0,6.7120667E0,0E0,1.4326038E0,6.689777E-1,0E0,0E0,7.163475E0,9.529824E-1,4.5899405E0,0E0,4.143464E0,0E0,1.4792433E0,0E0,2.0877724E0,0E0,0E0,0E0,0E0,0E0,0E0,0E0,0E0,0E0,0E0,0E0,0E0,0E0,0E0,0E0,0E0,0E0,0E0,0E0,0E0,0E0,0E0,0E0,0E0,0E0,0E0,0E0,0E0,0E0,0E0,0E0,0E0,0E0,0E0,0E0],"parents":[2147483647,0,0,1,1,2,2,3,3,4,4,5,5,6,6,7,7,8,8,9,9,10,10,11,11,12,12,13,13,15,15,16,16,17,17,18,18,19,19,20,20,21,21,22,22,23,23,24,24,25,25,26,26,27,27,29,29,30,30,31,31,32,32,33,33,34,34,37,37,38,38,39,39,41,41,42,42,45,45,46,46,47,47,49,49,51,51,53,53],"right_children":[2,4,6,8,10,12,14,16,18,20,22,24,26,28,-1,30,32,34,36,38,40,42,44,46,48,50,52,54,-1,56,58,60,62,64,66,-1,-1,68,70,72,-1,74,76,-1,-1,78,80,82,-1,84,-1,86,-1,88,-1,-1,-1,-1,-1,-1,-1,-1,-1,-1,-1,-1,-1,-1,-1,-1,-1,-1,-1,-1,-1,-1,-1,-1,-1,-1,-1,-1,-1,-1,-1,-1,-1,-1,-1],"split_conditions":[5.9827756E-2,3.2297622E-2,6.52453E-2,6.8529174E-2,7.416138E-2,5.274988E-2,6.0971145E-2,6.7826435E-2,1.2939397E-1,5.432897E-2,4.4938248E-2,7.0179105E-2,2.2812083E-2,6.8730436E-2,-1.930903E-1,4.7096245E-2,7.4569985E-2,6.3059635E-2,1.5083271E-1,9.676047E-2,7.291314E-2,4.8718736E-2,2.2658108E-2,1.2720254E-1,5.6374848E-2,1.2500706E-1,5.2673914E-2,6.443537E-2,-2.0074138E-1,3.6085833E-2,1.608549E-1,8.235471E-2,2.6152471E-2,6.2699616E-2,5.672704E-2,-3.475125E-1,-9.997167E-2,6.709401E-2,2.266524E-2,1.9531505E-2,3.8722557E-1,2.1150589E-2,2.7296044E-2,4.7135215E-2,2.4835996E-1,6.523782E-2,2.8309105E-2,6.1360657E-2,-2.1674123E-1,6.1656743E-2,-2.3007493E-1,5.5699863E-2,1.9212727E-1,3.3308133E-2,-6.549426E-2,1.4713759E-3,-1.3617021E-1,1.2637651E-1,-3.721891E-1,-2.221149E-1,1.1309641E-1,3.1895804E-1,-6.8516955E-2,2.0899947E-1,-9.550133E-2,-2.6862836E-1,2.2143881E-1,1.9578066E-1,-5.0069407E-2,-3.4058556E-1,3.8208246E-2,-1.930235E-1,1.5860061E-1,-4.0078434E-1,-3.8506813E-2,1.5871763E-1,-8.325839E-2,-2.4957849E-1,3.315031E-2,2.8085086E-1,-2.0697618E-2,4.113313E-1,-1.755351E-1,3.7388858E-1,-5.2547272E-2,-3.7081033E-1,1.7632311E-2,4.156663E-1,-8.919084E-3],"split_indices":[302,269,217,235,486,290,60,219,548,174,277,390,519,536,0,150,228,54,377,160,356,353,453,168,600,285,230,285,0,366,294,378,273,100,607,0,0,369,235,16,0,242,586,0,0,122,182,109,0,291,0,208,0,254,0,0,0,0,0,0,0,0,0,0,0,0,0,0,0,0,0,0,0,0,0,0,0,0,0,0,0,0,0,0,0,0,0,0,0],"split_type":[0,0,0,0,0,0,0,0,0,0,0,0,0,0,0,0,0,0,0,0,0,0,0,0,0,0,0,0,0,0,0,0,0,0,0,0,0,0,0,0,0,0,0,0,0,0,0,0,0,0,0,0,0,0,0,0,0,0,0,0,0,0,0,0,0,0,0,0,0,0,0,0,0,0,0,0,0,0,0,0,0,0,0,0,0,0,0,0,0],"sum_hessian":[1.133394E3,1.00420105E3,1.2919301E2,7.9373987E2,2.1046117E2,1.1715663E2,1.2036384E1,6.87521E2,1.06218895E2,1.9821465E2,1.2246525E1,1.0097247E2,1.618416E1,1.0312894E1,1.7234898E0,6.107579E2,7.676315E1,1.02070595E2,4.148303E0,1.7145308E2,2.6761564E1,1.0053336E1,2.1931884E0,9.554476E1,5.427707E0,1.1087027E1,5.097134E0,9.15345E0,1.1594439E0,4.87516E2,1.2324185E2,7.269468E1,4.068473E0,9.178118E1,1.028941E1,3.0135477E0,1.1347555E0,1.6719247E2,4.26061E0,2.4834993E1,1.9265702E0,7.796286E0,2.2570505E0,1.1079197E0,1.0852687E0,9.228912E1,3.2556376E0,4.275761E0,1.1519458E0,9.780621E0,1.3064065E0,4.0861697E0,1.0109644E0,7.7401814E0,1.4132689E0,3.609734E2,1.265426E2,1.171819E2,6.0599546E0,6.642528E1,6.2694054E0,3.0143864E0,1.0540867E0,8.35147E1,8.266486E0,7.9328923E0,2.3565176E0,1.529993E2,1.4193181E1,3.2278738E0,1.0327363E0,1.9226555E1,5.6084385E0,6.4011765E0,1.3951094E0,1.1676059E0,1.0894446E0,8.361622E1,8.672905E0,2.0828302E0,1.1728077E0,3.2547803E0,1.0209808E0,7.3617864E0,2.418834E0,3.0717242E0,1.0144455E0,6.5797467E0,1.160435E0],"tree_param":{"num_deleted":"0","num_feature":"618","num_nodes":"89","size_leaf_vector":"0"}},{"base_weights":[8.811772E-3,6.721759E-2,-3.506566E-1,1.0729895E-1,-4.422509E-1,-2.0480098E-1,-8.167855E-1,1.4182931E-1,-5.88803E-1,-5.4656893E-1,6.4206123E-1,-1.1443848E-1,-1.0830204E0,-9.6438247E-1,1.5474162E-1,2.0481072E-1,-1.9870833E-1,-7.8982925E-1,4.937951E-1,-6.233298E-1,8.9303017E-1,9.930348E-1,-3.7135136E-1,2.4592703E-2,-8.8282126E-1,-1.3456385E0,7.668618E-1,-1.0443037E0,5.865516E-1,-5.2937603E-1,1.3293891E0,2.7589864E-1,-1.840327E-1,-1.1759484E-1,-9.727047E-1,-9.747214E-1,4.316613E-1,7.955375E-1,-5.493409E-1,-6.8578655E-1,1.0145625E0,1.1465645E0,2.0791455E-1,1.3235009E0,-1.4903726E-1,1.0179353E-1,-1.1843996E0,-1.0787448E0,7.7123725E-1,-1.6163608E0,-1.9649887E-1,-1.1286209E0,5.683604E-1,-4.3139312E-2,-8.5005444E-1,3.0475727E-1,-5.762961E-1,-3.838929E-1,3.1776124E-1,9.548655E-3,-7.582768E-1,-1.209703E0,6.7960835E-1,-1.0693995E0,4.2756307E-1,9.128468E-1,-6.143124E-1,1.0698079E0,-1.6054915E-1,-7.8830624E-1,2.337492E-1,2.5154588E-1,-5.566921E-1,-1.4408453E0,-1.8058728E-1,-1.3073436E0,3.5226116E-1,-5.7424885E-1,2.7632302E-1,-1.2242669E0,3.4808633E-1],"categories":[],"categories_nodes":[],"categories_segments":[],"categories_sizes":[],"default_left":[true,true,true,true,true,true,true,true,true,true,true,true,true,true,true,true,true,true,true,true,true,true,false,true,true,true,false,true,false,true,false,true,true,true,true,true,true,true,false,true,false,false,false,false,false,true,true,true,false,false,true,true,false,false,false,false,false,false,false,false,false,false,false,false,false,false,false,false,false,false,false,false,false,false,false,false,false,false,false,false,false],"id":10,"left_children":[1,3,5,7,9,11,13,15,17,19,21,23,25,27,29,31,33,35,37,39,41,43,-1,45,47,49,-1,51,-1,53,-1,55,57,59,61,63,65,67,-1,69,-1,-1,-1,-1,-1,71,73,75,-1,-1,77,79,-1,-1,-1,-1,-1,-1,-1,-1,-1,-1,-1,-1,-1,-1,-1,-1,-1,-1,-1,-1,-1,-1,-1,-1,-1,-1,-1,-1,-1],"loss_changes":[2.3299063E1,1.9538668E1,1.0378351E1,2.137265E1,8.247605E0,9.357599E0,5.4022503E0,1.8156199E1,9.542009E0,7.6538734E0,2.7115526E0,1.1714112E1,6.389639E0,4.571604E0,5.2787547E0,1.9767931E1,8.194104E0,8.5176525E0,2.703641E0,6.993515E0,3.9775085E-1,2.1464415E0,0E0,8.861676E0,6.2752304E0,2.7997036E0,0E0,4.82061E0,0E0,6.3583565E-1,0E0,1.5016449E1,1.12389145E1,9.857516E0,5.684122E0,4.6320953E0,3.2818398E0,1.7435236E0,0E0,5.830921E0,0E0,0E0,0E0,0E0,0E0,8.911615E0,1.2072296E0,5.5096073E0,0E0,0E0,7.03248E-1,4.5987587E0,0E0,0E0,0E0,0E0,0E0,0E0,0E0,0E0,0E0,0E0,0E0,0E0,0E0,0E0,0E0,0E0,0E0,0E0,0E0,0E0,0E0,0E0,0E0,0E0,0E0,0E0,0E0,0E0,0E0],"parents":[2147483647,0,0,1,1,2,2,3,3,4,4,5,5,6,6,7,7,8,8,9,9,10,10,11,11,12,12,13,13,14,14,15,15,16,16,17,17,18,18,19,19,20,20,21,21,23,23,24,24,25,25,27,27,29,29,31,31,32,32,33,33,34,34,35,35,36,36,37,37,39,39,45,45,46,46,47,47,50,50,51,51],"right_children":[2,4,6,8,10,12,14,16,18,20,22,24,26,28,30,32,34,36,38,40,42,44,-1,46,48,50,-1,52,-1,54,-1,56,58,60,62,64,66,68,-1,70,-1,-1,-1,-1,-1,72,74,76,-1,-1,78,80,-1,-1,-1,-1,-1,-1,-1,-1,-1,-1,-1,-1,-1,-1,-1,-1,-1,-1,-1,-1,-1,-1,-1,-1,-1,-1,-1,-1,-1],"split_conditions":[5.5068027E-2,8.855897E-2,5.0720125E-2,8.039136E-2,5.9184216E-2,6.480417E-2,5.80462E-2,5.4127004E-2,6.774525E-2,1.3113327E-1,5.5571742E-2,5.7104573E-2,5.826037E-2,1.2811151E-1,3.191883E-2,5.0618086E-2,8.908488E-2,7.08593E-2,3.891595E-2,1.1701544E-1,5.067289E-2,2.1540511E-2,-1.1140541E-1,7.75277E-2,4.0289246E-2,8.851867E-2,2.3005855E-1,9.921034E-2,1.7596549E-1,2.649781E-2,3.9881673E-1,1.6934547E-1,4.654818E-3,5.790247E-2,4.2570323E-2,8.623071E-2,5.865191E-2,2.8791614E-2,-1.6480228E-1,6.2266037E-2,3.0436876E-1,3.4396935E-1,6.2374365E-2,3.970503E-1,-4.471118E-2,4.635218E-2,2.700481E-2,6.8687364E-2,2.3137118E-1,-4.8490825E-1,2.89397E-2,7.2077125E-2,1.7050812E-1,-1.29417945E-2,-2.5501636E-1,9.1427185E-2,-1.7288883E-1,-1.1516787E-1,9.5328376E-2,2.8645964E-3,-2.2748305E-1,-3.629109E-1,2.0388252E-1,-3.2081985E-1,1.2826893E-1,2.7385405E-1,-1.8429373E-1,3.2094237E-1,-4.8164748E-2,-2.3649187E-1,7.012476E-2,7.5463764E-2,-1.6700764E-1,-4.322536E-1,-5.4176185E-2,-3.922031E-1,1.0567835E-1,-1.7227466E-1,8.289691E-2,-3.6728007E-1,1.044259E-1],"split_indices":[462,202,284,94,608,553,300,486,500,147,596,599,575,494,564,548,293,300,162,475,28,366,0,443,310,500,0,520,0,413,0,477,275,527,275,465,190,592,0,307,0,0,0,0,0,496,593,460,0,0,442,328,0,0,0,0,0,0,0,0,0,0,0,0,0,0,0,0,0,0,0,0,0,0,0,0,0,0,0,0,0],"split_type":[0,0,0,0,0,0,0,0,0,0,0,0,0,0,0,0,0,0,0,0,0,0,0,0,0,0,0,0,0,0,0,0,0,0,0,0,0,0,0,0,0,0,0,0,0,0,0,0,0,0,0,0,0,0,0,0,0,0,0,0,0,0,0,0,0,0,0,0,0,0,0,0,0,0,0,0,0,0,0,0,0],"sum_hessian":[1.1076184E3,9.5350714E2,1.5411124E2,8.84695E2,6.881211E1,1.1847789E2,3.563335E1,8.4364215E2,4.1052883E1,6.322535E1,5.586766E0,1.0844952E2,1.0028372E1,3.094019E1,4.6931615E0,7.123025E2,1.3133966E2,3.485174E1,6.2011433E0,6.0563072E1,2.6622746E0,4.164566E0,1.4221995E0,9.26529E1,1.5796621E1,9.020378E0,1.0079939E0,2.9734598E1,1.2055922E0,3.312996E0,1.3801652E0,6.024531E2,1.0984935E2,1.1992379E2,1.14158745E1,3.044537E1,4.406371E0,4.993934E0,1.2072089E0,5.8898438E1,1.664638E0,1.451571E0,1.2107036E0,3.1067486E0,1.0578176E0,8.795245E1,4.700446E0,1.4434654E1,1.3619673E0,6.9714193E0,2.0489588E0,2.8542425E1,1.192172E0,1.7675017E0,1.5454943E0,5.833413E2,1.9111807E1,7.872773E1,3.1121618E1,1.00887695E2,1.9036093E1,1.021812E1,1.197755E0,2.8742172E1,1.7031981E0,3.1051612E0,1.30121E0,3.7882605E0,1.2056739E0,5.311889E1,5.779548E0,7.215989E1,1.579256E1,3.3971875E0,1.3032587E0,1.2520895E1,1.9137586E0,1.0197439E0,1.0292147E0,2.6966742E1,1.5756836E0],"tree_param":{"num_deleted":"0","num_feature":"618","num_nodes":"81","size_leaf_vector":"0"}},{"base_weights":[4.438478E-3,-6.199802E-2,3.0439442E-1,-1.3646327E-2,-5.7344824E-1,3.9625195E-1,-2.8676486E-1,-6.7658305E-2,4.4154778E-1,-6.988606E-1,5.156653E-1,4.3740594E-1,-8.1243634E-1,-4.556032E-1,8.2658195E-1,-2.77805E-2,-7.7738154E-1,5.799096E-1,-4.4338235E-1,-7.980237E-1,5.2609456E-1,9.294318E-1,-9.619615E-1,4.7526357E-1,-8.9987165E-1,-1.1175451E0,2.625145E-1,-6.110727E-1,9.483779E-1,9.680389E-1,2.0812008E-1,4.5360737E-2,-4.1917875E-1,-1.0178273E0,-1.0044507E-1,6.4130354E-1,-8.636429E-1,-6.9319606E-1,5.166914E-1,-9.1581875E-1,2.5071475E-1,1.0711336E0,-9.149306E-1,1.1862711E0,-3.016861E-1,5.433045E-1,-2.723245E-1,-1.2940595E0,1.6936214E-1,-1.2620214E0,-3.751741E-1,-8.3997774E-1,4.3896416E-1,1.1369256E-1,-4.5013815E-1,-5.0624263E-1,6.223492E-1,-1.1328117E0,6.208589E-1,-3.9499345E-1,9.3415534E-1,7.772503E-1,2.318441E-2,-1.1462092E0,-1.331662E-1,-9.154104E-1,5.4401994E-1,7.228825E-1,6.964009E-2,-9.790478E-1,6.0895693E-1,6.835114E-1,-7.9129386E-1,1.3244576E0,2.4534369E-1,6.37222E-1,-4.908392E-2,-6.418307E-1,6.1531156E-1,-1.0376282E0,3.5985294E-1,8.5401654E-1,-4.2656547E-1],"categories":[],"categories_nodes":[],"categories_segments":[],"categories_sizes":[],"default_left":[true,true,true,true,true,true,true,true,true,true,true,true,true,true,true,true,true,true,true,true,true,true,false,true,true,true,false,true,false,false,false,true,true,true,true,true,true,true,true,true,true,false,false,true,false,true,true,false,false,false,false,true,true,false,false,false,false,false,false,false,false,false,false,false,false,false,false,false,false,false,false,false,false,false,false,false,false,false,false,false,false,false,false],"id":11,"left_children":[1,3,5,7,9,11,13,15,17,19,21,23,25,27,29,31,33,35,37,39,41,43,-1,45,47,49,-1,51,-1,-1,-1,53,55,57,59,61,63,65,67,69,71,-1,-1,73,-1,75,77,-1,-1,-1,-1,79,81,-1,-1,-1,-1,-1,-1,-1,-1,-1,-1,-1,-1,-1,-1,-1,-1,-1,-1,-1,-1,-1,-1,-1,-1,-1,-1,-1,-1,-1,-1],"loss_changes":[2.1643106E1,2.198133E1,1.0807365E1,2.002833E1,1.0847254E1,8.854561E0,5.4641075E0,2.0582363E1,1.0837467E1,8.834557E0,6.093033E0,8.825972E0,2.253388E0,5.849923E0,1.4140797E-1,1.9780668E1,6.195442E0,7.215061E0,3.2963727E0,8.195629E0,5.528033E0,2.6192842E0,0E0,8.387108E0,2.2896972E0,4.618168E-2,0E0,5.739895E0,0E0,0E0,0E0,1.9774376E1,1.0179691E1,6.0622616E0,3.7974699E0,6.0884533E0,5.68207E-1,3.2880383E0,2.3563409E-1,6.205982E0,3.8314242E0,0E0,0E0,4.7080803E-1,0E0,8.309719E0,5.0452466E0,0E0,0E0,0E0,0E0,4.805705E0,2.0370421E0,0E0,0E0,0E0,0E0,0E0,0E0,0E0,0E0,0E0,0E0,0E0,0E0,0E0,0E0,0E0,0E0,0E0,0E0,0E0,0E0,0E0,0E0,0E0,0E0,0E0,0E0,0E0,0E0,0E0,0E0],"parents":[2147483647,0,0,1,1,2,2,3,3,4,4,5,5,6,6,7,7,8,8,9,9,10,10,11,11,12,12,13,13,14,14,15,15,16,16,17,17,18,18,19,19,20,20,21,21,23,23,24,24,25,25,27,27,31,31,32,32,33,33,34,34,35,35,36,36,37,37,38,38,39,39,40,40,43,43,45,45,46,46,51,51,52,52],"right_children":[2,4,6,8,10,12,14,16,18,20,22,24,26,28,30,32,34,36,38,40,42,44,-1,46,48,50,-1,52,-1,-1,-1,54,56,58,60,62,64,66,68,70,72,-1,-1,74,-1,76,78,-1,-1,-1,-1,80,82,-1,-1,-1,-1,-1,-1,-1,-1,-1,-1,-1,-1,-1,-1,-1,-1,-1,-1,-1,-1,-1,-1,-1,-1,-1,-1,-1,-1,-1,-1],"split_conditions":[4.9817733E-2,1.0071934E-1,5.4646917E-2,6.0815204E-2,2.6028354E-2,8.297676E-2,6.4271584E-2,1.4592181E-1,1.2843052E-1,1.7983863E-1,5.122338E-2,1.8552223E-1,2.2581236E-2,7.104042E-2,7.449272E-2,4.1988734E-2,4.0685154E-2,8.7433696E-2,6.294512E-2,5.2505758E-2,2.1095028E-2,3.0844161E-2,-2.8858846E-1,8.239797E-2,5.3471852E-2,6.36305E-2,7.875435E-2,5.530476E-2,2.8451338E-1,2.9041168E-1,6.2436026E-2,6.105493E-2,7.088218E-2,7.524769E-2,5.093073E-2,6.1821975E-2,1.1575423E-1,7.652145E-2,7.765919E-2,1.050881E-1,5.2127995E-2,3.2134008E-1,-2.7447918E-1,3.141132E-2,-9.050584E-2,5.2944664E-2,5.8803402E-2,-3.8821787E-1,5.0808646E-2,-3.7860644E-1,-1.1255223E-1,6.084821E-2,2.3609413E-2,3.410777E-2,-1.3504145E-1,-1.518728E-1,1.8670477E-1,-3.398435E-1,1.8625768E-1,-1.1849804E-1,2.8024662E-1,2.331751E-1,6.9553233E-3,-3.4386277E-1,-3.994986E-2,-2.7462313E-1,1.6320598E-1,2.1686476E-1,2.0892028E-2,-2.9371434E-1,1.8268709E-1,2.0505342E-1,-2.3738816E-1,3.9733732E-1,7.360311E-2,1.9116661E-1,-1.4725176E-2,-1.9254921E-1,1.8459347E-1,-3.1128848E-1,1.0795589E-1,2.5620496E-1,-1.2796965E-1],"split_indices":[167,293,513,168,535,63,460,294,284,291,295,548,177,279,167,285,553,274,97,44,82,130,0,174,294,197,0,133,0,0,0,29,408,349,144,174,274,204,97,109,208,0,0,494,0,296,290,0,0,0,0,252,78,0,0,0,0,0,0,0,0,0,0,0,0,0,0,0,0,0,0,0,0,0,0,0,0,0,0,0,0,0,0],"split_type":[0,0,0,0,0,0,0,0,0,0,0,0,0,0,0,0,0,0,0,0,0,0,0,0,0,0,0,0,0,0,0,0,0,0,0,0,0,0,0,0,0,0,0,0,0,0,0,0,0,0,0,0,0,0,0,0,0,0,0,0,0,0,0,0,0,0,0,0,0,0,0,0,0,0,0,0,0,0,0,0,0,0,0],"sum_hessian":[1.084117E3,8.8818774E2,1.959292E2,8.124104E2,7.577731E1,1.6986444E2,2.6064756E1,7.269983E2,8.5412094E1,6.827384E1,7.5034666E0,1.6488837E2,4.9760795E0,2.3145533E1,2.9192245E0,6.893068E2,3.769151E1,7.416139E1,1.1250704E1,6.3483246E1,4.790596E0,6.151824E0,1.3516426E0,1.6097581E2,3.9125397E0,3.8450851E0,1.1309946E0,2.134649E1,1.7990412E0,1.9157993E0,1.0034252E0,5.815211E2,1.07785706E2,2.744098E1,1.0250527E1,7.1669075E1,2.492321E0,9.148275E0,2.1024292E0,5.7186733E1,6.296514E0,3.662148E0,1.1284481E0,5.1200852E0,1.0317389E0,1.4779745E2,1.3178368E1,2.7050261E0,1.2075136E0,2.6327298E0,1.2123554E0,1.769014E1,3.6563509E0,5.117225E2,6.979859E1,9.994499E1,7.840708E0,2.59302E1,1.5107802E0,8.460156E0,1.7903711E0,5.8537186E1,1.3131886E1,1.3867621E0,1.1055589E0,7.97585E0,1.1724249E0,1.0165635E0,1.0858656E0,5.5253407E1,1.9333276E0,4.6918187E0,1.6046952E0,4.1090174E0,1.0110677E0,1.2750679E2,2.0290667E1,9.500436E0,3.6779313E0,1.5304233E1,2.3859076E0,2.480273E0,1.1760777E0],"tree_param":{"num_deleted":"0","num_feature":"618","num_nodes":"83","size_leaf_vector":"0"}},{"base_weights":[2.6971423E-3,-7.6128684E-2,2.2606158E-1,-1.4619919E-2,-4.237249E-1,2.92327E-1,-4.3052986E-1,3.0180452E-2,-5.4847515E-1,-5.152568E-1,3.7359235E-1,3.437712E-1,-5.0540465E-1,-5.7590246E-1,1.0626642E0,9.533545E-2,-3.638691E-1,-6.997759E-1,6.533333E-1,-6.4516246E-1,6.20297E-2,6.3701504E-1,-5.8646804E-1,4.4118884E-1,-1.2499913E-1,-8.3115184E-1,4.5597985E-1,-8.622347E-1,1.311245E-1,1.9512829E-1,-2.732118E-1,-4.832813E-1,4.74075E-1,-8.172587E-1,5.138806E-1,1.0540293E0,-6.03979E-1,-7.184231E-1,5.7094175E-1,-1.4193036E-1,1.1423467E0,8.635803E-1,-6.937599E-1,-8.845589E-1,6.916094E-3,3.3396062E-1,8.399378E-1,-2.530955E-1,1.0734429E0,-1.0818201E0,5.040413E-1,-1.6408303E-1,1.0644257E0,-1.1662205E0,-4.6810668E-2,-3.2808617E-1,1.1090168E0,1.15161166E-1,6.165202E-1,-3.79654E-1,3.5687998E-1,-6.233407E-1,4.9411368E-1,7.332191E-1,-4.040088E-1,-8.958307E-1,7.035593E-1,1.1407402E0,-7.4581176E-1,1.3081611E0,8.503948E-2,-8.161935E-1,1.6482173E-1,9.089383E-1,-3.8927513E-1,1.2101566E-1,-9.4479626E-1,1.1171329E0,-4.9912715E-1,3.962117E-1,-6.2116146E-1,9.0163547E-1,-7.5087154E-1,-3.943616E-1,9.137682E-1,-1.3749999E0,1.231017E-2,1.1241264E-1,-3.7538603E-1,-1.3395724E0,1.2303694E-1,-5.0137734E-1,8.386838E-1,-8.976513E-1,2.6576772E-1],"categories":[],"categories_nodes":[],"categories_segments":[],"categories_sizes":[],"default_left":[true,true,true,true,true,true,true,true,true,true,true,true,true,true,false,true,true,true,true,true,true,true,true,true,true,true,true,true,true,true,true,true,true,true,true,true,false,true,true,true,false,true,false,false,false,true,true,true,false,true,false,true,false,true,true,true,false,false,false,false,false,false,false,false,false,false,false,false,false,false,false,false,false,false,false,false,false,false,false,false,false,false,false,false,false,false,false,false,false,false,false,false,false,false,false],"id":12,"left_children":[1,3,5,7,9,11,13,15,17,19,21,23,25,27,-1,29,31,33,35,37,39,41,43,45,47,49,51,53,55,57,59,61,63,65,67,69,-1,71,73,75,-1,77,-1,-1,-1,79,81,83,-1,85,-1,87,-1,89,91,93,-1,-1,-1,-1,-1,-1,-1,-1,-1,-1,-1,-1,-1,-1,-1,-1,-1,-1,-1,-1,-1,-1,-1,-1,-1,-1,-1,-1,-1,-1,-1,-1,-1,-1,-1,-1,-1,-1,-1],"loss_changes":[1.8619522E1,1.6706474E1,1.2127793E1,1.592603E1,8.7669735E0,1.0480839E1,6.188895E0,1.5815267E1,9.831253E0,7.9751663E0,3.5800436E0,1.0856909E1,5.270733E0,4.9840717E0,0E0,1.9480663E1,8.976175E0,7.0174847E0,3.8013012E0,8.113396E0,4.6458964E0,3.7433019E0,5.8106387E-1,8.102386E0,6.639115E0,4.568693E0,1.9097002E0,4.2231464E0,3.8680742E0,1.3955832E1,7.7122116E0,1.0850025E1,2.8922343E0,5.7175217E0,4.5603333E0,1.151485E0,0E0,7.2150536E0,2.1290998E0,3.9157836E0,0E0,3.7904577E0,0E0,0E0,0E0,9.531519E0,4.69026E0,6.6705713E0,0E0,3.36551E0,0E0,2.258925E-1,0E0,2.9650402E0,2.7262065E0,2.295621E0,0E0,0E0,0E0,0E0,0E0,0E0,0E0,0E0,0E0,0E0,0E0,0E0,0E0,0E0,0E0,0E0,0E0,0E0,0E0,0E0,0E0,0E0,0E0,0E0,0E0,0E0,0E0,0E0,0E0,0E0,0E0,0E0,0E0,0E0,0E0,0E0,0E0,0E0,0E0],"parents":[2147483647,0,0,1,1,2,2,3,3,4,4,5,5,6,6,7,7,8,8,9,9,10,10,11,11,12,12,13,13,15,15,16,16,17,17,18,18,19,19,20,20,21,21,22,22,23,23,24,24,25,25,26,26,27,27,28,28,29,29,30,30,31,31,32,32,33,33,34,34,35,35,37,37,38,38,39,39,41,41,45,45,46,46,47,47,49,49,51,51,53,53,54,54,55,55],"right_children":[2,4,6,8,10,12,14,16,18,20,22,24,26,28,-1,30,32,34,36,38,40,42,44,46,48,50,52,54,56,58,60,62,64,66,68,70,-1,72,74,76,-1,78,-1,-1,-1,80,82,84,-1,86,-1,88,-1,90,92,94,-1,-1,-1,-1,-1,-1,-1,-1,-1,-1,-1,-1,-1,-1,-1,-1,-1,-1,-1,-1,-1,-1,-1,-1,-1,-1,-1,-1,-1,-1,-1,-1,-1,-1,-1,-1,-1,-1,-1],"split_conditions":[2.3631535E-2,5.1799946E-2,5.9711337E-2,1.2109698E-1,6.0017314E-2,7.425391E-2,6.1448857E-2,5.8420908E-2,5.2485615E-2,4.978764E-2,5.7692878E-2,4.690075E-2,5.3043827E-2,4.380742E-2,3.1879926E-1,1.2119932E-2,6.625067E-2,6.882602E-2,4.936817E-2,9.953344E-2,5.6005597E-2,6.520924E-2,2.3299873E-2,3.7192494E-2,1.1901997E-1,7.725686E-2,2.5177347E-2,4.1743554E-2,5.183267E-2,5.4831415E-2,5.455717E-2,6.496508E-2,3.100053E-2,1.0067573E-1,5.0778016E-2,2.542835E-2,-1.8119371E-1,6.0737427E-2,2.4837801E-2,5.7584137E-2,3.4270403E-1,7.1168914E-2,-2.0812799E-1,-2.653677E-1,2.0748284E-3,7.6546654E-2,8.568346E-2,6.59311E-2,3.220329E-1,5.7935476E-2,1.512124E-1,3.2484178E-2,3.193277E-1,6.1640073E-2,2.9154785E-2,5.7640564E-2,3.3270505E-1,3.454835E-2,1.8495607E-1,-1.138962E-1,1.07064E-1,-1.8700223E-1,1.4823411E-1,2.1996574E-1,-1.2120265E-1,-2.687492E-1,2.110678E-1,3.4222206E-1,-2.2374354E-1,3.9244837E-1,2.5511846E-2,-2.4485807E-1,4.944652E-2,2.726815E-1,-1.16782546E-1,3.63047E-2,-2.834389E-1,3.3513987E-1,-1.4973815E-1,1.18863516E-1,-1.8634844E-1,2.7049065E-1,-2.2526146E-1,-1.1830848E-1,2.7413046E-1,-4.125E-1,3.693051E-3,3.3723794E-2,-1.1261582E-1,-4.0187174E-1,3.6911085E-2,-1.5041322E-1,2.5160515E-1,-2.692954E-1,7.973032E-2],"split_indices":[500,296,280,172,291,276,237,81,495,150,235,527,358,295,0,284,460,37,427,423,552,432,419,277,291,246,149,520,235,290,468,519,285,558,240,527,0,243,372,264,0,450,0,0,0,352,48,217,0,461,0,455,0,135,583,500,0,0,0,0,0,0,0,0,0,0,0,0,0,0,0,0,0,0,0,0,0,0,0,0,0,0,0,0,0,0,0,0,0,0,0,0,0,0,0],"split_type":[0,0,0,0,0,0,0,0,0,0,0,0,0,0,0,0,0,0,0,0,0,0,0,0,0,0,0,0,0,0,0,0,0,0,0,0,0,0,0,0,0,0,0,0,0,0,0,0,0,0,0,0,0,0,0,0,0,0,0,0,0,0,0,0,0,0,0,0,0,0,0,0,0,0,0,0,0,0,0,0,0,0,0,0,0,0,0,0,0,0,0,0,0,0,0],"sum_hessian":[1.0555363E3,7.806886E2,2.7484763E2,6.6419775E2,1.1649082E2,2.5015584E2,2.4691786E1,6.13645E2,5.0552746E1,1.04812164E2,1.167866E1,2.3553566E2,1.4620179E1,2.3060959E1,1.6308265E0,5.272275E2,8.641753E1,4.527111E1,5.281638E0,8.546301E1,1.934915E1,9.428218E0,2.2504432E0,1.9505838E2,4.0477283E1,1.1021286E1,3.5988932E0,1.6257475E1,6.803484E0,4.1525732E2,1.1197016E2,7.6009026E1,1.0408501E1,4.1573387E1,3.69772E0,4.127815E0,1.1538233E0,8.099306E1,4.4699516E0,1.7006924E1,2.3422258E0,8.356575E0,1.0716423E0,1.17132E0,1.0791233E0,1.5516911E2,3.9889256E1,3.728126E1,3.196023E0,9.438982E0,1.5823033E0,2.1441398E0,1.4547535E0,1.1529235E1,4.72824E0,5.0816684E0,1.7218157E0,3.500937E2,6.516364E1,9.612852E1,1.5841645E1,6.679905E1,9.209973E0,8.1640625E0,2.2444375E0,3.992181E1,1.6515774E0,2.532102E0,1.165618E0,2.9928665E0,1.1349483E0,7.298944E1,8.003617E0,3.345676E0,1.1242756E0,1.34509E1,3.5560238E0,7.197568E0,1.1590074E0,1.4622398E2,8.945131E0,3.8817005E1,1.0722493E0,3.3845764E1,3.4354966E0,7.2417893E0,2.1971931E0,1.1315191E0,1.0126206E0,1.0128363E1,1.4008725E0,3.4109993E0,1.3172407E0,2.3327546E0,2.7489138E0],"tree_param":{"num_deleted":"0","num_feature":"618","num_nodes":"95","size_leaf_vector":"0"}},{"base_weights":[3.1680628E-3,-7.757252E-2,2.1299174E-1,-1.00103274E-1,7.4729556E-1,2.8313467E-1,-3.4526616E-1,-5.1110975E-2,-4.9544227E-1,9.0505135E-1,-7.680483E-1,3.6301634E-1,-2.8048334E-1,-5.733547E-1,5.260598E-1,-1.016018E-1,3.703449E-1,-3.3410037E-1,-1.224123E0,9.8569024E-1,-2.454753E-1,4.3580613E-1,-2.4767086E-1,-3.5229556E-2,-1.2172555E0,-7.584736E-1,3.9323443E-1,9.18184E-1,-8.5464156E-1,-4.9975578E-2,-6.337134E-1,5.424343E-1,-2.0779414E-1,-4.8294806E-1,3.898205E-1,-1.382684E0,-1.0531004E-1,1.0600823E0,-1.1797582E-1,4.773597E-1,-6.4495534E-1,-4.7903472E-1,5.858066E-1,-2.9058218E-1,7.2125745E-1,-1.5291227E0,1.22260764E-1,-9.223351E-1,6.3593245E-1,8.032785E-1,-3.4835717E-1,1.1278367E0,-7.085057E-2,-1.0350039E-1,3.861504E-1,-7.4346983E-1,3.0062807E-1,6.6881E-1,-3.5674772E-1,-5.409298E-1,5.144696E-1,-5.580949E-1,9.5858264E-1,5.9457105E-1,-7.568793E-1,-1.4678198E0,-2.123507E-1,5.051255E-1,-8.436101E-1,-9.474971E-1,6.4545214E-1,-7.273649E-1,3.267655E-1,1.0029129E0,-6.0217994E-1,-5.948159E-1,5.481217E-1,9.998358E-1,-3.6001018E-1,-1.0648563E0,8.065062E-1],"categories":[],"categories_nodes":[],"categories_segments":[],"categories_sizes":[],"default_left":[true,true,true,true,true,true,true,true,true,true,false,true,true,true,true,true,true,true,true,true,false,true,true,true,true,true,true,true,false,true,true,true,true,true,true,true,false,false,false,true,true,true,true,true,true,false,false,true,false,false,false,false,false,false,false,false,false,false,false,false,false,false,false,false,false,false,false,false,false,false,false,false,false,false,false,false,false,false,false,false,false],"id":13,"left_children":[1,3,5,7,9,11,13,15,17,19,-1,21,23,25,27,29,31,33,35,37,-1,39,41,43,45,47,49,51,-1,53,55,57,59,61,63,65,-1,-1,-1,67,69,71,73,75,77,-1,-1,79,-1,-1,-1,-1,-1,-1,-1,-1,-1,-1,-1,-1,-1,-1,-1,-1,-1,-1,-1,-1,-1,-1,-1,-1,-1,-1,-1,-1,-1,-1,-1,-1,-1],"loss_changes":[1.7479471E1,1.3922306E1,1.1324255E1,1.4039456E1,5.4591856E0,1.1593712E1,6.7511578E0,1.381009E1,8.990774E0,1.9591541E0,0E0,1.0064999E1,7.3663325E0,4.98598E0,4.7121706E0,1.5867283E1,7.02308E0,7.3899136E0,2.3589745E0,1.5615463E0,0E0,9.312401E0,5.0037923E0,5.3456054E0,2.9698048E0,5.688387E0,1.7605675E0,1.3513446E0,0E0,1.2380676E1,5.46381E0,6.3523273E0,4.2857313E0,6.5885363E0,3.2561274E0,9.1218376E-1,0E0,0E0,0E0,7.5289536E0,3.6758158E0,4.18404E0,3.4638677E0,5.5800505E0,2.467585E0,0E0,0E0,5.882515E0,0E0,0E0,0E0,0E0,0E0,0E0,0E0,0E0,0E0,0E0,0E0,0E0,0E0,0E0,0E0,0E0,0E0,0E0,0E0,0E0,0E0,0E0,0E0,0E0,0E0,0E0,0E0,0E0,0E0,0E0,0E0,0E0,0E0],"parents":[2147483647,0,0,1,1,2,2,3,3,4,4,5,5,6,6,7,7,8,8,9,9,11,11,12,12,13,13,14,14,15,15,16,16,17,17,18,18,19,19,21,21,22,22,23,23,24,24,25,25,26,26,27,27,29,29,30,30,31,31,32,32,33,33,34,34,35,35,39,39,40,40,41,41,42,42,43,43,44,44,47,47],"right_children":[2,4,6,8,10,12,14,16,18,20,-1,22,24,26,28,30,32,34,36,38,-1,40,42,44,46,48,50,52,-1,54,56,58,60,62,64,66,-1,-1,-1,68,70,72,74,76,78,-1,-1,80,-1,-1,-1,-1,-1,-1,-1,-1,-1,-1,-1,-1,-1,-1,-1,-1,-1,-1,-1,-1,-1,-1,-1,-1,-1,-1,-1,-1,-1,-1,-1,-1,-1],"split_conditions":[3.3139713E-2,1.6322428E-1,4.9480382E-2,6.574722E-2,1.0714434E-1,5.8950245E-2,5.261177E-2,1.08265765E-2,5.898816E-2,1.24650806E-1,-2.304145E-1,5.6972545E-2,6.297581E-2,5.435861E-2,5.554569E-2,6.777805E-2,4.4007204E-2,2.183496E-2,5.2117035E-2,7.658401E-2,-7.36426E-2,8.9391366E-2,4.8680924E-2,5.0544165E-2,5.354253E-2,1.2809177E-1,2.4670897E-2,3.3160448E-2,-2.5639248E-1,6.1029933E-2,7.059228E-2,5.5338226E-2,2.3468321E-2,9.861192E-2,6.4196765E-2,2.9624268E-2,-3.1593014E-2,3.180247E-1,-3.539275E-2,3.2944137E-1,5.0989136E-2,4.7525447E-2,3.423499E-2,5.451435E-2,5.5923633E-2,-4.5873684E-1,3.6678232E-2,7.133196E-2,1.9077975E-1,2.4098356E-1,-1.04507156E-1,3.38351E-1,-2.1255173E-2,-3.1050118E-2,1.1584512E-1,-2.2304095E-1,9.018842E-2,2.0064302E-1,-1.0702432E-1,-1.6227895E-1,1.543409E-1,-1.6742848E-1,2.875748E-1,1.7837133E-1,-2.270638E-1,-4.4034597E-1,-6.370521E-2,1.5153766E-1,-2.5308305E-1,-2.8424916E-1,1.9363566E-1,-2.1820948E-1,9.802966E-2,3.0087388E-1,-1.8065399E-1,-1.7844477E-1,1.6443652E-1,2.9995075E-1,-1.0800306E-1,-3.194569E-1,2.4195187E-1],"split_indices":[201,277,491,267,300,54,586,480,431,285,0,451,225,44,551,458,172,299,589,250,0,129,519,351,589,275,538,137,0,133,170,545,463,44,523,136,0,0,0,294,235,393,605,378,368,0,0,233,0,0,0,0,0,0,0,0,0,0,0,0,0,0,0,0,0,0,0,0,0,0,0,0,0,0,0,0,0,0,0,0,0],"split_type":[0,0,0,0,0,0,0,0,0,0,0,0,0,0,0,0,0,0,0,0,0,0,0,0,0,0,0,0,0,0,0,0,0,0,0,0,0,0,0,0,0,0,0,0,0,0,0,0,0,0,0,0,0,0,0,0,0,0,0,0,0,0,0,0,0,0,0,0,0,0,0,0,0,0,0,0,0,0,0,0,0],"sum_hessian":[1.0297925E3,7.4409393E2,2.8569855E2,7.251651E2,1.8928791E1,2.5424632E2,3.1452234E1,6.4621265E2,7.8952484E1,1.7508772E1,1.4200194E0,2.2299686E2,3.1249466E1,2.5198067E1,6.2541676E0,5.7775586E2,6.845679E1,6.5834206E1,1.3118277E1,1.6495869E1,1.0129026E0,1.9950374E2,2.3493128E1,2.558796E1,5.6615067E0,2.1328577E1,3.8694897E0,5.131726E0,1.1224415E0,5.276558E2,5.01E1,5.2801582E1,1.5655206E1,5.4882507E1,1.0951698E1,1.1283326E1,1.8349502E0,1.5491182E1,1.0046859E0,1.9265477E2,6.848963E0,1.8721508E1,4.77162E0,1.9590914E1,5.9970446E0,4.477503E0,1.1840041E0,1.938869E1,1.9398863E0,2.4381793E0,1.4313104E0,4.118382E0,1.0133439E0,4.7065594E2,5.699992E1,4.501626E1,5.083741E0,4.651967E1,6.2819147E0,1.0885473E1,4.769733E0,5.2745724E1,2.1367834E0,9.7010145E0,1.2506845E0,1.028123E1,1.0020962E0,1.8929358E2,3.3611984E0,5.7634373E0,1.0855255E0,1.4385536E1,4.3359723E0,3.6469505E0,1.1246696E0,1.45894785E1,5.0014353E0,4.828372E0,1.1686727E0,1.826688E1,1.1218102E0],"tree_param":{"num_deleted":"0","num_feature":"618","num_nodes":"81","size_leaf_vector":"0"}},{"base_weights":[2.3411706E-3,-2.501963E-2,5.5518097E-1,1.48390345E-2,-4.1639084E-1,7.592767E-1,-1.8776191E-3,5.6969468E-2,-3.6220628E-1,-4.7802517E-1,7.294293E-1,8.443129E-1,-8.534661E-1,3.127031E-1,-8.1149626E-1,9.659913E-2,-4.471262E-1,-4.5406184E-1,6.2608194E-1,-5.820809E-1,2.9847714E-1,1.0849179E0,-3.319587E-1,9.2649794E-1,-5.0341463E-1,5.658599E-1,-5.411763E-1,-1.5348597E-1,-1.1895362E0,3.6423054E-2,4.1992825E-1,-6.0522926E-1,3.314635E-1,-5.030345E-1,8.225909E-1,1.0355402E0,-3.2317892E-1,-6.871071E-1,1.16732076E-1,5.9964895E-1,-1.0612781E0,1.0269513E0,7.3532134E-2,9.485141E-1,-3.8803342E-1,1.0021415E-1,-2.868422E-1,5.4888046E-1,-2.0209794E-1,-7.0929384E-1,6.5011114E-1,6.4257395E-1,-8.879094E-1,-5.7522595E-1,4.992984E-1,2.6596287E-1,9.9532115E-1,4.501376E-2,-5.358411E-1,-7.470019E-1,7.346151E-1,5.175841E-1,-9.488759E-1,9.622465E-1,-4.7022936E-1,1.1148285E0,-4.9644485E-2,5.254862E-1,-6.317208E-1,-7.864444E-1,2.1639454E-1],"categories":[],"categories_nodes":[],"categories_segments":[],"categories_sizes":[],"default_left":[true,true,true,true,true,true,true,true,true,true,true,true,false,true,true,true,true,true,true,true,true,false,false,true,false,true,false,false,false,true,true,true,true,true,true,false,true,true,true,true,false,true,true,false,true,false,false,false,false,false,false,false,false,false,false,false,false,false,false,false,false,false,false,false,false,false,false,false,false,false,false],"id":14,"left_children":[1,3,5,7,9,11,13,15,17,19,21,23,-1,25,27,29,31,33,35,37,39,-1,-1,41,-1,43,-1,-1,-1,45,47,49,51,53,55,-1,57,59,61,63,-1,65,67,-1,69,-1,-1,-1,-1,-1,-1,-1,-1,-1,-1,-1,-1,-1,-1,-1,-1,-1,-1,-1,-1,-1,-1,-1,-1,-1,-1],"loss_changes":[1.5270029E1,1.5012751E1,5.4138947E0,1.390479E1,6.6305847E0,5.4990616E0,3.7589507E0,1.5766275E1,8.271397E0,7.0428925E0,2.222706E0,4.188143E0,0E0,2.6047773E0,8.446002E-1,1.41980295E1,7.2839365E0,5.483057E0,3.406228E0,5.6073074E0,5.0212283E0,0E0,0E0,2.6682072E0,0E0,3.540191E0,0E0,0E0,0E0,1.2751794E1,9.297577E0,6.75568E0,4.5001984E0,5.982378E0,5.9761047E-2,0E0,2.7026695E-1,6.1359844E0,5.0591397E0,4.100892E0,0E0,2.7583714E0,1.7506695E0,0E0,9.402405E-1,0E0,0E0,0E0,0E0,0E0,0E0,0E0,0E0,0E0,0E0,0E0,0E0,0E0,0E0,0E0,0E0,0E0,0E0,0E0,0E0,0E0,0E0,0E0,0E0,0E0,0E0],"parents":[2147483647,0,0,1,1,2,2,3,3,4,4,5,5,6,6,7,7,8,8,9,9,10,10,11,11,13,13,14,14,15,15,16,16,17,17,18,18,19,19,20,20,23,23,25,25,29,29,30,30,31,31,32,32,33,33,34,34,36,36,37,37,38,38,39,39,41,41,42,42,44,44],"right_children":[2,4,6,8,10,12,14,16,18,20,22,24,-1,26,28,30,32,34,36,38,40,-1,-1,42,-1,44,-1,-1,-1,46,48,50,52,54,56,-1,58,60,62,64,-1,66,68,-1,70,-1,-1,-1,-1,-1,-1,-1,-1,-1,-1,-1,-1,-1,-1,-1,-1,-1,-1,-1,-1,-1,-1,-1,-1,-1,-1],"split_conditions":[1.3242215E-1,6.978297E-2,4.2172242E-2,5.161053E-2,7.3413E-2,8.9483574E-2,5.2523702E-2,6.877656E-2,6.649226E-2,5.4705746E-2,1.7368408E-2,9.519869E-2,-2.5603983E-1,5.9511885E-2,2.3576966E-2,5.3570043E-2,5.0154768E-2,1.0336985E-1,2.3945179E-2,6.62659E-2,5.3425148E-2,3.254754E-1,-9.958762E-2,5.3478517E-2,-1.510244E-1,7.64025E-2,-1.623529E-1,-4.604579E-2,-3.5686088E-1,5.6231596E-2,5.1025018E-2,9.455028E-2,1.1062395E-1,7.4161395E-2,2.354259E-2,3.106621E-1,4.9270153E-2,1.017358E-1,6.29219E-2,2.4686856E-2,-3.1838346E-1,7.256489E-2,2.5450477E-1,2.8455424E-1,8.873847E-2,3.0064248E-2,-8.605266E-2,1.6466415E-1,-6.0629383E-2,-2.1278816E-1,1.9503336E-1,1.927722E-1,-2.6637283E-1,-1.7256778E-1,1.4978953E-1,7.978886E-2,2.9859635E-1,1.3504128E-2,-1.6075234E-1,-2.2410057E-1,2.2038454E-1,1.5527523E-1,-2.8466278E-1,2.8867397E-1,-1.4106882E-1,3.3444855E-1,-1.48933465E-2,1.5764585E-1,-1.8951625E-1,-2.3593333E-1,6.491837E-2],"split_indices":[275,546,423,281,461,374,184,570,288,371,574,30,0,269,519,133,606,416,589,167,89,0,0,41,0,174,0,0,0,477,380,515,248,247,45,0,224,533,543,322,0,323,275,0,174,0,0,0,0,0,0,0,0,0,0,0,0,0,0,0,0,0,0,0,0,0,0,0,0,0,0],"split_type":[0,0,0,0,0,0,0,0,0,0,0,0,0,0,0,0,0,0,0,0,0,0,0,0,0,0,0,0,0,0,0,0,0,0,0,0,0,0,0,0,0,0,0,0,0,0,0,0,0,0,0,0,0,0,0,0,0,0,0,0,0,0,0,0,0,0,0,0,0,0,0],"sum_hessian":[1.00759436E3,9.6098846E2,4.6605896E1,8.7303723E2,8.79512E1,3.384333E1,1.2762566E1,7.860538E2,8.6983475E1,8.401481E1,3.9363961E0,3.2600838E1,1.242493E0,9.63328E0,3.1292863E0,7.2951135E2,5.6542423E1,8.008098E1,6.9024954E0,7.4307556E1,9.707255E0,2.9321635E0,1.0042325E0,3.102167E1,1.5791671E0,7.690515E0,1.9427648E0,1.6548631E0,1.4744233E0,6.1598126E2,1.1353008E2,4.7183784E1,9.358641E0,7.770613E1,2.3748465E0,4.758886E0,2.1436095E0,6.46134E1,9.694146E0,8.404702E0,1.3025528E0,2.7570705E1,3.450965E0,5.4927416E0,2.1977732E0,5.150371E2,1.00944145E2,9.413298E1,1.9397108E1,4.3973473E1,3.2103124E0,7.833128E0,1.5255132E0,7.288296E1,4.8231707E0,1.1639012E0,1.2109451E0,1.0734404E0,1.0701691E0,6.2456787E1,2.1566205E0,7.417989E0,2.2761576E0,6.352387E0,2.0523155E0,2.5457243E1,2.113461E0,2.2585156E0,1.1924495E0,1.1431338E0,1.0546395E0],"tree_param":{"num_deleted":"0","num_feature":"618","num_nodes":"71","size_leaf_vector":"0"}},{"base_weights":[2.2198719E-3,-5.4980133E-2,2.64932E-1,-8.3180174E-2,5.677735E-1,3.7577677E-1,-2.1232685E-1,-1.3930763E-1,2.35154E-1,8.551918E-1,-4.7963586E-2,4.281183E-1,-8.33333E-1,-4.509058E-1,8.522879E-1,-1.9499695E-1,1.8616946E-1,3.2564607E-1,-6.920378E-1,9.9179864E-1,-3.4891355E-1,3.6454946E-1,-8.986233E-1,5.46067E-1,-1.0610079E-1,-1.1597722E0,2.848779E-1,-6.1212766E-1,5.726177E-1,1.2543639E0,-4.830687E-1,-2.1748321E-1,7.324911E-1,2.2855629E-1,-1.3457112E0,4.2523828E-1,-4.0109608E-1,-1.0479054E0,4.749012E-1,1.1132315E0,-1.0380611E-1,2.8598347E-1,-8.443878E-1,8.824188E-1,-7.703164E-1,-1.1871288E0,-2.3267766E-2,6.386045E-1,-1.3130149E-1,-2.8894156E-1,7.5912523E-1,-1.3258569E0,-3.4841993E-1,-7.452183E-1,9.3802357E-1,9.457975E-1,-2.1133117E-1,1.5361588E0,1.4627145E-1,-2.536491E-1,3.3975565E-1,9.2497015E-1,-4.2058712E-1,2.7962062E-1,-1.037702E0,4.879745E-1,-7.4018073E-1,6.715456E-1,-7.2046167E-1,-1.3585339E0,5.21001E-1,4.3153457E-2,6.550002E-1,1.3021804E0,2.2895068E-1,2.868085E-1,-4.5930344E-1,1.1005709E0,-9.746529E-2,6.8519515E-1,-9.3507373E-1,-3.5679975E-1,8.275681E-1,-4.457824E-1,9.676667E-1,9.929335E-1,3.7013568E-2,-8.9750904E-1,3.990269E-1],"categories":[],"categories_nodes":[],"categories_segments":[],"categories_sizes":[],"default_left":[true,true,true,true,true,true,true,true,true,true,true,true,true,true,true,true,true,true,true,true,true,true,true,true,true,true,false,true,true,true,false,true,true,true,false,true,true,true,true,true,true,false,false,true,false,false,false,true,true,true,true,false,false,true,false,false,false,false,false,false,false,false,false,false,false,false,false,false,false,false,false,false,false,false,false,false,false,false,false,false,false,false,false,false,false,false,false,false,false],"id":15,"left_children":[1,3,5,7,9,11,13,15,17,19,21,23,25,27,29,31,33,35,37,39,41,43,45,47,49,51,-1,53,55,57,-1,59,61,63,-1,65,67,69,71,73,75,-1,-1,77,-1,-1,-1,79,81,83,85,-1,-1,87,-1,-1,-1,-1,-1,-1,-1,-1,-1,-1,-1,-1,-1,-1,-1,-1,-1,-1,-1,-1,-1,-1,-1,-1,-1,-1,-1,-1,-1,-1,-1,-1,-1,-1,-1],"loss_changes":[1.4895073E1,1.4342717E1,9.455349E0,1.3962528E1,6.3044615E0,9.481691E0,9.030855E0,1.2060742E1,1.00612545E1,4.323717E0,4.6121564E0,8.807695E0,2.6381097E0,5.047494E0,4.13788E0,1.1983681E1,6.6341944E0,7.950074E0,4.959338E0,3.0396023E0,1.24928E0,5.930331E0,1.0522556E0,7.223995E0,4.3248158E0,2.2402954E-1,0E0,5.872055E0,1.4842187E0,1.4408445E0,0E0,1.1257235E1,3.4183588E0,6.476027E0,0E0,7.308172E0,5.097821E0,4.872181E0,2.2047293E-1,3.021925E0,5.632668E-1,0E0,0E0,1.5182495E0,0E0,0E0,0E0,8.001156E0,3.4350019E0,4.79653E0,7.7417374E-1,0E0,0E0,4.479102E0,0E0,0E0,0E0,0E0,0E0,0E0,0E0,0E0,0E0,0E0,0E0,0E0,0E0,0E0,0E0,0E0,0E0,0E0,0E0,0E0,0E0,0E0,0E0,0E0,0E0,0E0,0E0,0E0,0E0,0E0,0E0,0E0,0E0,0E0,0E0],"parents":[2147483647,0,0,1,1,2,2,3,3,4,4,5,5,6,6,7,7,8,8,9,9,10,10,11,11,12,12,13,13,14,14,15,15,16,16,17,17,18,18,19,19,20,20,21,21,22,22,23,23,24,24,25,25,27,27,28,28,29,29,31,31,32,32,33,33,35,35,36,36,37,37,38,38,39,39,40,40,43,43,47,47,48,48,49,49,50,50,53,53],"right_children":[2,4,6,8,10,12,14,16,18,20,22,24,26,28,30,32,34,36,38,40,42,44,46,48,50,52,-1,54,56,58,-1,60,62,64,-1,66,68,70,72,74,76,-1,-1,78,-1,-1,-1,80,82,84,86,-1,-1,88,-1,-1,-1,-1,-1,-1,-1,-1,-1,-1,-1,-1,-1,-1,-1,-1,-1,-1,-1,-1,-1,-1,-1,-1,-1,-1,-1,-1,-1,-1,-1,-1,-1,-1,-1],"split_conditions":[5.1877227E-2,1.5516129E-1,5.472611E-2,3.963937E-2,7.616508E-2,8.299294E-2,1.6186606E-2,3.7361808E-2,6.712653E-2,6.187211E-2,6.5221995E-2,5.7714712E-2,2.590707E-2,6.2350668E-2,3.9411984E-2,1.9433276E-1,1.38483E-1,5.9478417E-2,4.2380482E-2,5.8687348E-2,3.0324493E-2,4.4207342E-2,1.597357E-2,5.1826987E-2,2.672435E-2,2.8479224E-2,8.5463375E-2,1.8805385E-1,8.580925E-2,5.453211E-2,-1.4492062E-1,1.033276E-1,5.0658986E-2,1.3587764E-1,-4.0371338E-1,1.4107463E-1,6.1099406E-2,4.7644205E-2,2.37512E-2,4.3594748E-2,2.1929158E-2,8.5795045E-2,-2.5331637E-1,4.4106103E-2,-2.3109494E-1,-3.5613865E-1,-6.98033E-3,9.943537E-2,5.2138537E-2,3.494181E-2,5.9292763E-2,-3.9775708E-1,-1.0452598E-1,5.636646E-2,2.814071E-1,2.8373927E-1,-6.339935E-2,4.6084765E-1,4.388144E-2,-7.609473E-2,1.019267E-1,2.7749106E-1,-1.2617615E-1,8.388619E-2,-3.113106E-1,1.4639236E-1,-2.2205423E-1,2.014637E-1,-2.1613851E-1,-4.0756017E-1,1.563003E-1,1.2946038E-2,1.9650008E-1,3.9065415E-1,6.8685204E-2,8.604255E-2,-1.3779104E-1,3.301713E-1,-2.923959E-2,2.0555855E-1,-2.8052214E-1,-1.0703993E-1,2.4827044E-1,-1.3373472E-1,2.903E-1,2.9788005E-1,1.1104071E-2,-2.6925272E-1,1.19708076E-1],"split_indices":[556,290,173,228,294,428,86,44,574,183,372,421,351,260,267,167,527,527,519,138,293,482,184,548,321,28,0,175,260,376,0,611,539,330,0,293,228,90,590,505,72,0,0,238,0,0,0,105,120,468,590,0,0,553,0,0,0,0,0,0,0,0,0,0,0,0,0,0,0,0,0,0,0,0,0,0,0,0,0,0,0,0,0,0,0,0,0,0,0],"split_type":[0,0,0,0,0,0,0,0,0,0,0,0,0,0,0,0,0,0,0,0,0,0,0,0,0,0,0,0,0,0,0,0,0,0,0,0,0,0,0,0,0,0,0,0,0,0,0,0,0,0,0,0,0,0,0,0,0,0,0,0,0,0,0,0,0,0,0,0,0,0,0,0,0,0,0,0,0,0,0,0,0,0,0,0,0,0,0,0,0],"sum_hessian":[9.892424E2,8.130161E2,1.762263E2,7.786242E2,3.439187E1,1.4318404E2,3.304227E1,6.6239557E2,1.16228645E2,2.3181942E1,1.1209927E1,1.3786201E2,5.322028E0,2.7464064E1,5.5782046E0,5.659603E2,9.643526E1,1.0648473E2,9.743915E0,2.0978258E1,2.2036834E0,7.933945E0,3.2759817E0,1.1291062E2,2.495139E1,4.0906715E0,1.231357E0,2.407396E1,3.3901048E0,4.3339148E0,1.2442899E0,5.533112E2,1.2649103E1,9.466665E1,1.7686071E0,9.4015755E1,1.2468979E1,7.545008E0,2.1989067E0,1.8870617E1,2.1076412E0,1.151267E0,1.0524163E0,5.6006618E0,2.3332837E0,2.1960316E0,1.0799502E0,9.938987E1,1.3520747E1,2.1148342E1,3.8030467E0,2.8692086E0,1.2214627E0,2.2648684E1,1.4252766E0,2.156908E0,1.2331966E0,3.1472418E0,1.1866728E0,5.2010046E2,3.3210728E1,1.1009203E1,1.6399E0,9.174599E1,2.920659E0,8.976487E1,4.250887E0,2.6077323E0,9.861246E0,6.4099817E0,1.1350263E0,1.012138E0,1.1867687E0,1.5158941E1,3.7116761E0,1.0962827E0,1.0113584E0,4.480092E0,1.1205693E0,9.7080284E1,2.309588E0,1.1454805E1,2.0659418E0,1.9375305E1,1.7730371E0,2.5895498E0,1.2134968E0,2.0178679E1,2.470004E0],"tree_param":{"num_deleted":"0","num_feature":"618","num_nodes":"89","size_leaf_vector":"0"}},{"base_weights":[2.953651E-3,2.2228103E-2,-6.9090974E-1,-1.5911514E-2,3.816969E-1,-8.1781965E-1,3.9357916E-1,1.1567992E-2,-5.8018404E-1,4.9959755E-1,-5.554278E-1,-9.658365E-1,3.6200738E-1,-1.3309318E-1,7.200908E-1,5.1870123E-2,-3.928465E-1,-6.564952E-1,8.0900675E-1,5.953955E-1,-6.687957E-1,-9.347003E-1,5.006114E-1,-1.0633523E0,9.0721905E-2,-2.4392617E-1,7.751099E-1,8.756098E-2,-3.9817837E-1,-4.6493995E-1,1.0017112E0,-7.6195425E-1,3.592686E-1,6.717787E-1,-7.92015E-1,-1.0487257E0,7.100284E-1,-1.3232307E0,1.6427477E-1,-5.2277166E-2,8.2984495E-1,-1.1393305E0,1.4140914E-1,1.5069152E-1,-2.1933295E-1,-4.8165262E-1,7.9995584E-1,-6.2812966E-1,8.4683895E-2,-8.310659E-1,7.396104E-1,-2.0304559E-1,9.875719E-1,7.721847E-1,-1.7734326E-1,-1.1900494E0,2.680137E-1,-1.2594827E0,-6.108753E-2,-1.5027871E0,-2.4656491E-1,2.8106356E-1,-3.4854542E-2,-1.1773015E0,-2.6866725E-1],"categories":[],"categories_nodes":[],"categories_segments":[],"categories_sizes":[],"default_left":[true,true,true,true,true,true,true,true,true,true,true,true,true,false,false,true,true,true,false,true,true,true,true,true,false,false,false,true,true,true,false,true,true,true,true,true,false,true,true,false,false,true,false,false,false,false,false,false,false,false,false,false,false,false,false,false,false,false,false,false,false,false,false,false,false],"id":16,"left_children":[1,3,5,7,9,11,13,15,17,19,21,23,25,-1,-1,27,29,31,-1,33,35,37,39,41,-1,-1,-1,43,45,47,-1,49,51,53,55,57,-1,59,61,-1,-1,63,-1,-1,-1,-1,-1,-1,-1,-1,-1,-1,-1,-1,-1,-1,-1,-1,-1,-1,-1,-1,-1,-1,-1],"loss_changes":[1.2976095E1,1.2946773E1,3.9311476E0,1.325354E1,1.0285467E1,4.506212E0,6.843728E-1,1.3313907E1,4.7388353E0,9.462723E0,4.711902E0,2.3034992E0,1.0352697E0,0E0,0E0,1.1962717E1,7.9087267E0,4.3632927E0,0E0,8.520054E0,4.2061586E0,3.695105E0,6.715925E-1,1.9634132E0,0E0,0E0,0E0,1.3378923E1,5.8603754E0,6.4281397E0,0E0,4.2370872E0,1.7092593E0,6.27409E0,2.1721382E0,1.0853949E0,0E0,8.141222E-1,7.995911E-2,0E0,0E0,2.9966736E-1,0E0,0E0,0E0,0E0,0E0,0E0,0E0,0E0,0E0,0E0,0E0,0E0,0E0,0E0,0E0,0E0,0E0,0E0,0E0,0E0,0E0,0E0,0E0],"parents":[2147483647,0,0,1,1,2,2,3,3,4,4,5,5,6,6,7,7,8,8,9,9,10,10,11,11,12,12,15,15,16,16,17,17,19,19,20,20,21,21,22,22,23,23,27,27,28,28,29,29,31,31,32,32,33,33,34,34,35,35,37,37,38,38,41,41],"right_children":[2,4,6,8,10,12,14,16,18,20,22,24,26,-1,-1,28,30,32,-1,34,36,38,40,42,-1,-1,-1,44,46,48,-1,50,52,54,56,58,-1,60,62,-1,-1,64,-1,-1,-1,-1,-1,-1,-1,-1,-1,-1,-1,-1,-1,-1,-1,-1,-1,-1,-1,-1,-1,-1,-1],"split_conditions":[2.7285886E-1,6.303017E-2,6.014365E-2,1.7648649E-1,6.0804777E-2,2.5170147E-2,2.3398459E-2,1.0563744E-1,1.8897644E-1,7.542819E-2,5.253217E-2,6.803716E-2,2.6125483E-2,-3.9927956E-2,2.1602724E-1,1.2188884E-1,7.586713E-2,6.629683E-2,2.4270204E-1,8.232344E-2,3.8418375E-2,1.8471565E-2,4.661159E-2,7.258037E-2,2.7216572E-2,-7.317785E-2,2.3253298E-1,5.2671537E-2,7.3479645E-2,6.169235E-2,3.005134E-1,6.926792E-2,2.6451495E-2,6.551086E-2,1.1730247E-1,3.0569617E-2,2.1300854E-1,5.133327E-2,4.174468E-2,-1.568315E-2,2.4895349E-1,5.7256833E-2,4.2422745E-2,4.520746E-2,-6.5799884E-2,-1.4449579E-1,2.3998676E-1,-1.884389E-1,2.540517E-2,-2.4931978E-1,2.2188312E-1,-6.091368E-2,2.962716E-1,2.3165543E-1,-5.3202983E-2,-3.5701483E-1,8.040411E-2,-3.7784484E-1,-1.832626E-2,-4.5083615E-1,-7.3969476E-2,8.431907E-2,-1.0456363E-2,-3.5319048E-1,-8.060018E-2],"split_indices":[173,58,578,293,304,402,378,294,175,529,551,13,175,0,0,284,460,254,0,103,13,252,414,313,0,0,0,59,429,176,0,400,617,107,58,564,0,14,279,0,0,119,0,0,0,0,0,0,0,0,0,0,0,0,0,0,0,0,0,0,0,0,0,0,0],"split_type":[0,0,0,0,0,0,0,0,0,0,0,0,0,0,0,0,0,0,0,0,0,0,0,0,0,0,0,0,0,0,0,0,0,0,0,0,0,0,0,0,0,0,0,0,0,0,0,0,0,0,0,0,0,0,0,0,0,0,0,0,0,0,0,0,0],"sum_hessian":[9.681114E2,9.428874E2,2.522399E1,8.533073E2,8.958011E1,2.280158E1,2.4224102E0,8.1461584E2,3.8691475E1,7.998411E1,9.596E0,2.0421007E1,2.3805726E0,1.153753E0,1.2686573E0,7.415846E2,7.303124E1,3.7176704E1,1.5147697E0,7.437632E1,5.607788E0,7.1448526E0,2.4511473E0,1.8689608E1,1.7314003E0,1.1310657E0,1.2495068E0,6.878411E2,5.3743435E1,7.007522E1,2.9560244E0,3.3906338E1,3.270367E0,7.098413E1,3.3921924E0,4.58407E0,1.023718E0,5.1278863E0,2.0169663E0,1.2288052E0,1.2223421E0,1.7631958E1,1.0576485E0,5.709094E2,1.1693169E2,5.0802044E1,2.941391E0,5.392224E1,1.6152979E1,3.2841305E1,1.0650334E0,2.0829864E0,1.1873806E0,6.355907E1,7.4250565E0,2.3769894E0,1.015203E0,3.551047E0,1.0330229E0,4.055731E0,1.0721556E0,1.0119803E0,1.0049859E0,1.6557665E1,1.0742933E0],"tree_param":{"num_deleted":"0","num_feature":"618","num_nodes":"65","size_leaf_vector":"0"}},{"base_weights":[1.4725053E-3,-5.2275892E-2,2.4100932E-1,-8.027944E-2,5.617372E-1,1.820575E-1,8.389275E-1,-2.6750444E-2,-3.6854133E-1,6.982195E-1,-1.6987492E-1,2.5068852E-1,-3.5601747E-1,9.927669E-1,-2.952424E-1,-8.032711E-2,4.1214514E-1,-4.4756433E-1,6.2382114E-1,8.0525607E-1,-5.4640925E-1,