{"learner":{"attributes":{"best_iteration":"99","best_ntree_limit":"100","scikit_learn":"{\"use_label_encoder\": true, \"n_estimators\": 100, \"objective\": \"binary:logistic\", \"max_depth\": null, \"learning_rate\": null, \"verbosity\": null, \"booster\": null, \"tree_method\": null, \"gamma\": null, \"min_child_weight\": null, \"max_delta_step\": null, \"subsample\": null, \"colsample_bytree\": null, \"colsample_bylevel\": null, \"colsample_bynode\": null, \"reg_alpha\": null, \"reg_lambda\": null, \"scale_pos_weight\": null, \"base_score\": null, \"missing\": NaN, \"num_parallel_tree\": null, \"random_state\": null, \"n_jobs\": null, \"monotone_constraints\": null, \"interaction_constraints\": null, \"importance_type\": null, \"gpu_id\": null, \"validate_parameters\": null, \"predictor\": null, \"enable_categorical\": false, \"classes_\": [0, 1], \"n_classes_\": 2, \"_le\": {\"classes_\": [0, 1]}, \"_estimator_type\": \"classifier\"}"},"feature_names":[],"feature_types":[],"gradient_booster":{"model":{"gbtree_model_param":{"num_trees":"100","size_leaf_vector":"0"},"tree_info":[0,0,0,0,0,0,0,0,0,0,0,0,0,0,0,0,0,0,0,0,0,0,0,0,0,0,0,0,0,0,0,0,0,0,0,0,0,0,0,0,0,0,0,0,0,0,0,0,0,0,0,0,0,0,0,0,0,0,0,0,0,0,0,0,0,0,0,0,0,0,0,0,0,0,0,0,0,0,0,0,0,0,0,0,0,0,0,0,0,0,0,0,0,0,0,0,0,0,0,0],"trees":[{"base_weights":[-0E0,4.1568846E-1,-9.4033116E-1,6.344585E-1,-9.617706E-1,-1.0488126E0,9.82659E-1,8.339823E-1,-1.2330579E0,-2.9007635E-1,-1.3917356E0,-7.4509805E-1,-1.51E0,1.4557823E0,-1.4666667E0,1.0261966E0,-8.630849E-1,-1.337931E0,1.0344827E0,1.6470589E-1,-1.0985916E0,-1.5017301E0,8.3870965E-1,-9.056365E-1,2.3754789E-1,-1.5514334E0,1.5555556E0,1.9338843E0,-6.666667E-1,8.458656E-1,1.6920222E0,-1.0367647E0,1.7837838E0,-1.4495413E0,3.5897437E-1,1.6666666E0,-1.1111112E0,5.221675E-1,-1.1428572E0,-1.4333333E0,6.1538464E-1,-1.5721925E0,6.666667E-1,1.6666666E0,-1.2727273E0,-1.1652174E0,-2.078522E-1,7.4747473E-1,-1.2835821E0,-1.5846808E0,1.4666667E0,1.3333334E0,-1.6363636E0,9.0974545E-1,-1.2881356E0,1.7426679E0,-7.2E-1,-1.2616633E0,1.0545454E0,-1.566075E0,9.52381E-2,1.6666666E0,-1.3684211E0,9.798658E-1,-6.896552E-1,-1.52E0,1.2E0,-1.6140351E0,1.2E0,1.5789474E0,-1.2727273E0,-1.6173285E0,1.2727273E0,1.5E0,-1.1111112E0,-1.2098765E0,1.6E0,-3.9E-1,1.7837838E0,1.1463414E0,-1.0526316E0,-1.6065574E0,1.2E0,-1.6123499E0,1.3846154E0],"categories":[],"categories_nodes":[],"categories_segments":[],"categories_sizes":[],"default_left":[true,true,true,true,true,true,true,true,true,true,true,true,true,true,false,true,true,true,true,true,true,true,true,true,true,true,false,false,true,true,true,true,false,true,true,false,false,true,true,true,true,true,true,false,false,true,true,true,true,true,false,false,false,false,false,false,false,false,false,false,false,false,false,false,false,false,false,false,false,false,false,false,false,false,false,false,false,false,false,false,false,false,false,false,false],"id":0,"left_children":[1,3,5,7,9,11,13,15,17,19,21,23,25,27,-1,29,31,33,35,37,39,41,43,45,47,49,-1,-1,51,53,55,57,-1,59,61,-1,-1,63,65,67,69,71,73,-1,-1,75,77,79,81,83,-1,-1,-1,-1,-1,-1,-1,-1,-1,-1,-1,-1,-1,-1,-1,-1,-1,-1,-1,-1,-1,-1,-1,-1,-1,-1,-1,-1,-1,-1,-1,-1,-1,-1,-1],"loss_changes":[1.0204047E3,5.461232E2,1.6796991E2,5.833309E2,7.1364334E1,1.05047485E2,5.225468E1,4.6164404E2,3.7351944E1,3.6307304E1,3.83667E1,7.262352E1,4.051825E1,3.8581215E1,0E0,1.5096631E2,6.8162186E1,2.7982178E1,1.1685822E1,3.0393742E1,2.1249802E1,2.3126373E1,1.56696E1,7.125946E1,5.1571587E1,3.2076233E1,0E0,0E0,1.6727272E1,1.3759381E2,3.4176453E1,6.529573E1,0E0,2.4676727E1,2.4304993E1,0E0,0E0,2.8824217E1,1.4194284E1,1.6212276E1,1.3835112E1,2.0067688E1,9.444445E0,0E0,0E0,3.743979E1,3.996576E1,3.6747803E1,1.536364E1,2.6366272E1,0E0,0E0,0E0,0E0,0E0,0E0,0E0,0E0,0E0,0E0,0E0,0E0,0E0,0E0,0E0,0E0,0E0,0E0,0E0,0E0,0E0,0E0,0E0,0E0,0E0,0E0,0E0,0E0,0E0,0E0,0E0,0E0,0E0,0E0,0E0],"parents":[2147483647,0,0,1,1,2,2,3,3,4,4,5,5,6,6,7,7,8,8,9,9,10,10,11,11,12,12,13,13,15,15,16,16,17,17,18,18,19,19,20,20,21,21,22,22,23,23,24,24,25,25,28,28,29,29,30,30,31,31,33,33,34,34,37,37,38,38,39,39,40,40,41,41,42,42,45,45,46,46,47,47,48,48,49,49],"right_children":[2,4,6,8,10,12,14,16,18,20,22,24,26,28,-1,30,32,34,36,38,40,42,44,46,48,50,-1,-1,52,54,56,58,-1,60,62,-1,-1,64,66,68,70,72,74,-1,-1,76,78,80,82,84,-1,-1,-1,-1,-1,-1,-1,-1,-1,-1,-1,-1,-1,-1,-1,-1,-1,-1,-1,-1,-1,-1,-1,-1,-1,-1,-1,-1,-1,-1,-1,-1,-1,-1,-1],"split_conditions":[2.0783637E-2,7.257044E-2,7.7461556E-2,1.4318708E-1,1.4143172E-1,1.5983397E-1,7.93333E-2,8.342822E-2,8.417802E-2,1.519157E-2,5.635605E-2,4.3789662E-2,1.0693169E-1,6.236741E-2,-4.4000003E-1,3.6561377E-2,5.196468E-2,5.5457134E-2,1.6335316E-1,5.253701E-2,4.7783613E-2,6.464183E-2,1.1787403E-1,4.8508376E-2,5.320088E-2,1.1358348E-1,4.666667E-1,5.801653E-1,5.082784E-2,1.7239484E-1,2.5234658E-1,4.961881E-2,5.3513515E-1,5.2045137E-2,3.1884784E-1,5E-1,-3.3333337E-1,4.1197773E-2,2.5570296E-2,5.8270343E-2,7.624416E-2,1.7861006E-1,8.074356E-2,5E-1,-3.818182E-1,1.3599017E-1,5.738444E-2,7.827951E-2,2.1135144E-2,1.2311171E-1,4.4000003E-1,4.0000004E-1,-4.909091E-1,2.7292365E-1,-3.8644072E-1,5.228004E-1,-2.1600002E-1,-3.78499E-1,3.1636363E-1,-4.698225E-1,2.857143E-2,5E-1,-4.1052634E-1,2.9395974E-1,-2.0689656E-1,-4.56E-1,3.6E-1,-4.8421055E-1,3.6E-1,4.7368425E-1,-3.818182E-1,-4.851986E-1,3.818182E-1,4.5000002E-1,-3.3333337E-1,-3.6296296E-1,4.8000002E-1,-1.17E-1,5.3513515E-1,3.4390244E-1,-3.157895E-1,-4.8196724E-1,3.6E-1,-4.8370498E-1,4.1538465E-1],"split_indices":[294,291,275,293,291,294,490,290,277,263,275,277,284,438,0,277,331,173,28,411,500,397,53,173,440,285,0,0,6,175,230,277,0,167,293,0,0,261,178,568,118,173,27,0,0,150,395,359,198,168,0,0,0,0,0,0,0,0,0,0,0,0,0,0,0,0,0,0,0,0,0,0,0,0,0,0,0,0,0,0,0,0,0,0,0],"split_type":[0,0,0,0,0,0,0,0,0,0,0,0,0,0,0,0,0,0,0,0,0,0,0,0,0,0,0,0,0,0,0,0,0,0,0,0,0,0,0,0,0,0,0,0,0,0,0,0,0,0,0,0,0,0,0,0,0,0,0,0,0,0,0,0,0,0,0,0,0,0,0,0,0,0,0,0,0,0,0,0,0,0,0,0,0],"sum_hessian":[2.6085E3,1.80925E3,7.9925E2,1.56175E3,2.475E2,7.57E2,4.225E1,1.4115E3,1.5025E2,9.725E1,1.5025E2,4.58E2,2.99E2,3.575E1,6.5E0,1.26825E3,1.4325E2,1.44E2,6.25E0,6.275E1,3.45E1,1.435E2,6.75E0,3.9375E2,6.425E1,2.955E2,3.5E0,2.925E1,6.5E0,9.9975E2,2.685E2,1.35E2,8.25E0,1.3525E2,8.75E0,5E0,1.25E0,4.975E1,1.3E1,2.9E1,5.5E0,1.3925E2,4.25E0,5E0,1.75E0,2.865E2,1.0725E2,4.85E1,1.575E1,2.9275E2,2.75E0,2E0,4.5E0,9.7125E2,2.85E1,2.6325E2,5.25E0,1.2225E2,1.275E1,1.2575E2,9.5E0,5E0,3.75E0,3.625E1,1.35E1,1.15E1,1.5E0,2.75E1,1.5E0,3.75E0,1.75E0,1.375E2,1.75E0,3E0,1.25E0,2.825E2,4E0,9.9E1,8.25E0,4E1,8.5E0,1.425E1,1.5E0,2.905E2,2.25E0],"tree_param":{"num_deleted":"0","num_feature":"618","num_nodes":"85","size_leaf_vector":"0"}},{"base_weights":[1.4617243E-4,3.023564E-1,-6.88278E-1,5.0202084E-1,-5.4736555E-1,-8.0043864E-1,3.9236704E-1,6.2701976E-1,-1.0148156E0,-6.5099776E-1,1.20227E0,-8.8730764E-1,2.9244444E-1,6.9632727E-1,-9.407311E-1,7.353492E-1,-7.860023E-1,-1.1061536E0,9.899854E-1,-7.3959345E-1,1.1790731E0,1.7488734E0,-1.226513E0,-9.363045E-1,1.0679102E0,-4.9947283E-1,1.5631822E0,1.2411958E0,-5.0045514E-1,-1.3130282E0,1.1632303E0,6.039676E-1,1.520812E0,-9.411118E-1,1.7220151E0,-1.1704606E0,1.5515958E0,1.745483E0,-8.7422204E-1,-8.737197E-1,4.4940314E-1,1.7054455E0,-5.021673E-1,-9.7081345E-1,1.7102348E0,1.8652987E0,-8.989588E-1,5.878659E-1,-1.2246425E0,1.8026443E0,-9.4729745E-1,1.5512679E0,-1.4907026E0,-8.788912E-1,1.2870021E0,-1.4683714E0,-2.8927872E-1,6.5830994E-1,-1.384213E0,1.5722432E0,-1.1005685E0,-1.1352234E0,1.2399737E0,-1.2243042E0,1.0860755E0,-9.957508E-1,2.2968468E-1,1.1758895E0,-1.0609839E0,1.9208914E-1,-1.0134495E0,-1.0141346E0,1.0860358E0,4.2789713E-2,-1.2612101E0,1.8424382E0,-8.06361E-1,-1.4959505E0,1.3158786E0,1.907987E0,1.5441583E-1,1.7318081E0,-2.3742962E-1,-1.156335E0,1.032255E0],"categories":[],"categories_nodes":[],"categories_segments":[],"categories_sizes":[],"default_left":[true,true,true,true,true,true,true,true,true,true,true,true,true,true,true,true,true,true,true,true,true,false,false,true,true,true,true,true,true,true,false,true,true,true,false,true,false,false,false,true,true,false,true,true,false,false,true,true,true,true,false,true,false,true,false,false,false,false,false,false,false,false,false,false,false,false,false,false,false,false,false,false,false,false,false,false,false,false,false,false,false,false,false,false,false],"id":1,"left_children":[1,3,5,7,9,11,13,15,17,19,21,23,25,27,29,31,33,35,37,39,41,-1,-1,43,45,47,49,51,53,55,-1,57,59,61,-1,63,-1,-1,-1,65,67,-1,69,71,-1,-1,73,75,77,79,-1,81,-1,83,-1,-1,-1,-1,-1,-1,-1,-1,-1,-1,-1,-1,-1,-1,-1,-1,-1,-1,-1,-1,-1,-1,-1,-1,-1,-1,-1,-1,-1,-1,-1],"loss_changes":[5.238125E2,2.9712048E2,9.340982E1,2.6935608E2,6.1231033E1,6.635373E1,3.0192474E1,2.0110095E2,2.0923515E1,5.2007996E1,2.7360474E1,6.2806946E1,5.3123997E1,3.9703682E1,1.246219E1,1.2469385E2,3.8095924E1,1.9597443E1,8.914621E0,4.846495E1,1.4085436E1,0E0,0E0,5.919153E1,2.7146353E1,2.6584782E1,1.3858459E1,3.7442352E1,1.4296566E1,1.5362434E0,0E0,1.1375729E2,2.5157837E1,3.906604E1,0E0,1.3740967E1,0E0,0E0,0E0,3.6748672E1,3.5501892E1,0E0,1.7340797E0,5.6565857E1,0E0,0E0,1.8823009E0,2.5623411E1,1.5755667E1,2.9690056E0,0E0,1.2596779E1,0E0,1.0025464E1,0E0,0E0,0E0,0E0,0E0,0E0,0E0,0E0,0E0,0E0,0E0,0E0,0E0,0E0,0E0,0E0,0E0,0E0,0E0,0E0,0E0,0E0,0E0,0E0,0E0,0E0,0E0,0E0,0E0,0E0,0E0],"parents":[2147483647,0,0,1,1,2,2,3,3,4,4,5,5,6,6,7,7,8,8,9,9,10,10,11,11,12,12,13,13,14,14,15,15,16,16,17,17,18,18,19,19,20,20,23,23,24,24,25,25,26,26,27,27,28,28,29,29,31,31,32,32,33,33,35,35,39,39,40,40,42,42,43,43,46,46,47,47,48,48,49,49,51,51,53,53],"right_children":[2,4,6,8,10,12,14,16,18,20,22,24,26,28,30,32,34,36,38,40,42,-1,-1,44,46,48,50,52,54,56,-1,58,60,62,-1,64,-1,-1,-1,66,68,-1,70,72,-1,-1,74,76,78,80,-1,82,-1,84,-1,-1,-1,-1,-1,-1,-1,-1,-1,-1,-1,-1,-1,-1,-1,-1,-1,-1,-1,-1,-1,-1,-1,-1,-1,-1,-1,-1,-1,-1,-1],"split_conditions":[2.0783637E-2,5.8966298E-2,5.6610737E-2,1.3829182E-1,7.433319E-2,1.4267737E-1,2.7009127E-1,1.2073494E-1,6.350556E-2,6.809071E-2,4.4149226E-1,1.2283088E-1,1.7989958E-2,4.1026413E-2,1.654798E-2,5.4146826E-2,5.375976E-2,2.85686E-2,8.891828E-2,7.77344E-2,3.4898344E-2,5.24662E-1,-3.6795393E-1,1.4275947E-1,1.2123535E-1,1.4954307E-2,8.937374E-2,1.4825825E-1,2.4355207E-2,1.2694642E-2,3.489691E-1,1.7820162E-1,2.620054E-1,5.3453915E-2,5.1660454E-1,1.4794461E-1,4.6547875E-1,5.236449E-1,-2.6226664E-1,5.681924E-2,2.3953995E-2,5.116337E-1,3.6519065E-2,1.2693682E-1,5.1307046E-1,5.595896E-1,3.208539E-2,4.360985E-2,5.0634883E-2,6.9328845E-2,-2.8418925E-1,8.630303E-2,-4.4721082E-1,2.9034786E-2,3.8610065E-1,-4.4051144E-1,-8.678362E-2,1.9749299E-1,-4.1526392E-1,4.7167298E-1,-3.3017057E-1,-3.4056702E-1,3.719921E-1,-3.6729127E-1,3.2582268E-1,-2.9872525E-1,6.8905406E-2,3.5276687E-1,-3.1829518E-1,5.7626743E-2,-3.040349E-1,-3.042404E-1,3.2581076E-1,1.28369145E-2,-3.7836304E-1,5.527315E-1,-2.4190831E-1,-4.4878516E-1,3.9476362E-1,5.723961E-1,4.6324752E-2,5.1954246E-1,-7.122889E-2,-3.4690052E-1,3.0967653E-1],"split_indices":[294,293,275,291,168,173,294,290,265,411,293,285,372,8,287,284,563,451,24,173,154,0,0,277,546,476,433,237,575,475,0,178,295,167,0,173,0,0,0,277,114,0,2,284,0,0,75,365,469,308,0,468,0,397,0,0,0,0,0,0,0,0,0,0,0,0,0,0,0,0,0,0,0,0,0,0,0,0,0,0,0,0,0,0,0],"split_type":[0,0,0,0,0,0,0,0,0,0,0,0,0,0,0,0,0,0,0,0,0,0,0,0,0,0,0,0,0,0,0,0,0,0,0,0,0,0,0,0,0,0,0,0,0,0,0,0,0,0,0,0,0,0,0,0,0,0,0,0,0,0,0,0,0,0,0,0,0,0,0,0,0,0,0,0,0,0,0,0,0,0,0,0,0],"sum_hessian":[2.515738E3,1.7486583E3,7.6707983E2,1.4162762E3,3.3238202E2,6.9518555E2,7.189431E1,1.308992E3,1.0728434E2,3.143885E2,1.799354E1,6.44171E2,5.1014538E1,5.8934334E1,1.2959978E1,1.2162292E3,9.276272E1,1.030382E2,4.246137E0,3.0043973E2,1.3948745E1,1.4916489E1,3.0770516E0,6.289314E2,1.5239603E1,3.1802393E1,1.9212145E1,4.0471462E1,1.846287E1,1.1330895E1,1.6290827E0,1.0434619E3,1.7276724E2,8.794828E1,4.814443E0,1.0115037E2,1.8878329E0,3.066912E0,1.1792252E0,2.7022214E2,3.0217585E1,1.061191E1,3.3368347E0,6.214612E2,7.4702287E0,1.0880271E1,4.3593316E0,1.279963E1,1.9002764E1,1.7796572E1,1.4155724E0,3.673427E1,3.7371957E0,1.565643E1,2.8064406E0,9.460984E0,1.8699116E0,1.01635126E3,2.7110706E1,1.6983531E2,2.9319315E0,8.120108E1,6.7471967E0,9.923983E1,1.9105377E0,2.4340079E2,2.682136E1,2.0553127E1,9.664456E0,1.6799606E0,1.6568741E0,6.091385E2,1.2322671E1,1.4560087E0,2.903323E0,6.568024E0,6.2316055E0,1.7540716E1,1.4620482E0,1.6579342E1,1.21723E0,3.3395348E1,3.338918E0,1.4016577E1,1.6398535E0],"tree_param":{"num_deleted":"0","num_feature":"618","num_nodes":"85","size_leaf_vector":"0"}},{"base_weights":[7.3024596E-4,2.2657129E-1,-5.249537E-1,3.5744306E-1,-6.2292165E-1,-2.6576874E-1,-8.843279E-1,4.6297318E-1,-8.9101833E-1,-6.977804E-1,1.3279349E0,-3.661999E-1,9.514198E-1,-9.966167E-1,-1.3452367E-1,5.353574E-1,-1.0442597E0,-9.551502E-1,1.7313172E0,-7.602201E-1,1.0102047E0,1.7134491E0,-7.298284E-1,-4.1762638E-1,2.0524006E0,1.8607991E0,-5.4650545E-2,-1.0225153E0,1.7846767E0,-3.761812E-1,1.803482E0,3.9663637E-1,1.1611167E0,-1.1809462E0,1.6424747E0,-1.0197976E0,1.5352715E0,-8.330558E-1,5.709977E-1,1.5423985E0,-1.0373054E0,-2.8873754E-1,-1.294928E0,-5.283435E-1,1.6229796E0,-1.0453634E0,1.7259617E0,-6.001487E-1,1.623125E0,2.5951084E-1,1.0963496E0,1.2368054E0,-1.4927714E0,-1.2526466E0,1.3123567E0,-1.1330642E0,3.6277333E-1,-8.7132794E-1,1.4770664E0,1.6005045E0,-1.0253532E0,-4.31514E-1,7.067677E-1,-1.4265239E0,1.1859415E0,-9.449758E-1,1.2557518E0,-1.0724958E0,1.2800567E0,-7.913588E-1,1.6190807E0],"categories":[],"categories_nodes":[],"categories_segments":[],"categories_sizes":[],"default_left":[true,true,true,true,true,true,true,true,true,true,true,true,true,true,true,true,true,true,false,true,true,false,false,true,false,false,true,true,false,true,false,true,true,true,false,true,false,true,true,false,false,true,true,true,false,true,false,true,false,false,false,false,false,false,false,false,false,false,false,false,false,false,false,false,false,false,false,false,false,false,false],"id":2,"left_children":[1,3,5,7,9,11,13,15,17,19,21,23,25,27,29,31,33,35,-1,37,39,-1,-1,41,-1,-1,43,45,-1,47,-1,49,51,53,-1,55,-1,57,59,-1,-1,61,63,65,-1,67,-1,69,-1,-1,-1,-1,-1,-1,-1,-1,-1,-1,-1,-1,-1,-1,-1,-1,-1,-1,-1,-1,-1,-1,-1],"loss_changes":[2.8129553E2,1.8447867E2,6.608606E1,1.8970432E2,3.3290215E1,5.1092476E1,2.4949081E1,1.4516272E2,2.0543442E1,2.3598381E1,8.020428E0,4.8642456E1,2.930345E1,2.0477997E1,1.9393215E1,1.09379364E2,2.4368896E1,1.9321465E1,0E0,2.0555786E1,1.0294962E1,0E0,0E0,4.22574E1,0E0,0E0,1.3671621E1,1.7956116E1,0E0,1.7254215E1,0E0,9.923912E1,4.786322E1,1.2137764E1,0E0,1.7338722E1,0E0,1.8683212E1,2.0272125E1,0E0,0E0,4.7211166E1,1.7364983E1,1.1094101E1,0E0,1.750653E1,0E0,1.5464768E1,0E0,0E0,0E0,0E0,0E0,0E0,0E0,0E0,0E0,0E0,0E0,0E0,0E0,0E0,0E0,0E0,0E0,0E0,0E0,0E0,0E0,0E0,0E0],"parents":[2147483647,0,0,1,1,2,2,3,3,4,4,5,5,6,6,7,7,8,8,9,9,10,10,11,11,12,12,13,13,14,14,15,15,16,16,17,17,19,19,20,20,23,23,26,26,27,27,29,29,31,31,32,32,33,33,35,35,37,37,38,38,41,41,42,42,43,43,45,45,47,47],"right_children":[2,4,6,8,10,12,14,16,18,20,22,24,26,28,30,32,34,36,-1,38,40,-1,-1,42,-1,-1,44,46,-1,48,-1,50,52,54,-1,56,-1,58,60,-1,-1,62,64,66,-1,68,-1,70,-1,-1,-1,-1,-1,-1,-1,-1,-1,-1,-1,-1,-1,-1,-1,-1,-1,-1,-1,-1,-1,-1,-1],"split_conditions":[2.0783637E-2,7.257044E-2,1.4568856E-1,1.7723529E-1,6.535894E-2,5.304498E-2,7.1896926E-2,1.8830279E-1,6.534843E-2,1.4901038E-1,1.00886896E-1,2.1485658E-1,8.05749E-2,8.223579E-2,2.163823E-2,4.9138986E-2,1.0052542E-1,6.589479E-2,5.193952E-1,6.9851846E-2,1.1960304E-1,5.1403475E-1,-2.1894853E-1,2.1220216E-1,6.157202E-1,5.5823976E-1,2.3101019E-2,1.1045625E-1,5.35403E-1,2.3555484E-2,5.4104465E-1,4.691986E-2,2.0404747E-1,6.725147E-2,4.9274242E-1,5.092244E-2,4.6058148E-1,9.178689E-2,6.210567E-2,4.6271956E-1,-3.1119162E-1,4.123559E-2,1.0391961E-1,2.465961E-2,4.8689392E-1,1.2221889E-1,5.177885E-1,1.9408789E-2,4.869375E-1,7.7853255E-2,3.289049E-1,3.7104166E-1,-4.4783142E-1,-3.75794E-1,3.9370704E-1,-3.3991927E-1,1.08832E-1,-2.613984E-1,4.4311994E-1,4.8015139E-1,-3.0760598E-1,-1.2945421E-1,2.120303E-1,-4.279572E-1,3.5578245E-1,-2.8349274E-1,3.7672558E-1,-3.2174876E-1,3.8401702E-1,-2.3740765E-1,4.857242E-1],"split_indices":[294,291,294,293,267,446,167,290,91,277,62,172,294,444,89,277,363,275,0,174,4,0,0,291,0,0,284,465,0,188,0,275,496,183,0,44,0,132,250,0,0,275,198,246,0,168,0,486,0,0,0,0,0,0,0,0,0,0,0,0,0,0,0,0,0,0,0,0,0,0,0],"split_type":[0,0,0,0,0,0,0,0,0,0,0,0,0,0,0,0,0,0,0,0,0,0,0,0,0,0,0,0,0,0,0,0,0,0,0,0,0,0,0,0,0,0,0,0,0,0,0,0,0,0,0,0,0,0,0,0,0,0,0,0,0,0,0,0,0,0,0,0,0,0,0],"sum_hessian":[2.3673809E3,1.6563564E3,7.110245E2,1.4357465E3,2.2060999E2,4.1410587E2,2.9691858E2,1.3244244E3,1.1132199E2,2.130761E2,7.533881E0,3.831879E2,3.0917992E1,2.5795822E2,3.896036E1,1.2643495E3,6.0075054E1,1.0928507E2,2.036913E0,2.0609662E2,6.9794874E0,6.4860654E0,1.0478157E0,3.7601993E2,7.167947E0,1.579313E1,1.5124862E1,2.562049E2,1.7533383E0,3.5357403E1,3.6029599E0,1.0362605E3,2.2808893E2,5.7700043E1,2.3750136E0,1.0709556E2,2.189517E0,1.957601E2,1.0336516E1,5.735419E0,1.2440683E0,3.290122E2,4.7007736E1,1.232879E1,2.7960718E0,2.5470717E2,1.4977301E0,3.24249E1,2.9325004E0,8.676037E2,1.686568E2,2.2228339E2,5.8055425E0,5.657082E1,1.1292208E0,9.9152954E1,7.942606E0,1.9318243E2,2.5776591E0,6.282349E0,4.0541677E0,2.8823917E2,4.077304E1,4.5043427E1,1.9643071E0,1.0376048E1,1.9527417E0,2.5230215E2,2.4050047E0,3.0445137E1,1.9797632E0],"tree_param":{"num_deleted":"0","num_feature":"618","num_nodes":"71","size_leaf_vector":"0"}},{"base_weights":[2.4048311E-3,-1.08115554E-1,6.7028165E-1,-2.14657E-1,6.075901E-1,8.564813E-1,-3.1083908E-2,-3.0459473E-1,7.417606E-1,7.851952E-1,-4.9874532E-1,9.721592E-1,-3.391466E-1,-3.389867E-1,1.3239017E0,-3.999561E-1,4.534827E-1,9.79354E-1,-6.852086E-1,9.1388917E-1,-5.255634E-1,-7.436724E-1,1.5142844E0,1.0320562E0,-1.6817756E0,4.9087214E-1,-1.7984338E0,1.9622626E-2,-1.6353084E0,-5.089465E-1,1.3027364E-1,6.981361E-1,-9.766039E-1,1.1079813E0,-1.2202175E0,-1.2493732E0,6.6130376E-1,1.0811576E0,-1.6084412E-1,-8.306255E-1,1.3805902E0,-9.62042E-1,1.1773045E0,1.1382269E0,-3.4741786E-1,-4.2468077E-1,-2.1483068E0,1.291505E0,-7.11678E-1,-9.1131437E-1,-2.8239145E0,5.4497015E-1,-1.0000628E0,-1.9434439E0,7.1530324E-1,-5.687793E-1,4.065855E-1,5.4074574E-1,-4.2009622E-1,1.005421E0,-2.1937475E-1,-1.4388125E0,1.1747369E0,1.1984775E0,-1.2758608E0,5.746826E-1,-2.0137777E0,-1.4946803E0,8.962792E-1,1.4134067E0,-8.4492576E-1,1.2813843E0,3.8672042E-1,4.6987337E-1,-1.4020907E0,-1.0381463E0,1.003131E0,-1.1415005E0,1.0248663E0,1.1960844E0,-3.9166456E-1,-8.1162155E-1,1.2973753E0,3.6504516E-1,-1.2303199E0,-2.2763596E-1,-1.1468344E0,9.814352E-1,-6.408479E-1,-1.2438563E0,8.392043E-1,-1.0146325E0,-2.7329874E0],"categories":[],"categories_nodes":[],"categories_segments":[],"categories_sizes":[],"default_left":[true,true,true,true,true,true,true,true,true,true,true,true,true,true,false,true,true,true,true,true,true,true,false,true,true,true,true,true,true,true,true,true,true,true,true,true,true,true,true,true,false,true,false,true,true,false,false,false,true,true,false,true,true,true,false,false,false,false,false,false,false,false,false,false,false,false,false,false,false,false,false,false,false,false,false,false,false,false,false,false,false,false,false,false,false,false,false,false,false,false,false,false,false],"id":3,"left_children":[1,3,5,7,9,11,13,15,17,19,21,23,25,27,-1,29,31,33,35,37,39,41,-1,43,45,47,49,51,53,55,57,59,61,63,65,67,69,71,73,75,-1,77,-1,79,81,-1,-1,-1,83,85,-1,87,89,91,-1,-1,-1,-1,-1,-1,-1,-1,-1,-1,-1,-1,-1,-1,-1,-1,-1,-1,-1,-1,-1,-1,-1,-1,-1,-1,-1,-1,-1,-1,-1,-1,-1,-1,-1,-1,-1,-1,-1],"loss_changes":[1.6400427E2,1.454984E2,4.1225006E1,1.4302676E2,4.8980057E1,3.481299E1,2.846248E1,1.09929886E2,4.914833E1,3.6488785E1,1.8292732E1,3.791356E1,2.842096E1,2.5836983E1,0E0,7.802721E1,6.019652E1,3.614811E1,1.6777012E1,3.5182816E1,1.2613579E1,1.4434998E1,0E0,3.308284E1,2.2565937E0,1.5628883E1,5.120531E0,2.4366701E1,1.0111023E1,6.154117E1,5.23708E1,4.1337265E1,2.681412E1,2.6708176E1,1.1513293E1,9.310417E0,8.958471E0,2.2953827E1,2.1873123E1,7.74784E0,0E0,1.1519192E1,0E0,1.8832672E1,1.3815836E1,0E0,0E0,0E0,4.2191486E0,7.068548E-1,0E0,1.6153889E1,7.9821053E0,5.230606E0,0E0,0E0,0E0,0E0,0E0,0E0,0E0,0E0,0E0,0E0,0E0,0E0,0E0,0E0,0E0,0E0,0E0,0E0,0E0,0E0,0E0,0E0,0E0,0E0,0E0,0E0,0E0,0E0,0E0,0E0,0E0,0E0,0E0,0E0,0E0,0E0,0E0,0E0,0E0],"parents":[2147483647,0,0,1,1,2,2,3,3,4,4,5,5,6,6,7,7,8,8,9,9,10,10,11,11,12,12,13,13,15,15,16,16,17,17,18,18,19,19,20,20,21,21,23,23,24,24,25,25,26,26,27,27,28,28,29,29,30,30,31,31,32,32,33,33,34,34,35,35,36,36,37,37,38,38,39,39,41,41,43,43,44,44,48,48,49,49,51,51,52,52,53,53],"right_children":[2,4,6,8,10,12,14,16,18,20,22,24,26,28,-1,30,32,34,36,38,40,42,-1,44,46,48,50,52,54,56,58,60,62,64,66,68,70,72,74,76,-1,78,-1,80,82,-1,-1,-1,84,86,-1,88,90,92,-1,-1,-1,-1,-1,-1,-1,-1,-1,-1,-1,-1,-1,-1,-1,-1,-1,-1,-1,-1,-1,-1,-1,-1,-1,-1,-1,-1,-1,-1,-1,-1,-1,-1,-1,-1,-1,-1,-1],"split_conditions":[5.0721582E-2,5.413984E-2,1.6153006E-2,6.015746E-2,8.580456E-2,1.07368976E-1,1.476433E-1,5.1760003E-2,7.034762E-2,1.22995764E-1,7.010787E-2,1.6315992E-1,2.562822E-2,1.8837221E-2,3.971705E-1,5.440122E-2,7.2204955E-2,1.00169644E-1,7.2058864E-2,6.76374E-2,2.4484731E-2,1.691187E-1,4.5428532E-1,1.7320439E-1,3.2481495E-2,6.0663477E-2,7.289174E-2,1.7492503E-2,3.820061E-2,6.001605E-2,1.7390471E-2,3.6775533E-2,1.1364055E-1,1.5693551E-1,2.713211E-2,2.7282158E-2,4.1926723E-2,4.5766547E-2,6.155687E-2,6.1751217E-2,4.141771E-1,6.0961984E-2,3.5319138E-1,1.5281409E-1,2.1225682E-2,-1.2740424E-1,-6.444921E-1,3.874515E-1,3.402106E-2,2.9845119E-2,-8.471744E-1,6.357825E-2,2.021714E-2,1.6937632E-2,2.1459098E-1,-1.706338E-1,1.2197566E-1,1.6222373E-1,-1.2602887E-1,3.0162632E-1,-6.5812424E-2,-4.3164375E-1,3.5242108E-1,3.5954326E-1,-3.8275826E-1,1.7240478E-1,-6.0413337E-1,-4.484041E-1,2.6888376E-1,4.2402205E-1,-2.5347775E-1,3.8441533E-1,1.1601613E-1,1.4096202E-1,-4.206272E-1,-3.114439E-1,3.0093932E-1,-3.4245014E-1,3.0745992E-1,3.5882533E-1,-1.17499374E-1,-2.4348648E-1,3.892126E-1,1.0951355E-1,-3.6909598E-1,-6.829079E-2,-3.4405032E-1,2.9443055E-1,-1.9225438E-1,-3.731569E-1,2.5176132E-1,-3.0438974E-1,-8.198963E-1],"split_indices":[277,284,60,285,178,502,277,275,463,291,188,614,474,183,0,173,367,4,548,286,178,284,0,291,18,322,45,528,591,168,176,490,275,613,382,72,0,463,471,173,0,253,0,139,293,0,0,0,225,6,0,573,587,199,0,0,0,0,0,0,0,0,0,0,0,0,0,0,0,0,0,0,0,0,0,0,0,0,0,0,0,0,0,0,0,0,0,0,0,0,0,0,0],"split_type":[0,0,0,0,0,0,0,0,0,0,0,0,0,0,0,0,0,0,0,0,0,0,0,0,0,0,0,0,0,0,0,0,0,0,0,0,0,0,0,0,0,0,0,0,0,0,0,0,0,0,0,0,0,0,0,0,0,0,0,0,0,0,0,0,0,0,0,0,0,0,0,0,0,0,0,0,0,0,0,0,0,0,0,0,0,0,0,0,0,0,0,0,0],"sum_hessian":[2.219877E3,1.9054077E3,3.1446912E2,1.6591267E3,2.46281E2,2.4832281E2,6.61463E1,1.5171422E3,1.4198454E2,2.1246353E2,3.381748E1,2.2658723E2,2.173559E1,5.4509544E1,1.163676E1,1.3480397E3,1.6910254E2,1.21987114E2,1.9997435E1,1.9374397E2,1.8719555E1,3.071137E1,3.1061087E0,2.2218385E2,4.4033737E0,1.4278075E1,7.4575143E0,4.3469246E1,1.10402975E1,1.1182252E3,2.2981444E2,1.4483635E2,2.4266191E1,1.1571648E2,6.2706347E0,1.4143643E1,5.8537917E0,1.6764604E2,2.6097933E1,1.6623379E1,2.0961761E0,2.8024805E1,2.6865659E0,2.0646802E2,1.5715835E1,1.7089113E0,2.6944625E0,8.527002E0,5.7510724E0,5.011153E0,2.446361E0,2.8995932E1,1.4473313E1,9.913925E0,1.1263725E0,1.0499843E3,6.824098E1,1.3164763E2,9.816682E1,1.08427055E2,3.640929E1,2.0247322E1,4.0188694E0,1.1196334E2,3.7531383E0,2.006986E0,4.2636485E0,1.2964801E1,1.1788425E0,3.9453785E0,1.9084129E0,1.2947064E2,3.8175407E1,1.771687E1,8.381063E0,1.5323171E1,1.300208E0,2.6093515E1,1.9312897E0,1.9915457E2,7.313451E0,1.2651735E1,3.0640998E0,1.9659095E0,3.785163E0,1.7878436E0,3.2233095E0,2.1320745E1,7.675188E0,1.3065247E1,1.408067E0,5.605158E0,4.308767E0],"tree_param":{"num_deleted":"0","num_feature":"618","num_nodes":"93","size_leaf_vector":"0"}},{"base_weights":[5.4744524E-3,1.00488275E-1,-6.451331E-1,2.4827816E-1,-3.496829E-1,-7.227487E-1,7.452006E-1,3.2440087E-1,-6.819292E-1,-2.0295747E-1,-9.6587014E-1,-7.6776147E-1,8.0632794E-1,1.3284571E0,-8.142378E-1,4.3706524E-1,-2.561938E-1,-7.754825E-1,1.1453296E0,-2.4794786E-1,1.7066035E0,-1.0532184E0,3.955597E-1,-7.9148865E-1,1.7222283E0,1.4259795E0,-6.5938264E-1,2.01106E0,-3.972732E-1,-9.361712E-1,-1.9059828E-1,3.0972672E-1,9.920996E-1,-4.1728175E-1,1.0944432E0,-8.2619303E-1,1.4825213E0,1.7795393E0,-7.184318E-1,-3.5354584E-1,4.8075444E-1,-1.0926818E0,1.0518359E0,1.6243974E0,-9.168021E-1,-8.287331E-1,7.834003E-1,1.334465E-1,-7.8119916E-1,2.272953E-1,1.0526696E0,1.0667644E0,-1.5756658E0,-1.2629618E-1,-1.0739506E0,1.5896786E0,-6.364932E-1,-8.757676E-1,1.4356854E0,-5.1159734E-1,1.9968897E-1,8.754148E-1,-6.081153E-1,-1.1296511E0,8.073773E-1,-8.5980844E-1,7.8787905E-1,1.6783854E0,-8.734061E-1],"categories":[],"categories_nodes":[],"categories_segments":[],"categories_sizes":[],"default_left":[true,true,true,true,true,true,true,true,true,true,true,true,true,true,true,true,true,true,true,true,false,true,true,true,false,false,false,false,true,false,false,true,true,true,true,true,false,false,false,true,true,true,false,false,false,true,true,false,false,false,false,false,false,false,false,false,false,false,false,false,false,false,false,false,false,false,false,false,false],"id":4,"left_children":[1,3,5,7,9,11,13,15,17,19,21,23,25,27,29,31,33,35,37,39,-1,41,43,45,-1,-1,-1,-1,47,-1,-1,49,51,53,55,57,-1,-1,-1,59,61,63,-1,-1,-1,65,67,-1,-1,-1,-1,-1,-1,-1,-1,-1,-1,-1,-1,-1,-1,-1,-1,-1,-1,-1,-1,-1,-1],"loss_changes":[1.3094731E2,1.2305766E2,2.966784E1,9.879493E1,4.1143368E1,1.8250824E1,1.45110655E1,8.432796E1,1.8944431E1,3.225952E1,1.08424225E1,1.6095306E1,8.036486E0,1.3904936E1,1.7433453E-1,7.59254E1,4.6116524E1,1.2798656E1,7.8365593E0,2.8095959E1,0E0,8.016037E0,1.11859665E1,1.5177673E1,0E0,0E0,0E0,0E0,9.1692376E-1,0E0,0E0,5.357863E1,4.0183426E1,3.5830196E1,2.0418163E1,1.241433E1,0E0,0E0,0E0,2.7869072E1,2.045393E1,6.6459656E0,0E0,0E0,0E0,1.2857468E1,1.0713244E1,0E0,0E0,0E0,0E0,0E0,0E0,0E0,0E0,0E0,0E0,0E0,0E0,0E0,0E0,0E0,0E0,0E0,0E0,0E0,0E0,0E0,0E0],"parents":[2147483647,0,0,1,1,2,2,3,3,4,4,5,5,6,6,7,7,8,8,9,9,10,10,11,11,12,12,13,13,14,14,15,15,16,16,17,17,18,18,19,19,21,21,22,22,23,23,28,28,31,31,32,32,33,33,34,34,35,35,39,39,40,40,41,41,45,45,46,46],"right_children":[2,4,6,8,10,12,14,16,18,20,22,24,26,28,30,32,34,36,38,40,-1,42,44,46,-1,-1,-1,-1,48,-1,-1,50,52,54,56,58,-1,-1,-1,60,62,64,-1,-1,-1,66,68,-1,-1,-1,-1,-1,-1,-1,-1,-1,-1,-1,-1,-1,-1,-1,-1,-1,-1,-1,-1,-1,-1],"split_conditions":[1.3592193E-1,3.441353E-2,1.331756E-1,1.7723529E-1,2.4716729E-1,7.830085E-2,2.0715358E-2,5.2829176E-2,6.7849316E-2,2.1655008E-1,5.675175E-2,8.463102E-2,1.20032735E-1,2.0371787E-1,2.6760608E-2,4.6729833E-2,5.4883827E-2,9.821302E-2,7.1741685E-2,4.921844E-2,5.1198107E-1,7.0380166E-2,3.842019E-2,8.0939054E-2,5.166685E-1,4.2779386E-1,-1.978148E-1,6.0331804E-1,2.4047712E-2,-2.8085136E-1,-5.7179485E-2,5.7082333E-2,1.5191695E-1,4.8517067E-2,5.932919E-2,7.2411984E-2,4.4475642E-1,5.338618E-1,-2.1552955E-1,5.5032827E-2,5.4371826E-2,8.222784E-2,3.1555077E-1,4.8731923E-1,-2.7504066E-1,6.952781E-2,3.7136406E-2,4.003395E-2,-2.3435976E-1,6.818859E-2,3.158009E-1,3.2002932E-1,-4.7269976E-1,-3.7888855E-2,-3.2218522E-1,4.7690362E-1,-1.9094796E-1,-2.627303E-1,4.3070564E-1,-1.534792E-1,5.9906695E-2,2.6262444E-1,-1.824346E-1,-3.3889532E-1,2.4221319E-1,-2.5794256E-1,2.3636372E-1,5.0351566E-1,-2.6202184E-1],"split_indices":[294,291,172,293,291,284,490,290,302,172,446,605,235,167,80,351,163,44,34,486,0,442,195,82,0,0,0,0,5,0,0,415,560,599,259,101,0,0,0,173,598,275,0,0,0,89,24,0,0,0,0,0,0,0,0,0,0,0,0,0,0,0,0,0,0,0,0,0,0],"split_type":[0,0,0,0,0,0,0,0,0,0,0,0,0,0,0,0,0,0,0,0,0,0,0,0,0,0,0,0,0,0,0,0,0,0,0,0,0,0,0,0,0,0,0,0,0,0,0,0,0,0,0,0,0,0,0,0,0,0,0,0,0,0,0,0,0,0,0,0,0],"sum_hessian":[2.116267E3,1.847331E3,2.6893613E2,1.3910891E3,4.56242E2,2.551713E2,1.3764824E1,1.2864636E3,1.046254E2,3.6957004E2,8.667199E1,2.4835806E2,6.813242E0,1.0125742E1,3.6390824E0,1.0776022E3,2.0886143E2,1.0007718E2,4.548219E0,3.619133E2,7.6567383E0,8.165919E1,5.012797E0,2.4668948E2,1.6685784E0,4.8077846E0,2.0054572E0,7.137289E0,2.9884527E0,2.6247518E0,1.0143306E0,8.777767E2,1.9982553E2,1.8722276E2,2.1638664E1,9.8499176E1,1.5780047E0,3.4271884E0,1.1210308E0,3.1655533E2,4.5357952E1,8.062857E1,1.0306176E0,2.4659882E0,2.546809E0,2.4145316E2,5.2363276E0,1.5282683E0,1.4601843E0,7.912873E2,8.64894E1,1.9474728E2,5.0782475E0,1.305606E2,5.666217E1,1.6888367E1,4.750297E0,9.69863E1,1.5128758E0,2.4627362E2,7.028171E1,3.3435356E1,1.1922596E1,7.948746E1,1.141116E0,2.3735867E2,4.0944853E0,3.391344E0,1.8449838E0],"tree_param":{"num_deleted":"0","num_feature":"618","num_nodes":"69","size_leaf_vector":"0"}},{"base_weights":[4.397841E-3,-7.6352425E-2,5.4309237E-1,5.8175668E-2,-3.9580125E-1,6.299083E-1,-6.993037E-1,-2.7237616E-2,7.101647E-1,-5.3047276E-1,7.1547665E-2,7.308656E-1,-1.7686744E-1,-4.975321E-2,-2.0014923E0,-1.2382573E-1,5.1116276E-1,8.553394E-1,-1.3850409E0,-5.621202E-1,1.5708128E0,-6.250364E-2,1.7515868E0,8.3332855E-1,-2.7975538E-1,2.8918934E-1,-1.4447439E0,7.7808625E-1,-1.0742195E0,-2.0226231E-1,6.908099E-1,7.026486E-1,-9.551502E-1,1.015692E0,-7.605312E-1,-1.8873599E0,8.711547E-1,-5.9567195E-1,1.0313001E0,2.0967517E0,-4.7782642E-1,-1.79644E-1,1.5155978E0,2.011861E0,-1.1061569E-3,8.999415E-1,-1.1721945E0,-6.984955E-1,8.1183183E-1,1.0598974E0,-6.0304105E-1,1.1412657E0,-7.4872565E-1,-2.5582093E-1,8.444287E-1,9.8853034E-1,-6.777526E-1,8.895041E-1,-5.148125E-1,5.9882265E-1,-1.7403015E0,1.0952212E0,-1.7580376E0,2.0436253E-1,-1.4462332E0,-8.259789E-1,-2.134639E0,-6.807502E-1,7.741448E-2,1.7648348E0,-8.8606864E-1,-3.4455982E-1,9.898023E-1,2.0461175E0,-7.0628124E-1,9.867865E-1,-3.0695564E-1,-1.6802504E0,7.745067E-1,-8.699411E-1,7.988877E-1,1.4297168E0,-7.0781744E-1,1.1714596E0,-5.7290923E-2,3.4194806E-1,-1.2312744E0],"categories":[],"categories_nodes":[],"categories_segments":[],"categories_sizes":[],"default_left":[true,true,true,true,true,true,true,true,true,true,true,true,true,true,false,true,true,true,true,true,true,true,true,true,true,true,false,true,false,true,true,true,true,true,true,true,false,true,true,false,false,true,true,false,false,true,true,true,true,true,true,false,false,false,false,false,false,false,false,false,false,false,false,false,false,false,false,false,false,false,false,false,false,false,false,false,false,false,false,false,false,false,false,false,false,false,false],"id":5,"left_children":[1,3,5,7,9,11,13,15,17,19,21,23,25,27,-1,29,31,33,35,37,39,41,43,45,47,49,-1,51,-1,53,55,57,59,61,63,65,-1,67,69,-1,-1,71,73,-1,-1,75,77,79,81,83,85,-1,-1,-1,-1,-1,-1,-1,-1,-1,-1,-1,-1,-1,-1,-1,-1,-1,-1,-1,-1,-1,-1,-1,-1,-1,-1,-1,-1,-1,-1,-1,-1,-1,-1,-1,-1],"loss_changes":[8.727954E1,7.501107E1,2.8651932E1,6.844505E1,3.259024E1,2.0084435E1,1.4750918E1,5.6609467E1,4.448636E1,2.7591347E1,2.6364632E1,2.2801659E1,1.6994848E1,1.1640143E1,0E0,5.9102085E1,4.716621E1,3.5429115E1,1.2531595E1,2.1806892E1,7.706587E0,2.040917E1,3.947771E0,2.752443E1,1.0079708E1,1.5318087E1,0E0,5.083088E0,0E0,4.7445847E1,3.3783855E1,3.3908585E1,2.4896278E1,2.8861214E1,8.662983E0,3.8191032E-1,0E0,2.2321E1,1.3576104E1,0E0,0E0,2.0070236E1,1.0442587E1,0E0,0E0,2.0461655E1,8.03048E0,4.6943803E0,6.864032E0,1.5397968E0,6.6728067E0,0E0,0E0,0E0,0E0,0E0,0E0,0E0,0E0,0E0,0E0,0E0,0E0,0E0,0E0,0E0,0E0,0E0,0E0,0E0,0E0,0E0,0E0,0E0,0E0,0E0,0E0,0E0,0E0,0E0,0E0,0E0,0E0,0E0,0E0,0E0,0E0],"parents":[2147483647,0,0,1,1,2,2,3,3,4,4,5,5,6,6,7,7,8,8,9,9,10,10,11,11,12,12,13,13,15,15,16,16,17,17,18,18,19,19,20,20,21,21,22,22,23,23,24,24,25,25,27,27,29,29,30,30,31,31,32,32,33,33,34,34,35,35,37,37,38,38,41,41,42,42,45,45,46,46,47,47,48,48,49,49,50,50],"right_children":[2,4,6,8,10,12,14,16,18,20,22,24,26,28,-1,30,32,34,36,38,40,42,44,46,48,50,-1,52,-1,54,56,58,60,62,64,66,-1,68,70,-1,-1,72,74,-1,-1,76,78,80,82,84,86,-1,-1,-1,-1,-1,-1,-1,-1,-1,-1,-1,-1,-1,-1,-1,-1,-1,-1,-1,-1,-1,-1,-1,-1,-1,-1,-1,-1,-1,-1,-1,-1,-1,-1,-1,-1],"split_conditions":[5.0721582E-2,1.9501682E-2,8.7549E-2,5.5090755E-2,4.9900897E-2,7.111853E-2,6.5697454E-2,3.496068E-2,1.04367375E-1,7.873861E-2,5.4281227E-2,1.7192948E-1,7.95988E-2,6.856799E-2,-6.004477E-1,6.205737E-2,8.662453E-2,7.076149E-2,2.4650376E-2,1.1051333E-1,3.690923E-2,2.0795317E-2,8.077508E-2,2.0404747E-1,1.9178648E-2,5.0588295E-2,-4.334232E-1,1.5517315E-1,-3.2226586E-1,7.797946E-2,1.389018E-1,6.5146476E-2,2.5501432E-2,2.3054105E-1,2.6325742E-2,2.4412159E-2,2.6134643E-1,5.237156E-2,7.299046E-2,6.290255E-1,-1.4334793E-1,1.4372751E-1,1.03145696E-1,6.0355836E-1,-3.3184706E-4,9.14519E-2,2.4775317E-1,6.1895236E-2,7.347572E-2,7.369186E-2,3.0614635E-2,3.4237975E-1,-2.246177E-1,-7.6746285E-2,2.5332862E-1,2.9655913E-1,-2.033258E-1,2.6685125E-1,-1.5444377E-1,1.796468E-1,-5.220905E-1,3.2856637E-1,-5.274113E-1,6.130876E-2,-4.3386996E-1,-2.4779367E-1,-6.403917E-1,-2.0422506E-1,2.3224346E-2,5.294505E-1,-2.658206E-1,-1.0336795E-1,2.969407E-1,6.138353E-1,-2.1188438E-1,2.9603595E-1,-9.2086695E-2,-5.0407517E-1,2.3235202E-1,-2.6098233E-1,2.3966633E-1,4.2891505E-1,-2.1234524E-1,3.5143787E-1,-1.7187277E-2,1.0258442E-1,-3.6938232E-1],"split_indices":[277,294,458,496,372,436,61,59,107,522,359,291,166,60,0,284,359,567,240,322,29,70,234,496,224,502,0,11,0,174,285,290,601,177,126,366,0,284,8,0,0,173,85,0,0,127,496,487,1,13,291,0,0,0,0,0,0,0,0,0,0,0,0,0,0,0,0,0,0,0,0,0,0,0,0,0,0,0,0,0,0,0,0,0,0,0,0],"split_type":[0,0,0,0,0,0,0,0,0,0,0,0,0,0,0,0,0,0,0,0,0,0,0,0,0,0,0,0,0,0,0,0,0,0,0,0,0,0,0,0,0,0,0,0,0,0,0,0,0,0,0,0,0,0,0,0,0,0,0,0,0,0,0,0,0,0,0,0,0,0,0,0,0,0,0,0,0,0,0,0,0,0,0,0,0,0,0],"sum_hessian":[2.0044856E3,1.7439291E3,2.6055655E2,1.2277218E3,5.162073E2,2.4399939E2,1.6557158E1,1.086362E3,1.4135974E2,4.0062726E2,1.1558E2,2.1694562E2,2.7053772E1,1.1739522E1,4.8176355E0,9.2176843E2,1.6459367E2,1.3275317E2,8.60657E0,3.9540454E2,5.222702E0,1.0793092E2,7.649076E0,1.9713435E2,1.9811264E1,2.0346533E1,6.70724E0,6.625863E0,5.113659E0,8.414972E2,8.027122E1,1.4604276E2,1.8550917E1,1.21106476E2,1.1646698E1,7.1730423E0,1.4335278E0,3.8786368E2,7.5408545E0,4.137113E0,1.0855892E0,1.0129788E2,6.6330423E0,6.5313096E0,1.1177664E0,1.9133063E2,5.8037305E0,1.45788355E1,5.232428E0,1.0815871E1,9.530662E0,5.5566354E0,1.0692279E0,8.012531E2,4.0244102E1,6.615696E1,1.411426E1,1.2684413E2,1.9198618E1,6.306465E0,1.2244451E1,1.1831914E2,2.7873368E0,5.129968E0,6.5167303E0,2.1755097E0,4.997533E0,3.4432904E2,4.3534657E1,5.511756E0,2.0290985E0,8.9396515E1,1.1901369E1,5.418393E0,1.214649E0,1.7865732E2,1.2673312E1,4.711089E0,1.0926414E0,1.3457069E1,1.1217661E0,3.7619925E0,1.4704355E0,9.789696E0,1.0261755E0,3.9878428E0,5.542818E0],"tree_param":{"num_deleted":"0","num_feature":"618","num_nodes":"87","size_leaf_vector":"0"}},{"base_weights":[5.733277E-3,-7.2460145E-2,4.90163E-1,-1.4510618E-1,4.1803664E-1,5.822304E-1,-1.1172974E0,-1.9533795E-1,5.307926E-1,5.815127E-1,-8.288138E-1,7.443678E-1,-2.9380548E-1,4.841082E-3,-2.040796E0,-2.682569E-1,2.4887674E-1,7.894306E-1,-6.589731E-1,7.2532386E-1,-1.0049673E0,-1.0824592E0,1.0942051E0,7.9433453E-1,-1.8670905E0,4.896851E-2,-1.9117984E0,1.0217785E0,-1.0058292E0,-2.4557657E0,-6.922686E-1,-2.9704884E-1,8.994939E-1,4.904017E-1,-5.178229E-1,9.806641E-1,-1.1874787E0,-9.117235E-1,1.1513302E0,8.649974E-1,-4.1077572E-1,-1.3054687E0,9.5971334E-1,-1.2767851E0,9.8249805E-1,8.5592943E-1,-6.1793226E-1,5.4919565E-1,-6.85735E-1,-3.5000908E-1,3.5784996E-1,1.2921134E0,-8.813833E-1,8.110167E-1,-1.3072428E-1,-7.140907E-1,1.455081E0,1.0940528E0,-2.4190037E0,-1.469627E0,-3.697713E-2,-1.0944508E0,8.355556E-1,9.2890006E-1,-1.1423596E0,1.6330762E-1,-1.0756199E0,-1.5770128E0,8.348206E-1,-1.4483184E0,7.7945065E-1,9.134466E-1,-6.217422E-1,-9.8823464E-1,5.1707524E-1,9.814833E-1,-7.944291E-1,-9.4638723E-1,9.110577E-1],"categories":[],"categories_nodes":[],"categories_segments":[],"categories_sizes":[],"default_left":[true,true,true,true,true,true,true,true,true,true,true,true,true,true,true,true,true,true,true,true,true,true,false,true,false,true,false,false,false,false,false,true,true,true,true,true,true,true,false,true,true,true,false,true,false,true,true,true,true,false,false,false,false,false,false,false,false,false,false,false,false,false,false,false,false,false,false,false,false,false,false,false,false,false,false,false,false,false,false],"id":6,"left_children":[1,3,5,7,9,11,13,15,17,19,21,23,25,27,29,31,33,35,37,39,41,43,-1,45,-1,47,-1,-1,-1,-1,-1,49,51,53,55,57,59,61,-1,63,65,67,-1,69,-1,71,73,75,77,-1,-1,-1,-1,-1,-1,-1,-1,-1,-1,-1,-1,-1,-1,-1,-1,-1,-1,-1,-1,-1,-1,-1,-1,-1,-1,-1,-1,-1,-1],"loss_changes":[7.227124E1,5.8599297E1,3.989339E1,4.871055E1,4.3731773E1,3.593518E1,1.5250786E1,4.325603E1,3.107878E1,4.3662384E1,1.3382221E1,2.9207268E1,2.2271448E1,8.877096E0,2.8159103E0,3.879164E1,3.5165085E1,3.2175625E1,9.412892E0,2.7826302E1,1.0734163E1,1.0321682E1,0E0,1.872525E1,0E0,1.2862256E1,0E0,0E0,0E0,0E0,0E0,3.893608E1,2.0590511E1,2.8758438E1,1.8715258E1,3.1689453E1,2.4410715E0,6.2134323E0,0E0,2.0878075E1,7.6684513E0,9.658014E0,0E0,8.566696E0,0E0,1.763916E1,4.4292974E0,1.2841814E1,6.774828E0,0E0,0E0,0E0,0E0,0E0,0E0,0E0,0E0,0E0,0E0,0E0,0E0,0E0,0E0,0E0,0E0,0E0,0E0,0E0,0E0,0E0,0E0,0E0,0E0,0E0,0E0,0E0,0E0,0E0,0E0],"parents":[2147483647,0,0,1,1,2,2,3,3,4,4,5,5,6,6,7,7,8,8,9,9,10,10,11,11,12,12,13,13,14,14,15,15,16,16,17,17,18,18,19,19,20,20,21,21,23,23,25,25,31,31,32,32,33,33,34,34,35,35,36,36,37,37,39,39,40,40,41,41,43,43,45,45,46,46,47,47,48,48],"right_children":[2,4,6,8,10,12,14,16,18,20,22,24,26,28,30,32,34,36,38,40,42,44,-1,46,-1,48,-1,-1,-1,-1,-1,50,52,54,56,58,60,62,-1,64,66,68,-1,70,-1,72,74,76,78,-1,-1,-1,-1,-1,-1,-1,-1,-1,-1,-1,-1,-1,-1,-1,-1,-1,-1,-1,-1,-1,-1,-1,-1,-1,-1,-1,-1,-1,-1],"split_conditions":[4.8310146E-2,4.8197217E-2,1.0222997E-1,5.087837E-2,8.312836E-2,7.513882E-2,4.8914418E-2,5.2373596E-2,7.290931E-2,1.4376044E-1,4.9944762E-2,1.8623616E-1,1.2895861E-1,6.2028E-2,2.530116E-2,1.21507585E-1,6.0827065E-2,8.793955E-2,2.268962E-2,7.8471646E-2,1.8628493E-2,3.0052098E-2,3.2826155E-1,2.6533264E-1,-5.6012714E-1,5.0796777E-2,-5.7353956E-1,3.0653355E-1,-3.0174878E-1,-7.3672974E-1,-2.076806E-1,6.405917E-2,1.5679272E-1,1.4325431E-2,6.478299E-2,3.846014E-1,5.7355706E-2,2.2915363E-2,3.4539908E-1,1.752151E-1,1.984161E-2,7.2812326E-2,2.87914E-1,2.5290981E-2,2.9474944E-1,2.714672E-1,5.4225165E-2,1.9878909E-2,4.6965107E-2,-1.0500273E-1,1.0735499E-1,3.8763404E-1,-2.64415E-1,2.4330501E-1,-3.9217286E-2,-2.1422721E-1,4.365243E-1,3.2821584E-1,-7.2570115E-1,-4.4088814E-1,-1.109314E-2,-3.2833526E-1,2.506667E-1,2.7867004E-1,-3.427079E-1,4.8992287E-2,-3.22686E-1,-4.7310385E-1,2.504462E-1,-4.3449554E-1,2.338352E-1,2.74034E-1,-1.8652266E-1,-2.964704E-1,1.5512258E-1,2.94445E-1,-2.3832874E-1,-2.8391618E-1,2.7331734E-1],"split_indices":[275,285,430,384,286,463,104,344,120,481,10,586,367,9,71,284,293,195,329,517,221,288,0,291,0,269,0,0,0,0,0,342,291,209,167,200,368,554,0,109,292,322,0,500,0,290,16,497,163,0,0,0,0,0,0,0,0,0,0,0,0,0,0,0,0,0,0,0,0,0,0,0,0,0,0,0,0,0,0],"split_type":[0,0,0,0,0,0,0,0,0,0,0,0,0,0,0,0,0,0,0,0,0,0,0,0,0,0,0,0,0,0,0,0,0,0,0,0,0,0,0,0,0,0,0,0,0,0,0,0,0,0,0,0,0,0,0,0,0,0,0,0,0,0,0,0,0,0,0,0,0,0,0,0,0,0,0,0,0,0,0],"sum_hessian":[1.9060013E3,1.6418374E3,2.6416403E2,1.4306519E3,2.1118547E2,2.5045691E2,1.3707137E1,1.332345E3,9.830686E1,1.8717796E2,2.4007513E1,2.1146846E2,3.898845E1,6.6371393E0,7.069998E0,1.1448167E3,1.875284E2,8.102884E1,1.7278023E1,1.7211858E2,1.5059384E1,2.15961E1,2.411413E0,2.0818102E2,3.2874386E0,3.2972843E1,6.0156064E0,3.302834E0,3.3343053E0,4.7784863E0,2.2915113E0,1.117997E3,2.6819603E1,1.4287914E2,4.464927E1,7.434146E1,6.687373E0,1.5596803E1,1.6812198E0,1.5348727E2,1.8631296E1,1.3352611E1,1.7067736E0,2.0087431E1,1.5086689E0,1.9985829E2,8.32273E0,1.9766916E1,1.3205927E1,1.034782E3,8.321498E1,2.2199797E1,4.6198072E0,9.403441E1,4.8844727E1,4.11897E1,3.4595697E0,7.259829E1,1.7431748E0,5.1475997E0,1.5397737E0,1.4458395E1,1.138408E0,1.4927255E2,4.2147245E0,1.04029045E1,8.228391E0,1.2082811E1,1.2698E0,1.8813627E1,1.2738049E0,1.9273795E2,7.120332E0,6.3728633E0,1.9498667E0,1.5159227E1,4.607689E0,1.1702922E1,1.5030049E0],"tree_param":{"num_deleted":"0","num_feature":"618","num_nodes":"79","size_leaf_vector":"0"}},{"base_weights":[5.4068407E-3,-8.373338E-2,3.8215747E-1,-1.1980436E-1,8.1080884E-1,2.3335883E-1,1.1629896E0,-1.6857578E-1,5.745808E-1,1.0012783E0,-1.928491E0,2.958286E-1,-1.2102803E0,1.3600713E0,-6.1398125E-1,-2.036913E-1,8.446735E-1,8.5539436E-1,-3.780699E-1,1.1884756E0,-5.20092E-1,4.0257847E-1,-6.546653E-1,-1.5002958E0,9.049272E-1,1.5021843E0,-5.2064943E-1,-8.9389545E-1,3.8547093E-1,-2.298093E-1,1.0723916E0,1.1270994E0,-6.0206705E-1,1.1395147E0,-5.720319E-2,1.1951692E-1,-1.4286495E0,1.2610409E0,-7.0131326E-1,8.037418E-1,-1.2030745E0,2.7038223E-1,1.2457713E0,-8.292233E-1,1.3987103E0,-1.7029564E0,-5.579458E-2,1.6084766E0,-2.1961787E-1,-7.883322E-2,-8.2782394E-1,-2.0102677E-1,-1.4162549E0,1.1647948E0,-6.0322374E-1,1.3039492E0,-1.1355152E0,-1.2617427E0,9.737589E-1,1.3340565E0,-9.178923E-2,8.036596E-1,-8.0218345E-1,1.3256418E0,-1.0037785E0,-1.8068607E0,-2.5356308E-1,4.3423152E-1,-4.8826814E-1,1.4391478E0,2.0272398E-1,-9.4549567E-1,6.3298726E-1,-1.8065549E0,-4.854235E-1,1.6452621E0,5.3412233E-2,-9.3595165E-1,8.292176E-1],"categories":[],"categories_nodes":[],"categories_segments":[],"categories_sizes":[],"default_left":[true,true,true,true,true,true,true,true,true,true,false,true,true,true,true,true,true,true,true,true,true,true,true,true,false,true,true,false,false,true,true,true,true,true,true,true,true,false,false,false,false,true,true,true,false,true,false,true,true,false,false,false,false,false,false,false,false,false,false,false,false,false,false,false,false,false,false,false,false,false,false,false,false,false,false,false,false,false,false],"id":7,"left_children":[1,3,5,7,9,11,13,15,17,19,-1,21,23,25,27,29,31,33,35,37,39,41,43,45,-1,47,49,-1,-1,51,53,55,57,59,61,63,65,-1,-1,-1,-1,67,69,71,-1,73,-1,75,77,-1,-1,-1,-1,-1,-1,-1,-1,-1,-1,-1,-1,-1,-1,-1,-1,-1,-1,-1,-1,-1,-1,-1,-1,-1,-1,-1,-1,-1,-1],"loss_changes":[6.170618E1,4.8042233E1,4.057408E1,4.849711E1,3.2047737E1,2.7100363E1,2.0453316E1,4.7713116E1,2.547512E1,1.6175964E1,0E0,2.918472E1,9.023134E0,1.434288E1,2.1019373E0,4.331364E1,1.9044674E1,1.8972675E1,1.1722634E1,7.5966415E0,7.007487E0,2.8296207E1,1.1612044E1,3.2321186E0,0E0,9.03363E0,5.192797E-1,0E0,0E0,4.298542E1,4.74279E0,1.666838E1,9.538034E0,1.345433E1,1.2358382E1,2.289757E1,2.7326899E0,0E0,0E0,0E0,0E0,2.7973804E1,6.6744957E0,5.2745514E0,0E0,3.7596512E-1,0E0,2.4744186E0,3.509117E0,0E0,0E0,0E0,0E0,0E0,0E0,0E0,0E0,0E0,0E0,0E0,0E0,0E0,0E0,0E0,0E0,0E0,0E0,0E0,0E0,0E0,0E0,0E0,0E0,0E0,0E0,0E0,0E0,0E0,0E0],"parents":[2147483647,0,0,1,1,2,2,3,3,4,4,5,5,6,6,7,7,8,8,9,9,11,11,12,12,13,13,14,14,15,15,16,16,17,17,18,18,19,19,20,20,21,21,22,22,23,23,25,25,26,26,29,29,30,30,31,31,32,32,33,33,34,34,35,35,36,36,41,41,42,42,43,43,45,45,47,47,48,48],"right_children":[2,4,6,8,10,12,14,16,18,20,-1,22,24,26,28,30,32,34,36,38,40,42,44,46,-1,48,50,-1,-1,52,54,56,58,60,62,64,66,-1,-1,-1,-1,68,70,72,-1,74,-1,76,78,-1,-1,-1,-1,-1,-1,-1,-1,-1,-1,-1,-1,-1,-1,-1,-1,-1,-1,-1,-1,-1,-1,-1,-1,-1,-1,-1,-1,-1,-1],"split_conditions":[2.9806152E-2,1.12926E-1,4.7881983E-2,6.6019885E-2,1.3108109E-1,1.2279159E-1,2.4716729E-1,8.305082E-2,5.921652E-2,7.283692E-2,-5.785473E-1,1.3954213E-1,2.6616694E-2,1.781745E-1,1.4898591E-2,1.4762893E-1,8.825687E-2,5.94684E-2,3.1985916E-2,1.9486798E-1,8.7150864E-2,3.9095722E-2,2.0553555E-2,4.8221953E-2,2.7147818E-1,1.1583889E-1,2.8226124E-2,-2.6816866E-1,1.1564128E-1,2.6144135E-1,1.6561937E-1,9.9071234E-2,1.236603E-1,7.495782E-2,5.0682057E-2,3.1932414E-2,2.4570502E-2,3.783123E-1,-2.1039398E-1,2.4112256E-1,-3.6092234E-1,8.351737E-2,5.8334295E-2,6.219907E-2,4.196131E-1,5.727359E-2,-1.6738376E-2,1.4121151E-1,1.2145914E-1,-2.3649968E-2,-2.483472E-1,-6.030803E-2,-4.2487648E-1,3.4943846E-1,-1.8096712E-1,3.9118478E-1,-3.4065458E-1,-3.7852284E-1,2.9212767E-1,4.0021697E-1,-2.753677E-2,2.410979E-1,-2.4065505E-1,3.9769253E-1,-3.0113354E-1,-5.420582E-1,-7.606892E-2,1.3026947E-1,-1.4648044E-1,4.3174437E-1,6.0817197E-2,-2.836487E-1,1.8989618E-1,-5.419665E-1,-1.4562705E-1,4.9357864E-1,1.6023671E-2,-2.807855E-1,2.4876529E-1],"split_indices":[608,275,167,270,282,141,291,255,407,607,0,293,250,539,322,277,403,293,56,14,252,371,450,69,0,556,8,0,0,500,591,102,403,600,520,178,351,0,0,0,0,294,111,208,0,109,0,70,556,0,0,0,0,0,0,0,0,0,0,0,0,0,0,0,0,0,0,0,0,0,0,0,0,0,0,0,0,0,0],"split_type":[0,0,0,0,0,0,0,0,0,0,0,0,0,0,0,0,0,0,0,0,0,0,0,0,0,0,0,0,0,0,0,0,0,0,0,0,0,0,0,0,0,0,0,0,0,0,0,0,0,0,0,0,0,0,0,0,0,0,0,0,0,0,0,0,0,0,0,0,0,0,0,0,0,0,0,0,0,0,0],"sum_hessian":[1.8354357E3,1.4848855E3,3.5055017E2,1.4281632E3,5.672232E1,2.9553134E2,5.501883E1,1.335144E3,9.301906E1,5.3627934E1,3.0943882E0,2.8403552E2,1.1495828E1,4.9737156E1,5.281674E0,1.291195E3,4.3949146E1,7.192095E1,2.1098106E1,4.7947083E1,5.680849E0,2.5587471E2,2.8160814E1,1.0365348E1,1.1304798E0,4.643003E1,3.3071222E0,4.2085967E0,1.0730772E0,1.2661012E3,2.5093779E1,3.6955757E1,6.99339E0,5.4656136E1,1.726482E1,1.49184885E1,6.179618E0,4.649447E1,1.4526141E0,1.8731964E0,3.807653E0,2.2233722E2,3.35375E1,2.6503878E1,1.6569359E0,8.933124E0,1.4322238E0,4.3792404E1,2.6376283E0,1.8716805E0,1.4354416E0,1.2372555E3,2.8845716E1,2.4071207E1,1.0225714E0,3.4669617E1,2.2861385E0,5.070204E0,1.9231864E0,4.712681E1,7.5293255E0,7.9729276E0,9.291892E0,7.107143E0,7.8113456E0,4.268217E0,1.9114009E0,1.8319858E2,3.9138638E1,2.7971876E1,5.565622E0,2.487893E1,1.6249493E0,7.7867737E0,1.1463501E0,4.272376E1,1.0686444E0,1.6311876E0,1.0064408E0],"tree_param":{"num_deleted":"0","num_feature":"618","num_nodes":"79","size_leaf_vector":"0"}},{"base_weights":[7.126462E-3,4.203779E-2,-8.1788546E-1,7.22717E-2,-9.371309E-1,-8.90738E-1,1.3472966E0,1.1947307E-1,-6.422474E-1,-1.1740422E0,4.452415E-1,-9.720236E-1,6.524934E-1,1.7943296E-1,-5.0010777E-1,-7.973864E-1,9.507955E-2,-1.2853785E0,5.402969E-1,1.2841386E0,-8.8553745E-1,-1.0444268E0,5.107129E-1,1.2783368E0,-6.050773E-1,2.0875283E-1,-9.6876436E-1,-6.0751754E-1,7.005943E-1,-8.733791E-1,7.916625E-1,-2.7958786E-1,1.83052E0,-1.3626385E0,4.5972267E-1,1.0890949E0,-3.5252744E-1,1.7764477E0,-4.337338E-1,-1.0977519E0,4.191127E-1,1.4217682E0,-6.687551E-1,2.4594986E-1,-7.619737E-1,-1.1301341E0,1.0157324E0,-6.818455E-1,7.006455E-1,1.4116848E0,-7.667951E-1,-9.248636E-1,1.3269798E0,1.5492196E0,-6.2296087E-1,-6.887502E-1,7.374954E-1,-1.4946989E0,-3.5577568E-1,-1.1413109E0,4.0113994E-1],"categories":[],"categories_nodes":[],"categories_segments":[],"categories_sizes":[],"default_left":[true,true,true,true,true,true,false,true,true,true,true,true,true,true,true,true,true,true,true,true,false,true,true,false,false,true,true,true,true,true,true,true,false,true,false,false,false,false,false,true,false,false,false,false,false,false,false,false,false,false,false,false,false,false,false,false,false,false,false,false,false],"id":8,"left_children":[1,3,5,7,9,11,-1,13,15,17,19,21,23,25,27,29,31,33,35,37,-1,39,41,-1,-1,43,45,47,49,51,53,55,-1,57,-1,-1,-1,-1,-1,59,-1,-1,-1,-1,-1,-1,-1,-1,-1,-1,-1,-1,-1,-1,-1,-1,-1,-1,-1,-1,-1],"loss_changes":[5.112291E1,5.047485E1,1.2566864E1,5.5813984E1,1.7248653E1,9.454971E0,0E0,5.7711994E1,1.1808086E1,9.06871E0,1.0288314E1,7.7476654E0,4.0135727E0,4.7836384E1,1.8110138E1,1.0936703E1,1.268547E1,6.221039E0,2.0399108E0,5.3677607E0,0E0,5.4860535E0,5.0344243E0,0E0,0E0,5.0036053E1,1.2487236E1,1.2768032E1,1.3315593E1,1.0453838E1,5.6769385E0,7.2769756E0,0E0,4.7852707E0,0E0,0E0,0E0,0E0,0E0,4.5327454E0,0E0,0E0,0E0,0E0,0E0,0E0,0E0,0E0,0E0,0E0,0E0,0E0,0E0,0E0,0E0,0E0,0E0,0E0,0E0,0E0,0E0],"parents":[2147483647,0,0,1,1,2,2,3,3,4,4,5,5,7,7,8,8,9,9,10,10,11,11,12,12,13,13,14,14,15,15,16,16,17,17,18,18,19,19,21,21,22,22,25,25,26,26,27,27,28,28,29,29,30,30,31,31,33,33,39,39],"right_children":[2,4,6,8,10,12,-1,14,16,18,20,22,24,26,28,30,32,34,36,38,-1,40,42,-1,-1,44,46,48,50,52,54,56,-1,58,-1,-1,-1,-1,-1,60,-1,-1,-1,-1,-1,-1,-1,-1,-1,-1,-1,-1,-1,-1,-1,-1,-1,-1,-1,-1,-1],"split_conditions":[2.3348203E-1,2.679302E-1,4.702275E-2,1.8739665E-1,9.1727786E-2,6.9403045E-2,4.04189E-1,1.5983397E-1,4.390079E-2,4.454932E-2,3.3195145E-2,7.3886454E-2,7.219829E-2,1.9133604E-1,7.230708E-2,6.0053214E-2,2.1885762E-2,2.7035752E-2,3.865667E-2,1.6872557E-2,-2.6566124E-1,7.3437735E-2,1.5478188E-2,3.8350105E-1,-1.815232E-1,1.7439638E-1,3.9756E-2,1.1149058E-1,2.3696149E-2,6.7008026E-2,3.2689846E-1,1.654798E-2,5.49156E-1,1.1284925E-1,1.379168E-1,3.2672846E-1,-1.05758235E-1,5.329343E-1,-1.3012014E-1,6.2165607E-2,1.2573382E-1,4.2653048E-1,-2.0062654E-1,7.378496E-2,-2.2859211E-1,-3.3904025E-1,3.0471975E-1,-2.0455365E-1,2.1019366E-1,4.2350546E-1,-2.3003854E-1,-2.7745908E-1,3.9809394E-1,4.647659E-1,-1.8688826E-1,-2.0662507E-1,2.2124864E-1,-4.4840968E-1,-1.0673271E-1,-3.4239328E-1,1.2034199E-1],"split_indices":[290,178,497,291,291,196,0,294,198,86,500,524,18,177,176,322,98,206,290,86,0,454,1,0,0,175,484,58,343,442,291,287,0,294,0,0,0,0,0,183,0,0,0,0,0,0,0,0,0,0,0,0,0,0,0,0,0,0,0,0,0],"split_type":[0,0,0,0,0,0,0,0,0,0,0,0,0,0,0,0,0,0,0,0,0,0,0,0,0,0,0,0,0,0,0,0,0,0,0,0,0,0,0,0,0,0,0,0,0,0,0,0,0,0,0,0,0,0,0,0,0,0,0,0,0],"sum_hessian":[1.7727681E3,1.7017074E3,7.106065E1,1.6516359E3,5.007157E1,6.931693E1,1.7437197E0,1.5500704E3,1.01565384E2,4.2874443E1,7.197126E0,6.620016E1,3.1167798E0,1.4139463E3,1.3612416E2,8.384278E1,1.77226E1,4.0494766E1,2.3796775E0,4.4358807E0,2.761245E0,6.3399895E1,2.8002596E0,2.0700731E0,1.0467067E0,1.3795372E3,3.440907E1,1.254004E2,1.0723763E1,8.044601E1,3.3967721E0,1.5265746E1,2.4568546E0,3.898784E1,1.5069284E0,1.3376343E0,1.0420432E0,3.4213035E0,1.0145773E0,6.1412235E1,1.9876597E0,1.4639955E0,1.3362641E0,1.329345E3,5.0192223E1,3.221964E1,2.1894283E0,1.19111435E2,6.2889667E0,7.2489276E0,3.4748363E0,7.917317E1,1.2728357E0,2.1501698E0,1.2466022E0,1.1116507E1,4.1492395E0,3.403879E1,4.9490466E0,5.9909767E1,1.5024656E0],"tree_param":{"num_deleted":"0","num_feature":"618","num_nodes":"61","size_leaf_vector":"0"}},{"base_weights":[2.1129677E-3,-2.7863016E-2,6.954741E-1,-7.3920794E-2,4.6675497E-1,7.9855317E-1,-1.6076612E0,-1.22983165E-1,3.938955E-1,5.441252E-1,-1.4564244E0,1.0173866E0,-4.6400005E-1,-1.870182E-1,3.5695633E-1,5.8312535E-1,-6.562821E-1,7.8795296E-1,-1.551927E-1,1.1443375E0,-1.0437636E0,1.1460376E0,-1.0945878E0,-2.7936897E-1,1.6098267E-1,2.0185801E-1,1.428732E0,7.8248847E-1,-3.8318944E-1,2.5412893E-1,-1.6623425E0,9.4017595E-1,-6.821501E-1,2.0281759E-1,-9.1119814E-1,1.2873096E0,-5.650637E-1,-2.5079244E-1,-1.2921824E0,-2.3378916E-1,-1.5584226E0,-3.4121817E-1,4.706001E-1,3.0100662E-1,-7.754248E-1,4.522299E-1,-4.139643E-1,1.5309926E0,2.4160086E-1,8.931255E-1,-1.0563618E0,1.5131398E-1,-1.144886E0,9.829822E-1,-1.1538781E0,-2.0277214E0,1.8583816E-1,1.0407143E0,-1.0968447E0,-1.0658561E0,8.966059E-1,5.148011E-1,-1.2110002E0,1.8049933E-1,-1.3108793E0,1.3697414E0,-4.3737042E-1,-1.4207356E-1,-8.612692E-1,6.8649447E-1,-8.1229264E-1],"categories":[],"categories_nodes":[],"categories_segments":[],"categories_sizes":[],"default_left":[true,true,true,true,true,true,false,true,true,true,false,true,true,true,true,true,true,true,true,true,true,false,true,true,true,true,true,true,true,true,true,true,true,true,true,true,true,false,false,true,false,false,false,false,false,false,false,false,false,false,false,false,false,false,false,false,false,false,false,false,false,false,false,false,false,false,false,false,false,false,false],"id":9,"left_children":[1,3,5,7,9,11,-1,13,15,17,-1,19,21,23,25,27,29,31,33,35,37,-1,39,41,43,45,47,49,51,53,55,57,59,61,63,65,67,-1,-1,69,-1,-1,-1,-1,-1,-1,-1,-1,-1,-1,-1,-1,-1,-1,-1,-1,-1,-1,-1,-1,-1,-1,-1,-1,-1,-1,-1,-1,-1,-1,-1],"loss_changes":[3.5530983E1,3.7366726E1,1.8102654E1,3.447692E1,2.1584457E1,1.9391708E1,0E0,4.181408E1,2.872476E1,2.3151428E1,0E0,1.6547691E1,1.2221846E1,3.8583122E1,2.6349943E1,2.368229E1,2.0797562E1,2.3088272E1,9.861212E0,1.4352058E1,4.4955587E-1,0E0,2.939108E0,4.4134575E1,3.329108E1,2.195122E1,2.0694351E0,2.1480122E1,8.897866E0,1.4008482E1,7.602482E0,1.9842728E1,7.0081563E0,1.1685897E1,5.329238E0,7.9563446E0,5.038166E-1,0E0,0E0,2.726389E0,0E0,0E0,0E0,0E0,0E0,0E0,0E0,0E0,0E0,0E0,0E0,0E0,0E0,0E0,0E0,0E0,0E0,0E0,0E0,0E0,0E0,0E0,0E0,0E0,0E0,0E0,0E0,0E0,0E0,0E0,0E0],"parents":[2147483647,0,0,1,1,2,2,3,3,4,4,5,5,7,7,8,8,9,9,11,11,12,12,13,13,14,14,15,15,16,16,17,17,18,18,19,19,20,20,22,22,23,23,24,24,25,25,26,26,27,27,28,28,29,29,30,30,31,31,32,32,33,33,34,34,35,35,36,36,39,39],"right_children":[2,4,6,8,10,12,-1,14,16,18,-1,20,22,24,26,28,30,32,34,36,38,-1,40,42,44,46,48,50,52,54,56,58,60,62,64,66,68,-1,-1,70,-1,-1,-1,-1,-1,-1,-1,-1,-1,-1,-1,-1,-1,-1,-1,-1,-1,-1,-1,-1,-1,-1,-1,-1,-1,-1,-1,-1,-1,-1,-1],"split_conditions":[9.388143E-2,6.436445E-2,1.3756476E-1,1.089848E-1,1.256198E-1,1.2586868E-1,-4.822984E-1,5.2692868E-2,6.0916573E-2,5.4069996E-2,-4.3692732E-1,1.3423035E-1,2.1647247E-2,4.3679975E-2,5.537346E-2,1.0791849E-1,2.3208942E-2,8.411024E-2,2.8083635E-2,1.6660997E-1,4.1700836E-2,3.4381127E-1,2.3298047E-2,5.4499425E-2,7.376066E-2,4.726617E-2,8.182399E-2,1.1029948E-1,5.2196942E-2,8.919425E-2,2.522239E-2,1.2280032E-1,2.2231879E-2,1.10066354E-1,3.480709E-2,1.8762371E-1,2.4335442E-2,-7.5237736E-2,-3.8765475E-1,3.9442086E-1,-4.675268E-1,-1.0236546E-1,1.4118004E-1,9.030199E-2,-2.3262744E-1,1.3566898E-1,-1.24189295E-1,4.592978E-1,7.248026E-2,2.6793766E-1,-3.1690854E-1,4.5394193E-2,-3.434658E-1,2.9489467E-1,-3.4616345E-1,-6.083164E-1,5.575145E-2,3.122143E-1,-3.290534E-1,-3.1975684E-1,2.6898178E-1,1.5444033E-1,-3.6330009E-1,5.4149803E-2,-3.9326382E-1,4.1092244E-1,-1.3121113E-1,-4.2622067E-2,-2.5838077E-1,2.0594835E-1,-2.436878E-1],"split_indices":[168,214,553,173,552,293,0,122,562,362,0,517,292,224,45,481,208,222,115,463,8,0,419,426,532,599,159,602,388,476,599,472,304,104,70,357,31,0,0,293,0,0,0,0,0,0,0,0,0,0,0,0,0,0,0,0,0,0,0,0,0,0,0,0,0,0,0,0,0,0,0],"split_type":[0,0,0,0,0,0,0,0,0,0,0,0,0,0,0,0,0,0,0,0,0,0,0,0,0,0,0,0,0,0,0,0,0,0,0,0,0,0,0,0,0,0,0,0,0,0,0,0,0,0,0,0,0,0,0,0,0,0,0,0,0,0,0,0,0,0,0,0,0,0,0],"sum_hessian":[1.707588E3,1.6377435E3,6.984452E1,1.4990095E3,1.3873404E2,6.747777E1,2.3667586E0,1.3573899E3,1.4161955E2,1.340579E2,4.6761303E0,5.7675312E1,9.802453E0,1.1981406E3,1.5924934E2,1.2037424E2,2.124531E1,9.9306465E1,3.4751446E1,5.474806E1,2.9272518E0,2.5286944E0,7.273759E0,9.470218E2,2.5111876E2,1.4015556E2,1.9093788E1,9.994462E1,2.042962E1,1.1545174E1,9.700136E0,9.031518E1,8.991287E0,2.4079975E1,1.0671473E1,5.0750294E1,3.9977665E0,1.1776527E0,1.749599E0,3.0736403E0,4.2001185E0,8.753755E2,7.164635E1,2.190431E2,3.207565E1,9.983271E1,4.032285E1,1.731279E1,1.7809981E0,9.475769E1,5.186925E0,1.2476127E1,7.953494E0,7.806177E0,3.7389965E0,8.017884E0,1.682252E0,8.653337E1,3.7818048E0,7.4946413E0,1.496646E0,2.024782E1,3.8321552E0,3.0068617E0,7.664611E0,4.863172E1,2.118573E0,2.2559083E0,1.7418582E0,1.1143148E0,1.9593256E0],"tree_param":{"num_deleted":"0","num_feature":"618","num_nodes":"71","size_leaf_vector":"0"}},{"base_weights":[1.9638303E-3,3.517376E-2,-6.0103697E-1,-3.6523454E-2,3.519735E-1,-7.203507E-1,1.8553843E-1,-1.1567996E-1,3.4376672E-1,5.003578E-1,-4.347854E-1,-7.703015E-1,1.0296677E0,-3.8361183E-1,1.4957712E0,-1.9187942E-1,4.1914377E-1,4.1239196E-1,-1.0709169E0,7.112764E-1,-2.3299834E-2,-6.996306E-1,6.107364E-1,-8.0993974E-1,9.0357184E-1,-7.064163E-1,9.7925854E-1,-2.2157952E-1,9.5402706E-1,5.929504E-1,-7.8490025E-1,5.246217E-1,-5.762454E-1,-1.3017858E0,2.2169788E-1,8.9789873E-1,1.3266303E-1,2.2046317E-1,-1.383632E0,-8.7510586E-1,1.2594537E0,1.1561804E0,-5.7094467E-1,-8.5088766E-1,5.909792E-1,-2.579571E-2,-9.5498085E-1,-1.487951E-1,-6.8463963E-1,1.1759108E0,-8.635671E-1,7.1272963E-1,-8.52865E-1,-1.136869E0,7.7749324E-1,7.803084E-1,4.6695825E-3,-8.0038965E-1,1.3510506E0,-1.3830346E0,-3.745903E-1,9.878678E-1,-7.3791325E-1,3.3880028E-1,-1.6953275E0,4.2135403E-1,-1.3722743E0,1.605859E-1,-1.707826E0,-1.0781878E0,9.1534114E-1,1.3509395E0,5.455338E-3,-1.876882E-2,-7.898375E-1,-9.180533E-1,6.858548E-2],"categories":[],"categories_nodes":[],"categories_segments":[],"categories_sizes":[],"default_left":[true,true,true,true,true,true,true,true,true,true,true,true,false,true,false,true,true,true,true,true,true,true,true,true,false,true,false,true,true,true,true,true,true,true,false,true,true,true,true,true,false,true,true,true,false,false,false,false,false,false,false,false,false,false,false,false,false,false,false,false,false,false,false,false,false,false,false,false,false,false,false,false,false,false,false,false,false],"id":10,"left_children":[1,3,5,7,9,11,13,15,17,19,21,23,-1,25,-1,27,29,31,33,35,37,39,41,43,-1,45,-1,47,49,51,53,55,57,59,-1,61,63,65,67,69,-1,71,73,75,-1,-1,-1,-1,-1,-1,-1,-1,-1,-1,-1,-1,-1,-1,-1,-1,-1,-1,-1,-1,-1,-1,-1,-1,-1,-1,-1,-1,-1,-1,-1,-1,-1],"loss_changes":[3.343717E1,3.595734E1,8.313446E0,3.891284E1,3.432344E1,7.426552E0,9.727343E0,4.3671104E1,2.2065495E1,2.7215153E1,1.34116E1,5.6649323E0,0E0,4.806701E0,0E0,3.2098072E1,2.8445892E1,2.3952587E1,3.4467974E0,1.884031E1,2.407244E1,1.4124205E1,7.1128693E0,4.699524E0,0E0,1.3530097E0,0E0,3.070523E1,1.0637468E1,2.0940487E1,1.0395378E1,2.5514599E1,1.0674522E1,1.6932106E-1,0E0,2.0241997E1,1.7151623E1,2.0302797E1,5.795868E0,1.3842649E1,0E0,1.6018305E0,4.4823396E-1,4.47797E0,0E0,0E0,0E0,0E0,0E0,0E0,0E0,0E0,0E0,0E0,0E0,0E0,0E0,0E0,0E0,0E0,0E0,0E0,0E0,0E0,0E0,0E0,0E0,0E0,0E0,0E0,0E0,0E0,0E0,0E0,0E0,0E0,0E0],"parents":[2147483647,0,0,1,1,2,2,3,3,4,4,5,5,6,6,7,7,8,8,9,9,10,10,11,11,13,13,15,15,16,16,17,17,18,18,19,19,20,20,21,21,22,22,23,23,25,25,27,27,28,28,29,29,30,30,31,31,32,32,33,33,35,35,36,36,37,37,38,38,39,39,41,41,42,42,43,43],"right_children":[2,4,6,8,10,12,14,16,18,20,22,24,-1,26,-1,28,30,32,34,36,38,40,42,44,-1,46,-1,48,50,52,54,56,58,60,-1,62,64,66,68,70,-1,72,74,76,-1,-1,-1,-1,-1,-1,-1,-1,-1,-1,-1,-1,-1,-1,-1,-1,-1,-1,-1,-1,-1,-1,-1,-1,-1,-1,-1,-1,-1,-1,-1,-1,-1],"split_conditions":[2.0321779E-1,4.7013305E-2,1.1436798E-1,3.461951E-2,9.791411E-2,6.25968E-2,3.7458763E-2,5.3134833E-2,1.211998E-1,4.7113556E-2,2.1885846E-2,1.816665E-1,3.0890033E-1,2.0619875E-2,4.4873136E-1,1.823788E-1,6.762773E-2,1.2622881E-1,6.3223004E-2,5.1037114E-2,7.650691E-2,9.88881E-2,5.174136E-2,6.729017E-2,2.7107155E-1,9.2252694E-2,2.9377759E-1,6.2847E-2,7.852527E-2,7.823254E-2,4.9992546E-2,3.838943E-2,3.1567097E-2,2.7542377E-2,6.6509366E-2,1.0149892E-1,1.19066894E-1,7.745971E-2,5.989802E-2,2.794221E-2,3.778361E-1,7.275136E-2,3.454006E-2,2.7917521E-2,1.7729378E-1,-7.738713E-3,-2.8649426E-1,-4.463853E-2,-2.053919E-1,3.5277325E-1,-2.5907016E-1,2.138189E-1,-2.558595E-1,-3.410607E-1,2.3324798E-1,2.3409253E-1,1.4008748E-3,-2.4011691E-1,4.053152E-1,-4.149104E-1,-1.123771E-1,2.9636034E-1,-2.2137399E-1,1.0164009E-1,-5.0859827E-1,1.2640621E-1,-4.116823E-1,4.817577E-2,-5.123478E-1,-3.2345635E-1,2.7460235E-1,4.0528187E-1,1.6366014E-3,-5.6306464E-3,-2.3695125E-1,-2.7541602E-1,2.0575644E-2],"split_indices":[291,12,172,608,295,301,372,457,141,282,64,476,0,464,0,172,192,170,608,464,420,588,538,314,0,176,0,67,402,138,427,238,194,128,0,517,317,188,282,193,0,88,13,540,0,0,0,0,0,0,0,0,0,0,0,0,0,0,0,0,0,0,0,0,0,0,0,0,0,0,0,0,0,0,0,0,0],"split_type":[0,0,0,0,0,0,0,0,0,0,0,0,0,0,0,0,0,0,0,0,0,0,0,0,0,0,0,0,0,0,0,0,0,0,0,0,0,0,0,0,0,0,0,0,0,0,0,0,0,0,0,0,0,0,0,0,0,0,0,0,0,0,0,0,0,0,0,0,0,0,0,0,0,0,0,0,0],"sum_hessian":[1.6676643E3,1.5815054E3,8.615885E1,1.2903596E3,2.911458E2,7.488406E1,1.1274789E1,1.0686239E3,2.2173573E2,2.4525436E2,4.5891445E1,7.335026E1,1.5338073E0,8.35339E0,2.9213989E0,9.3591925E2,1.3270465E2,2.1215285E2,9.582887E0,1.7457916E2,7.067521E1,3.6880047E1,9.011398E0,7.215765E1,1.192604E0,7.1431575E0,1.210232E0,9.130608E2,2.285847E1,1.16408356E2,1.6296293E1,1.9094606E2,2.120678E1,8.124675E0,1.4582118E0,1.3158632E2,4.2992832E1,6.0645794E1,1.0029413E1,3.4356083E1,2.5239656E0,6.1802707E0,2.831128E0,7.048991E1,1.6677496E0,2.206122E0,4.9370356E0,7.901805E2,1.228803E2,2.0686228E1,2.1722424E0,1.0797053E2,8.437827E0,1.3522387E1,2.7739065E0,1.2766569E2,6.328038E1,1.9521177E1,1.6856009E0,7.018061E0,1.1066135E0,1.2510187E2,6.4844537E0,3.936807E1,3.6247644E0,5.4506393E1,6.1394005E0,1.8278008E0,8.201612E0,3.1213491E1,3.142589E0,5.1368704E0,1.0434003E0,1.1119312E0,1.7191968E0,6.5692726E1,4.7971783E0],"tree_param":{"num_deleted":"0","num_feature":"618","num_nodes":"77","size_leaf_vector":"0"}},{"base_weights":[1.4986E-3,-4.0097564E-2,4.688115E-1,-6.492329E-2,7.7966225E-1,6.7242265E-1,-4.7839877E-1,-8.6145505E-2,1.0756075E0,1.0380497E0,-9.2850465E-1,8.12389E-1,-6.106194E-1,-8.0529225E-1,7.1524924E-1,-1.0772284E-1,9.0408397E-1,1.310225E0,-5.1551056E-1,1.2608316E0,-6.3444376E-2,5.3275187E-2,-1.1831844E0,9.446181E-1,-6.515849E-1,-1.0368698E0,9.414371E-1,-1.0206269E0,8.754527E-1,1.4202449E0,-7.077297E-1,-1.4804357E-1,4.040735E-1,1.0349425E0,-1.0084369E0,1.4230509E0,-2.612069E-1,1.2993106E-1,-1.0153316E0,1.4260492E0,-3.4565884E-1,8.9259887E-1,-6.273375E-1,1.1391593E0,-8.271085E-2,2.1543203E-1,-1.5428613E0,-1.3714278E0,6.0413826E-1,-1.147935E0,-4.584864E-3,-1.8717775E-1,3.227791E-1,5.857721E-1,-3.6895272E-1,1.1034969E0,-4.372193E-1,1.496154E0,-2.7576024E-2,1.5691158E0,-1.8099302E-1,3.3773452E-1,-7.735276E-1,8.853096E-2,-9.701854E-1,1.3126001E0,-1.3666707E-1,-4.8128366E-1,1.7898058E0,9.568415E-1,-6.7011327E-1,-1.552738E0,-4.1116217E-1,-1.1964693E0,-2.3877673E-1],"categories":[],"categories_nodes":[],"categories_segments":[],"categories_sizes":[],"default_left":[true,true,true,true,true,true,true,true,true,true,true,true,true,true,true,true,true,true,true,true,true,false,false,true,true,true,false,true,false,false,false,true,true,true,false,true,false,false,false,true,true,false,true,true,true,true,false,true,false,true,false,false,false,false,false,false,false,false,false,false,false,false,false,false,false,false,false,false,false,false,false,false,false,false,false],"id":11,"left_children":[1,3,5,7,9,11,13,15,17,19,21,23,25,27,29,31,33,35,37,39,41,-1,-1,43,45,47,-1,49,-1,-1,-1,51,53,55,-1,57,-1,-1,-1,59,61,-1,63,65,67,69,-1,71,-1,73,-1,-1,-1,-1,-1,-1,-1,-1,-1,-1,-1,-1,-1,-1,-1,-1,-1,-1,-1,-1,-1,-1,-1,-1,-1],"loss_changes":[3.1527842E1,3.0361528E1,2.5889486E1,3.510558E1,2.0320576E1,2.0165852E1,9.956092E0,3.046011E1,1.0567501E1,9.543819E0,1.6358209E0,1.9815971E1,8.481111E0,7.8937283E0,6.721085E0,2.8777521E1,8.654625E0,4.516205E0,1.4619846E0,9.019821E0,4.570922E0,0E0,0E0,1.8356827E1,7.139057E0,5.9760075E0,0E0,2.272192E0,0E0,0E0,0E0,2.3842505E1,1.4528488E1,3.4048958E0,0E0,2.3705444E0,0E0,0E0,0E0,7.0262794E0,1.3725978E0,0E0,1.3786039E0,1.7195145E1,1.2415506E1,4.1487684E0,0E0,7.707691E-1,0E0,4.045372E-1,0E0,0E0,0E0,0E0,0E0,0E0,0E0,0E0,0E0,0E0,0E0,0E0,0E0,0E0,0E0,0E0,0E0,0E0,0E0,0E0,0E0,0E0,0E0,0E0,0E0],"parents":[2147483647,0,0,1,1,2,2,3,3,4,4,5,5,6,6,7,7,8,8,9,9,10,10,11,11,12,12,13,13,14,14,15,15,16,16,17,17,18,18,19,19,20,20,23,23,24,24,25,25,27,27,31,31,32,32,33,33,35,35,39,39,40,40,42,42,43,43,44,44,45,45,47,47,49,49],"right_children":[2,4,6,8,10,12,14,16,18,20,22,24,26,28,30,32,34,36,38,40,42,-1,-1,44,46,48,-1,50,-1,-1,-1,52,54,56,-1,58,-1,-1,-1,60,62,-1,64,66,68,70,-1,72,-1,74,-1,-1,-1,-1,-1,-1,-1,-1,-1,-1,-1,-1,-1,-1,-1,-1,-1,-1,-1,-1,-1,-1,-1,-1,-1],"split_conditions":[6.4080544E-2,8.38267E-2,7.319507E-2,1.2658113E-1,1.02092765E-1,8.029795E-2,6.098497E-2,1.3986415E-1,9.118247E-2,6.3146845E-2,6.9952205E-2,7.921328E-2,2.7858298E-2,5.1844202E-2,1.1933245E-1,5.7532106E-2,2.2096834E-1,9.1416925E-2,3.6390923E-2,7.749796E-2,1.4514714E-1,1.5982557E-2,-3.5495532E-1,1.0656354E-1,6.296386E-2,6.2431082E-2,2.8243116E-1,2.2347651E-2,2.6263583E-1,4.260735E-1,-2.1231891E-1,7.0340365E-2,5.4778583E-2,1.5735567E-1,-3.025311E-1,1.1677267E-1,-7.836207E-2,3.897932E-2,-3.045995E-1,7.73488E-2,3.393097E-2,2.6777968E-1,6.079275E-2,3.2236595E-2,5.1620234E-2,1.24019526E-1,-4.628584E-1,3.5284467E-2,1.8124148E-1,3.4366887E-2,-1.3754591E-3,-5.6153327E-2,9.683373E-2,1.7573163E-1,-1.1068582E-1,3.3104908E-1,-1.3116579E-1,4.488462E-1,-8.272807E-3,4.7073475E-1,-5.429791E-2,1.0132036E-1,-2.320583E-1,2.6559288E-2,-2.9105562E-1,3.9378005E-1,-4.1000124E-2,-1.443851E-1,5.3694177E-1,2.8705248E-1,-2.01034E-1,-4.6582142E-1,-1.2334865E-1,-3.589408E-1,-7.163302E-2],"split_indices":[153,288,290,462,190,194,291,277,298,283,28,424,64,85,42,384,112,151,215,121,288,0,0,294,414,40,0,275,0,0,0,50,375,614,0,156,0,0,0,538,47,0,455,181,110,575,0,285,0,77,0,0,0,0,0,0,0,0,0,0,0,0,0,0,0,0,0,0,0,0,0,0,0,0,0],"split_type":[0,0,0,0,0,0,0,0,0,0,0,0,0,0,0,0,0,0,0,0,0,0,0,0,0,0,0,0,0,0,0,0,0,0,0,0,0,0,0,0,0,0,0,0,0,0,0,0,0,0,0,0,0,0,0,0,0,0,0,0,0,0,0,0,0,0,0,0,0,0,0,0,0,0,0],"sum_hessian":[1.6199668E3,1.4883967E3,1.3157005E2,1.4455406E3,4.2856155E1,1.08530556E2,2.303949E1,1.4200419E3,2.5498693E1,3.7566E1,5.290154E0,9.8186295E1,1.0344262E1,1.8341753E1,4.6977367E0,1.390631E3,2.941097E1,2.2375818E1,3.1228752E0,3.1125984E1,6.440019E0,1.2525275E0,4.0376263E0,9.037794E1,7.8083596E0,8.375883E0,1.9683793E0,1.660686E1,1.7348939E0,3.1426663E0,1.5550703E0,1.2897329E3,1.00898E2,2.7956959E1,1.454013E0,2.0964994E1,1.4108242E0,1.6858743E0,1.4370009E0,2.832523E1,2.800755E0,2.1729705E0,4.2670484E0,7.58968E1,1.4481136E1,4.3424215E0,3.465938E0,7.0939016E0,1.2819813E0,1.4642386E1,1.9644736E0,1.1913148E3,9.841811E1,8.1891716E1,1.9006285E1,2.6952291E1,1.0046666E0,1.992929E1,1.0357033E0,2.6031391E1,2.2938385E0,1.1594833E0,1.6412716E0,1.622026E0,2.6450226E0,6.678849E1,9.108311E0,1.2552302E1,1.928834E0,2.3197417E0,2.02268E0,5.448221E0,1.6456803E0,1.360033E1,1.0420556E0],"tree_param":{"num_deleted":"0","num_feature":"618","num_nodes":"75","size_leaf_vector":"0"}},{"base_weights":[4.0975926E-3,-4.143744E-2,4.010033E-1,-1.7152077E-2,-8.585554E-1,5.467486E-1,-5.570623E-1,-7.531058E-2,3.2164937E-1,-1.0536621E0,6.793E-2,6.306279E-1,-1.1589688E0,-9.4992435E-1,1.0963582E0,-1.9624365E-2,-5.2363104E-1,4.9750262E-1,-6.1987084E-1,-1.1349099E0,4.2392647E-1,-3.5811642E-1,1.0071126E0,7.1334374E-1,-8.812903E-1,3.4535483E-1,-1.7686329E0,-1.2812247E0,9.732709E-1,3.2467928E-2,-6.338563E-1,-6.045648E-1,1.155382E0,8.3434576E-1,9.658922E-2,-7.8567696E-1,9.8984116E-1,-1.2255446E0,-3.9049454E-2,-7.00565E-1,5.090772E-1,8.7756497E-1,-1.1130548E-1,8.529407E-2,-1.261388E0,-1.4329337E0,4.6000603E-1,-2.6049174E-2,6.9140095E-1,-6.958226E-1,8.60702E-1,-6.4608186E-1,1.3058426E0,1.5011489E0,-3.257487E-1,9.6174127E-1,-7.447344E-1,3.1234443E-1,-8.583105E-1,-9.197395E-1,1.1297289E0,-1.2761912E0,3.221047E-3,7.3863506E-1,-7.103709E-1,-6.2633224E-2,-8.5261554E-1,9.5152557E-1,-1.0703732E0,2.899597E-1,-1.160309E0,6.714952E-1,-5.43331E-1,-1.395349E0,-3.6083224E-1,-1.591776E0,9.63649E-2],"categories":[],"categories_nodes":[],"categories_segments":[],"categories_sizes":[],"default_left":[true,true,true,true,true,true,true,true,true,true,true,true,true,true,false,true,true,true,true,true,false,true,false,true,true,false,false,true,false,true,true,true,true,true,true,true,false,true,true,true,false,true,true,true,true,true,false,false,false,false,false,false,false,false,false,false,false,false,false,false,false,false,false,false,false,false,false,false,false,false,false,false,false,false,false,false,false],"id":12,"left_children":[1,3,5,7,9,11,13,15,17,19,21,23,25,27,-1,29,31,33,35,37,-1,39,-1,41,43,-1,-1,45,-1,47,49,51,53,55,57,59,-1,61,63,65,-1,67,69,71,73,75,-1,-1,-1,-1,-1,-1,-1,-1,-1,-1,-1,-1,-1,-1,-1,-1,-1,-1,-1,-1,-1,-1,-1,-1,-1,-1,-1,-1,-1,-1,-1],"loss_changes":[2.8587004E1,2.8144596E1,2.30353E1,2.7198208E1,7.47151E0,2.1018661E1,1.5325177E1,2.9395222E1,3.379328E1,4.548012E0,3.5860167E0,1.7611797E1,7.029419E0,1.2909252E1,0E0,3.3577408E1,1.8377491E1,2.300761E1,9.391655E0,3.1684914E0,0E0,2.2224567E0,0E0,1.7609306E1,2.8599348E0,0E0,0E0,4.8977737E0,0E0,3.7332108E1,8.196724E0,1.073996E1,3.7288618E0,1.937983E1,1.6583286E1,8.695765E0,0E0,1.8633881E0,2.3554082E0,4.2431593E-1,0E0,1.6570488E1,9.749116E0,1.4891831E0,1.5283585E-1,3.797802E0,0E0,0E0,0E0,0E0,0E0,0E0,0E0,0E0,0E0,0E0,0E0,0E0,0E0,0E0,0E0,0E0,0E0,0E0,0E0,0E0,0E0,0E0,0E0,0E0,0E0,0E0,0E0,0E0,0E0,0E0,0E0],"parents":[2147483647,0,0,1,1,2,2,3,3,4,4,5,5,6,6,7,7,8,8,9,9,10,10,11,11,12,12,13,13,15,15,16,16,17,17,18,18,19,19,21,21,23,23,24,24,27,27,29,29,30,30,31,31,32,32,33,33,34,34,35,35,37,37,38,38,39,39,41,41,42,42,43,43,44,44,45,45],"right_children":[2,4,6,8,10,12,14,16,18,20,22,24,26,28,-1,30,32,34,36,38,-1,40,-1,42,44,-1,-1,46,-1,48,50,52,54,56,58,60,-1,62,64,66,-1,68,70,72,74,76,-1,-1,-1,-1,-1,-1,-1,-1,-1,-1,-1,-1,-1,-1,-1,-1,-1,-1,-1,-1,-1,-1,-1,-1,-1,-1,-1,-1,-1,-1,-1],"split_conditions":[6.1004385E-2,2.8258657E-1,7.019164E-2,5.2793764E-2,6.7182064E-2,1.15439646E-1,2.0901263E-2,1.0539114E-1,6.367616E-2,5.86109E-2,3.743444E-1,1.4324754E-1,8.763467E-2,2.8568905E-2,3.2890746E-1,1.7743254E-1,1.2825686E-1,1.1642581E-2,2.2257192E-2,5.89984E-2,1.2717795E-1,8.736653E-2,3.021338E-1,5.573513E-2,3.2065287E-2,1.03606455E-1,-5.305899E-1,3.1501763E-2,2.9198128E-1,6.5894745E-2,6.502126E-2,1.0257914E-1,6.91489E-2,1.1132233E-1,1.2453449E-1,6.8764836E-2,2.9695237E-1,5.381535E-2,3.9999247E-2,1.4760458E-1,1.5272316E-1,1.3780938E-1,2.436397E-2,1.0122544E-1,4.564227E-2,2.4076039E-2,1.3800181E-1,-7.814753E-3,2.0742029E-1,-2.0874679E-1,2.582106E-1,-1.9382457E-1,3.917528E-1,4.503447E-1,-9.772462E-2,2.885224E-1,-2.2342034E-1,9.370333E-2,-2.5749317E-1,-2.7592185E-1,3.389187E-1,-3.8285738E-1,9.6631417E-4,2.2159053E-1,-2.1311128E-1,-1.8789968E-2,-2.5578466E-1,2.8545767E-1,-3.2111198E-1,8.698791E-2,-3.480927E-1,2.0144857E-1,-1.6299932E-1,-4.1860473E-1,-1.0824968E-1,-4.7753283E-1,2.890947E-2],"split_indices":[267,178,104,167,291,271,189,291,91,345,178,35,492,326,0,294,548,291,378,143,0,290,0,491,190,0,0,574,0,363,93,5,585,219,463,517,0,471,91,173,0,240,506,202,125,502,0,0,0,0,0,0,0,0,0,0,0,0,0,0,0,0,0,0,0,0,0,0,0,0,0,0,0,0,0,0,0],"split_type":[0,0,0,0,0,0,0,0,0,0,0,0,0,0,0,0,0,0,0,0,0,0,0,0,0,0,0,0,0,0,0,0,0,0,0,0,0,0,0,0,0,0,0,0,0,0,0,0,0,0,0,0,0,0,0,0,0,0,0,0,0,0,0,0,0,0,0,0,0,0,0,0,0,0,0,0,0],"sum_hessian":[1.5798226E3,1.4180342E3,1.6178847E2,1.3780972E3,3.9937096E1,1.4079883E2,2.0989632E1,1.1768562E3,2.0124089E2,3.2876442E1,7.0606537E0,1.3480026E2,5.99857E0,1.7303663E1,3.6859682E0,1.0477573E3,1.2909892E2,1.6996678E2,3.1274094E1,3.1382727E1,1.4937165E0,5.282857E0,1.7777969E0,1.2830878E2,6.491487E0,1.8549881E0,4.143582E0,1.5045624E1,2.258039E0,9.667182E2,8.10391E1,1.2377262E2,5.326303E0,9.177625E1,7.819054E1,2.8817684E1,2.4564106E0,2.8876144E1,2.5065818E0,3.9250355E0,1.3578216E0,1.0694708E2,2.1361687E1,2.051117E0,4.44037E0,1.4002665E1,1.042959E0,8.8875226E2,7.796593E1,7.8326035E1,2.7130682E0,1.2178773E2,1.9848876E0,4.3072653E0,1.0190377E0,8.528654E1,6.4897184E0,6.4328674E1,1.3861864E1,2.741844E1,1.3992431E0,2.769599E1,1.1801546E0,1.1148391E0,1.3917427E0,1.0272224E0,2.897813E0,1.03527794E2,3.4192884E0,1.5974646E1,5.387042E0,1.0260838E0,1.0250332E0,3.3870957E0,1.0532744E0,1.2648101E1,1.3545636E0],"tree_param":{"num_deleted":"0","num_feature":"618","num_nodes":"77","size_leaf_vector":"0"}},{"base_weights":[2.1741658E-3,2.803068E-2,-7.051899E-1,-3.7485648E-2,3.0434754E-1,-7.721481E-1,1.0051104E0,-7.5444974E-2,6.0498893E-1,3.6846954E-1,-9.487753E-1,-8.458933E-1,5.088356E-1,-1.2550311E-1,4.1332343E-1,9.1509664E-1,-8.007606E-1,4.5379555E-1,-6.48528E-1,-1.1115588E0,1.1990304E-1,-8.9792323E-1,8.507383E-1,1.0063229E0,-3.381816E-1,-1.4564389E-1,1.2409691E0,6.014517E-1,-5.754466E-1,1.1434616E0,-4.6026078E-1,-1.2052568E0,8.9161956E-1,5.053001E-1,-1.1079646E0,-9.238761E-1,1.212823E0,-1.1987431E0,-1.0285978E-1,-9.542951E-1,7.2508866E-1,-1.6157311E-1,1.5216894E0,1.5094682E0,-5.2924246E-1,7.254051E-1,-5.9802663E-1,1.11218214E-1,-1.3203298E0,1.266881E0,-2.1884744E-1,4.452088E-1,-1.1436251E0,-1.4580303E0,1.865681E-1,5.919535E-1,-3.8833085E-1,-1.3230907E0,-4.111667E-2,-1.1735876E0,9.754852E-1,-1.2597964E0,-3.2236406E-1,-1.0027859E0,6.34768E-1],"categories":[],"categories_nodes":[],"categories_segments":[],"categories_sizes":[],"default_left":[true,true,true,true,true,true,false,true,true,true,true,true,true,true,true,true,true,true,true,true,false,true,false,false,false,true,true,true,true,true,true,true,false,true,true,true,false,true,false,true,false,false,false,false,false,false,false,false,false,false,false,false,false,false,false,false,false,false,false,false,false,false,false,false,false],"id":13,"left_children":[1,3,5,7,9,11,-1,13,15,17,19,21,23,25,27,29,31,33,35,37,-1,39,-1,-1,-1,41,43,45,47,49,51,53,-1,55,57,59,-1,61,-1,63,-1,-1,-1,-1,-1,-1,-1,-1,-1,-1,-1,-1,-1,-1,-1,-1,-1,-1,-1,-1,-1,-1,-1,-1,-1],"loss_changes":[2.7962479E1,2.6710974E1,6.9502125E0,2.9142035E1,2.307187E1,5.385002E0,0E0,2.7635735E1,2.9795784E1,2.3701027E1,2.5766296E0,5.1749E0,1.8064842E0,2.8347317E1,1.9872269E1,1.7827915E1,9.688006E0,2.0624699E1,1.2032433E1,9.571619E-1,0E0,5.1721725E0,0E0,0E0,0E0,2.7056353E1,7.9143524E0,1.36186905E1,8.990774E0,8.268551E0,5.8039837E0,3.9943676E0,0E0,1.8982483E1,1.845212E0,1.0210783E1,0E0,1.9393921E-1,0E0,4.3163986E0,0E0,0E0,0E0,0E0,0E0,0E0,0E0,0E0,0E0,0E0,0E0,0E0,0E0,0E0,0E0,0E0,0E0,0E0,0E0,0E0,0E0,0E0,0E0,0E0,0E0],"parents":[2147483647,0,0,1,1,2,2,3,3,4,4,5,5,7,7,8,8,9,9,10,10,11,11,12,12,13,13,14,14,15,15,16,16,17,17,18,18,19,19,21,21,25,25,26,26,27,27,28,28,29,29,30,30,31,31,33,33,34,34,35,35,37,37,39,39],"right_children":[2,4,6,8,10,12,-1,14,16,18,20,22,24,26,28,30,32,34,36,38,-1,40,-1,-1,-1,42,44,46,48,50,52,54,-1,56,58,60,-1,62,-1,64,-1,-1,-1,-1,-1,-1,-1,-1,-1,-1,-1,-1,-1,-1,-1,-1,-1,-1,-1,-1,-1,-1,-1,-1,-1],"split_conditions":[2.3348203E-1,4.527207E-2,4.702275E-2,6.4783536E-2,1.7606589E-1,6.9403045E-2,3.0153313E-1,6.7032814E-2,7.116155E-2,7.629247E-2,9.700774E-2,6.486604E-2,6.736399E-2,1.1942355E-1,6.528124E-2,7.736616E-2,2.6165614E-2,2.1099842E-1,5.8612887E-2,2.2769528E-2,3.5970915E-2,1.942654E-1,2.552215E-1,3.0189687E-1,-1.0145449E-1,1.2608245E-1,3.0232416E-2,7.896149E-2,2.8164385E-2,8.66088E-2,3.1174123E-2,2.7106065E-2,2.674859E-1,7.2577715E-2,2.4917142E-2,2.1933734E-2,3.6384693E-1,3.031772E-2,-3.0857936E-2,5.564001E-2,2.175266E-1,-4.8471935E-2,4.5650685E-1,4.5284048E-1,-1.5877274E-1,2.1762154E-1,-1.79408E-1,3.3365466E-2,-3.9609894E-1,3.800643E-1,-6.565423E-2,1.3356264E-1,-3.4308755E-1,-4.3740913E-1,5.597043E-2,1.7758606E-1,-1.1649926E-1,-3.969272E-1,-1.23350015E-2,-3.520763E-1,2.9264557E-1,-3.7793893E-1,-9.670922E-2,-3.008358E-1,1.9043042E-1],"split_indices":[290,524,497,281,175,196,0,357,594,430,293,208,328,45,599,420,45,177,190,35,0,357,0,0,0,241,102,387,90,494,385,313,0,109,225,482,0,333,0,381,0,0,0,0,0,0,0,0,0,0,0,0,0,0,0,0,0,0,0,0,0,0,0,0,0],"split_type":[0,0,0,0,0,0,0,0,0,0,0,0,0,0,0,0,0,0,0,0,0,0,0,0,0,0,0,0,0,0,0,0,0,0,0,0,0,0,0,0,0,0,0,0,0,0,0,0,0,0,0,0,0,0,0,0,0,0,0,0,0,0,0,0,0],"sum_hessian":[1.5267616E3,1.4738479E3,5.2913685E1,1.1920664E3,2.8178152E2,5.144803E1,1.4656572E0,1.1263981E3,6.56684E1,2.687363E2,1.3045216E1,4.8968594E1,2.4794326E0,1.0224274E3,1.039706E2,5.4086075E1,1.158233E1,2.4844553E2,2.0290768E1,1.1285985E1,1.7592311E0,4.796833E1,1.0002639E0,1.4435179E0,1.0359147E0,1.0084569E3,1.3970486E1,8.767991E1,1.6290691E1,4.6528988E1,7.557087E0,9.580359E0,2.0019703E0,2.411686E2,7.2769346E0,1.8114725E1,2.1760435E0,1.0214698E1,1.071287E0,4.675637E1,1.2119615E0,9.9980817E2,8.648783E0,1.2258462E1,1.712024E0,7.9825966E1,7.8539395E0,8.919244E0,7.3714466E0,4.2728058E1,3.8009317E0,3.4002295E0,4.1568575E0,8.067609E0,1.5127503E0,2.2015796E2,2.101064E1,5.8559217E0,1.4210125E0,1.6347599E1,1.7671248E0,9.140425E0,1.0742731E0,4.5729855E1,1.0265151E0],"tree_param":{"num_deleted":"0","num_feature":"618","num_nodes":"65","size_leaf_vector":"0"}},{"base_weights":[2.5110426E-3,7.806517E-2,-2.3240332E-1,1.2842904E-2,4.7002673E-1,-2.7298376E-1,9.012756E-1,-4.6880357E-2,5.3185177E-1,6.2370545E-1,-5.27408E-1,-1.6559565E-1,-6.8987215E-1,1.3544538E0,-3.0496308E-1,-7.3116064E-2,1.2278564E0,9.2645544E-1,-3.1198177E-1,8.091857E-1,-1.778926E-1,-7.954828E-1,9.289938E-1,-2.4104694E-1,6.399241E-1,-7.909736E-1,9.184779E-1,1.446026E0,2.931283E-1,3.3103782E-1,-7.469265E-1,-1.3582973E-1,4.31181E-1,1.5430559E0,-6.816709E-1,1.1048548E0,-4.6229628E-1,-6.383161E-1,7.4939233E-1,9.218856E-1,-7.034997E-1,-3.7261003E-1,1.5495406E0,-9.801682E-1,7.725811E-1,-2.8449255E-1,1.6898996E0,9.717789E-1,-6.649201E-1,-8.6655676E-1,9.211571E-1,-1.7285383E-1,9.0741193E-1,5.327612E-1,-1.6202292E0,1.2348483E0,-5.466786E-1,-8.222297E-1,8.286141E-1,-8.926913E-1,9.7784024E-1,1.2749462E0,-8.901727E-1,9.8961174E-1,-1.2734274E0,7.951097E-1,-1.2352558E0,-6.001831E-1,1.2582287E0,-1.1403785E0,7.870478E-1,-3.1839517E-1,1.5229195E0,1.3267742E0,-1.9738016E-1,4.1296944E-2,-8.9823496E-1,-9.5070493E-1,5.283318E-1],"categories":[],"categories_nodes":[],"categories_segments":[],"categories_sizes":[],"default_left":[true,true,true,true,true,true,true,true,true,true,true,true,true,true,true,true,true,true,true,true,true,true,false,true,true,true,false,false,false,false,false,true,true,false,false,true,true,true,true,true,true,true,false,true,false,true,false,true,true,true,false,false,false,false,false,false,false,false,false,false,false,false,false,false,false,false,false,false,false,false,false,false,false,false,false,false,false,false,false],"id":14,"left_children":[1,3,5,7,9,11,13,15,17,19,21,23,25,27,29,31,33,35,37,39,41,43,-1,45,47,49,-1,-1,-1,-1,-1,51,53,-1,-1,55,57,59,61,63,65,67,-1,69,-1,71,-1,73,75,77,-1,-1,-1,-1,-1,-1,-1,-1,-1,-1,-1,-1,-1,-1,-1,-1,-1,-1,-1,-1,-1,-1,-1,-1,-1,-1,-1,-1,-1],"loss_changes":[2.6497265E1,2.8871162E1,1.6960175E1,3.0075138E1,2.5025902E1,1.5622993E1,7.4034243E0,2.9196842E1,3.3628952E1,2.096912E1,9.348583E0,1.7222712E1,1.2383228E1,4.97406E-1,1.458339E0,2.705874E1,1.1649511E1,1.747554E1,1.1787524E1,2.0070778E1,9.706035E0,6.3067017E0,0E0,2.2083523E1,1.117973E1,9.595966E0,0E0,0E0,0E0,0E0,0E0,2.9514214E1,2.0589733E1,0E0,0E0,1.3765648E1,4.6307406E0,1.1361553E1,8.147499E0,1.7088753E1,7.7291408E0,1.0106402E1,0E0,5.876072E0,0E0,1.5969257E1,0E0,8.47974E0,9.476235E-1,8.2052E0,0E0,0E0,0E0,0E0,0E0,0E0,0E0,0E0,0E0,0E0,0E0,0E0,0E0,0E0,0E0,0E0,0E0,0E0,0E0,0E0,0E0,0E0,0E0,0E0,0E0,0E0,0E0,0E0,0E0],"parents":[2147483647,0,0,1,1,2,2,3,3,4,4,5,5,6,6,7,7,8,8,9,9,10,10,11,11,12,12,13,13,14,14,15,15,16,16,17,17,18,18,19,19,20,20,21,21,23,23,24,24,25,25,31,31,32,32,35,35,36,36,37,37,38,38,39,39,40,40,41,41,43,43,45,45,47,47,48,48,49,49],"right_children":[2,4,6,8,10,12,14,16,18,20,22,24,26,28,30,32,34,36,38,40,42,44,-1,46,48,50,-1,-1,-1,-1,-1,52,54,-1,-1,56,58,60,62,64,66,68,-1,70,-1,72,-1,74,76,78,-1,-1,-1,-1,-1,-1,-1,-1,-1,-1,-1,-1,-1,-1,-1,-1,-1,-1,-1,-1,-1,-1,-1,-1,-1,-1,-1,-1,-1],"split_conditions":[5.3170796E-2,3.496068E-2,1.0298444E-1,4.8788816E-2,7.091057E-2,5.5804685E-2,6.4288564E-2,1.522288E-1,5.1986653E-2,6.8550244E-2,1.8567555E-2,6.150664E-2,1.07387796E-1,6.433575E-2,2.8195886E-2,5.9131492E-2,7.243109E-2,8.519576E-2,2.2491451E-2,1.6069236E-1,5.520645E-2,4.8924994E-2,2.7869815E-1,9.48686E-2,5.5610374E-2,8.8778004E-2,2.755434E-1,4.3380782E-1,8.7938495E-2,9.931135E-2,-2.2407795E-1,7.586654E-2,1.8864948E-1,4.629168E-1,-2.0450129E-1,1.1565536E-1,2.3592731E-2,2.171055E-2,6.687598E-2,2.0096947E-1,5.8805138E-2,6.0560375E-2,4.648622E-1,2.9140247E-2,2.3177435E-1,1.13826975E-1,5.0696987E-1,4.8277967E-2,6.444646E-2,6.5018594E-2,2.7634716E-1,-5.185615E-2,2.722236E-1,1.5982836E-1,-4.860688E-1,3.704545E-1,-1.6400358E-1,-2.4666892E-1,2.4858424E-1,-2.678074E-1,2.933521E-1,3.8248387E-1,-2.6705182E-1,2.9688352E-1,-3.8202822E-1,2.3853292E-1,-3.7057677E-1,-1.8005495E-1,3.7746862E-1,-3.4211355E-1,2.3611435E-1,-9.551855E-2,4.568759E-1,3.9803228E-1,-5.9214048E-2,1.2389083E-2,-2.694705E-1,-2.852115E-1,1.5849955E-1],"split_indices":[293,59,230,265,554,471,422,167,353,294,66,616,173,463,235,543,105,67,591,295,5,362,0,319,514,257,0,0,0,0,0,428,20,0,0,202,12,163,523,561,465,173,0,73,0,556,0,98,295,309,0,0,0,0,0,0,0,0,0,0,0,0,0,0,0,0,0,0,0,0,0,0,0,0,0,0,0,0,0],"split_type":[0,0,0,0,0,0,0,0,0,0,0,0,0,0,0,0,0,0,0,0,0,0,0,0,0,0,0,0,0,0,0,0,0,0,0,0,0,0,0,0,0,0,0,0,0,0,0,0,0,0,0,0,0,0,0,0,0,0,0,0,0,0,0,0,0,0,0,0,0,0,0,0,0,0,0,0,0,0,0],"sum_hessian":[1.4908865E3,1.1285767E3,3.623098E2,9.6845825E2,1.6011836E2,3.5052194E2,1.1787855E1,8.6933234E2,9.912592E1,1.3906653E2,2.1051844E1,2.798352E2,7.068676E1,8.479335E0,3.30852E0,8.527248E2,1.6607523E1,6.7474686E1,3.1651241E1,1.1292708E2,2.6139442E1,1.8162533E1,2.889312E0,2.5650928E2,2.3325909E1,6.6984314E1,3.7024486E0,7.472158E0,1.007177E0,1.4593899E0,1.84913E0,7.590599E2,9.366495E1,1.4419293E1,2.1882293E0,5.997474E1,7.499945E0,2.4512978E1,7.138263E0,1.05460495E2,7.4665833E0,2.4196316E1,1.9431267E0,1.6584179E1,1.578354E0,2.5169882E2,4.8104687E0,1.8799877E1,4.52603E0,6.462526E1,2.3590534E0,7.338502E2,2.520964E1,8.995111E1,3.7138376E0,5.5832428E1,4.1423106E0,6.148636E0,1.3513091E0,2.1566206E1,2.9467716E0,5.5739503E0,1.5643127E0,1.0283715E2,2.6233437E0,1.8258034E0,5.6407795E0,2.1787928E1,2.408387E0,1.55309E1,1.0532786E0,2.4787317E2,3.825652E0,1.4317731E1,4.4821467E0,1.3283298E0,3.1977005E0,6.1248795E1,3.3764617E0],"tree_param":{"num_deleted":"0","num_feature":"618","num_nodes":"79","size_leaf_vector":"0"}},{"base_weights":[6.268819E-3,2.4288947E-2,-7.653993E-1,4.9309682E-2,-5.803098E-1,-1.2485328E0,3.3742112E-1,7.165496E-2,-6.942975E-1,-6.737396E-1,7.5416017E-1,-1.3489906E0,1.9801144E-1,-7.4773335E-1,9.512535E-1,8.235919E-2,-1.3822039E0,-8.098317E-1,4.037713E-1,-7.445682E-1,9.963337E-1,1.2573234E0,-4.0824473E-1,-1.4273499E0,-1.3102442E-1,-8.5741735E-1,-1.9970888E-1,1.4408447E0,-3.037686E-1,5.6941524E-2,7.622285E-1,-3.914006E-1,-1.623495E0,-8.816876E-1,4.927492E-1,1.6663569E0,-7.6735705E-1,-8.152013E-1,6.1184496E-1,-1.4767933E0,-3.0219442E-1,1.329966E-2,4.5189518E-1,1.0281789E0,-1.1233499E0,-9.3899965E-1,3.5599E-1,-8.6819655E-1,7.7760327E-1,9.0400755E-1,4.3471595E-3],"categories":[],"categories_nodes":[],"categories_segments":[],"categories_sizes":[],"default_left":[true,true,true,true,true,true,true,true,true,true,true,true,false,true,true,true,true,true,true,true,false,false,false,true,false,false,false,false,false,true,true,false,false,true,false,false,false,true,true,false,false,false,false,false,false,false,false,false,false,false,false],"id":15,"left_children":[1,3,5,7,9,11,13,15,17,19,21,23,-1,25,27,29,31,33,35,37,-1,-1,-1,39,-1,-1,-1,-1,-1,41,43,-1,-1,45,-1,-1,-1,47,49,-1,-1,-1,-1,-1,-1,-1,-1,-1,-1,-1,-1],"loss_changes":[2.0000912E1,2.1285488E1,1.7909227E1,2.2485832E1,7.4800987E0,3.6146584E0,7.895831E0,2.052826E1,5.3362255E0,6.9861565E0,2.9292796E0,1.8809853E0,0E0,9.666109E-2,4.9410686E0,2.2475618E1,1.6701183E0,3.8094807E0,7.8235445E0,5.405403E0,0E0,0E0,0E0,6.806717E-1,0E0,0E0,0E0,0E0,0E0,2.1664589E1,2.4665201E1,0E0,0E0,2.7837696E0,0E0,0E0,0E0,4.820301E0,5.473665E-1,0E0,0E0,0E0,0E0,0E0,0E0,0E0,0E0,0E0,0E0,0E0,0E0],"parents":[2147483647,0,0,1,1,2,2,3,3,4,4,5,5,6,6,7,7,8,8,9,9,10,10,11,11,13,13,14,14,15,15,16,16,17,17,18,18,19,19,23,23,29,29,30,30,33,33,37,37,38,38],"right_children":[2,4,6,8,10,12,14,16,18,20,22,24,-1,26,28,30,32,34,36,38,-1,-1,-1,40,-1,-1,-1,-1,-1,42,44,-1,-1,46,-1,-1,-1,48,50,-1,-1,-1,-1,-1,-1,-1,-1,-1,-1,-1,-1],"split_conditions":[2.5132993E-1,1.9366348E-1,5.632674E-2,3.2665688E-1,7.3886454E-2,9.464835E-2,2.8597337E-1,1.990354E-1,7.035112E-2,6.936253E-2,2.6980536E-2,4.942006E-2,5.9403434E-2,2.2505224E-2,2.1930024E-2,8.09255E-2,5.3698115E-2,2.21891E-2,2.2313317E-2,5.9898805E-2,2.9890013E-1,3.7719703E-1,-1.22473426E-1,2.5131738E-2,-3.9307326E-2,-2.5722522E-1,-5.9912667E-2,4.3225342E-1,-9.1130584E-2,3.9652035E-2,8.463895E-2,-1.1742019E-1,-4.870485E-1,2.786453E-2,1.4782476E-1,4.999071E-1,-2.3020713E-1,5.9897818E-2,2.6520927E-2,-4.4303802E-1,-9.065833E-2,3.989898E-3,1.3556856E-1,3.0845368E-1,-3.37005E-1,-2.816999E-1,1.06797E-1,-2.6045898E-1,2.3328099E-1,2.7120227E-1,1.3041479E-3],"split_indices":[176,290,294,294,524,173,176,112,552,364,1,422,0,24,454,49,202,250,376,64,0,0,0,462,0,0,0,0,0,522,223,0,0,573,0,0,0,381,31,0,0,0,0,0,0,0,0,0,0,0,0],"split_type":[0,0,0,0,0,0,0,0,0,0,0,0,0,0,0,0,0,0,0,0,0,0,0,0,0,0,0,0,0,0,0,0,0,0,0,0,0,0,0,0,0,0,0,0,0,0,0,0,0,0,0],"sum_hessian":[1.4360024E3,1.4041803E3,3.1822138E1,1.3492609E3,5.491942E1,2.2036196E1,9.785942E0,1.3107759E3,3.848497E1,5.178868E1,3.1307383E0,2.066829E1,1.367907E0,3.4567819E0,6.3291597E0,1.3021321E3,8.6437645E0,3.5058735E1,3.4262366E0,5.021328E1,1.5753986E0,2.1279628E0,1.0027754E0,1.9257425E1,1.4108633E0,2.4098945E0,1.0468873E0,4.446494E0,1.8826658E0,1.2562496E3,4.5882523E1,2.2062879E0,6.4374766E0,3.353208E1,1.5266498E0,1.4452538E0,1.9809828E0,4.8107178E1,2.1061034E0,1.814744E1,1.1099856E0,1.132179E3,1.24070625E2,4.0609493E1,5.2730303E0,3.22787E1,1.2533817E0,4.699839E1,1.1087886E0,1.0925717E0,1.0135317E0],"tree_param":{"num_deleted":"0","num_feature":"618","num_nodes":"51","size_leaf_vector":"0"}},{"base_weights":[3.351365E-3,-4.0341154E-2,3.301596E-1,-6.572541E-2,7.819642E-1,4.4165596E-1,-5.8999085E-1,-1.0158414E-1,4.341079E-1,1.0020025E0,-8.9637154E-1,5.549623E-1,-5.780456E-1,-8.6585903E-1,6.747643E-1,-4.8182853E-2,-4.5211947E-1,5.945237E-1,-7.060196E-1,1.0929161E0,-7.091158E-1,-4.2997998E-1,-1.106495E0,6.4843017E-1,-8.575393E-1,1.4683972E-1,-1.1577822E0,-1.0346104E0,6.4360493E-1,1.0099927E0,-1.2702644E-1,-8.859756E-2,4.9726954E-1,-6.010762E-1,3.479238E-1,7.252982E-1,-7.9154027E-1,-1.0048094E0,7.8226864E-1,1.1311631E0,-3.9600354E-2,7.55094E-1,-5.573607E-1,-1.1168592E0,2.9735017E-1,8.6978036E-1,-8.9327824E-1,-1.3122199E0,7.564041E-3,-1.195361E0,5.8808517E-2,-1.1174141E-1,8.7569636E-1,7.660778E-1,-4.2384046E-1,-6.671109E-1,1.2632774E0,7.537804E-1,-8.937439E-1,8.442212E-1,-1.0883644E0,1.2801777E-1,-1.0096278E0,-1.0945601E0,-2.0602721E-1,8.3196294E-1,-7.7728784E-1,-8.0617994E-1,7.226751E-1,1.0454421E0,9.105604E-2,-6.148582E-1,-1.4718269E0],"categories":[],"categories_nodes":[],"categories_segments":[],"categories_sizes":[],"default_left":[true,true,true,true,true,true,true,true,true,true,true,true,true,true,true,true,true,true,true,true,false,false,false,true,true,true,true,true,false,false,false,true,true,true,true,true,true,true,false,false,false,true,true,false,false,true,false,false,false,true,false,false,false,false,false,false,false,false,false,false,false,false,false,false,false,false,false,false,false,false,false,false,false],"id":16,"left_children":[1,3,5,7,9,11,13,15,17,19,21,23,25,27,29,31,33,35,37,39,-1,-1,-1,41,43,45,47,49,-1,-1,-1,51,53,55,57,59,61,63,-1,-1,-1,65,67,-1,-1,69,-1,-1,-1,71,-1,-1,-1,-1,-1,-1,-1,-1,-1,-1,-1,-1,-1,-1,-1,-1,-1,-1,-1,-1,-1,-1,-1],"loss_changes":[2.0161507E1,2.6049889E1,1.7343306E1,2.1716066E1,1.4700647E1,1.754591E1,7.0124035E0,2.111231E1,1.5257734E1,5.9887314E0,4.990101E-4,1.8337803E1,6.6413546E0,4.630083E0,1.1660743E0,2.1666805E1,1.7982306E1,1.3564173E1,5.439205E0,1.4403152E0,0E0,0E0,0E0,1.6741547E1,2.9645371E0,6.589745E0,1.5700645E0,2.598075E0,0E0,0E0,0E0,2.0497412E1,1.7115772E1,1.6366764E1,1.2789647E1,1.5155815E1,1.464222E0,4.30624E-1,0E0,0E0,0E0,1.4429367E1,4.0504913E0,0E0,0E0,5.979583E-1,0E0,0E0,0E0,1.1147804E0,0E0,0E0,0E0,0E0,0E0,0E0,0E0,0E0,0E0,0E0,0E0,0E0,0E0,0E0,0E0,0E0,0E0,0E0,0E0,0E0,0E0,0E0,0E0],"parents":[2147483647,0,0,1,1,2,2,3,3,4,4,5,5,6,6,7,7,8,8,9,9,10,10,11,11,12,12,13,13,14,14,15,15,16,16,17,17,18,18,19,19,23,23,24,24,25,25,26,26,27,27,31,31,32,32,33,33,34,34,35,35,36,36,37,37,41,41,42,42,45,45,49,49],"right_children":[2,4,6,8,10,12,14,16,18,20,22,24,26,28,30,32,34,36,38,40,-1,-1,-1,42,44,46,48,50,-1,-1,-1,52,54,56,58,60,62,64,-1,-1,-1,66,68,-1,-1,70,-1,-1,-1,72,-1,-1,-1,-1,-1,-1,-1,-1,-1,-1,-1,-1,-1,-1,-1,-1,-1,-1,-1,-1,-1,-1,-1],"split_conditions":[5.133343E-2,1.1370571E-1,6.282282E-2,6.8662256E-2,1.4004132E-1,1.3222653E-1,3.667696E-2,1.2259313E-2,8.544933E-2,4.1485387E-1,1.0531221E-1,1.9390032E-1,9.711306E-2,2.0994613E-2,6.1930325E-2,6.348607E-2,4.4083953E-2,2.9862735E-1,2.1870725E-2,1.4814308E-1,-2.1273474E-1,-1.28994E-1,-3.3194852E-1,7.3218554E-2,5.3238645E-2,6.531359E-2,2.1099199E-2,3.8524482E-2,1.9308148E-1,3.0299783E-1,-3.810793E-2,1.0040118E-1,6.251344E-2,7.525136E-2,6.505047E-2,1.6799857E-1,2.3374205E-2,2.6744159E-2,2.3468061E-1,3.3934894E-1,-1.1880106E-2,1.2099332E-1,2.6770793E-2,-3.3505777E-1,8.920506E-2,2.8499648E-2,-2.679835E-1,-3.9366597E-1,2.2692124E-3,4.9719155E-2,1.7642556E-2,-3.3522423E-2,2.6270893E-1,2.2982335E-1,-1.2715214E-1,-2.0013328E-1,3.7898323E-1,2.2613414E-1,-2.6812318E-1,2.5326636E-1,-3.2650933E-1,3.8405333E-2,-3.0288836E-1,-3.2836807E-1,-6.1808165E-2,2.4958889E-1,-2.3318636E-1,-2.41854E-1,2.1680254E-1,3.1363264E-1,2.7316814E-2,-1.8445747E-1,-4.4154808E-1],"split_indices":[387,275,475,462,261,477,599,146,142,161,12,177,219,423,464,168,15,293,247,598,0,0,0,459,488,133,235,464,0,0,0,558,8,589,422,63,143,505,0,0,0,318,1,0,0,152,0,0,0,197,0,0,0,0,0,0,0,0,0,0,0,0,0,0,0,0,0,0,0,0,0,0,0],"split_type":[0,0,0,0,0,0,0,0,0,0,0,0,0,0,0,0,0,0,0,0,0,0,0,0,0,0,0,0,0,0,0,0,0,0,0,0,0,0,0,0,0,0,0,0,0,0,0,0,0,0,0,0,0,0,0,0,0,0,0,0,0,0,0,0,0,0,0,0,0,0,0,0,0],"sum_hessian":[1.4100288E3,1.2445198E3,1.6550908E2,1.2081448E3,3.6374905E1,1.4808533E2,1.7423754E1,1.1280161E3,8.0128654E1,3.2515003E1,3.8599021E0,1.3368625E2,1.4399074E1,1.4562729E1,2.8610258E0,9.7987714E2,1.4813907E2,7.066469E1,9.463971E0,3.1217659E1,1.2973441E0,2.1450517E0,1.7148503E0,1.25896385E2,7.789864E0,6.730354E0,7.6687202E0,1.3381339E1,1.18139E0,1.8343946E0,1.0266311E0,9.130623E2,6.68148E1,1.2509655E2,2.3042511E1,6.500794E1,5.656747E0,8.152187E0,1.3117836E0,3.0198982E1,1.0186763E0,1.16008125E2,9.888263E0,6.3883486E0,1.4015156E0,4.067193E0,2.6631608E0,6.660061E0,1.0086594E0,1.158493E1,1.7964082E0,8.925251E2,2.0537216E1,5.1851303E1,1.4963496E1,1.21437454E2,3.6590972E0,1.7662275E1,5.380235E0,6.1509262E1,3.498678E0,1.1635745E0,4.493172E0,6.9958515E0,1.1563361E0,1.10902016E2,5.1061063E0,8.5889015E0,1.2993606E0,3.039131E0,1.0280622E0,4.777494E0,6.8074365E0],"tree_param":{"num_deleted":"0","num_feature":"618","num_nodes":"73","size_leaf_vector":"0"}},{"base_weights":[2.775817E-3,-2.2590352E-2,5.0058496E-1,-4.455906E-3,-7.511833E-1,6.6875887E-1,-8.7390304E-1,-5.5790607E-2,2.8772402E-1,-8.786173E-1,4.3179378E-1,8.255671E-1,-4.1065612E-1,4.1524136E-1,-1.2820661E0,-8.4989324E-2,5.929553E-1,5.314296E-1,-9.6748754E-2,-9.4976807E-1,4.6196213E-1,9.531305E-1,-4.6917778E-1,1.0121553E0,-2.1266522E-1,-7.612085E-1,8.866695E-1,-9.884702E-2,1.208472E0,8.358881E-1,-8.471936E-1,7.100455E-1,-4.790371E-1,2.2504592E-1,-1.0481656E0,-1.0630665E0,3.8218994E-2,1.1303939E0,-3.5409144E-1,-6.5950805E-1,9.792777E-1,-9.17606E-1,-1.5839871E-2,-1.3013516E-1,4.603225E-1,1.5464529E0,-7.468374E-1,1.2936813E0,1.528016E-1,4.6057355E-1,-1.4381901E0,8.573069E-1,-6.408897E-1,-7.467334E-1,8.852931E-1,5.1941156E-1,-4.2599005E-1,-1.1894323E0,6.5495104E-1,-1.1307532E0,1.0067586E-1,7.79851E-1,-5.797887E-1,1.2780406E0,-2.8640205E-1,1.9519079E-1,-7.2845024E-1,-8.946929E-1,1.579942E-1],"categories":[],"categories_nodes":[],"categories_segments":[],"categories_sizes":[],"default_left":[true,true,true,true,true,true,true,true,true,true,true,true,true,false,false,true,true,true,true,true,false,false,false,true,true,true,false,true,true,true,true,true,true,true,true,true,true,true,true,true,false,false,false,false,false,false,false,false,false,false,false,false,false,false,false,false,false,false,false,false,false,false,false,false,false,false,false,false,false],"id":17,"left_children":[1,3,5,7,9,11,13,15,17,19,21,23,25,-1,-1,27,29,31,33,35,-1,-1,-1,37,39,41,-1,43,45,47,49,51,53,55,57,59,61,63,65,67,-1,-1,-1,-1,-1,-1,-1,-1,-1,-1,-1,-1,-1,-1,-1,-1,-1,-1,-1,-1,-1,-1,-1,-1,-1,-1,-1,-1,-1],"loss_changes":[1.7353E1,1.7274776E1,1.5985918E1,1.9168922E1,5.166006E0,1.048316E1,4.582431E0,2.0640131E1,1.7946701E1,3.2042522E0,2.2124808E0,1.041703E1,4.435905E0,0E0,0E0,1.877905E1,1.7130566E1,2.1465515E1,2.3179947E1,3.1591454E0,0E0,0E0,0E0,7.6395226E0,5.358842E0,8.071561E-1,0E0,1.8096004E1,8.497389E0,1.2519756E1,6.282721E0,2.0417297E1,7.3006053E0,1.1111092E1,5.3785877E0,2.0852928E0,2.2082255E0,9.0435295E0,1.0327274E0,1.4936712E0,0E0,0E0,0E0,0E0,0E0,0E0,0E0,0E0,0E0,0E0,0E0,0E0,0E0,0E0,0E0,0E0,0E0,0E0,0E0,0E0,0E0,0E0,0E0,0E0,0E0,0E0,0E0,0E0,0E0],"parents":[2147483647,0,0,1,1,2,2,3,3,4,4,5,5,6,6,7,7,8,8,9,9,10,10,11,11,12,12,15,15,16,16,17,17,18,18,19,19,23,23,24,24,25,25,27,27,28,28,29,29,30,30,31,31,32,32,33,33,34,34,35,35,36,36,37,37,38,38,39,39],"right_children":[2,4,6,8,10,12,14,16,18,20,22,24,26,-1,-1,28,30,32,34,36,-1,-1,-1,38,40,42,-1,44,46,48,50,52,54,56,58,60,62,64,66,68,-1,-1,-1,-1,-1,-1,-1,-1,-1,-1,-1,-1,-1,-1,-1,-1,-1,-1,-1,-1,-1,-1,-1,-1,-1,-1,-1,-1,-1],"split_conditions":[7.434255E-2,2.8258657E-1,7.272795E-2,5.7228845E-2,4.9619455E-2,1.2667465E-1,3.3382352E-2,7.502156E-2,4.8143752E-2,2.7882008E-2,2.1572871E-2,5.4830264E-2,2.3598233E-2,1.2457241E-1,-3.8461986E-1,1.3782284E-1,8.0285266E-2,8.443874E-2,5.3870328E-2,1.3432649E-1,1.3858865E-1,2.8593916E-1,-1.4075334E-1,1.1829992E-1,4.6328597E-2,6.0775712E-2,2.6600087E-1,9.4908565E-2,7.389119E-2,4.8886348E-2,2.7764905E-2,9.459388E-2,3.3470497E-2,3.8962126E-2,1.968338E-2,4.860925E-2,1.6443236E-2,8.451231E-2,3.42356E-2,4.45071E-2,2.937833E-1,-2.7528182E-1,-4.7519617E-3,-3.904055E-2,1.3809675E-1,4.6393588E-1,-2.2405122E-1,3.881044E-1,4.5840483E-2,1.3817208E-1,-4.3145704E-1,2.5719208E-1,-1.9226693E-1,-2.2402003E-1,2.6558796E-1,1.5582347E-1,-1.2779702E-1,-3.568297E-1,1.9648533E-1,-3.3922595E-1,3.020276E-2,2.3395531E-1,-1.739366E-1,3.834122E-1,-8.592062E-2,5.855724E-2,-2.1853508E-1,-2.6840788E-1,4.739826E-2],"split_indices":[140,178,403,173,365,294,500,302,176,355,483,481,273,0,0,573,250,463,201,167,0,0,0,291,110,325,0,172,461,224,286,378,322,357,453,508,120,531,122,519,0,0,0,0,0,0,0,0,0,0,0,0,0,0,0,0,0,0,0,0,0,0,0,0,0,0,0,0,0],"split_type":[0,0,0,0,0,0,0,0,0,0,0,0,0,0,0,0,0,0,0,0,0,0,0,0,0,0,0,0,0,0,0,0,0,0,0,0,0,0,0,0,0,0,0,0,0,0,0,0,0,0,0,0,0,0,0,0,0,0,0,0,0,0,0,0,0,0,0,0,0],"sum_hessian":[1.3723264E3,1.3066975E3,6.562895E1,1.2759457E3,3.0751766E1,5.8931854E1,6.697093E0,1.085957E3,1.8998871E2,2.7993502E1,2.7582648E0,5.166201E1,7.2698445E0,1.606325E0,5.090768E0,1.040017E3,4.5940025E1,1.16047516E2,7.39412E1,2.6859468E1,1.134033E0,1.7105709E0,1.0476938E0,4.3813152E1,7.848858E0,6.0486717E0,1.2211729E0,1.0299065E3,1.011048E1,3.9668148E1,6.2718744E0,9.886829E1,1.7179224E1,5.5823616E1,1.811758E1,2.4028036E1,2.831432E0,4.0482334E1,3.33082E0,6.033629E0,1.8152287E0,4.8086224E0,1.2400495E0,9.760587E2,5.384778E1,8.7987E0,1.31178E0,2.3215578E1,1.645257E1,2.0208302E0,4.2510443E0,8.947977E1,9.388523E0,1.4739792E1,2.439432E0,3.858128E1,1.7242334E1,1.7008415E1,1.1091653E0,2.2734102E1,1.2939339E0,1.167959E0,1.6634732E0,3.6750443E1,3.7318919E0,1.5439872E0,1.7868329E0,4.6123056E0,1.4213234E0],"tree_param":{"num_deleted":"0","num_feature":"618","num_nodes":"69","size_leaf_vector":"0"}},{"base_weights":[3.7152937E-3,1.6943626E-2,-9.22971E-1,-1.1243017E-2,4.616652E-1,-1.0735887E0,6.876717E-1,-3.1352133E-2,7.2065896E-1,6.288403E-1,-7.9781616E-1,-1.172118E0,2.3117813E-1,-1.1693051E-2,-7.4902934E-1,8.707395E-1,-7.382043E-1,8.1983566E-1,-2.4566908E-1,-1.0982622E0,7.2487956E-1,-1.2853484E0,-8.6885676E-2,-2.973771E-2,8.308707E-1,-9.1963005E-1,9.9708617E-1,1.1212146E0,-2.0175283E-1,-2.667598E-1,-9.5251817E-1,9.5181686E-1,-6.8905056E-1,2.165166E-1,-9.944814E-1,-1.2457396E0,-2.3594119E-1,-1.3750795E0,-1.3339177E-1,-4.370481E-2,9.879482E-1,1.0133344E0,-7.155496E-1,-1.0731052E0,8.9722675E-1,1.3139987E0,-2.4606504E-2,4.2023695E-1,-8.266539E-1,1.1988863E0,1.8519251E-1,7.594625E-2,-9.4893867E-1,8.8660365E-1,-6.2177956E-1,-1.4210632E0,-4.024359E-1],"categories":[],"categories_nodes":[],"categories_segments":[],"categories_sizes":[],"default_left":[true,true,true,true,true,true,false,true,true,true,true,true,false,true,true,true,true,true,true,true,false,true,false,true,true,true,false,true,true,false,false,true,true,true,false,false,false,true,false,false,false,false,false,false,false,false,false,false,false,false,false,false,false,false,false,false,false],"id":18,"left_children":[1,3,5,7,9,11,-1,13,15,17,19,21,-1,23,25,27,29,31,33,35,-1,37,-1,39,41,43,-1,45,47,-1,-1,49,51,53,-1,-1,-1,55,-1,-1,-1,-1,-1,-1,-1,-1,-1,-1,-1,-1,-1,-1,-1,-1,-1,-1,-1],"loss_changes":[1.6417522E1,1.6553549E1,5.310877E0,1.830873E1,1.707406E1,2.5371208E0,0E0,1.7065474E1,7.9260883E0,1.1900763E1,5.217179E0,1.9225712E0,0E0,1.7948837E1,1.0523924E1,8.452017E0,1.1409831E-1,1.2150364E1,4.8270326E0,7.830868E-1,0E0,1.3585987E0,0E0,1.646295E1,7.709675E0,9.300198E0,0E0,5.549452E0,2.9301534E0,0E0,0E0,9.910767E0,1.1104043E0,5.64097E0,0E0,0E0,0E0,4.2308807E-2,0E0,0E0,0E0,0E0,0E0,0E0,0E0,0E0,0E0,0E0,0E0,0E0,0E0,0E0,0E0,0E0,0E0,0E0,0E0],"parents":[2147483647,0,0,1,1,2,2,3,3,4,4,5,5,7,7,8,8,9,9,10,10,11,11,13,13,14,14,15,15,16,16,17,17,18,18,19,19,21,21,23,23,24,24,25,25,27,27,28,28,31,31,32,32,33,33,37,37],"right_children":[2,4,6,8,10,12,-1,14,16,18,20,22,-1,24,26,28,30,32,34,36,-1,38,-1,40,42,44,-1,46,48,-1,-1,50,52,54,-1,-1,-1,56,-1,-1,-1,-1,-1,-1,-1,-1,-1,-1,-1,-1,-1,-1,-1,-1,-1,-1,-1],"split_conditions":[3.034372E-1,7.190247E-2,2.7155505E-2,8.139861E-2,9.179908E-2,2.7009686E-2,2.0630153E-1,1.3129666E-1,1.23126924E-1,2.934927E-2,3.137406E-2,2.4739634E-2,6.935345E-2,9.9710256E-2,2.941169E-2,5.6048807E-2,4.184785E-2,1.107694E-1,7.0556805E-2,1.0547382E-1,2.1746388E-1,4.4781018E-2,-2.6065703E-2,1.4065483E-1,2.0193562E-1,5.1580567E-2,2.9912585E-1,1.0392335E-1,3.1016221E-2,-8.0027945E-2,-2.8575546E-1,2.0090656E-2,6.199944E-2,2.4823114E-2,-2.9834443E-1,-3.737219E-1,-7.0782356E-2,1.2453715E-1,-4.001753E-2,-1.3111444E-2,2.9638445E-1,3.0400032E-1,-2.1466489E-1,-3.2193157E-1,2.6916805E-1,3.9419964E-1,-7.3819514E-3,1.260711E-1,-2.4799618E-1,3.596659E-1,5.5557754E-2,2.2783875E-2,-2.8468162E-1,2.659811E-1,-1.8653387E-1,-4.2631897E-1,-1.2073077E-1],"split_indices":[500,122,608,164,603,225,0,589,45,594,593,8,0,589,134,450,19,574,208,215,0,550,0,196,176,592,0,294,187,0,0,290,294,568,0,0,0,551,0,0,0,0,0,0,0,0,0,0,0,0,0,0,0,0,0,0,0],"split_type":[0,0,0,0,0,0,0,0,0,0,0,0,0,0,0,0,0,0,0,0,0,0,0,0,0,0,0,0,0,0,0,0,0,0,0,0,0,0,0,0,0,0,0,0,0,0,0,0,0,0,0,0,0,0,0,0,0],"sum_hessian":[1.3369991E3,1.3191501E3,1.784899E1,1.2414418E3,7.770839E1,1.6627525E1,1.2214658E0,1.2091766E3,3.2265144E1,6.904459E1,8.663801E0,1.5554587E1,1.0729369E0,1.1779264E3,3.1250233E1,2.962102E1,2.644125E0,5.6719425E1,1.2325166E1,7.468847E0,1.1949542E0,1.3918017E1,1.6365706E0,1.154173E3,2.3753489E1,2.889995E1,2.3502827E0,2.3976095E1,5.6449246E0,1.5278652E0,1.1162598E0,5.2496765E1,4.222662E0,8.060733E0,4.2644324E0,5.9983506E0,1.470496E0,1.2732532E1,1.185486E0,1.1394912E3,1.4681749E1,2.1554924E1,2.198565E0,2.702632E1,1.8736309E0,2.0397455E1,3.5786388E0,2.9931917E0,2.6517327E0,3.927521E1,1.3221554E1,1.2502491E0,2.9724126E0,4.4477916E0,3.6129415E0,1.171753E1,1.0150007E0],"tree_param":{"num_deleted":"0","num_feature":"618","num_nodes":"57","size_leaf_vector":"0"}},{"base_weights":[3.594834E-3,-9.771964E-3,8.435954E-1,-2.6303837E-2,6.60815E-1,9.805814E-1,-7.519289E-1,-5.8445554E-2,3.4655818E-1,1.0412132E0,-8.1651276E-1,1.0465958E0,-1.16167456E-1,-8.948072E-2,4.39162E-1,5.52743E-1,-2.5701058E-1,1.2385386E0,-7.3495525E-1,4.2245197E-1,-1.2174128E0,-1.1701838E-1,4.662456E-1,6.8912417E-1,-4.35124E-1,8.3903044E-1,-3.6414493E-2,1.1782503E-1,-1.0297581E0,1.3369937E0,-3.8761604E-1,-1.3490276E-1,7.1218187E-1,6.49385E-1,-4.1272628E-1,8.636417E-1,-8.326913E-1,8.900385E-2,-1.2658687E0,9.986537E-1,-4.2432997E-1,-1.0356146E0,2.9694808E-1,5.809585E-1,-6.6419715E-1,-2.983886E-1,-1.1806344E0,1.3690192E0,3.8503715E-1],"categories":[],"categories_nodes":[],"categories_segments":[],"categories_sizes":[],"default_left":[true,true,true,true,true,true,false,true,true,true,true,false,false,true,true,true,true,true,false,false,false,true,true,true,true,true,true,true,true,true,false,false,false,false,false,false,false,false,false,false,false,false,false,false,false,false,false,false,false],"id":19,"left_children":[1,3,5,7,9,11,-1,13,15,17,19,-1,-1,21,23,25,27,29,-1,-1,-1,31,33,35,37,39,41,43,45,47,-1,-1,-1,-1,-1,-1,-1,-1,-1,-1,-1,-1,-1,-1,-1,-1,-1,-1,-1],"loss_changes":[1.4788731E1,1.439324E1,5.2464705E0,1.5198688E1,1.8404907E1,1.5285912E0,0E0,1.8059446E1,1.266846E1,9.770781E0,3.9697905E0,0E0,0E0,1.6875818E1,1.5307372E1,1.2738749E1,7.742831E0,4.220703E0,0E0,0E0,0E0,1.5638943E1,8.65421E0,1.500511E1,7.0276675E0,1.0657448E1,8.833924E0,7.1279936E0,6.074085E-1,1.4450455E-1,0E0,0E0,0E0,0E0,0E0,0E0,0E0,0E0,0E0,0E0,0E0,0E0,0E0,0E0,0E0,0E0,0E0,0E0,0E0],"parents":[2147483647,0,0,1,1,2,2,3,3,4,4,5,5,7,7,8,8,9,9,10,10,13,13,14,14,15,15,16,16,17,17,21,21,22,22,23,23,24,24,25,25,26,26,27,27,28,28,29,29],"right_children":[2,4,6,8,10,12,-1,14,16,18,20,-1,-1,22,24,26,28,30,-1,-1,-1,32,34,36,38,40,42,44,46,48,-1,-1,-1,-1,-1,-1,-1,-1,-1,-1,-1,-1,-1,-1,-1,-1,-1,-1,-1],"split_conditions":[1.4762893E-1,1.6607115E-1,5.168507E-1,6.548703E-2,6.602501E-2,8.8672206E-2,-2.2557868E-1,7.205189E-2,1.9171586E-2,1.0493842E-1,6.604854E-2,3.1397876E-1,-3.485024E-2,7.1368374E-2,4.6812356E-2,1.7396914E-2,1.0445927E-1,1.2136474E-1,-2.2048658E-1,1.267356E-1,